{"network":{"layer_sizes":[84,200,300,100,81],"layer_count":4,"layers":[{"in":84,"out":200,"weights":{"0":[-0.66594565,-0.84331715,-0.7162021,-0.013607717,0.20180327,-0.98017776,0.4220039,-0.6339035,0.32640967,-0.55470073,-0.58522546,-0.6883349,0.13124655,0.74341905,-0.76184916,-0.71577233,-0.17359577,-0.5402347,-0.61679304,0.9311068,-0.42678368,0.4148646,0.98341846,-0.589503,0.017193567,-0.7005165,0.3163561,-0.19973528,-0.67594576,0.8460263,-0.017070608,0.5083128,0.70607543,-0.625223,-0.6282217,-0.45787773,-0.05447698,0.1357514,0.011829179,-0.73365587,0.6552985,-0.19316702,0.91481006,-0.61312383,0.69698495,0.89301854,-0.76381224,-0.986692,-0.00045254166,0.6363802,0.6812415,-0.9993142,0.9753099,0.017098317,0.05497012,0.38578233,-0.20901857,-0.7279627,-0.028054003,-0.45174617,0.14286382,0.45033172,-0.53714585,0.789323,-0.8375224,-0.8722762,-0.96514773,0.046366468,0.6237224,0.13075392,0.98521715,0.38207942,-0.9915077,0.027070526,0.04049053,0.16383098,-0.56247586,-0.2828279,-0.46072128,0.6357472,-0.50861967,-0.5032483,-0.3622937,0.6524106,0.4444334,0.8435319,-0.58236116,-0.53025085,0.13039146,-0.94092417,-0.08987927,-0.09179638,0.021232402,-0.24899241,-0.8707977,-0.23294392,-0.44748515,0.8064958,-0.6730821,0.3811402,-0.21695097,-0.11329459,0.44047466,0.24644881,0.5619519,0.49422887,0.40769306,-0.41067374,-0.744387,0.7040699,-0.5228988,-0.4533475,-0.048964594,0.16757457,-0.87116736,0.10825067,0.7628884,0.44198304,-0.16462559,-0.08234714,-0.702673,0.53627586,0.6271894,-0.7983411,0.6765245,-0.15943444,0.022803072,0.50378627,0.49027437,-0.48305884,-0.32130924,-0.09713699,0.48006156,0.20403142,0.20951277,0.16399845,0.19803868,0.018041046,0.19341676,0.5336717,-0.94775647,0.3478575,0.83853,0.544575,0.7214475,0.40672708,-0.4410742,-0.29823473,-0.57099164,-0.3738132,-0.9880033,0.21333198,-0.3061359,0.65608996,-0.76090294,-0.8379888,0.46340674,-0.75822556,-0.35467762,0.8107009,0.9052837,0.41053987,0.04361108,0.40265998,-0.7745869,-0.55117494,0.7631482,0.5129209,0.99147516,0.9055755,-0.24851605,-0.89144456,-0.56123716,-0.24680011,-0.30216974,0.34538665,-0.3335685,-0.24308181,0.6094001,-0.28599447,-0.8063526,0.35299432,0.46531385,0.15142655,-0.4633278,-0.9045494,-0.86223,0.30982813,0.4806273,-0.78080297,-0.4191059,-0.020788653,-0.88607603,-0.98466796,-0.07140916,-0.08930481,0.95953476,-0.20377599,0.24064939,0.9994344],"1":[-0.40166864,-0.79488957,-0.03945235,0.6083482,0.27617016,-0.9574142,-0.238429,0.41180894,0.8375008,-0.20132649,0.6024939,0.69249547,0.1866088,0.07251053,0.5597364,0.46119866,0.52533704,-0.5784358,0.17212453,0.23985851,-0.75534624,-0.2565543,0.37336963,0.252098,-0.41948554,0.38947392,0.29049328,0.8074536,-0.4818191,-0.67772156,0.58915156,-0.3335446,-0.22385837,-0.53025496,0.072666556,0.71249443,-0.44456917,-0.9514089,-0.13221955,0.4541821,0.5142704,-0.8031677,-0.37622014,-0.056323066,0.80472344,-0.30527768,0.23732173,0.61568034,0.8198122,0.63964367,0.6843067,0.76216495,0.63747466,0.54066277,-0.09760717,0.5665476,-0.24498151,0.31999227,0.47512862,0.88665026,0.7377796,0.6904905,0.84600323,0.7928796,-0.67880344,0.75626624,-0.6022264,-0.5001454,-0.116169706,-0.74514955,-0.17196795,-0.05402271,0.43368077,0.5700038,0.07038043,-0.8306018,-0.7781386,-0.44843456,-0.936981,-0.7487849,-0.6583087,-0.8739391,0.7366141,-0.76291037,0.1437051,0.8650553,0.41420725,0.35814828,-0.32424065,-0.18600683,0.7517159,-0.2991232,0.7097186,0.48058075,0.37690717,-0.25436458,-0.346349,0.15154909,-0.4518436,0.093350746,0.22429754,-0.10395371,-0.961559,0.81655294,-0.89569825,-0.70173687,0.33564553,0.7448862,0.7963251,0.21720403,0.3229453,-0.46661597,-0.23048846,0.3435546,-0.349222,0.9854783,-0.55675924,-0.54895896,-0.02322944,0.10696029,-0.60299975,0.07640444,0.42753598,-0.03656789,-0.852554,-0.43069118,-0.5580494,-0.9349376,0.8257541,-0.20126198,-0.9752477,0.8287678,-0.7388208,-0.91970634,-0.3438371,-0.49988312,-0.43139848,0.0745941,-0.68377244,0.5623485,0.7041736,-0.533646,0.10738373,-0.9217604,-0.19731027,0.84553564,0.13972633,-0.32118797,0.7719666,-0.0598075,0.42405897,-0.6470422,-0.053323705,0.89089686,-0.14197575,-0.33656603,-0.4477233,-0.6817737,-0.40661752,0.51992005,-0.62099886,0.91697645,0.878771,-0.2511755,0.20102073,-0.39841405,0.8605741,0.9610672,0.66409355,-0.75304693,0.6146062,0.028951056,0.06427232,-0.107603416,-0.5220531,-0.3717236,-0.45625058,-0.6556593,0.7805382,-0.98043156,-0.5463596,0.7562511,0.72904474,-0.9985507,-0.7515147,0.26399192,-0.40113002,0.2595457,-0.5003596,-0.24188344,0.5918403,0.07684375,-0.024478456,-0.41743883,-0.4858553,-0.1516992,-0.6564996,0.9368,-0.44037113,0.14951535],"2":[-0.7217086,-0.23270413,0.4672221,-0.7154352,0.33543795,0.26110497,-0.68970686,0.13219106,-0.79942805,-0.11771095,-0.47950074,-0.26766115,0.5779754,-0.71741015,-0.73416144,-0.052019067,0.076634265,-0.18877862,0.811287,-0.6039606,0.15363045,0.6866621,0.58104175,0.036610287,-0.036656268,0.40777984,0.21992682,0.49202177,0.24489558,0.55679953,0.4564447,0.32454264,-0.8748547,0.45543906,0.54513556,-0.812391,0.9257898,-0.79170036,0.39890453,-0.26244846,-0.0064058793,-0.022339068,-5.276024E-05,0.46262673,-0.75521535,0.34854382,0.057679772,-0.23209803,-0.6111791,-0.5703341,-0.35960925,0.6819692,0.76461965,0.46619982,-0.77287084,0.7351907,0.55556154,0.8766299,-0.88718426,0.9358571,0.46626872,-0.5750689,0.34419218,-0.67565185,-0.63504905,-0.952328,0.8446717,-0.8404524,-0.4226775,-0.06621165,-0.19750175,-0.31995255,-0.9088949,-0.10034956,0.74637395,-0.9524039,0.40410748,0.49333897,-0.15806422,0.6011905,-0.66259706,-0.33918315,0.06569166,0.38808236,-0.07420566,0.7283519,-0.7702331,-0.7671796,0.15852505,0.019839741,0.25622416,0.72973686,-0.029863916,0.77806413,0.6262777,-0.41110253,0.50031364,-0.26734906,-0.7958848,-0.16632581,0.7592909,0.48426047,0.6396301,-0.90014344,0.10508436,-0.1282192,0.62180454,-0.4453917,0.13775022,-0.7870226,-0.9068773,0.5834061,0.67151606,0.8064539,-0.19499107,0.19381309,-0.19111459,0.24806772,0.5884521,-0.73810965,-0.51868546,0.6232247,-0.11877358,-0.73810804,0.66278404,-0.62946826,-0.7965473,-0.8601997,-0.39616942,-0.4501435,-0.45100862,-0.64841926,0.050955392,0.4995769,0.05532974,-0.60415107,-0.0943248,-0.42541853,0.85607326,0.36931458,-0.20319262,-0.941376,0.22621188,0.14418226,0.7044926,0.9817066,-0.47471341,-0.8437878,-0.8740266,0.84389555,0.9698762,0.8576108,0.48313054,0.49011803,-0.34231746,-0.7321207,-0.9050697,-8.843996E-05,0.08836461,-0.6311338,-0.27390444,0.79076,-0.17518541,-0.69018704,0.116350524,0.5786672,0.4929174,-0.4605692,0.93646526,-0.017568378,-0.6602909,-0.36602145,-0.5775565,-0.050628282,-0.84742326,0.035142068,-0.6399521,-0.9063531,-0.4957888,0.32899046,0.8585191,0.8769547,0.07641621,0.4917095,-0.53845,0.61925894,0.15167005,-0.9402748,0.4486531,-0.108795784,-0.9704508,-0.3498731,0.52858275,-0.38779882,-0.762059,0.4691369,-0.28338978,-0.1852757,-0.46975628,-0.10493702],"3":[-0.81567526,0.60557467,0.627974,0.44958785,0.8731856,-0.22409452,0.037426118,0.08231063,-0.98226047,0.6193063,-0.9031064,-0.02416609,-0.100219205,-0.08667634,-0.7106523,0.743635,-0.81176746,0.27209547,0.74925697,-0.8724537,0.12615018,0.912587,-0.3084559,-0.0057405764,-0.86038595,-0.87260085,-0.038107466,-0.31885892,0.3612449,0.021644844,0.8091741,0.15386555,0.113425784,0.91492534,0.017060563,-0.1652873,-0.5080858,-0.7514138,0.9333867,0.56933326,0.087832704,0.55277926,0.97464037,-0.6158643,0.8859353,0.49843284,0.23377876,-0.04215409,-0.15018095,-0.5041645,0.88481176,0.068498604,-0.4388125,0.25911543,0.9042894,-0.3691718,-0.71390843,0.23700052,0.7181551,-0.5547622,0.5783894,-0.39571625,0.9512011,-0.7200782,-0.75255483,0.081746235,-0.48508078,0.63912165,0.6531088,-0.9706695,0.043943528,-0.73837304,-0.21890391,-0.026290186,-0.6725784,-0.054578338,0.46943274,-0.70461017,-0.98395044,-0.33292398,-0.5550334,-0.7799787,-0.2352291,-0.9837431,0.27918896,0.29105842,0.14595786,0.8873826,0.28530788,0.9528705,0.7218714,-0.4316605,-0.91295344,-0.9670819,-0.9276271,0.7942809,0.3808232,-0.9856758,-0.70291317,-0.7967275,-0.12920555,-0.5388852,-0.10582622,-0.20838778,0.873661,-0.60944676,0.9571006,-0.85790807,-0.7696612,-0.75873965,-0.9314122,0.9970363,-0.6257406,0.540359,0.016064474,-0.41914415,-0.5428155,0.096820764,0.8881338,0.2184397,-0.88813305,0.02400391,0.52485603,0.85393167,-0.4945477,-0.09861486,-0.19287467,-0.6815056,-0.9042815,-0.96265584,0.16785383,0.36837047,0.001001656,0.6499055,0.19780092,0.99603945,-0.046844028,0.6889892,0.07718273,0.5193623,0.91445965,-0.77657205,-0.9254351,-0.9267787,-0.15151604,-0.86904883,-0.7392696,-0.45377228,0.48341614,0.61606455,0.41486844,-0.6865875,-0.64560044,-0.6382353,-0.8420773,-0.99988633,0.6074389,-0.018749641,-0.92137676,-0.029849946,0.946345,0.74626,-0.12519576,-0.33806163,0.27862936,-0.7053905,-0.15831389,0.45089585,-0.7733834,0.053832833,0.24344641,0.4793302,0.043347385,0.46097362,-0.81545216,-0.62235975,-0.21747556,-0.4370262,0.056479387,0.79860955,-0.97979087,0.3519098,0.44956645,-0.35626033,0.7836556,-0.52127177,-0.86282027,0.86052835,-0.27267477,-0.45769674,-0.5429537,-0.04276357,-0.30036327,-0.8899594,0.53633845,-0.67253864,-0.006352878,-0.28025368,0.6170046,0.2489392],"4":[0.062181897,-0.9727586,0.73830366,-0.009639037,-0.42524594,-0.26670492,0.24554735,0.888258,-1.00062,0.6523399,-0.16375571,-0.7569029,0.5637378,-0.28253403,0.14581119,-0.24488875,-0.47682652,-0.55421317,0.18144514,0.89398164,-0.7061524,0.39989036,-0.39976862,-0.89534307,-0.14611886,-0.9585209,0.33985823,0.49488893,0.084018946,-0.32803854,0.80317026,-0.6773008,-0.4737049,0.89564884,-0.56408566,-0.42870784,-0.9352098,-0.24391645,-0.6825297,-0.29185104,-0.047590036,0.111737624,0.48191166,-0.43220004,-0.34851736,0.30868652,0.49001154,-0.13788834,0.30799788,-0.29550156,-0.20767753,-0.05753558,-0.5291635,0.48876658,-0.82642376,0.7237424,0.5881142,-0.2921762,0.97235245,0.8613719,0.019455906,-0.108671404,-0.49976143,-0.85295284,-0.04355026,0.7052262,-0.8948259,-0.47857207,-0.08265367,0.040259384,-0.8497025,0.9664827,-0.3487957,0.2990098,-0.7578641,-0.35949013,-0.59612083,-0.7523671,-0.7958389,0.6503323,0.08037498,-0.8908804,0.06933855,-0.23500314,0.9778579,-0.36641848,-0.87514466,-0.12895183,-0.26148054,-0.9227142,-0.45443907,-0.57947886,-0.757407,-0.8403704,-0.37565753,-0.65555686,-0.37257648,-0.06501802,0.8338885,-0.39765963,-0.5544957,-0.66502607,-0.014843561,0.20413756,-0.8071043,-0.0045665605,-0.5899679,0.47899064,0.31629622,-0.20421052,0.22987255,-0.6765117,-0.8403031,-0.17927562,-0.37533715,-0.84483826,-0.73773265,0.75116664,0.47890708,0.29977694,0.6425147,-0.059924666,-0.91652435,0.9281787,-0.6598058,0.025331784,0.09693665,-0.24840322,-0.6439006,0.08691744,-0.026641354,0.9131154,0.5827969,-0.6885842,0.7931303,-0.7379157,-0.25253984,-0.47877675,-0.0059589385,-0.90540963,0.80183244,-0.116845965,-0.60518265,-0.22540762,0.5339511,-0.5805435,-0.39611545,0.48142612,-0.88189596,0.44902813,-0.25949368,-0.75135964,-0.54702175,0.22945997,0.99877536,0.8607833,0.9267893,0.65075505,-0.7787824,-0.17775579,-0.17682979,-0.6693753,0.38727885,-0.86448354,0.8642464,0.16286376,-0.35157588,0.01625583,0.6750858,0.48982975,-0.55270976,-0.9594519,-0.60989225,0.7181391,0.3821824,0.51203793,-0.93503255,-0.46264967,-0.7585264,-0.4418226,-0.9975199,0.488764,-0.69783413,-0.9236436,-0.5507629,-0.5293833,-0.48502824,0.98006487,0.8820728,-0.927809,-0.0032512366,-0.1613649,0.935985,-0.18337832,0.78500885,0.63059014,-0.11999768,0.6181858,-0.25829062,-0.8198918],"5":[0.6473691,-0.016322432,-0.9387224,-0.93712115,0.08208028,0.75444293,-0.23869501,0.65990674,0.29165953,0.50815326,0.2497436,0.80440915,0.95492035,0.93531954,-0.63579446,0.5534845,0.39166075,0.8378578,0.03163467,0.11787095,-0.65730333,0.5763214,0.50629133,0.09339001,0.35808653,0.13652827,-0.003742615,-0.63731647,-0.18009932,0.21588026,0.98052275,-0.43513954,0.3582331,0.89609087,0.10700187,-0.9448207,0.83442825,0.49193448,0.28583848,-0.5640337,0.20347363,0.29547024,0.3383349,0.4560377,0.39648047,-0.027237218,-0.9486181,-0.7457224,-0.5721426,0.42832518,-0.45630297,0.3492843,0.2229963,0.8297971,0.10372364,0.35698494,-0.46811733,-0.2896538,-0.053423,-0.5741881,-0.7880082,-0.8895272,-0.7910056,-0.2851089,0.769997,0.11026804,0.11128415,-0.37185413,-0.17397028,0.54733765,0.44606906,0.8315573,-0.98851186,-0.098743364,0.53610426,-0.67326784,0.3168409,-0.371509,0.9118288,0.084259465,0.4425852,0.13912044,-0.51383406,0.3339853,-0.19637197,0.07315579,0.15678972,0.7234072,-0.093010195,-0.21739188,0.90110725,-0.22035764,-0.29519188,0.12527336,-0.8176554,0.7748762,-0.13407513,0.1588511,0.7955959,0.663745,-0.8084455,0.94932497,-0.88286686,0.23506442,0.9729207,0.80257756,-0.6391672,-0.35852683,0.5849478,-0.50275344,-0.25917688,-0.8016527,-0.99293095,-0.7655051,0.60898453,-0.021532083,-0.9814771,0.23411688,0.50702584,0.60709697,0.37377945,0.24391213,0.10068867,-0.78141284,0.409094,-0.37265942,-0.63171303,0.5643566,-0.8221403,-0.74326533,-0.15003017,-0.80703783,0.8166795,-0.60747117,0.42704678,0.20997055,-0.97513205,0.4810848,-0.10153894,-0.82486635,0.94358945,-0.7661325,0.5226634,0.39958945,-0.2181279,-0.34247962,0.35956892,-0.39533815,-0.5050498,0.03432423,-0.9130196,0.7013953,0.5326859,0.8948512,0.64617467,0.84908676,0.94427454,-0.35488495,-0.24192667,-0.47268403,0.87568945,0.47997227,0.53120023,-0.6130409,-0.0629766,-0.3680537,-0.62142587,0.030393466,-0.89143944,0.21798798,0.6953244,0.41664428,-0.503166,0.32201853,-0.91320485,0.76994014,0.41191208,0.86164606,0.7302561,0.31789768,0.3081077,-0.30742416,-0.16942507,-0.6293827,0.2914758,0.29452386,0.9514333,0.6697673,-0.7360985,0.7732867,0.5455233,-0.7110754,0.50186926,0.78099465,0.21547674,0.9077221,0.70225155,0.09589306,0.05294529,0.94743234],"6":[0.4357806,0.09187163,-0.6424035,0.42864105,0.8592692,-0.40870252,-0.6422388,0.36289075,0.15314892,0.23692048,-0.7325947,-0.415616,0.31991693,-0.6651562,0.41711438,0.790377,0.72204185,-0.63915765,0.86766744,0.06207983,0.9362444,0.41103622,-0.13502844,0.871215,0.21370877,0.734773,0.31699395,0.012222318,0.016489143,-0.8980882,-0.29709566,0.8374021,-0.44889283,-0.8750399,0.16668901,-0.77339065,0.60324305,0.346648,-0.4629608,0.29934373,0.6337507,0.64045846,0.2877342,0.350192,-0.8394991,0.2724818,0.9717857,-0.11292631,0.22924487,-0.9687939,0.4612256,-0.14370483,-0.7641389,-0.5106524,-0.41871294,-0.49491954,-0.72213703,0.11895083,0.123266876,0.26898164,-0.6122389,-0.1531536,0.7701324,-0.97860587,0.06954176,0.59350574,-0.5069922,0.12094953,0.570778,-0.3010605,-0.45314848,-0.0284982,-0.2356028,-0.60183537,-0.45310605,0.9212517,0.76883,0.7923909,0.8598227,0.019996714,-0.82598674,0.09786972,0.54319966,-0.5390019,-0.6423917,-0.937556,0.7369869,-0.9209466,-0.088713124,-0.44100717,-0.73242265,0.3104939,-0.56309336,0.18939985,-0.12918538,0.05908423,0.8406185,-0.16831061,-0.9781254,-0.8201376,-0.4320109,0.785936,-0.41979307,0.8460488,0.30412892,-0.348372,0.58770925,0.51294357,-0.1739033,-0.12363094,0.9200318,-0.62887377,0.94949657,-0.79657173,0.73976964,-0.47435063,0.44521764,0.58237976,0.74390244,0.68620104,0.052046467,0.0067904755,0.7275179,0.9350785,0.1959611,0.0050241174,-0.92506456,0.242229,-0.53608644,0.48369572,0.848701,0.6058795,0.0746303,0.87826717,0.0749035,-0.76442343,0.782586,-0.39465666,-0.68362135,0.3071445,-0.2777893,-0.65770173,0.17535736,-0.402371,0.45654544,0.40294233,-0.49529794,-0.043289404,0.99631065,-0.106176175,0.21010877,0.40506858,0.73640734,0.4613953,0.15424266,0.9846265,0.59089786,-0.15133789,0.9638481,-0.75005794,-0.559242,0.5375501,-0.70355076,0.37210527,-0.44473752,-0.77254546,0.17211305,-0.21537374,-0.8631111,-0.8557023,0.16409291,0.25237063,0.6804079,-0.63822985,0.6015261,-0.017489906,0.78928727,-0.20081075,0.37158126,-0.0005572004,-0.9266946,-0.10710739,0.8869272,-0.106453836,-0.7874002,-0.80796564,-0.9537748,0.5527132,-0.8633207,0.8548662,0.82707196,0.4544636,-0.1819416,-0.5029215,0.99134356,0.61114395,0.44221544,-0.60702085,-0.97035927,-0.12156007],"7":[0.51805526,-0.976749,-0.081093416,0.4327233,0.6803326,-0.28144136,0.8932593,-0.14078052,-0.56556785,-0.090571985,-0.05562186,-0.8450945,0.09069094,-0.076798715,-0.5512038,-0.07039112,-0.5801513,0.9439346,-0.4903941,0.960932,0.46690136,-0.838533,0.59986407,-0.5774761,-0.6428511,-0.30781028,-0.40241483,-0.06251518,-0.7503349,0.5348278,0.45011735,0.03795835,0.3809357,-0.46018925,-0.102812886,0.35313097,-0.22566731,-0.29883775,0.26951024,0.1957674,-0.8726396,-0.79735565,0.002697842,-0.5085439,-0.038572468,-0.9752818,0.34743446,-0.54557794,0.020874146,0.38218856,-0.9083915,0.44504195,0.92233974,0.7730099,-0.62460995,0.18793888,-0.50972885,0.29891616,-0.6051011,0.9148505,-0.7163204,0.9052196,0.33096147,-0.2825683,-0.5751213,0.6834573,-0.7246192,-0.039724328,0.51197505,0.076652505,0.8022471,0.21226397,-0.8700904,-0.6225336,-0.4435728,-0.18141231,0.2201584,-0.258724,-0.414367,0.76578194,-0.16362394,-0.6109887,-0.11357444,0.12773733,-0.61584866,0.7365728,-0.7011892,-0.5737056,-0.6082052,0.43079674,-0.6720034,0.19026706,0.93397707,0.24468538,-0.79534125,-0.39999542,-0.8401928,0.120028585,-0.3326943,-0.29998276,0.14931048,-0.2872203,-0.24341159,0.2596028,-0.14701249,0.42118275,-0.4818757,0.8284368,-0.24750198,-0.5140365,0.45984158,0.21083938,0.6426081,0.30445918,-0.32564577,0.97594357,-0.9783369,0.75343794,0.28017187,0.9212512,-0.58958405,-0.8169841,-0.028198028,0.57853454,-0.22741808,0.321253,-0.099168785,-0.9838912,-0.46763095,-0.077678815,-0.7963303,-0.3303072,-0.62450814,-0.4560193,-0.052905124,0.4032344,-0.27129924,-0.6465425,0.9804299,-0.17604674,0.49250108,-0.3358397,0.56201047,0.22533724,0.13216162,-0.15668651,-0.036335915,0.869608,-0.61973494,0.27548355,-0.64419514,0.16384847,0.9516168,0.16842496,-0.9651944,0.817497,0.6358285,-0.5478152,-0.4573081,-0.09785692,0.37813026,0.86653244,0.104544625,0.61988556,0.75525725,0.50205374,0.097647026,-0.37833592,-0.8484149,-0.76132804,0.721306,0.38199663,-0.6987993,0.27102402,-0.28540373,0.21564436,0.22104557,-0.20189583,0.82759947,0.573579,0.7550801,0.9037315,0.10989513,-0.8765094,0.48251516,0.3901167,0.37815064,0.282254,0.31471735,0.25126538,0.005989637,-0.4935324,0.45230234,-0.074244484,0.28282043,-0.71068203,-0.99153525,-0.7005542,-0.6842565,0.5345014],"8":[0.23797208,0.5369149,0.5950865,-0.86800504,0.8828054,-0.23463662,-0.7056765,-0.64294,0.1367921,-0.13750932,0.9518906,0.7957155,0.55402356,0.92350817,0.16744176,-0.053102516,0.8186827,-0.28766873,0.9011953,0.6085329,-0.6401134,-0.94981146,-0.123788856,-0.00047978415,-0.17317058,-0.38316405,0.76592624,-0.4220528,-0.5639297,0.77636075,0.2644739,-0.059624664,-0.98038185,0.86815494,-0.31281382,0.028439563,-0.13184048,-0.42071143,-0.2907614,-0.6683271,0.94405603,-0.46261257,0.011019929,0.03907549,-0.7127862,0.3047673,0.4897639,0.12894003,-0.27178374,0.6494889,0.6376309,-0.76448685,-0.10697718,-0.1840072,0.038492575,0.48183995,0.14313942,-0.24340104,-0.5275509,0.2935474,0.17801994,-0.32291424,0.76925504,-0.72076946,0.93232685,-0.4189237,0.10922745,-0.4714516,-0.30073965,-0.57862735,0.6147156,-0.81479824,0.5764494,-0.36115605,0.041298136,0.7640925,-0.304345,-0.45624685,-0.24079108,-0.40051088,-0.74876034,0.2911679,-0.79563624,-0.5358313,-0.031421907,-0.80189043,0.33571726,-0.8782892,-0.6036159,0.5253809,0.7423769,-0.9289081,-0.79684716,-0.31241772,-0.1704156,-0.34748077,0.29468763,-0.060967185,0.27801082,-0.28952807,-0.77403134,-0.624057,0.5405734,0.8461483,0.75261927,0.58004045,-0.22758219,-0.7304668,0.9596616,0.29932323,0.4249529,-0.80812675,-0.82845485,0.60581523,-0.70264727,0.8582382,-0.089890495,0.065731294,0.02576684,0.55372155,-0.7623297,0.81154656,-0.63741595,-0.5927069,0.5541442,0.8266557,0.3217863,0.51741606,-0.89407516,-0.38927892,0.5222809,0.2666402,0.9193655,-0.6385177,0.6069536,0.29445517,0.9936253,-0.23927157,0.8100401,0.7047621,0.6670579,-0.35729787,0.11708978,0.13724692,-0.24848704,0.48267525,-0.2135011,0.3050176,0.061575953,0.5115335,0.8198473,-0.021394994,0.9868757,-0.42538214,-0.19841345,0.14000374,0.2850823,-0.15268005,0.9355377,-0.61185557,-0.6400315,-0.90254116,-0.82500726,-0.012267993,0.22129864,-0.3988325,-0.77465135,-0.57150626,0.4899427,0.037793063,0.06866342,-0.19831942,0.39815313,-0.4193985,0.5007967,0.5586577,0.4705641,-0.2415314,0.3797467,0.23404485,-0.657171,0.00902652,0.0048410096,0.096061945,0.4477726,0.5696965,0.2877585,0.6776856,-0.9470774,0.34647542,-0.25943828,-0.30032414,-0.7943977,-0.9856392,-1.0003586,0.47339517,-0.0069970847,-0.44154435,0.8560987,0.8779952],"9":[0.79668295,-0.740389,0.84426665,0.6012804,-0.41047984,0.13172385,0.09072044,-0.98236334,0.94392675,-0.18089099,-0.15988883,0.11495174,0.32424378,-0.14567727,-0.6854355,0.14445227,-0.81333804,0.33614528,-0.09229288,0.68944955,-0.46864712,-0.75091785,0.34151253,0.11221281,-0.27724338,-0.057399385,-0.37161925,-0.12352019,0.7176754,-0.28501698,0.93691343,-0.62390584,0.7100966,-0.5622101,0.63925856,0.09722619,-0.027887572,-0.12791266,0.21714516,0.87193453,0.29943413,-0.50545377,-0.9440844,-0.31436104,0.71944875,0.5993108,-0.9373658,-0.35741034,0.94562143,0.5999136,0.7691564,0.013193695,-0.10339768,-0.06868495,0.34420303,-0.8067815,-0.8049487,0.14411123,0.57695365,-0.27159894,-0.5562283,0.6344184,0.78499913,-0.60941154,-0.24444681,-0.4021327,0.032334335,0.9739644,0.500128,-0.64221394,0.2788866,0.76516616,-0.037981693,-0.93309045,0.22465685,-0.09290119,-0.7476989,0.07680221,0.37836385,0.24638541,-0.6869275,-0.40958658,-0.7486374,-0.9542243,-0.24019809,-0.754336,-0.36217117,-0.09629694,-0.14105019,-0.30215043,0.059556715,0.24025139,-0.63613564,0.95940113,0.307951,0.6457651,-0.3569607,-0.40889966,-0.70492494,0.36309493,-0.67135894,0.25181967,-0.22027606,-0.53337026,-0.23849781,0.7647643,0.47161043,-0.38955936,-0.9542053,0.85585093,0.26150453,-0.46304405,-0.35625052,-0.6099282,0.7349736,0.024341386,0.46554035,-0.7673739,0.37792683,-0.3998093,0.3541584,-0.8479433,0.2563704,0.053892832,0.37174046,0.82329315,-0.800591,-0.7937421,0.99428827,-0.9620924,-0.1950719,0.56777704,-0.2017909,0.9271886,0.75381786,0.86390644,0.37927246,0.2801726,-0.13806665,0.3431279,0.9814104,0.65764755,0.027743481,-0.44322556,-0.7743133,0.6373019,0.9260929,-0.8445285,0.61723256,-0.060904253,-0.8695872,-0.8064555,-0.50463015,-0.25883192,-0.42976084,0.39037925,0.00038672428,0.48881063,-0.26894453,-0.89656943,0.96571356,-0.536941,0.09253353,-0.01570295,0.28149843,-0.9291129,-0.008470395,0.56992286,-0.5321877,-0.6051112,0.9380715,-0.68194336,0.8763205,-0.06497317,0.8708819,0.42482778,-0.94203794,-0.25341475,-0.67048126,0.37702876,-0.30859298,0.23693822,-0.6470362,-0.785476,0.61729944,-0.6124416,-0.54451746,0.3000746,0.7266213,-0.8882403,-0.91238487,0.3413727,0.03202344,0.4383085,0.562495,0.96510744,0.3121337,-0.028864399,-0.027086874,0.56996703],"10":[-0.0814565,0.96614206,-0.33426335,-0.4145509,-0.6308867,0.398458,-0.6269401,-0.4368111,-0.45914343,0.9185645,-0.14981543,-0.47136188,0.97205985,-0.84501016,0.99210125,0.712675,0.11936671,-0.20761217,0.23728953,0.8611229,-0.8712085,-0.27220774,-0.8671901,0.66141737,-0.53043854,0.29320964,0.06833197,0.7237037,0.1215838,0.24953309,-0.9336522,-0.088754885,-0.08659536,0.044140864,0.073441304,-0.5630627,-0.86748564,0.52242845,0.3928511,0.07882127,0.31967723,-0.78315985,0.6904882,-0.75653785,-0.21777475,-0.029388165,0.96083164,-0.5251574,0.098941214,-0.053336143,-0.005710716,0.08360129,-0.76595175,-0.28406715,0.39404607,-0.41455966,-0.3454409,-0.6128705,0.07672603,-0.3070259,0.89173937,-0.9175331,0.5796288,0.28760415,0.7280826,0.78013575,-0.8572773,-0.93974066,-0.45303193,-0.5290831,-0.04973692,-0.78988457,-0.14570498,-0.29124886,0.025993219,-0.55485517,0.690609,0.68375444,0.47055054,0.8256711,-0.17712848,-0.9723642,-0.5836296,-0.85947084,-0.62289333,-0.9735183,0.99745196,0.054666996,0.97960734,-0.16205204,-0.17409208,-0.3693991,-0.43143654,-0.65809345,-0.35584974,0.1651514,0.47542965,0.0040698783,0.043762866,-0.7695149,0.58763134,-0.77815086,-0.7696575,-0.123122446,-0.26260415,-0.43246147,0.5629084,0.29420033,-0.432363,0.5953327,-0.082845785,0.0062762722,-0.19462247,0.14285639,0.39403698,0.6922401,-0.91748834,0.8794122,-0.89422965,0.48395967,-0.816471,0.5933155,-0.22865847,-0.79376566,0.25800884,-0.4429374,0.95478153,0.3743841,-0.13603733,0.35613394,-0.17772788,-0.069691874,-0.6811251,-0.02117176,0.27710822,0.67227674,-0.8220223,-0.047250494,0.91145754,-0.318956,0.3709823,-0.9073945,0.5767908,0.50275314,0.44758675,-0.14804898,-0.9263201,0.3135782,0.5949413,0.31956878,0.07007087,-0.01874407,0.104498304,0.012924585,-0.5199414,0.6351468,0.4706631,0.30315208,0.05413122,-0.6945342,-0.76163673,-0.20981592,-0.1722813,-0.16438937,0.64268565,0.28833103,0.74576986,-0.9484722,0.1897389,-0.8728382,0.65846175,-0.89171875,-0.08837523,-0.41849542,-0.78605515,0.26643828,0.17737405,-0.18822904,0.067063555,0.62103504,0.37304705,-0.9907921,-0.68756187,-0.2879306,-0.14296769,0.9767843,0.13264047,0.101758555,-0.089277916,0.0006658906,0.7893426,-0.8840014,-0.8538204,0.6076566,0.17236693,-0.41273648,0.96714944,-0.57476413,-0.33240187,0.8449172],"11":[0.48808143,-0.72150564,0.9159288,0.46880883,0.14458807,0.96289515,-0.6035458,-0.7543457,-0.873711,-0.56912726,0.56777716,0.8139759,-0.90545595,0.86405075,-0.6674206,-0.9099684,0.47627807,-0.49048376,-0.41458088,0.90061986,-0.7330596,0.13243361,-0.48128462,-0.6165502,-0.5450535,-0.7685496,0.23661841,0.29953378,-0.28360426,0.16256827,0.32538873,-0.5370509,-0.47363314,-0.50263596,0.6682619,0.18017825,-0.64901453,-0.7431703,-0.4028344,-0.661475,0.13805048,-0.49593654,0.36147153,0.6562426,0.43002832,-0.43096867,0.74139464,0.08284869,0.81235784,-0.9692262,0.7821031,-0.76751524,0.44019434,0.5600351,-0.37988645,0.8937014,0.5942103,-0.8710464,0.2885802,0.42394078,-0.7223429,0.0873497,0.40980583,0.34107906,-0.570816,0.9534469,-0.66313756,-0.011371572,-0.02644808,0.42227843,0.35127693,-0.8826597,-0.4045136,-0.74767286,0.35962626,-0.23800863,0.45601887,0.35216686,-0.97051036,-0.6389343,-0.9735784,-0.36153638,-0.81795764,0.28388238,0.58118415,0.7098336,0.34121963,0.60047626,0.1604263,0.8133466,0.16820636,-0.35623792,0.6064644,0.4013927,-0.63140357,-0.8706022,0.20056774,0.8128514,0.607206,0.049580175,-0.5860626,-0.8319713,0.12042923,0.42454404,-0.17531395,-0.8195095,0.08279951,0.6369,0.35707673,-0.30876702,0.27273762,0.86209244,-0.35723308,-0.8958805,-0.5208182,-0.20292093,-0.65890324,-0.5166433,0.43922225,0.37137645,-0.9720843,-0.3985104,0.72019064,0.43143448,0.3742137,-0.35903484,0.62088394,0.3851115,0.30087018,0.940163,0.6599832,-0.49065393,-0.65633386,-0.52706796,0.7214852,-0.5507451,0.60407484,-0.92322177,-0.50034934,-0.48593438,0.9548582,0.42498952,0.58193946,-0.17085978,0.66276777,0.87216985,0.41703063,0.9697016,0.9184781,-0.8064411,-0.23647082,-0.10103905,-0.91978294,0.3253004,-0.041728698,0.3964857,-0.9686993,-0.9119391,0.94307953,0.3107442,0.01384735,0.29950887,0.06630774,0.22686489,0.87199116,-0.4138346,0.6246842,0.46600658,0.2399034,0.5304467,-0.47486886,-0.3845185,0.408773,-0.33212036,-0.4956668,0.40576163,0.9907896,0.7943982,-0.6054655,0.49181423,0.88983953,-0.32697374,0.541459,0.2459027,0.6991529,-0.010318816,0.6690663,-0.33815607,-0.243163,0.85549563,-0.35339746,-0.762813,-0.4061892,0.4013473,0.41606757,0.3928208,0.9582106,0.6813779,0.6961837,0.49382818],"12":[-0.30219716,0.42725968,0.6304169,0.25861484,0.8315765,-0.8314773,0.9738366,-0.45175973,0.4474641,0.5880817,0.8944731,0.656792,0.5555044,0.2875975,0.6506705,-0.9736949,0.9009496,0.25661257,0.25675476,0.03766917,0.7032523,0.015917046,0.12828614,0.76896834,0.83908373,0.19088943,-0.07446244,0.8276005,-0.9515578,0.41190606,-0.30595723,-0.9398609,-0.33382353,-0.80583066,0.8332288,0.38002267,-0.99218094,0.94682604,0.44820637,0.34482524,0.75132984,-0.702326,0.7659379,0.92604095,0.14732093,-0.93408203,0.574027,0.2521258,0.84695405,0.6757745,0.32568857,-0.8367689,0.041288156,-0.8666653,0.9074523,-0.2868563,0.7642703,-0.38486326,-0.8402109,-0.7984137,0.35870475,-0.19660972,0.3976447,-0.43978843,-0.9123403,-0.88485706,-0.79943836,0.7558777,0.14471675,-0.68962306,0.19624594,-0.40115827,-0.7637639,0.91813964,0.75839955,-0.8995496,0.070390396,0.3787753,-0.75347966,-0.9758988,0.4085234,-0.5240345,0.67584145,0.2548693,0.2664759,0.41668293,-0.25684714,-0.65578663,-0.76371413,0.34606156,-0.8688728,-0.24303411,0.28116953,-0.04230332,-0.21973065,-0.49365723,-0.3014396,0.5009515,-0.22782898,-0.9706764,-0.46045142,0.532649,0.76157254,-0.7193598,0.16779074,0.38615197,-0.9817061,0.8019559,0.7534292,-0.18800391,0.07722901,0.3174597,0.43685266,0.9095053,-0.8064063,-0.24532597,0.9845819,0.34765378,-0.8893063,-0.68323994,-0.27648768,-0.0666005,0.52698135,0.008849783,0.9658006,0.46326217,-0.7174476,-0.1589413,0.40161505,-0.61984694,0.3843017,0.5278874,0.6745704,0.27957797,-0.59389716,0.92196995,0.60009784,0.14327459,-0.4510106,0.080866605,0.948758,0.6171632,0.4583186,-0.15964672,-0.48510465,0.14632373,-0.13445812,-0.1304343,-0.2788438,-0.876006,0.3476022,-0.42797413,0.36803442,-0.7805482,0.62732726,0.73959976,-0.30581543,0.15718834,0.4209262,0.31334335,0.40243417,0.9310923,0.5751663,0.25951093,0.0052456697,-0.95374584,0.92828214,-0.42403182,0.004395468,0.49380124,-0.32694766,0.27271882,-0.34269476,-0.85945284,0.7068021,-0.12187615,-0.21025445,-0.24402533,-0.75586635,0.8047597,0.14465423,0.013364095,0.827149,-0.39878452,-0.962675,0.018163051,0.452239,0.33659106,-0.56444216,-0.053966627,0.99587315,-0.93781215,-0.6798609,0.99185234,-0.3354568,0.6870036,0.9675393,-0.6604908,-0.31481263,-0.7390526],"13":[-0.22446568,-0.4694833,0.68615055,0.13351193,0.8400944,-0.38516882,0.6217348,0.96266735,0.8032139,-0.0051347245,0.081004776,-0.71169204,0.66749305,-0.78863734,-0.71865386,0.42285803,-0.7791436,0.3484963,0.9423674,0.8954346,-0.8452421,0.26488253,0.69066995,-0.12831333,-0.04987603,-0.8852007,-0.281101,-0.31611964,-0.56880546,0.53066003,0.15827188,0.75524336,-0.91796887,-0.7874216,0.7625838,0.8271151,0.58181024,0.7808546,0.52195597,-0.5314491,-0.035952542,-0.9142528,-0.7807808,-0.48153836,-0.019382073,-0.82552886,-0.5049682,0.536621,-0.26233494,0.47870943,0.9215965,-0.3165559,-0.91300964,-0.18048969,0.17007235,-0.046346545,-0.7609686,-0.20550282,-0.2762416,-0.8472498,-0.8051974,0.42068446,-0.35346723,0.9877563,0.87893325,-0.8821704,-0.78464496,-0.60235107,0.42627186,-0.91087586,0.6529934,-0.10527852,0.7378985,-0.72524804,0.8703895,-0.4487468,0.7738641,-0.0023758553,0.7185104,-0.82420063,0.91633415,-0.64352715,-0.21038948,0.590315,0.10807322,-0.9064573,-0.7624849,-0.41339126,-0.70882994,0.5320164,0.20626338,-0.5927893,0.3434104,-0.85216653,-0.8842736,-0.94433737,-0.44898126,0.1098859,0.8960432,0.16830787,-0.17421223,-0.03086818,0.12215556,-0.17737688,0.34303942,0.7895139,0.2668365,0.3832231,-0.54603,-0.43887526,-0.45512626,-0.96646273,0.46310806,-0.062379237,-0.34455666,0.81358534,0.17907998,-0.6537035,-0.39924654,-0.46935123,0.05160525,-0.5058623,-0.8738314,-0.36427337,-0.3740467,0.65156037,-0.10069876,-0.77487886,0.14251319,-0.80678076,-0.51757,-0.06288347,0.35661438,-0.7925021,0.7976912,0.65015334,-0.31067675,-0.079943165,0.60219836,0.9311113,0.93645245,-0.1282393,0.44115797,0.28134182,0.22995406,-0.9083107,0.90618527,0.23672077,0.90779656,-0.10695437,0.1560186,-0.6954407,0.56775403,-0.9599715,0.017644675,-0.29890087,-0.6235895,-0.42594638,-0.83940125,-0.22810766,0.5026063,-0.1496687,0.0018283267,0.9231124,-0.7581506,-0.07967579,-0.4879366,-0.0020906972,0.5395931,-0.8657983,-0.7192464,-0.26401442,0.115820535,0.021670295,0.66790146,-0.4064723,0.35015935,0.5074425,-0.37112847,0.9975976,-0.6363842,0.107533365,-0.758585,0.04271294,-0.043240692,0.49764955,-0.3719722,0.6819726,-0.5980905,0.112385854,-0.96339774,-0.16698594,-0.22440769,-0.9556903,-0.6261847,-0.5893048,0.33806148,0.47332108,-0.33306164,-0.79047966],"14":[-0.71886224,0.10557838,0.81139016,0.78504866,-0.6456046,-0.2751045,-0.3835568,-0.31910843,-0.7273486,-0.2545314,-0.79582804,0.80962324,-0.35034811,-0.60950017,0.5187415,0.009255337,-0.03259906,0.4633932,0.7494116,0.8783876,0.020609036,-0.94932276,0.8206538,-0.03245997,-0.4023896,-0.49885294,-0.37514302,0.19212903,0.3751208,-0.32878,0.63754505,0.005805587,0.75870705,0.9239632,0.6299797,0.31758106,0.71577895,-0.9998569,0.83543277,-0.6271338,-0.40184528,-0.038455274,0.68793654,-0.6607069,0.37972158,-0.38704118,0.11073013,0.35619923,-0.7387225,-0.14747623,0.36242616,-0.23813361,0.20854263,0.74926543,-0.8473093,-0.3409128,-0.9632232,-0.42309934,-0.76996773,-0.21079342,0.35647136,0.8823088,0.3027565,-0.21935996,-0.6505634,-0.91686577,-0.8398013,0.963995,-0.9896874,0.22929066,0.5371129,-0.15747558,0.6677974,-0.51242304,-0.36752173,-0.93449545,-0.3214975,0.19895689,-0.55909824,-0.13832504,-0.13722788,0.51695365,0.5377517,-0.15491976,0.046270467,0.9514205,-0.98157686,-0.31033313,-0.36171925,0.7701242,0.77448446,0.51848316,-0.5927356,-0.71143854,0.7219819,0.24684794,0.6123869,-0.96828526,0.012339235,-0.21182984,-0.4695436,0.42600295,-0.605515,0.5971215,0.7986349,-0.17878164,0.3217777,-0.9863001,0.52095765,0.7285828,-0.29922262,-0.1357164,0.4290144,0.17120777,-0.84698665,0.607786,-0.29699266,0.055062134,-0.69281083,0.6565562,-0.8594539,-0.1084262,-0.024457084,0.12829186,0.871411,-0.7651845,-0.4469334,-0.5754819,0.7283445,-0.76949453,0.7970075,-0.65854114,-0.7446838,-0.053035986,0.5713457,0.8162257,0.7116428,-0.08148311,0.2655827,0.70012283,-0.5997212,-0.39516574,-0.056242086,0.025363449,0.46381515,0.44743443,-0.48163813,-0.16422486,-0.6017488,0.07297918,0.16281036,0.7837941,-0.5804612,-0.79978496,0.28666157,0.8898167,-0.25227326,-0.4890834,0.9283778,0.6642654,-0.021932472,-0.7153525,-0.7737928,0.40985265,0.48777246,-0.32637194,-0.8250565,-0.233984,-0.29771668,0.18159461,0.3871603,0.78453386,-0.659874,-0.3409906,-0.9466044,-0.21651104,-0.8247207,-0.61070836,0.5722105,0.06756821,-0.86169964,-0.93226135,0.1943464,0.18945773,0.4287581,-0.11186917,-0.16020767,-0.7685778,0.37353697,0.40313378,-0.61193407,0.49335414,-0.87566775,-0.646957,-0.03022552,0.19488713,0.62104225,0.0693827,0.8282277,0.019573065],"15":[0.2683059,0.23490474,-0.98808813,-0.07671107,-0.23971318,-0.9317078,-0.3976253,-0.03875383,-0.6635456,0.4928792,-0.9961766,0.12386361,-0.3557683,-0.69862574,0.6857573,-0.07869822,0.9386513,-0.45543948,0.26259753,0.09846678,-0.19428004,-0.65408057,-0.4251705,-0.17694782,0.5803062,-0.7479159,0.7344866,-0.3212047,0.83530146,-0.6530485,-0.591232,0.8247565,0.6198023,-0.22824582,-0.2999649,0.6849364,-0.4220363,0.96255547,0.11774596,0.32450244,-0.5624274,0.77249116,-0.55473363,-0.24943687,0.39163977,-0.3651388,-0.7538496,0.4591862,-0.51478547,-0.70694995,0.87521094,0.7602344,0.76564956,-0.12250348,0.3773233,0.81288075,0.7984036,-0.29719546,-0.61559325,0.97477067,-0.12844247,0.36401987,0.5270441,-0.2414424,0.9752443,-0.66773313,-0.99388796,0.022384455,-0.2713364,-0.8930224,0.56589645,0.17306395,0.25230503,0.4780165,0.03139004,-0.9830088,0.039991677,0.5413024,0.8224092,-0.3167904,0.21918954,0.42345762,0.00046974656,-0.02019689,0.87916464,-0.5604919,0.8915645,0.46180817,0.82431704,0.5472317,0.8597556,-0.80395734,-0.952378,-0.8035484,-0.11107182,0.93983114,0.43941966,-0.7680925,-0.46886936,-0.7366415,-0.5974908,0.717869,0.513342,0.18661204,0.4059871,-0.9491026,0.7825112,0.758307,0.017901804,0.8595104,-0.48471585,-0.9840056,-0.11602208,0.9775872,0.11290742,-0.7448161,-0.5651154,-0.3311922,0.32197687,-0.542219,-0.19010319,0.37208167,-0.9549388,0.15873744,0.37112427,-0.7337459,0.23028788,-0.36323765,-0.0006184204,-0.55156106,-0.60461086,0.74101716,0.10378655,-0.045575976,-0.9661673,0.6142038,-0.05621665,-0.20534715,0.56042355,-0.67356575,-0.80947685,-0.54521453,-0.2736969,-0.13227852,-0.792716,0.74241066,-0.44365048,0.94365096,0.2596489,0.10988608,0.14587405,0.065008156,0.8605726,0.1029103,0.7241507,-0.8490146,-0.671943,-0.5077267,0.06211433,0.4197404,-0.5498714,0.4061408,0.67321587,0.6706462,0.38147137,-0.31500804,-0.87372553,0.19676024,0.46272707,0.66697603,-0.58193445,-0.28990245,-0.1715795,0.019344475,0.6482731,-0.9789924,0.2502925,0.63799685,-0.836561,-0.67886865,0.6841226,0.23315287,0.092379205,-0.9259539,0.88479674,0.72615546,-0.4373866,0.96255803,-0.11867757,-0.23727986,0.8711226,0.91723377,0.92926234,0.8507085,-0.82321,0.32873607,-0.41556,-0.92036426,-0.9823063,-0.9347606],"16":[0.9857384,-0.4201033,0.5890004,-0.93188053,-0.100689255,-0.49182653,0.4573939,-0.23624259,0.429661,-0.5023467,-0.21712434,-0.2925409,-0.94842297,0.78509104,-0.2402794,-0.72351664,0.66563106,0.84660953,-0.17525902,0.93947446,0.12503022,-0.7748518,-0.9715886,0.13236897,0.5003366,-0.35960332,-0.5768304,-0.108368225,0.14461096,-0.23729618,-0.98680633,0.46050823,0.7784257,-0.63912445,-0.6103648,-0.73480636,-0.35820666,-0.48107606,0.25494888,0.42286634,-0.087438725,-0.42243487,0.25621548,0.32504523,0.34591287,-0.5407975,-0.4971597,-0.2289243,0.9705945,0.14909464,0.5509508,0.20386396,-0.46977562,-0.19520082,-0.46677655,-0.39138332,0.30401954,-0.030381754,0.7593981,-0.7082886,-0.8839923,-0.73382294,-0.16544707,0.39200678,-0.96916294,0.5046326,-0.38647768,-0.24299291,0.22720917,0.8138861,0.09057356,0.73605835,-0.909007,-0.883804,0.60033065,-0.3661476,-0.29052943,-0.69916886,0.37212327,-0.10166356,-0.6555081,-0.6826526,-0.44146156,0.60837656,0.6258786,0.5549156,0.19830003,-0.9828912,-0.68012613,-0.95728534,0.7161388,-0.90535986,-0.4799341,-0.7727019,0.50785,0.26414177,-0.46409512,0.50217444,-0.21822584,-0.4486528,-0.9346265,-0.35615572,0.89842135,0.06967352,-0.8098101,0.7585669,0.48197046,0.92549056,-0.87107927,0.30378506,0.6568769,-0.8718251,0.776027,-0.7469207,0.07748102,0.49580908,-0.9340647,0.7838088,0.26220918,0.48326528,0.52162474,0.18157424,-0.7396972,0.33378616,-0.89442974,0.032727733,0.41141465,0.25679502,0.49655128,-0.7094973,-0.033286285,0.6793629,-0.07829153,0.16921684,-0.74859047,-0.46368194,0.0506008,0.50175905,0.47098982,0.66287017,-0.022306597,-0.6727586,-0.27285907,-0.81401366,-0.96152,0.2704307,0.23056628,-0.8613384,-0.8512747,0.36727956,-0.7649759,-0.63951033,0.0021612954,0.5448903,-0.97649413,0.9573874,0.46794862,-0.39460373,-0.24652413,-0.92775685,0.89762986,0.05550896,0.3437454,-0.2976273,-0.789593,-0.9892919,-0.05836027,-0.88345623,0.6979382,0.5892796,0.94509494,-0.74245006,0.08737478,-0.9490476,0.26784337,-0.02652181,0.45346686,0.41336957,0.24212871,-0.5145325,-0.02483478,-0.29350445,-0.22523732,-0.3255821,-0.46300533,-0.019181246,0.6567456,0.2633195,0.70601326,0.068353616,-0.7333652,-0.38680002,0.62769806,0.6546742,0.46431902,0.29934135,-0.932784,0.012964513,0.37068614,-0.1280578],"17":[-0.8718514,-0.36187494,-0.8557324,0.68546164,0.6948833,0.07199347,0.9464096,0.96466887,-0.65560967,0.529011,-0.61065286,-0.52724624,-0.76656526,-0.58278155,0.20881422,0.99085563,-0.07216271,-0.95951957,0.6288882,-0.27840906,0.48027453,0.74760616,-0.91379046,-0.08562591,-0.2958424,0.6660889,-0.004173557,-0.7086959,-0.58182466,-0.40995324,-0.9411047,-0.54759914,0.8862773,0.86365324,-0.18674302,-0.8663249,-0.28577346,-0.6186929,-0.61288846,0.77383786,0.65553546,0.91722304,0.73431236,-0.80450064,0.8746033,-0.646526,-0.9881986,0.59195536,0.673174,0.35065106,-0.56984276,0.20394656,0.51791817,0.8554508,0.085959814,0.23154196,-0.12213713,0.2730057,-0.804725,0.926551,-0.7190945,0.5156052,0.24213931,0.14370999,-0.46483496,-0.9326945,0.35249868,0.14820674,0.038789652,0.33241904,0.6409336,-0.13847166,-0.74908096,-0.8930706,0.3160555,-0.61553526,0.44936243,-0.8234971,0.35504606,-0.82328516,0.90738696,0.7234627,0.2584727,0.6028064,-0.49918693,-0.2862272,-0.17971297,-0.6882468,-0.94866455,0.42058447,-0.3336774,-0.68404937,0.9897854,-0.31719774,-0.1873772,0.25131705,0.19449173,-0.29597327,0.5395405,0.7387163,-0.34006882,0.049956694,0.026675409,-0.5429444,-0.4796674,0.72007203,0.51182014,0.9783913,-0.5647954,0.7881578,0.33195534,-0.6011066,-0.42935485,0.7790184,0.16721334,0.73179245,0.6699201,0.22856587,0.4362092,0.792464,-0.5138343,0.39937147,-0.39220992,0.49376288,0.29507035,-0.65148383,-0.79271376,-0.53635585,-0.7382716,-0.17294845,0.396694,0.28664848,-0.42442083,-0.30059126,-0.47589543,0.036271103,0.6255542,0.33878958,-0.7936303,0.3386533,0.64668775,0.69346017,0.37296554,0.7606044,0.8103881,-0.98472244,0.79325885,-0.87222946,-0.33636123,0.32068187,0.66693586,-0.1175855,-0.55273837,-0.49641252,-0.7720487,0.8588526,-0.58279324,-0.09395103,-0.9312869,-0.22330716,0.3863131,-0.9958798,-0.6728776,-0.04843492,0.8546518,0.84536576,-0.76836246,-0.18901977,-0.33692464,0.6393847,-0.41869506,0.7611841,0.9835543,-0.4906827,-0.26106024,-0.013364699,0.20829736,0.2668738,-0.33058247,-0.0973753,0.019835541,0.053804234,0.90364903,0.49650636,0.31296802,0.90858495,-0.36579952,0.43345383,0.27648705,0.4358018,0.46674138,-0.9880268,-0.9932316,-0.19378857,-0.028817257,0.14345531,-0.09468927,-0.826511,-0.4041412,-0.010143941],"18":[0.14759108,0.8708238,-0.6024868,-0.8036382,-0.41748166,-0.18585047,0.9476771,-0.6610888,0.09149068,-0.8464658,-0.40251613,-0.24248198,-0.031666752,-0.15569961,0.30046397,0.44543332,0.24826907,0.9267087,0.030729579,-0.1798555,0.8318633,0.52453226,-0.16555859,0.6408505,-0.65589875,1.00019,-0.66805214,0.82373744,-0.6185521,-0.217638,-0.8881927,0.8692299,0.74390763,-0.23515567,-0.3481569,0.149827,0.91960126,-0.3552763,-0.6207319,-0.117948614,0.7723803,0.010568055,0.54746234,-0.51331747,0.49772623,0.82365626,0.5772076,-0.23738164,0.7618574,-0.9016437,-0.83389246,-0.25083804,0.6153656,-0.4539918,0.9459343,0.13014203,-0.78151935,-0.80939096,-0.8364698,0.17604573,0.6405796,0.6736932,-0.38239905,0.82615674,-0.5454726,0.32833013,0.77820766,-0.34835586,0.75528216,-0.5517313,0.741025,0.76863736,0.30344686,0.7393246,0.512995,0.79616517,0.30389613,0.6293678,-0.774132,-0.21540642,0.029481232,0.1768721,-0.8016068,-0.6664706,0.13515119,-0.49421105,-0.7122035,-0.8404529,0.70966643,-0.4331241,0.9452205,-0.9602423,0.7626714,0.7053794,0.44345018,-0.24327672,-0.93853045,0.408857,0.61252165,0.3712227,0.56276333,0.8559543,0.87898266,-0.26244703,-0.81100976,-0.7517188,-0.776165,0.5389039,0.6268032,-0.0707165,0.61265004,0.27716094,-0.72453564,0.4377198,-0.39429078,0.55819803,0.41157296,-0.14034423,-0.6230632,0.23801038,-0.8871774,0.45120952,-0.25141227,0.25273824,-0.39465308,-0.09649066,-0.7132838,0.61284524,0.6792127,0.34772426,0.5382954,-0.33186853,-0.6452818,0.88383174,-0.917528,0.8888072,-0.8183208,-0.21449095,-0.7843057,-0.7554188,-0.8848019,0.3885188,0.5833755,-0.12809579,-0.40480733,-0.6140304,0.10465032,-0.7072776,-0.58872736,0.6665873,0.14550273,0.58586586,0.4900024,0.3154725,0.2807106,0.435953,-0.9854996,-0.43084595,0.3984848,0.22356436,0.95410526,0.19230212,-0.7997446,0.77076083,-0.40330663,0.2085337,0.8970809,-0.56715566,0.1843026,0.8286204,0.21559355,-0.9250397,0.55201495,0.17854075,-0.22187664,-0.20975518,0.94272727,0.063876085,-0.9469282,-0.93319726,-0.70908785,0.18378411,-0.04595612,0.71500367,0.242161,0.08151527,0.41119084,0.23085798,-0.61555016,-0.6082339,0.6388692,0.9621086,-0.3556698,0.93322605,-0.69127756,0.6724134,0.29199824,-0.25904238,0.20061713,-0.6680987],"19":[-0.40085402,-0.7284339,-0.6989831,0.44513318,0.14289553,-0.22727294,0.3456892,0.12102625,0.57666445,-0.95884603,-0.11658545,-0.71488965,-0.6156958,-0.61802554,-0.42716908,0.3368258,0.32663757,-0.2618467,-0.8724812,-0.09026158,0.13293464,0.97471255,0.46762624,0.3213306,-0.060042292,0.025305321,0.37493184,-0.9393313,-0.1295669,-0.86072576,0.73100173,0.5282726,-0.6175517,0.60803825,-0.2562691,-0.35905662,0.64137775,0.04608565,-0.44066668,-0.49568167,0.355851,-0.5107556,0.009042395,0.948717,0.71707296,0.54765576,-0.090572186,-0.1690359,0.16221978,0.42107597,-0.16553484,0.08290087,0.69097596,-0.8008035,-0.68908143,-0.18179955,0.5731619,0.33617288,-0.92996675,-0.9086239,0.5919155,0.23870744,0.86921287,0.45791128,-0.19340874,0.7547405,-0.09280964,0.9106616,0.0072891167,-0.52112347,-0.5996281,0.45548537,-0.9429359,0.21171695,-0.67170846,-0.08879294,-0.26566756,0.6559378,0.07086585,0.16976124,0.97912717,-0.593559,-0.39171085,0.5046504,0.08005595,-0.5944206,0.8215975,0.86383647,-0.9523294,-0.71616757,-0.4155832,-0.8092677,0.6678462,-0.31270733,0.66674715,0.8904099,-0.28250393,-0.8569861,-0.13493858,-0.04117473,-0.2808718,-0.95984143,0.49620664,0.6910567,-0.5494172,0.550764,-0.8434577,-0.2225963,0.3387834,0.18813068,-0.44966015,0.38395151,0.19572955,0.895617,0.23222145,0.94236183,0.18719444,-0.16441019,-0.95757353,-0.3740195,0.40288642,0.1338624,-0.74520606,0.46500236,0.32168838,0.119731516,0.84489775,0.9039271,-0.07366358,0.13465032,0.21071781,-0.37185037,-0.24435334,-0.96896297,0.6864839,0.7585362,0.44340232,-0.14098357,0.8746258,0.99942476,0.12517783,-0.8903098,0.8474236,-0.09319605,-0.277817,0.7794474,0.50567573,-0.83666325,-0.72485214,-0.11384501,-0.543014,0.2494101,0.2500304,-0.20177552,0.0550203,0.60120916,0.4273736,-0.77269673,0.9732634,0.8362102,0.5037934,-0.4801518,-0.44920588,0.21507834,-0.025490252,0.2031779,-0.056984723,-0.93591756,0.29761708,-0.580811,0.070014745,-0.96398664,0.73938584,-0.8201549,0.024172816,-0.18023883,0.21614505,0.97014064,0.9933777,-0.32503086,0.80624765,-0.24688421,0.20736796,0.97041863,-0.71691686,-0.048115503,0.19899248,0.56169224,0.12796822,0.7584933,-0.0017099247,0.1846159,0.46362054,-0.10430405,0.9128395,0.03550011,0.88019615,-0.9401157,-0.49668586,0.9420852],"20":[0.57853895,0.10316615,-0.84415656,-0.80349666,-0.74818933,-0.35508558,0.29152423,-0.78532565,0.96220624,-0.8446914,0.04931937,-0.576391,0.8548099,-0.61069405,0.41208857,0.16083726,0.96664155,0.7772562,0.70561665,0.5478181,-0.41279876,0.7907882,-0.47327664,0.72905385,0.29498193,0.13377564,0.87993044,-0.16361558,0.33270064,0.96414906,-0.6679865,-0.36504224,0.6414749,-0.12049118,-0.8893697,0.41533476,-0.5243161,0.5897667,0.95452785,0.059590265,0.5786926,-0.7238456,-0.5662447,-0.037843715,-0.68371063,-0.60513854,0.63103396,0.3389998,0.011041634,0.830701,-0.0031953042,0.9924266,0.27235577,0.363759,0.6118782,0.9805822,-0.20928618,-0.990673,-0.9920761,0.38702226,-0.93915266,-0.2116576,-0.21066879,-0.5642718,-0.4240401,-0.9635742,-0.38177252,-0.657841,0.2109316,0.25258163,0.858236,0.27428153,0.2682874,0.5159233,-0.5762587,-0.9925712,0.18723945,-0.1706076,-0.8799154,0.917899,-0.14859673,0.43922538,0.6113179,0.31968436,-0.06841041,0.6627503,0.38966376,-0.49217477,-0.5306138,-0.10688199,-0.9976161,0.1976541,-0.12755163,-0.37848285,0.8654551,0.49324498,0.78346235,0.8610821,-0.8367232,-0.97013533,0.7778562,-0.097450174,-0.7552571,-0.88356364,0.22385257,-0.95904464,0.73579925,-0.2990196,-0.20103185,-0.68988883,0.24315658,0.4143274,0.11700617,0.066216774,-0.89778465,0.28935203,0.072435066,0.6120486,0.20480156,-0.7318202,-0.5640071,-0.21581197,0.2165792,-0.65324706,0.4771255,-0.42948413,-0.55565745,-0.49525195,-0.44454113,-0.83997446,0.5119368,0.10568753,-0.5961287,-0.99354017,0.3939673,0.68828166,-0.89178777,0.3247076,-0.37119254,0.50778985,0.68617344,-0.21855694,0.61684924,0.0005197304,0.23928288,-0.4515767,0.44910988,-0.019954542,0.09258732,0.13215129,-0.7588884,-0.8694736,0.8396357,0.03979592,-0.4256682,-0.92258054,0.7243371,-0.8806013,0.26652837,0.78385,-0.075659215,-0.5738981,-0.40492508,0.124204606,0.073028244,0.5956688,-0.84512186,-0.074487105,0.19556902,-0.5998484,0.9495607,-0.96421057,0.49781483,0.8272605,0.25589207,-0.037983034,0.781209,0.77618086,-0.23191452,0.6760551,-0.5207896,0.2190155,-0.5396534,-0.06847623,0.7818505,-0.9001682,0.26592964,0.48665392,0.5465733,-0.5559206,0.0923908,0.9181054,-0.2671644,0.2718853,-0.9960889,-0.96156406,0.3477954,0.3600907,0.97533643,-0.6425577],"21":[-0.66247255,0.7272405,0.8184834,-0.79102385,0.8976834,-0.7830703,0.5287744,0.18527265,-0.1485618,-0.049915098,0.9197947,0.6048107,-0.7699978,0.7522982,0.5261392,0.43588132,0.7492237,0.31128493,0.85981786,0.6182955,0.12377198,-0.94522,-0.13807943,-0.29362294,0.3722799,-0.62329584,-0.39959905,-0.43553838,0.71775377,-0.72391874,0.62161756,0.02263125,0.28667837,-0.22315638,0.44570178,-0.9429465,-0.3961503,0.049465984,-0.95319456,-0.26962936,0.82577807,0.48147482,-0.3193225,0.9575615,-0.43346086,0.54183346,0.6469964,-0.009709667,0.34424713,-0.28963074,0.73378766,-0.508952,-0.8589289,0.5060358,0.15825357,-0.4973036,0.5833532,0.6298332,-0.2416884,-0.6797835,0.10840692,-0.50167626,-0.4951048,0.6725805,-0.13772556,0.13341823,0.20454496,-0.0820379,0.9664987,-0.44458187,-0.38532275,-0.5823287,0.1267064,-0.99598426,-0.5347712,-0.2349504,-0.7591198,-0.8100946,0.09580654,0.09644716,0.3319394,-0.11806467,-0.5158482,0.6334199,-0.96109134,0.06304596,0.468879,-0.9983314,-0.8707274,0.20585564,-0.44717097,0.59356743,-0.6992297,0.36701897,-0.14268397,-0.7944861,0.7917135,0.5029686,-0.6418183,0.25521648,-0.07062564,-0.9682071,-0.24690129,-0.30090734,0.5321829,0.8378307,0.031015214,0.79156643,0.21169993,-0.78406423,0.00010844607,0.13530223,0.9363266,0.67059714,-0.5342658,-0.62400115,-0.35375336,0.20429228,-0.4941844,-0.16501732,0.65477675,-0.9767373,-0.11442282,-0.5636604,-0.85110164,0.49667302,0.05700772,0.49077365,-0.2921502,-0.16203538,0.9687083,0.62987906,-0.9425774,0.4304358,0.91504455,-0.46766028,0.068873405,-0.16031027,0.09452823,-0.8066205,0.61857176,0.12877968,-0.9226255,0.9551311,0.53358406,-0.54144824,-0.4345668,-0.5246825,-0.028069286,0.7002268,-0.88008,-0.3446925,-0.7202471,0.53614414,-0.7606812,-0.032148078,0.5871265,-0.42489,-0.56106746,-0.12411672,-0.75358725,0.3903055,-0.5375485,0.7547775,0.021715693,-0.49031067,-0.92226803,-0.61759555,-0.2405581,-0.09117925,-0.35591733,-0.97062576,0.6547286,-0.44628644,-0.07882498,-0.105465345,-0.36504313,0.7601768,-0.3505044,0.041971795,-0.3368478,-0.38128576,-0.74417615,0.27057233,0.6918409,0.6119544,-0.6302801,-0.36365977,0.09826241,-0.9089675,0.36982596,0.32797712,0.3176646,0.63354427,-0.8070135,-0.46247616,-0.9236485,-0.3320332,0.5089795,0.92588955],"22":[0.12097256,-0.6962492,0.31161758,0.3047627,-0.07339127,-0.24418564,-0.66750795,0.6196798,0.2747413,-0.73688847,0.4490221,0.9003418,0.27259377,-0.96569276,0.6581638,0.6788005,-0.7548011,-0.014287425,-0.032465998,0.20104668,0.27884623,-0.851279,-0.9877408,0.36850598,0.5220448,-0.64204574,-0.9325797,-0.89022845,-0.7585492,-0.3407163,0.75098324,-0.832329,0.91082203,-0.067900896,0.870867,0.36289102,0.11352542,0.75630593,0.36342162,0.086921334,0.05323496,-0.6950804,-0.2746097,-0.5811238,0.640579,0.18818271,-0.51770145,0.50482863,0.0054526906,-0.08689899,-0.025610603,0.5902524,-0.18022157,0.475574,0.19282761,-0.6771869,0.91951215,-0.4695681,-0.26836336,-0.44862562,-0.3542179,-0.864858,-0.3995821,0.18486017,-0.62781984,-0.17149146,-0.75119644,0.71499467,-0.9618156,-0.28128165,-0.26287478,-0.5048051,-0.5329445,0.29302442,-0.83006483,0.46133596,0.9026094,0.16063891,-0.18522353,0.6209957,-0.42921942,-0.45594284,-0.42822543,-0.5712697,-0.1867087,-0.41960287,0.51230276,0.033602644,-0.9733442,-0.3336658,0.7593776,-0.9773707,-0.60151935,-0.0074190935,-0.9079993,0.20708014,-0.83901906,-0.6641408,-0.05785125,-0.72738296,-0.14719872,0.32451993,0.3882267,-0.32094452,0.46860328,0.89673984,0.35737944,0.7962206,0.491653,-0.9641337,0.8882423,-0.5975337,-0.49820176,0.5277973,0.9828888,0.49167114,0.42399862,-0.2492694,0.72623086,-0.48065516,-0.7834445,0.75078315,-0.093918666,0.32271802,0.46008703,-0.55189526,-0.36022615,-0.9692604,-0.78450906,-0.7807461,0.79334944,0.3692862,0.8863248,0.4074423,-0.37364814,0.6324341,0.6857387,-0.63203186,0.46991932,0.6256464,-0.55008197,-0.2871084,0.72905326,0.02831495,-0.4509116,-0.18765002,0.23369281,-0.09727491,-0.80905306,-0.88699365,0.2018165,-0.83547544,0.81823665,-0.18143553,0.8710875,-0.5350487,0.43007123,-0.4215903,0.30641618,0.92648876,0.12418929,0.28583312,0.7133178,-0.47311914,0.47605765,-0.14317346,0.93468994,0.39124322,-0.6198258,-0.2685718,-0.09578122,-0.7944158,-0.17233709,0.64165694,-0.63004816,-0.16911878,-0.20792161,-0.0028149236,-0.40264538,-0.511593,-0.62199104,-0.2955503,0.958887,0.98125935,0.808062,-0.14686467,0.7881526,0.0047322074,-0.038230244,0.11741053,0.41010123,-0.24322952,0.8820323,0.21296364,0.78063405,0.4564695,-0.5802692,-0.7913673,0.97128665,-0.9797881],"23":[0.91290724,0.25545838,-0.88888013,0.8408659,0.24819857,-0.18740617,0.7345641,-0.49884847,0.5102168,-0.24735841,0.19389488,-0.78346014,0.96165687,-0.53446954,0.53998,-0.48650947,0.6900945,0.36927158,-0.8502179,0.83488476,-0.20163782,-0.9501981,0.9955167,0.32179812,-0.44995445,-0.23696695,0.43550074,-0.18517551,0.7648007,-0.3077167,-0.35135266,0.54688394,0.4479411,-0.0884282,-0.54676306,-0.31160477,0.5142165,-0.30949998,0.53534794,-0.63209605,-0.53777313,-0.9267113,-0.0742999,0.4346155,0.52212477,-0.7215138,0.45422068,-0.95038784,0.79202664,0.3255855,0.3791839,-0.962421,-0.58911276,-0.05734932,-0.23410706,0.86439806,-0.8407266,-0.9839177,-0.12524644,-0.6086764,0.81216794,0.81887996,-0.99284273,-0.21887362,-0.68282926,0.92656463,-0.055761974,0.72804457,-0.0045379214,0.99245125,-0.5520684,0.6077213,0.22641426,0.014895907,-0.46638283,0.8566274,-0.61949205,0.2333686,-0.528348,0.9093882,-0.422327,-0.9649871,0.3572446,-0.9127849,0.2780011,-0.44907096,-0.39614454,0.28456077,-0.18443651,0.3373661,-0.57176256,0.14349166,0.31437403,0.44534189,0.16315572,0.6060903,0.68442774,0.06830672,0.56536597,0.7182162,0.7478317,-0.7272837,0.6577126,0.7749487,-0.50828546,-0.76041955,0.19526185,-0.25540897,-0.990397,0.4438085,-0.036467675,0.40722474,-0.48503864,0.02031352,-0.06799583,-0.24532188,0.64236367,-0.3394287,0.83072555,0.66793114,-0.36491513,0.34508833,0.93714964,-0.26142585,0.2086189,0.62368584,0.91331977,-0.15540142,0.115711905,0.3223503,0.58872235,-0.13675858,0.3282822,0.95748675,-0.8108887,-0.6522653,0.14446841,-0.8372108,0.23448037,-0.6844287,0.27495596,-0.5477201,0.9483825,-0.22483562,0.32784283,-0.09767134,-0.3329052,-0.26074916,0.7102195,0.06255556,-0.5504767,0.7113844,0.9007138,-0.81194544,-0.7778773,0.01017225,0.14748652,-0.92714304,0.99375904,0.5304101,0.55147237,0.30860087,0.87826675,0.9541566,0.8377831,-0.85528183,-0.8631144,0.21028328,-0.76307094,-0.06530193,0.19352254,0.18591386,-0.046662685,-0.33327994,-0.53764284,0.73207295,0.8089728,-0.629386,0.8809332,-0.2318976,0.2830339,-0.58496666,-0.066654794,0.6623029,-0.6882003,0.4681712,-0.30904666,-0.2638349,0.13388707,-0.9247503,-0.34486303,-0.38994253,0.70114905,-0.32375178,0.21570331,-0.8105678,0.6518467,-0.94941473,0.038618725,0.17180498],"24":[-0.04923866,-0.66613096,-0.14268133,0.23449162,-0.5021346,0.47667643,0.89860606,-0.31441545,0.0310576,-0.49086973,-0.47709042,0.53706336,0.13365549,-0.33654234,0.47705844,-0.20815971,0.18875225,0.7259313,-0.9974795,0.7020815,-0.43999562,-0.6478978,0.8022761,-0.46432802,-0.55867535,0.011117682,0.40941146,-0.7755902,0.9100378,-0.63110965,0.4587712,-0.22794399,-0.41500273,0.5902511,-0.72508144,-0.88520104,-0.13607319,-0.41905522,-0.34530595,0.33307767,0.6073637,0.11280859,-0.3972877,-0.5460605,0.9255962,-0.22139251,-0.4391666,-0.43481103,-0.4367118,0.9753877,0.44906378,-0.83416563,-0.5966825,0.38553175,0.034086775,0.14075314,0.76639783,0.9326325,0.35626987,0.30825323,0.4615578,-0.24724251,0.26461074,0.019533407,-0.43906733,-0.46795523,0.5772295,0.5134508,0.48483083,-0.9359952,-0.28856015,0.79768294,-0.756696,-0.9249007,-0.85215545,0.92012185,-0.7939503,-0.4815316,0.69999427,-0.024277406,-0.24556696,-0.24807578,0.57960445,0.17758335,0.38174984,-0.4962345,0.16960244,0.5143733,-0.450671,0.57813424,-0.29169402,0.59346247,-0.052314762,-0.66465133,0.6929186,-0.6691556,0.5768807,0.98658895,0.003609286,0.6659074,-0.17662512,-0.4007652,0.100723535,-0.3627883,0.52588874,0.7745505,-0.79549724,0.9309445,0.9907994,0.21754184,0.88474524,-0.5118702,-0.63318205,-0.19026159,0.9937677,-0.99562675,-0.9987558,0.28716522,0.8384964,0.9903992,0.90106016,-0.69529957,0.8051648,-0.9626293,-0.9196892,-0.29929414,-0.7257999,0.2868497,0.19253865,0.6392523,0.45850468,0.3775992,0.25139496,0.84727937,-0.35970795,-0.802682,0.65240353,-0.44560993,-0.31665513,0.39293563,-0.558924,-0.14644668,-0.8247107,-0.31787473,-0.9444509,-0.9353574,-0.24768868,0.63047206,0.5730298,-0.93923205,-0.089293666,0.7236275,-0.3414746,0.3880848,-0.6305064,0.5029769,0.7678033,0.3854592,-0.6104448,0.34720433,0.5099346,-0.9646167,-0.6522575,0.48959532,-0.49616715,0.338986,0.45730326,0.7461326,0.57210475,0.28911307,-0.27048585,-0.7707883,-0.45171157,-0.36681795,0.42639565,0.85383034,0.99061495,0.9021104,0.71928316,0.6062573,0.299348,0.07962167,-0.837559,-0.7097877,0.4985879,0.92438024,-0.94872373,-0.42959782,-0.55215275,-0.1181436,0.8319378,-0.10087479,0.5922356,0.03339175,-0.23055884,-0.4897617,0.93361616,-0.82856107,-0.48118418,-0.16264026],"25":[0.9023489,-0.26128304,-0.8674296,-0.891678,-0.3142058,-0.8528795,0.20624691,-0.70673937,-0.30611682,0.10010242,0.63898915,-0.29214904,-0.41153675,0.45332986,-0.8382516,-0.40375647,0.73583776,0.22257705,-0.18201743,-0.13833174,0.6423642,0.5733061,0.308204,-0.84614944,-0.43762764,-0.7264537,-0.08623786,-0.090489246,-0.73932344,-0.6149303,-0.74162555,-0.9719807,-0.14218359,0.09069404,0.036883716,-0.5310355,0.6403382,0.66087323,-0.14272526,-0.4287865,0.13607147,0.7596464,-0.4131382,-0.8075349,0.26503488,-0.8089454,0.54379624,-0.19021557,-0.6101742,0.09204833,0.69745684,0.16131726,-0.7445806,0.5929953,0.011441654,0.6705576,0.75628185,0.30095807,0.49019286,-0.24871063,-0.479063,0.51686877,0.7171826,-0.54075044,0.5814828,0.18133073,0.8502695,0.74135244,0.71846795,-0.80573964,-0.0870558,0.72536284,0.120022066,0.54514015,-0.90595156,0.34401366,-0.328418,0.0724801,-0.44336766,-0.31553942,0.6183453,0.78114146,-0.17743732,0.10591665,0.5861577,0.6279851,0.28519422,0.90290195,0.82772595,-0.65561783,0.42915043,-0.44841307,0.40402633,-0.6595491,-0.06725044,0.19134732,-0.84303427,0.13916712,0.99542564,-0.42255563,0.36737227,-0.46298543,0.8317609,0.5902994,-0.26671773,0.28710064,0.13849947,-0.22605295,-0.74486756,-0.08822981,-0.46303922,0.022077298,-0.43921086,-0.51052517,-0.30257294,-0.19840838,-0.10830763,0.9604254,-0.9045517,-0.74172634,-0.5067792,0.3862302,-0.7006149,-0.18158156,0.83924276,-0.57549435,-0.30601197,-0.8459338,0.3353489,0.03710837,0.29311493,-0.6159701,0.48937747,0.89967626,-0.4292143,0.10479996,0.8307807,-0.6906624,0.9299555,-0.34287786,-0.053139567,-0.3013384,0.7254362,0.70834315,-0.65857565,-0.7585949,-0.640382,-0.41385484,0.40316248,0.17278224,-0.521513,-0.57856995,0.7613633,-0.16885313,0.7584296,0.11654264,-0.9725211,0.725338,0.98793805,0.66314983,-0.48324776,0.83854586,-0.9321169,0.35603732,0.5379343,-0.4495612,0.838072,0.5459064,0.1246263,-0.071651906,-0.26694223,0.7038351,-0.44532198,0.28909597,0.9779156,-0.35763377,0.83169544,-0.14383306,-0.0030420143,-0.44191343,0.5052415,0.15055606,0.7224538,-0.8767052,-0.71691495,0.06319999,-0.3285678,0.95590967,-0.72323453,-0.0073391604,0.91975296,0.8359562,0.8828549,-0.22112902,-0.96679074,-0.4420335,0.75000465,0.54537815,-0.7606426,-0.7480954],"26":[0.45434847,0.6164672,0.7768538,-0.27581963,0.3595548,0.1587556,-0.49268335,0.5940729,-0.6290924,0.18394637,0.62466085,-0.85896933,-0.989694,-0.3015958,0.19011924,-0.007003553,-0.4634948,-0.150265,0.709467,0.7466646,0.5964372,-0.63201153,-0.7513344,-0.033748757,0.9201245,0.3515915,0.5967786,0.3112661,-0.5915654,-0.6664558,0.88352025,-0.14474897,-0.32741025,0.81370556,-0.072389334,0.39642248,0.16452588,0.33245328,0.6859555,-0.29223242,-0.8675025,0.96051526,-0.98883,0.35392678,-0.42915672,0.09199175,0.3434194,-0.66962653,-0.4037977,0.41961285,-0.23210916,-0.83301556,0.9813852,-0.13149892,-0.36785734,-0.3706026,0.3898747,-0.12682648,-0.3964669,-0.3205718,-0.028800178,0.8061619,-0.64133745,0.80160004,0.47810793,-0.4688871,-0.102990866,-0.99999017,-0.60311174,-0.5562915,0.14520127,0.48371226,0.49132454,0.14107339,-0.16331466,-0.26561776,0.9229874,0.8630638,0.8149003,0.20369975,-0.25660333,-0.13553354,0.35027623,0.78390586,0.65661937,0.89994115,-0.058726672,0.2326037,0.5586064,0.17393723,-0.5292215,0.35554352,0.77819043,-0.27330613,-0.35617033,0.83098125,-0.5004669,0.009362798,0.34552643,0.8138332,0.50086683,-0.8235819,0.20743768,-0.78740245,-0.294358,-0.7701285,-0.35726485,0.17824091,-0.37709638,0.8838719,-0.09430113,-0.7988602,0.3937909,-0.18902338,-0.5758047,0.37758276,-0.26724193,0.777055,0.53226143,0.08384538,0.4005674,0.4437586,0.64967763,0.781164,-0.6517241,-0.44895497,-0.96447176,0.39933982,-0.28683278,0.7200944,0.15732417,0.02204865,-0.888894,-0.26322603,-0.4265029,0.067479044,-0.8465101,0.829626,0.05148911,-0.2478877,0.7099976,-0.32455063,-0.5272333,-0.20498382,-0.86949325,0.10867552,-0.42937854,0.88112116,0.40012398,0.7309445,0.86073214,0.512248,0.91888,0.0863208,-0.79608697,0.35253102,0.61591595,-0.51071763,-0.66851443,0.4615379,0.29790738,-0.7001164,0.15485953,0.8214279,0.91426796,0.9953846,-0.8264289,0.50465786,0.39739844,0.89007854,-0.010405164,-0.7663567,0.7673899,0.50647455,0.60499436,-0.7869036,-0.48522434,-0.3178746,-0.5845297,-0.17107382,0.8550786,-0.80802643,0.095566295,0.984682,-0.7100916,-0.30384365,-0.89415216,0.19512716,0.3569266,0.44917524,-0.7585805,-0.75011086,-0.8567203,0.29827395,0.579859,-0.91281843,-0.16865833,-0.44449395,-0.66305286,0.1365184],"27":[0.40353188,0.85144764,0.60521334,0.51836437,0.18207312,-0.037897374,0.27964723,-0.26272276,-0.8166173,0.007991909,0.6060146,0.14758117,-0.27907667,-0.67093587,-0.9692412,-0.24780253,-0.74405175,0.91653264,0.0939096,0.9398796,0.63581616,0.7518983,-0.66050506,-0.70685685,0.6964742,-0.9264028,-0.5389057,-0.7073537,-0.094224185,0.14461675,-0.29576868,0.94316214,-0.6958448,-0.95519054,0.32342443,0.88882744,0.32187656,0.17408605,0.11712816,0.14404298,0.3936471,-0.61872846,0.92314583,0.84511006,-0.60278356,-0.038071707,0.89180386,0.7367624,0.47295913,0.6239188,-0.10061979,-0.9466161,-0.19442238,-0.8117951,0.4699365,-0.0573861,-0.59513384,-0.5542638,-0.70521283,0.32969102,0.3409718,0.26384762,-0.33366776,0.60970664,0.259088,-0.45279554,-0.40185872,0.35248798,0.8758114,0.6267427,-0.44716343,0.13646965,-0.28036517,-0.6630517,0.44933352,0.38434607,0.42082602,-0.07982336,0.6494199,-0.40300345,0.66242856,0.51827884,-0.8629918,0.011598268,0.053042177,-0.31735802,-0.28546014,0.14988771,-0.58623695,-0.7485006,-0.44116312,0.88841057,0.45458534,-0.8828231,-0.18785995,0.9226885,0.31869933,0.8277562,-0.68688554,0.87019753,0.812271,-0.6834805,0.1933986,0.057228457,0.9294808,0.6174206,-0.85428965,-0.6543532,0.045838363,-0.19821444,0.90915316,-0.4959739,-0.6810865,-0.57363385,0.85328907,-0.29665333,0.6557003,-0.48701212,-0.9915008,0.3854806,0.3425891,-0.68163544,-0.30289912,-0.22781916,-0.43312308,-0.8652576,-0.25835133,-0.9263283,0.9896469,-0.6106953,0.2532595,-0.6613811,-0.47752565,-0.009729038,-0.0876537,-0.8753767,-0.39591402,0.21916181,-0.3156038,-0.119295485,0.38030928,-0.42132124,-0.61208785,0.06540846,0.1954125,-0.12684536,0.7655656,-0.88054925,0.38625535,0.6197407,-0.5737377,-0.5746778,-0.54381084,0.48418117,-0.67215675,0.34860003,0.25560322,0.21306488,0.20644,0.47507966,0.79502,-0.5134463,0.22012793,0.15121233,0.35257366,0.5994249,0.39268422,0.55411434,-0.9401401,-0.73916084,0.06949643,0.6140463,0.2611351,-0.06370814,0.09543564,-0.46692342,-0.18329923,-0.091112494,-0.106561705,0.6800285,-0.81937957,0.92223316,0.79189557,-0.28327668,-0.43456316,-0.95906043,-0.41076192,0.20802696,-0.017329851,-0.5440309,-0.4406749,-0.5063879,-0.9663608,-0.09753887,-0.25995007,-0.072374366,-0.72294253,0.78927374,0.0019566005,-0.93464184],"28":[-0.7608606,0.083383605,-0.12926112,-0.97501796,0.23958255,-0.013342015,-0.06918357,-0.0599802,0.018437998,0.13649777,-0.34803715,0.15003854,0.102070525,-0.642767,-0.5391438,-0.1659235,0.051637016,-0.4293317,-0.7697991,-0.75230896,-0.83230126,-0.2681639,-0.06442244,0.5660966,0.7390191,-0.8662591,0.31936663,-0.050330304,0.31260616,-0.6032281,0.07232779,-0.37150475,0.6859238,0.766491,0.8371786,0.13942516,-0.51024926,-0.27418292,-0.5694135,0.38446343,0.864434,-0.23380564,0.5289027,-0.7057197,0.8315428,0.9749191,0.19474077,0.5823548,-0.35957667,-0.12377138,0.31821322,0.25422284,0.16703221,-0.3487944,0.9122425,-0.788654,0.10282724,-0.061449,0.1730848,0.93365353,-0.24558635,-0.5012096,0.7538168,0.9630474,-0.9835553,-0.9698677,0.8430656,0.25817022,-0.91189307,0.114230566,0.61038065,-0.88730687,-0.17838728,0.9964394,0.4362046,0.045869555,0.03871877,0.27433962,-0.4607584,0.27708793,0.4456407,0.2245174,0.30531633,0.47162434,-0.16540432,-0.8074054,-0.66349643,0.370264,-0.8589308,0.66830295,0.25975928,0.08985979,0.057796605,-0.8581675,-0.9478286,0.55734485,-0.105670385,-0.2827404,0.9493087,0.7280592,-0.51308215,-0.31912693,-0.7930751,-0.45162848,0.88267606,0.4349034,0.99438643,-0.92635036,0.3300389,-0.17720528,0.55141133,0.2870307,-0.32003227,0.31028408,-0.7441637,-0.78996265,0.12187672,-0.312605,-0.14963362,0.11013963,0.2895325,-0.25888768,-0.105055474,0.10661754,-0.89947414,-0.1341277,-0.017251132,0.847081,-0.35256925,-0.20906238,-0.39062977,0.50880724,0.581775,-0.48404023,0.19492367,-0.40134454,0.3695964,0.14415197,-0.41960582,0.68453896,0.0919739,-0.7101227,0.0034769198,-0.9044212,-0.83644605,0.47304544,-0.7862415,-0.17925149,-0.11634728,0.089676894,0.26646012,-0.42002404,-0.58272874,-0.2723807,-0.16475867,-0.75225,-0.36608642,-0.555045,0.15595259,-0.5968829,0.7264559,0.97491956,-0.36115664,0.1651463,0.6997911,-0.15476276,0.35549167,0.83518547,0.9139405,0.678965,0.16135064,0.72117347,0.7884347,0.31500795,-0.84801733,0.3215278,-0.46023256,-0.45190334,0.17088312,-0.8859378,0.7374167,-0.7244752,-0.7903217,-0.6503091,0.46700794,0.6517818,-0.9061408,0.6637396,-0.5868101,0.24452695,0.6921504,-0.5026565,-0.5460981,0.2895888,-0.5988134,-0.82880265,0.90477633,0.56652117,-0.34089136,-0.26343107],"29":[0.49789253,0.83503824,0.029100554,-0.80193025,-0.001071279,-0.12177047,0.03194079,-0.55108154,-0.11752035,0.83765525,0.5291675,-0.75166565,0.8669313,0.49656656,0.40344858,-0.14845909,0.6159629,0.6686596,0.31597704,-0.9235005,-0.276052,-0.94137543,-0.55681956,-0.15739717,-0.89476186,-0.83859396,0.5765653,-0.8340249,0.3310875,0.559317,0.49910384,-0.2769045,-0.2491894,-0.8096295,-0.8974251,-0.95885336,0.15419453,0.98854285,-0.30241898,0.84633034,0.083795875,-0.453041,0.6649095,0.5462137,-0.09878898,0.6988771,-0.3097572,-0.9518933,-0.1572794,0.21464516,-0.84157616,0.23635861,-0.8249424,-0.28696063,0.223578,0.02733248,0.189394,-0.74954414,-0.507949,-0.70393175,0.22748272,-0.7021754,-0.227476,-0.11880663,-0.10100773,0.69539833,0.45492017,-0.421711,-0.9357459,0.80428857,-0.97497123,-0.74075943,0.16612165,-0.996264,0.7336979,-0.2775046,-0.8676773,0.7695049,0.72122556,-0.5851279,0.8878999,0.92416596,0.47401255,-0.9908736,0.3700386,-0.04921681,0.15325496,0.58998233,-0.30415636,-0.584958,0.8010983,0.09569807,-0.25750172,0.28825632,0.4585891,0.33845666,-0.7074532,-0.51192987,0.61697435,0.30694103,-0.42995486,0.88870996,-0.93157756,0.38943827,0.637918,-0.51013225,-0.78770673,0.60656285,-0.41272745,-0.9919697,0.14164399,-0.9000439,0.62147105,0.21104537,0.9184055,-0.97027725,-0.5120126,0.13129617,-0.5737766,0.83337337,-0.52005607,-0.015593806,-0.5150408,0.41167903,-0.19567429,-0.8861475,0.08684911,-0.83046377,0.57025033,-0.44178414,0.0530406,-0.42607126,0.5406125,-0.42917147,0.40545708,0.03017058,0.22002363,0.14930518,0.8717684,0.024923194,-0.5727782,0.3070535,0.11639496,0.87679917,-0.340856,0.7420187,0.81912476,0.20734532,-0.4515461,0.34768385,-0.56352234,0.8865235,0.9417451,-0.078316174,-0.45435786,-0.7027178,0.44929096,0.39592284,0.18932128,-0.0331702,-0.27980974,0.14895041,0.6607673,-0.09009144,0.6024809,0.98035467,0.84705585,-0.9095554,0.7102307,-0.36079305,0.09734046,0.69407755,0.8158162,0.7043779,0.8898632,0.16625187,-0.49523863,0.066008754,-0.65652263,-0.6179748,-0.5971075,-0.8546353,-0.7104314,-0.64726603,0.11223454,-0.7310051,0.5536691,-0.71603185,-0.36029848,0.8612146,-0.99761504,-0.22513664,-0.31482995,-0.7942738,-0.333512,0.882923,-0.75053954,-0.079131655,-0.47469357,0.22428615],"30":[0.3023118,-0.8095533,0.48680514,0.7413309,-0.48964855,-0.38469356,0.38937667,0.9030966,0.8343731,0.65582174,0.24384949,-0.3475601,-0.47575414,-0.6463794,0.19901896,-0.18307099,0.74967915,-0.36896753,0.5034131,-0.04090049,0.35791424,-0.46301705,-0.39857358,0.053256266,-0.89431614,0.8501159,-0.3927901,0.82355064,-0.3963924,0.025865061,0.22494933,0.34133908,0.33669996,-0.4279447,0.47102055,-0.62666726,-0.15877074,-0.44501543,0.16245335,0.38065863,0.87344027,0.8766478,-0.6786542,0.59739804,-0.0019108723,0.4159901,-0.31742984,0.33179662,0.23426875,0.1272316,0.76627785,0.23381348,-0.17691636,0.03776541,0.28318256,0.7957547,-0.29552722,-0.0328378,-0.1584685,-0.40108117,0.7673968,0.9356942,-0.7824285,0.19818613,0.45718345,0.58798736,-0.4075411,0.404277,-0.8515131,0.02617749,0.6800122,0.4764863,0.39511165,0.19162247,0.7758763,0.32957944,0.4193487,-0.67936915,0.27294618,0.7493441,-0.47837284,0.4658133,-0.18305948,-0.036035903,0.8951472,0.018985188,-0.25399092,0.08483986,-0.983452,0.50623846,-0.54579043,-0.64821374,-0.72419494,-0.31407896,-0.08317736,-0.19165747,0.64092106,0.057620637,-0.19967441,-0.1298204,0.322718,0.38891613,-0.34021875,-0.7764919,-0.13373742,0.25523463,0.035509173,-0.497337,0.06449828,-0.0378452,-0.7539682,0.16688266,-0.037072495,-0.033939052,0.8589444,0.59351623,0.83666646,-0.5634945,0.7218549,0.12296282,0.6436056,0.9401836,0.06751609,-0.8456392,-0.7708481,-0.3151494,0.9243301,0.96479255,-0.7561293,0.8334117,0.28455275,-0.28628775,-0.2813921,-0.9443174,0.84583145,-0.97713983,0.77092355,-0.6506235,0.87057406,-0.10610346,0.14064303,-0.75468326,-0.6255668,0.18443057,0.7321167,-0.8923703,-0.009662064,-0.36468214,0.023292819,-0.09696129,-0.2728637,0.90761334,0.41552654,0.17922306,-0.24585563,-0.91737735,-0.096920185,-0.54365873,0.20178397,-0.2978328,-0.98553526,-0.71272695,-0.38514838,0.043315355,-0.6419215,-0.8655697,0.982769,-0.89906263,-0.02156983,0.8424275,0.11100721,0.45478448,0.9065241,-0.8292679,0.59074837,0.71824586,-0.1537666,0.8548287,0.5441594,0.93098646,0.2576295,-0.47834715,0.46749806,0.6778696,-0.6145903,0.9609841,-0.027312376,0.5143106,-0.47070682,0.07901508,-0.12166496,0.8410388,-0.8280348,-0.54434395,0.78670114,-0.35498363,0.07108445,0.021894846,0.6039446,0.99480176],"31":[-0.99066174,-0.30817455,-0.5408384,0.017000992,-0.26225296,0.35155094,-0.15151617,0.8977228,0.49989268,-0.14164653,-0.10372944,-0.09018032,-0.046211984,0.19133341,-0.6149197,-0.3781045,0.094067045,-0.85402495,0.59157604,-0.47972456,0.5842351,-0.9290235,0.7877885,-0.5791383,0.22410105,-0.7585829,0.28502735,0.6683108,-0.11214102,0.2986384,-0.609523,-0.86908686,-0.51310027,-0.8225123,-0.7977714,-0.94764715,0.6557576,0.93850195,0.28090107,0.6142415,-0.17350066,-0.18440188,-0.93248534,0.42586362,0.15705921,0.7864195,-0.0053896126,-0.11472308,0.5893638,0.029734267,-0.17848122,0.8752689,0.29219684,0.8630215,-0.86209345,0.6206975,-0.9078851,0.39346007,0.29333416,-0.75221217,-0.08986139,-0.44211912,-0.3790572,0.70703316,0.3959006,0.11009504,-0.04828435,0.9340645,0.49633464,0.896153,-0.06010343,0.5422781,-0.8820219,0.23846355,0.88177323,0.35992298,0.3487771,-0.1330132,0.48880398,0.2051264,0.024932658,-0.94921553,0.6721423,-0.6388723,0.84071887,-0.17882854,0.41927922,-0.060411915,0.044544745,-0.7810868,-0.46517867,-0.55108136,-0.052456774,0.30979154,-0.042520247,-0.8040039,-0.7029543,-0.26144972,0.27610123,-0.89876646,0.9376479,-0.76517665,0.9168701,0.11501974,-0.13431823,-0.77091074,-0.9351672,0.9478816,-0.908112,-0.19088732,-0.63746077,-0.4891531,-0.39264646,-0.7862344,-0.60139096,-0.7792349,0.56806934,0.0842749,-0.5476821,0.66154134,-0.2630696,-0.49332696,0.50923157,-0.512515,-0.7194956,-0.087640084,0.2854647,0.22072527,-0.4364354,-0.4606718,0.033842042,-0.8101442,0.66306275,-0.26779944,-0.71990657,-0.9199959,0.99708873,-0.41332567,-0.09786859,0.5179988,-0.79106915,-0.84837925,0.60469407,-0.46543097,0.51585484,0.7096853,-0.41462862,-0.5278671,-0.8224663,0.35121197,0.21156426,0.7488425,-0.8213688,0.2883307,0.19680369,-0.12714395,-0.8156521,-0.5625115,-0.15714726,-0.55834013,0.16263881,-0.9558784,0.6162719,-0.6572974,-0.99905753,-0.22654624,0.49522868,-0.06402383,0.20729871,0.051227212,-0.7979159,0.7897477,0.54078597,0.7666113,-0.33973587,0.96526396,-0.9407851,0.56967133,-0.5801271,-0.8391718,0.9921909,-0.47539452,-0.9681366,-0.10858476,0.39611992,0.34346205,-0.60457003,0.5030139,0.13964784,-0.52669865,-0.10274357,-0.72177225,-0.72093695,0.8200729,-0.7964552,-0.6210873,-0.93288,0.42130992,0.86650515,0.8810143],"32":[-0.5070125,-0.2923496,0.9745067,-0.782291,0.57206386,0.97698146,0.13278194,0.43908903,0.28916562,0.21664016,0.23655282,-0.57657236,-0.8572158,0.47970402,-0.635987,-0.00384305,0.7001134,0.77936214,0.08217244,-0.4266854,-0.58361864,-0.079906575,0.6362655,-0.23305571,-0.24186145,-0.15501046,0.31154722,0.42062497,0.59500843,-0.9166958,0.37753096,0.20759846,0.38144368,0.096446544,-0.34980282,-0.45417047,-0.7503587,-0.73351914,0.88997245,0.7863119,0.7219821,-0.9395867,-0.26096964,0.32575217,0.048706986,-0.64653695,0.19606997,-0.14119482,-0.66018784,0.28222016,0.4424593,-0.28027192,-0.027804747,0.116627924,0.9841032,-0.6400795,-0.23006992,-0.8078628,-0.22757693,0.79247755,-0.24571039,0.60404724,0.98071444,-0.16429883,0.07667884,0.42868167,0.50900006,0.64391065,-0.9984399,-0.8028204,0.05770768,0.40193975,0.1949848,-0.503647,0.7571131,-0.57350296,-0.79415804,0.9105479,0.32652467,-0.50802344,0.73855966,0.9229631,0.39769623,0.4662752,0.96729815,0.9307922,0.51499206,0.7543474,0.23333088,0.5369268,0.39302397,-0.04623163,-0.8393435,-0.3373351,-0.49575013,0.50612,0.14827344,0.14273313,-0.5089811,-0.50132483,0.1845885,-0.008530919,0.9749687,-0.49842113,-0.13285527,-0.45274004,0.75606084,-0.6438382,-0.66270703,0.28619725,0.23946086,-0.044569593,-0.5497727,-0.27423263,-0.79484373,0.07778966,-0.68619937,-0.7911767,-0.46793103,0.21468015,0.03141148,-0.22828528,0.5632816,0.7845515,0.043122754,-0.784146,0.15662394,-0.75498974,0.70379186,0.45040318,0.3732061,0.38670054,-0.9538823,-0.12763464,-0.13977651,-0.15346348,0.9268707,0.3106621,-0.070722476,0.4757624,-0.467006,-0.23045066,-0.23062128,-0.4101811,-0.8460735,0.6991814,0.7531503,0.16654192,0.41874787,0.84789926,0.05170154,-0.1894382,0.40167806,0.7989349,0.58397704,0.56691927,-0.73310333,-0.90128773,-0.5734362,0.41977504,0.31853878,-0.7923431,0.32091752,-0.25295976,-0.036002345,-0.048199255,0.64536756,0.99439317,-0.020815236,-0.36812934,-0.6003177,0.63017595,0.60618424,-0.49980667,0.030014843,0.04236874,-0.071250826,0.67374885,-0.58427924,-0.6528259,-0.48491752,0.08222832,0.19478266,0.86626345,-0.12045432,0.6382617,-0.20987268,-0.7747979,-0.59953064,-0.35736033,0.619957,0.24669755,-0.3481346,-0.6571074,0.79988825,-0.88997215,-0.9590031,0.6750193,0.7812517,-0.3415794],"33":[-0.38935143,-0.9526142,-0.6672923,0.44701678,-0.7678249,0.44011512,-0.047882874,0.36150193,-0.0156203825,-0.71475035,-0.9888006,-0.009945112,0.08043507,0.07069818,0.5546988,0.89981216,0.43882695,-0.76845837,0.47076538,0.043243155,0.49335548,0.5510366,0.76675826,0.5836919,0.2750783,-0.54038775,0.9594677,-0.8939727,-0.598228,0.94523585,-0.2973238,-0.027319942,-0.49227187,0.5337516,-0.961984,0.7672137,0.3278681,-0.8861474,0.7543932,-0.0445707,-0.44288027,-0.7490775,-0.8441335,-0.065826066,-0.95784086,-0.60408604,-0.90245163,-0.47607544,0.25025582,0.6701742,0.36572954,-0.36143607,0.18595116,-0.39674836,0.112850375,0.34935617,0.30029613,-0.25392905,-0.77033824,0.22004624,0.012842365,0.31725934,-0.8147137,0.06255215,-0.060801532,0.83280665,-0.82278305,-0.096512474,0.4541907,-0.87547755,0.15202948,-0.5737888,-0.6916947,-0.4250005,-0.57270646,-0.19719398,0.41773552,-0.21542206,0.83747154,-0.6950901,-0.09051326,0.48647243,0.7652975,0.6247228,-0.60681796,0.35772464,-0.8048984,-0.90345883,0.75774264,0.6385157,0.8327485,0.7458234,0.071481764,-0.5235678,0.47402692,-0.8039509,0.9277919,0.9611026,0.54687566,-0.94605917,-0.6695851,-0.26745066,0.6216181,0.9895737,-0.39115772,0.07100215,0.1941685,0.39118633,0.5657157,-0.9619307,0.29958874,0.71624404,-0.4008836,-0.7382319,-0.66761655,-0.7182283,0.18365249,0.9520385,0.9411698,0.17074639,-0.80198836,-0.9022356,0.16479683,-0.34898126,0.9363212,-0.9776827,0.9738369,-0.71725434,0.7341554,0.45949176,0.951157,0.96069264,-0.104685426,-0.8908323,-0.1781669,0.20521696,-0.053322613,-0.9460088,0.0400561,0.003427283,0.97025335,-0.61065745,-0.71183455,0.45355836,-0.72953856,0.9248937,-0.9400781,0.13181403,-0.85899657,-0.28117827,0.08517194,-0.7516097,-0.7365087,0.020261446,0.8132358,0.63134253,0.706519,-0.4062247,-0.9313875,0.17613198,-0.2825069,-0.55691296,-0.88516897,0.612676,-0.73496723,0.56220406,-0.6699415,-0.46231732,-0.76032317,-0.02831619,-0.35547963,0.9636807,0.26037148,0.51820314,-0.14173311,0.27746868,-0.62325794,0.5294741,0.17861584,0.82303494,-0.15150504,0.9896599,0.66057515,-0.9544264,-0.44836676,-0.43866658,0.18466288,-0.55384886,-0.757737,0.96347195,-0.009419719,0.89703786,0.6596833,0.98065156,0.10529345,0.07669738,0.5209065,0.80543214,0.019250691,-0.18592863],"34":[0.013890638,0.37474298,-0.7884453,0.76088655,-0.6512362,0.7411672,0.6687949,-0.4310482,-0.25205296,0.26302776,-0.3322005,0.3624879,-0.9614436,-0.0841644,-0.51843584,-0.0400184,-0.32268107,-0.031702984,-0.93681663,0.6676337,0.47269744,0.13512045,0.7874783,-0.58515775,0.99101084,-0.53896755,-0.58604515,0.26638737,-0.25981703,-0.9605738,-0.5102,-0.5282629,-0.7495819,-0.9905843,-0.92525977,-0.18602328,-0.92083204,0.3933132,0.31104255,-0.9681177,-0.0996887,-0.22700225,-0.28046626,0.6020558,-0.9697403,0.061814833,-0.25491816,-0.41164535,0.26659364,0.5132977,-0.23714831,0.74923044,0.2147684,0.28816262,-0.6055503,-0.72364813,-0.94478476,0.70912343,0.59716845,-0.08655959,0.7679819,-0.5480055,-0.64620215,0.6876705,0.06305401,0.5468557,0.15688898,0.57615095,-0.5702079,-0.31781143,-0.3663277,0.756746,0.20439233,0.6069131,0.51771563,-0.9350331,-0.72650546,0.31917855,0.7211391,0.7857088,0.24573769,-0.48196802,-0.21779715,0.89023924,-0.66869974,0.37204954,0.831965,0.54419297,-0.25721884,-0.96859574,0.34660506,0.7270972,0.19074637,0.89623576,-0.07114919,-0.32974,-0.31990537,-0.5818816,0.42959306,-0.93402314,0.1219531,0.48031065,-0.71354264,-0.60274446,0.7477337,-0.3342408,-0.55643094,0.64834654,0.8223036,-0.8403222,0.02999,0.08450181,0.31077048,-0.92237365,0.17603351,0.45338497,-0.15981038,0.09651586,0.093767956,-0.5298311,-0.8926267,-0.046166815,-0.53997934,-0.79760784,-0.57584465,0.97282237,-0.9994391,0.0073205186,0.39096513,0.020573972,0.82552624,0.7418795,-0.37989837,0.9110488,-0.9598603,0.48656118,0.99378556,-0.8224177,-0.39828968,0.3425433,0.2675382,-0.6759491,-0.39691848,-0.065069735,-0.32798433,-0.8507074,0.07749952,0.3521637,-0.43199614,-0.42944872,0.50305974,-0.47245038,-0.99641865,-0.9510712,0.5076199,0.5863224,0.4216484,0.911376,-0.39223287,-0.8391321,-0.53272617,-0.4824837,0.61463785,0.7811489,-0.30774304,-0.5677612,0.25603044,0.49618465,0.6004322,0.36793458,0.39573675,-0.87469953,-0.5225373,0.41874886,0.80031365,-0.32692382,0.015009752,0.7846962,0.9836521,-0.70310104,-0.19613391,-0.7783784,0.21674876,0.86088884,0.05042974,-0.8673579,-0.20756215,-0.10203051,0.38470462,0.33135593,-0.7931826,0.9959403,-0.6168463,-0.6907798,-0.26997253,0.13031712,0.16050066,0.80883723,0.5797873,0.49369276],"35":[-0.9390247,-0.7240616,-0.45371023,-0.35653222,-0.63278556,0.51540565,0.015069754,-0.16966482,0.48968786,-0.95214367,0.411369,-0.71333593,0.4011435,-0.76720595,0.016608795,-0.44504043,-0.95831263,0.8012672,-0.6988829,0.8722871,-0.33043227,-0.95784396,-0.48203984,-0.4577478,-0.68273824,0.9134678,-0.65120536,-0.6325792,0.92525446,-0.2825423,-0.52645314,0.39546278,-0.55702186,0.40826038,0.1507973,0.83828515,0.59894437,0.22556208,0.6152755,-0.05045134,-0.42609787,0.6772004,-0.72216624,0.2877263,-0.97212815,0.7590313,0.2089822,0.6492997,0.733463,-0.56908906,-0.97974956,0.78614193,0.9316128,-0.996304,-0.4586042,-0.608052,-0.7742243,0.2031148,-0.8221704,-0.34934777,-0.6233228,0.6454169,-0.97252816,0.21363394,0.013728423,0.6291359,-0.8351277,0.08846197,-0.1503828,-0.3002312,0.44045,-0.94670755,0.7808826,-0.45623788,-0.31525952,0.8543917,0.5315337,-0.19220622,-0.9084828,-0.019154664,-0.49171692,0.27568823,-0.6797779,0.9707124,-0.72735983,-0.059721574,0.4931355,0.18202946,0.2520634,0.7433554,0.13442668,0.9875514,0.12839608,0.41896325,-0.63461167,-0.7487959,-0.23000677,0.70425,-0.33039802,0.11253702,-0.18232906,0.08885342,0.9389264,-0.16498528,-0.3959304,0.5281709,-0.32869658,0.5391678,0.9067181,-0.0778023,0.58681446,-0.49360573,0.25275457,-0.16745882,0.17360929,0.14465384,-0.35332578,-0.3320374,-0.19046569,0.6535459,0.04211524,-0.45632148,-0.23496951,-0.98962694,0.20399004,-0.58926713,-0.7987077,0.29132304,-0.30276608,-0.24484108,0.70832306,-0.26511422,0.94944215,0.1026568,-0.02247912,-0.68313,0.44473138,0.73949295,-0.52911794,-0.4188758,-0.95723134,0.57852954,-0.8519513,0.20942038,-0.21579447,-0.36663562,-0.43987697,0.35891703,-0.30698365,0.30270028,0.21702842,-0.7500501,-0.64634985,0.46622708,0.044772137,-0.7404048,0.73556316,0.03910778,0.60065514,0.42151755,-0.93631196,0.8994737,-0.4610735,-0.40929812,-0.5680446,0.4703274,0.14505088,-0.48445356,-0.4551891,0.1794051,0.5765521,-0.19000384,0.97177327,0.2061286,-0.6821599,-0.22373587,0.30950513,-0.5324375,0.15063377,-0.067539684,0.76767576,-0.5547048,-0.48263168,0.21291132,-0.3399216,-0.54856455,0.17509416,-0.28474706,-0.5908858,0.14577119,0.43164822,0.4478931,0.48930815,-0.69354427,-0.4469127,0.53144675,-0.5054113,0.14722373,0.85646486,-0.7951212],"36":[0.15010588,-0.8101161,0.44894105,-0.97329056,-0.77910477,0.019730689,-0.6163447,-0.13465065,0.79697925,0.816847,0.31156716,0.18376468,0.10712539,-0.84505504,0.22122382,-0.47192013,-0.13395089,-0.82267195,0.60182834,-0.26165727,-0.059271384,-0.14018606,-0.32958803,0.19052331,0.568603,0.08556836,-0.17228642,-0.5605487,0.9670376,0.83480793,-0.34615302,-0.40253368,-0.66984534,-0.95734584,-0.32139575,0.38081512,0.86425984,0.32762247,-0.7682191,-0.3300702,-0.8158187,0.31438044,-0.22977278,0.8090052,0.39021516,-0.75222814,-0.51690954,-0.95990175,0.301338,0.7157327,0.6962653,0.352349,-0.76713175,-0.6877956,-0.3944915,-0.06221543,-0.081536226,-0.7329953,0.42533773,-0.0069012977,-0.50197107,-0.8957176,0.6914328,0.8905402,-0.7602173,-0.7088915,0.4245824,0.20309454,-0.5617175,0.6936557,0.42868,-0.47028494,0.4805322,-0.96870196,-0.4845385,-0.95057476,0.16161041,-0.25763464,-0.935677,-0.5476473,0.5906413,-0.98974186,0.043501362,-0.024144521,0.7578723,0.20713533,0.7657517,-0.08611414,0.355844,0.5545766,0.520054,0.2849389,-0.39060414,-0.7599603,-0.25528446,-0.8516624,0.62450963,-0.5752864,0.85778123,-0.33526254,0.3011589,-0.75532,0.54390466,0.29242587,-0.9334127,0.07013905,0.57765645,0.9802161,0.17252922,-0.7470316,0.17091337,-0.41503283,-0.02108011,0.6500684,-0.9171833,-0.9687164,-0.40164965,0.3560077,-0.83826023,-0.19354822,-0.7209618,-0.4639864,0.2016935,0.2433902,0.8267978,-0.01354025,0.70276815,-0.13514154,-0.9749603,0.59055597,-0.3156228,0.005918592,-0.59414154,0.76608956,-0.15188968,0.082462355,-0.6212829,-0.1632557,-0.8979272,0.038017873,0.8593024,-0.4068233,0.039954342,-0.8767701,-0.6164218,-0.097114235,-0.17797819,0.9764229,-0.16541056,0.015879765,0.5512476,-0.023339415,0.18126173,-0.16161177,0.74796796,0.8749681,0.67013735,0.16965757,-0.9907208,0.17543475,0.2442925,-0.6510903,-0.7122326,0.34781015,-0.34872183,0.20749858,-0.08271563,0.19395562,0.029084288,-0.38544038,-0.8127259,-0.2604429,-0.6823609,-0.16245526,0.31696606,-0.84282684,-0.84445274,-0.44427794,-0.99915105,-0.21361297,0.34179047,-0.9509643,-0.93654114,0.95825934,-0.38500684,0.7108375,0.64343655,0.16853225,0.9242728,-0.895905,-0.8810567,-0.80507296,-0.7847648,-0.11217396,0.7033874,0.5314356,-0.7980367,-0.4265719,-0.025685303,-0.25550404],"37":[0.17645735,0.7592906,-0.07934361,0.9931194,0.29621744,0.1754093,-0.8022182,-0.21578668,-0.35094073,-0.66407096,0.3562752,-0.8664602,0.105836876,-0.75993466,0.43799052,0.917731,0.12909846,-0.27990153,-0.9413043,0.09370281,-0.4843939,0.033911962,0.10997971,-0.05299987,0.58994144,-0.547359,0.09277866,0.027089007,0.14259657,-0.26958868,0.5247257,0.33465526,-0.55610484,-0.4198779,-0.6631847,-0.051916357,-0.9328984,0.50733364,0.5642632,-0.6095863,-0.6042891,0.06216656,0.10444275,-0.0053008483,-0.44507983,-0.085895345,-0.26840007,0.4273939,-0.7352432,-0.57391334,-0.8843375,-0.8545032,0.6408916,-0.5708514,-0.24360476,0.48853618,-0.17324007,-0.22362797,-0.9195695,-0.6692978,0.65885043,0.5394999,-0.15970492,0.78970706,0.046728346,-0.8380575,-0.6131908,0.00924282,-0.60827225,0.54977095,-0.012460189,0.87786466,-0.533774,-0.77867377,0.99108607,0.6220358,0.25297305,0.6019858,0.8302794,0.3698545,0.48601544,0.7510479,-0.0703955,-0.4370582,0.25508672,0.74547535,0.7844155,-0.54411376,0.28524333,-0.40162092,0.33047983,0.47227982,0.5806089,0.58299136,-0.9722108,-0.17619024,0.24693531,0.9703185,-0.4096458,-0.11108459,0.89496714,-0.7720662,0.0653667,-0.6531355,-0.50571644,0.3564408,0.9202154,-0.17301412,0.8076137,-0.6654246,0.30783567,-0.66802895,-0.047482483,-0.7837121,0.4978365,0.6905491,-0.147887,-0.28928736,0.25656566,-0.091214366,0.79259974,-0.43671894,0.117466725,0.1905776,0.24700862,-0.2606699,-0.34987393,-0.26242456,-0.80301034,-0.16142265,0.3545154,0.69396466,-0.58808005,0.12912054,-0.6823172,0.79046774,0.0028700246,0.43745884,-0.83765453,-0.6918076,-0.105812654,0.5922655,-0.5121711,0.7494279,-0.19338325,-0.5663175,-0.31671843,0.8911345,0.033370502,0.75864625,0.58086497,0.7743398,0.09514035,-0.023178194,-0.4291968,0.37635526,0.94851947,-0.43070132,0.763683,0.5955593,-0.19871157,0.8942407,0.33335736,0.06836135,-0.13972563,0.13688469,0.45871446,-0.9844417,0.37956226,-0.4937829,0.20255038,0.4604006,0.2539337,0.24125646,0.9190945,-0.75354445,-0.9919043,-0.49448553,0.17719023,-0.72349185,0.65608954,-0.28142816,0.0030139505,-0.59819955,0.24214698,0.42977035,-0.022447322,-0.11858959,-0.44547293,0.13826387,-0.84066236,0.70803684,-0.27393198,-0.7095287,0.37195516,0.14183965,0.09181758,-0.8230412,-0.33492032,-0.07101997],"38":[-0.030459166,-0.9991267,0.78119886,0.9086999,0.5731473,-0.765736,-0.7010523,0.956984,0.019670473,0.6304634,-0.8767456,-0.5263089,0.032836746,0.9651519,0.6657559,0.40300462,-0.3389423,-0.25275984,-0.90186447,0.7195269,-0.60572696,0.114380226,-0.070736036,0.7577034,-0.1356535,-0.5818257,-0.7297107,0.16636552,-0.97517604,0.18611848,-0.52274173,-0.7472059,-0.92693764,0.3525814,0.78832823,0.5395347,0.5882759,-0.97016394,0.42455578,-0.60409164,0.9899989,0.15649913,-0.4966143,0.8360357,0.46208653,0.2598059,0.23351513,-0.18869014,0.40409175,-0.5543836,-0.379374,0.13014495,0.062037304,-0.14222662,-0.6215325,-0.37845176,-0.42235482,0.6269762,0.761543,-0.60702366,0.682025,-0.89588636,-0.39321673,-0.71897364,-0.7299505,-0.822924,-0.81420785,0.24494672,0.7369809,-0.67197865,-0.20500578,0.48650342,0.08361641,-0.79477316,-0.7909765,0.4240825,-0.9136656,-0.57407725,-0.9091658,-0.25285074,-0.15236767,-0.4054913,-0.5601579,-0.094682924,0.18220507,-0.7350352,0.43106902,-0.59710383,0.75762343,-0.82087547,0.11053113,-0.11103499,0.18074349,-0.21637248,-0.3829221,0.4609925,-0.3902245,0.45962027,0.96797097,0.6385557,-0.7627121,-0.16057901,-0.82174784,0.22491445,-0.36418387,-0.5360344,0.5011216,-0.76501185,0.19477268,-0.22422504,0.94934446,0.55433494,0.48122936,-0.35835072,-0.11481871,0.6538852,0.04903537,0.034656473,-0.62681794,-0.2693526,-0.3764297,0.9945268,0.55721587,0.8675501,0.6658876,0.9147638,-0.36545223,0.7540547,0.49942505,-0.69814134,0.639205,0.6203439,0.11441384,0.20197174,-0.9570411,0.276039,0.89418465,0.4460305,0.28074947,-0.71229905,0.87612647,-0.26466417,-0.6739411,-0.19964935,-0.66758496,-0.70905715,-0.15160502,0.29751492,0.03418399,0.5807814,0.86963975,0.83266264,0.3133311,0.45262882,0.73402977,0.75720924,0.52996266,0.621578,-0.30266008,0.6505547,0.5806345,-0.4936073,-0.16944546,0.7740821,0.052849013,-0.86775416,-0.8753011,-0.3971084,0.06945168,0.12749706,0.9591915,0.6613193,-0.5988034,-0.88135695,0.97568476,0.35683033,-0.5303752,-0.78512955,0.26206592,-0.06572704,-0.88628536,-0.19162318,0.17677589,0.22201198,0.83954304,-0.029317074,-0.5819927,-0.20395632,-0.3940727,-0.9622676,0.94164467,0.27831718,-0.7846954,0.8080843,-0.532414,-0.81134784,0.13449842,0.65959376,-0.81305975,0.39964515],"39":[-0.3333854,-0.5550845,-0.19106086,-0.6460316,0.88235277,-0.7065652,0.08828552,-0.12241135,-0.7659918,0.7576406,-0.30157012,-0.25039926,0.86759734,0.113878556,-0.5108316,-0.608217,-0.7095841,0.7564403,0.7730091,-0.98323834,-0.23685162,-0.9119731,0.8557053,-0.69489586,0.69046134,-0.7971013,0.03910425,0.8325509,0.1828558,0.09609039,-0.7949888,-0.67085856,-0.50439286,0.9313655,-0.8806258,0.48716027,-0.68779564,-0.90724355,-0.39873776,-0.31703955,0.8442557,-0.54204935,-0.30420506,-0.17519024,-0.33016932,-0.9417675,-0.64555997,-0.41614416,-0.47145334,-0.73020977,-0.84965295,0.6382717,-0.5552523,-0.7371019,0.6943331,0.46929863,-0.43836054,0.933616,-0.8810537,-0.9950223,-0.72732,0.1495256,-0.1290755,-0.73997724,-0.033347115,0.8494935,0.6666965,-0.93262905,-0.34232727,0.094251536,-0.96647817,0.8303685,-0.6707953,0.015757333,0.9754889,-0.7891986,-0.26350376,-0.44626868,0.82566464,0.71996623,-0.4917096,0.336524,0.33275425,-0.9330911,0.07221253,0.25726345,0.73054284,-0.47201425,-0.5185763,-0.39796937,0.60928744,0.014795077,-0.53376484,0.87503195,-0.876939,-0.20531121,0.48933083,-0.44890836,0.762753,0.5646271,0.63328207,-0.3164752,-0.8724447,0.31968877,-0.35920078,-0.83420014,-0.08077635,-0.5972679,0.36679503,-0.027963106,-0.45009735,0.33890605,-0.45305237,0.2993103,-0.7756717,-0.022375701,0.2960417,-0.5953136,-0.6946492,0.22513317,-0.07598068,-0.17243561,0.51627505,0.472939,-0.8643931,0.9522938,-0.95516866,-0.5051525,-0.9077956,-0.41669294,-0.42733413,0.5274954,-0.05933812,-0.9232534,-0.21304627,-0.48669833,0.9760189,-0.9836367,0.04905956,-0.25409964,0.112421,0.055321842,-0.53032225,-0.39738804,0.37868652,0.87986976,0.4471645,0.60853904,0.8450707,0.7832695,-0.26076776,-0.48715776,-0.28522506,0.35169792,0.6809693,-0.5883128,-0.0056396755,-0.2776273,0.7386116,-0.7830193,0.2662733,0.10698002,-0.56659424,-0.9449803,-0.42731,0.7220575,0.6695086,0.20756556,-0.23334412,-0.013494068,0.46789768,0.86647975,-0.3112374,-0.8162049,-0.9450878,0.9631896,0.82987845,-0.50671005,0.21501514,0.17281064,0.40679803,-0.677433,-0.70966566,-0.52616614,-0.79344654,0.44861132,0.50065845,-0.3119451,-0.13162982,-0.27203977,0.8445802,-0.65466297,0.29209024,-0.5248633,0.7189619,-0.3154813,0.49974304,-0.96559244,0.8301862,0.9475526],"40":[-0.19503033,-0.52064586,-0.02479821,0.9197634,-0.4232119,0.6247581,-0.2631887,0.59084857,-0.25149065,0.16177982,0.4675708,-0.8915529,-0.55368334,-0.41092303,-0.5138304,0.10510935,-0.584342,0.879963,-0.23317829,-0.17536303,0.628512,-0.11246384,0.64555645,0.28671402,0.6822383,-0.98286104,0.95058745,0.07977027,-0.6554281,-0.35740995,-0.61507434,0.6415385,0.51056,-0.067612566,-0.7937361,0.60478824,-0.9525099,-0.41687152,-0.21024728,0.83238167,0.50101155,-0.12384974,-0.77676135,0.098634355,0.25170112,0.2720442,0.15617661,-0.977861,0.12193396,0.28914574,0.62667924,0.25397924,0.4711818,-0.121732995,-0.066113845,0.5838355,-0.16818085,-0.33534226,-0.028508564,0.29944482,-0.043182217,-0.4817744,-0.24788348,0.7147704,-0.10274187,-0.54750675,0.0017561447,0.20314495,-0.6309793,-0.24842945,0.24782424,0.49552885,-0.81341535,-0.021581445,-0.8550613,-0.053388756,0.0570366,0.6286692,-0.5895919,-0.27616462,-0.89819306,-0.005813537,-0.76133543,-0.17238149,-0.49991438,-0.9876198,-0.9936734,0.33364052,0.58309263,-0.551858,0.3746835,-0.58280516,0.67153007,-0.6290623,0.9740309,0.6256515,-0.26199058,-0.9542812,-0.5023313,-0.438067,-0.81289786,0.017083779,-0.6249005,-0.07255273,0.51757157,0.39003322,0.50238615,-0.016723124,-0.6750287,-0.7381554,0.5289127,-0.009646941,-0.93271816,-0.03863433,0.24229717,-0.8496364,0.9263688,-0.8715018,0.5895912,0.77579546,-0.4750023,0.5079013,0.70460075,-0.3106346,-0.5502712,-0.733183,0.28243232,-0.58325624,0.045686074,-0.06051908,-0.7816101,-0.59413445,0.8152355,-0.08309846,-0.8946358,-0.80152637,-0.4771955,0.40625364,-0.1724296,0.78522766,0.61960006,-0.7955057,0.95917445,0.9270825,-0.5321632,0.9069717,-0.06574716,0.9098576,0.32735276,-0.5053056,0.23369715,0.0747673,0.20878972,0.7797378,-0.6251793,0.31840575,0.595924,-0.3259095,-0.34592748,0.6546649,0.26767048,-0.2464787,0.6919949,0.6869607,0.6122823,0.78673345,-0.5887759,0.8827075,0.7177028,0.9693088,0.555536,-0.74609274,-0.9659474,-0.120852284,-0.4445582,-0.042162236,0.9086076,-0.40848288,-0.36199158,-0.9420429,0.2649404,-0.19382884,-0.78724253,-0.22860591,0.034661364,0.3830602,0.9536988,0.83513206,-0.9665452,0.5400698,-0.25782117,-0.73092216,0.74731535,-0.57681483,0.49999762,0.6114911,0.76459223,-0.016196292,-0.16370569,-0.37306818],"41":[0.278375,0.23027481,0.5727106,-0.024575004,-0.7648244,0.6155609,0.1043726,-0.77554274,-0.11132149,-0.22676186,0.8591814,-0.4685479,0.9720063,0.592414,0.6987845,-0.7173514,0.56370234,0.95923907,0.31132722,-0.8854405,-0.64331836,0.44101056,0.7961077,0.74791425,-0.09351612,-0.03086833,0.38439766,0.29367262,-0.1396507,-0.1077577,-0.6008445,0.14067583,-0.50035655,-0.41161013,-0.020177314,-0.30403078,0.2099938,-0.44627434,-0.40044206,0.36179405,0.9882248,-0.005349801,-0.5579175,0.018917106,-0.48851335,-0.89368975,0.43191805,0.96286124,-0.29461133,-0.8882678,0.29280862,0.9004134,-0.93304706,-0.6183178,-0.15425955,0.18059604,-0.21885061,0.3744919,-0.4567729,0.9313187,0.90278536,-0.50163877,-0.476863,-0.58262837,-0.45666012,0.6763671,0.24511257,0.7038466,0.84413964,-0.9500776,-0.23216629,-0.17362532,0.25030476,0.30639517,-0.19035588,-0.19529209,-0.7158403,0.36824086,0.7856679,0.18137118,-0.189547,-0.70116895,0.27439442,-0.4337293,0.17451377,0.99893874,0.611359,0.20476153,-0.36119935,0.75379616,0.5567383,-0.778514,0.31054452,0.0073522055,-0.9772714,-0.4395635,0.96452343,-0.81061375,-0.7208214,-0.025718924,0.4614197,0.5466665,-0.8087081,-0.28923598,0.46380275,0.7046938,-0.4977621,-0.14627671,0.45989168,-0.29557538,-0.4239121,-0.35840082,-0.2550396,0.06637105,0.05763353,0.15767927,0.10521198,0.29005286,-0.35877877,0.40659004,-0.03266477,0.39057028,0.6508313,-0.68858176,0.60319614,0.18212458,0.8017938,0.52391255,-0.46012127,0.7968669,0.0453392,-0.5109925,-0.52685434,-0.117811814,-0.119048454,0.76916635,-0.74497145,0.23555723,-0.40851253,-0.39097068,-0.1903016,0.3458531,0.64699376,-0.9114104,0.21857046,0.75317025,-0.42711303,0.99449664,-1.000307,-0.41737723,-0.76122534,-0.6220747,-0.15895623,0.6318778,0.4970021,0.3887123,0.17189477,0.73948663,0.41551456,0.776945,0.1606173,0.10909731,-0.689828,0.7590255,-0.46043667,0.8158896,0.6887564,0.6259103,0.4663051,-0.31347245,0.030956859,-0.1331984,0.62840015,-0.005619637,0.44403604,0.7079672,-0.72671616,-0.4476244,-0.254774,-0.3813298,0.5902518,0.4993338,0.70013446,0.29241464,0.24390635,0.4060923,-0.7078868,-0.12707971,0.30068326,0.7601456,-0.8267973,-0.39586243,-0.63200176,0.9497662,0.78946006,-0.3057486,0.9508812,-0.64555043,0.32089752,-0.00776528],"42":[0.95484626,-0.45248085,0.41542628,-0.48373124,-0.6656264,-0.0906489,-0.20821746,0.7268588,-0.9611921,-0.8370848,0.62237954,-0.00030303208,0.117349595,-0.12416766,-0.9104118,0.965777,0.42418775,-0.639633,-0.68011296,-0.3207665,0.56950015,-0.31959966,0.17904024,-0.7936266,-0.05273344,-0.05161272,0.7767617,-0.5944286,-0.9914988,-0.41937202,-0.7635716,-0.5586209,0.81722456,-0.8916507,0.53006357,-0.69205534,-0.41697443,-0.40236747,-0.7662719,0.88686365,-0.3087468,-0.4679531,-0.90666103,0.7571649,-0.02756267,0.14993003,0.46353406,-0.40317163,-0.31308368,-0.35253537,-0.24772687,0.8833825,0.31352097,-0.73265743,0.63548964,0.6480966,0.5162879,-0.09854311,-0.59185547,0.25489303,0.07100556,0.32030147,-0.33070892,0.7127249,0.4838096,-0.1689216,-0.90531015,-0.4893066,-0.54086,0.595888,0.113823116,-0.52575815,0.5878314,0.68069243,0.67837703,-0.50799567,-0.82040733,-0.960249,-0.37911522,0.781283,-0.9424024,-0.2778777,0.68127173,-0.13982557,0.26482227,0.5919661,0.10178918,0.92412996,0.6206393,-0.92635506,0.9647477,0.19540183,0.99054253,0.2677482,-0.972187,-0.194017,0.23962201,0.21446908,-0.86009,-0.13823053,0.45685592,0.13084984,0.119336285,0.9479603,0.792529,-0.9692017,0.2504261,-0.74493825,-0.5062252,-0.072089136,-0.17486599,-0.2631891,0.8770658,0.80902255,0.96923155,0.82300436,-0.3894179,0.56096035,0.44185913,-0.6735915,0.22329968,0.65366954,-0.096935354,-0.08010659,-0.7103641,0.65317297,-0.87835115,0.48818886,-0.30865026,-0.6621436,-0.79959846,0.93418217,0.3639747,-0.09184843,0.95020735,0.745088,-0.3352932,0.5575288,-0.43611225,0.9620998,0.19749692,0.58401364,0.18940583,-0.14641957,0.1934158,0.49259916,-0.56296986,-0.78883,-0.685641,-0.58939594,-0.348086,0.8204563,0.044973824,-0.53097236,0.9205011,-0.81322706,0.1778923,0.39303303,-0.37624425,-0.30718675,0.8636017,0.8784991,-0.46613964,0.72509396,0.44474462,0.9271146,-0.35226429,0.56380844,-0.7613328,0.009299944,-0.08477161,0.07618908,0.15320306,0.18836246,0.764148,0.7210321,0.60834914,-0.22484134,0.5394951,-0.59969884,-0.71342796,0.18129945,0.04266733,-0.83840066,0.9259487,0.48020408,-0.077011906,-0.7367939,0.13571735,0.90465087,-0.73076105,0.15069267,-0.6616443,0.38326558,0.66519934,0.6204476,0.021002559,0.31230897,-0.61490285,-0.736342],"43":[-0.27006036,0.0032492774,0.4089006,-0.66402906,0.07321321,0.7719173,-0.8598944,0.8802738,0.44300234,-0.96748734,0.6184144,0.30421647,-0.30108422,-0.99149483,0.26100823,-0.8793697,-0.16190395,0.8315965,-0.35599017,0.31738308,0.68127877,0.27327332,-0.19077682,0.3558937,-0.58784324,-0.80514395,-0.9742075,-0.6309171,-0.08228494,0.45490283,0.5981586,-0.51306367,0.04331699,0.53243685,-0.77193195,-0.7156882,0.018472817,-0.6209237,0.81533664,-0.86958516,0.8511697,0.77090573,0.7227575,0.16353156,-0.22639523,0.6359767,-0.57800794,0.031660747,-0.21433201,-0.12694687,-0.59865505,0.7162525,-0.65357065,-0.46838483,-0.7799006,-0.6680465,0.6897887,-0.76498526,-0.056391332,-0.55621594,-0.9227541,-0.28864938,-0.54756385,-0.1361718,-0.17477357,-0.063753,-0.96321297,0.54853535,0.45499972,-0.45191932,-0.59513146,-0.66075873,-0.8334004,0.003110741,-0.9454803,0.62129605,-0.86015123,0.5228153,-0.09811253,-0.62049705,-0.49840796,0.4963755,-0.64200586,-0.32647464,0.7137624,-0.97740275,-0.11235879,0.60239583,0.9663273,-0.9540498,0.24446507,0.72524124,0.5065542,0.46793118,-0.1822565,-0.3052133,-0.14393972,-0.70583683,-0.97851163,-0.058749154,0.4065834,-0.6260613,0.2998672,-0.7140331,0.75181323,0.6608824,0.9312672,-0.5340031,0.73508346,0.41354182,0.6153409,0.9713021,-0.23448533,-0.3778077,0.22307548,-0.96490407,-0.98654956,0.46782035,0.016825976,0.81414413,0.11597012,-0.40328333,0.8794392,-0.8074224,0.18940823,-0.10340555,-0.024593372,-0.9950895,-0.47707066,-0.13772984,-0.60894114,-0.9034873,-0.24266908,-0.6177405,-0.2777109,0.7279179,-0.25964504,-0.7092064,0.1458126,-0.1837157,0.7287556,0.32346502,0.19369335,-0.6860961,0.7763537,0.69233716,-0.07840341,-0.57457894,-0.8907635,0.0541675,-0.059826963,-0.2600552,-0.112973906,0.75005937,-0.71555614,0.51293635,-0.5974164,0.91608167,-0.85263276,-0.13024265,-0.5959874,-0.93758,0.024356073,0.3913636,0.8021337,-0.3602654,0.23571737,-0.81189585,-0.04440565,0.73368776,0.12593226,0.15362339,-0.8934681,0.047623765,0.3934615,0.05471774,0.66428876,-0.12193477,-0.64417386,0.13388929,-0.98726934,-0.32323068,0.40038127,0.96879745,0.6614186,0.3278043,0.8938475,0.6870498,0.21531299,-0.6619816,0.86030555,0.6088905,-0.24975574,-0.4756981,0.20765226,0.95024043,0.3205554,-0.0010267359,0.70571643,0.5470117],"44":[-0.5083665,-0.9620076,0.95032346,-0.39983064,-0.016544536,-0.16511829,0.5013621,-0.6767543,0.95048404,0.12870747,-0.7093806,-0.7377432,-0.15880983,-0.21488075,-0.9265656,0.16196114,0.51750046,-0.7125767,-0.20141771,-0.7749083,-0.44184116,-0.7850591,0.4888219,-0.40420544,-0.17287536,-0.54826665,0.59941345,-0.6438023,-0.12786421,0.5675174,-0.47201315,0.7780184,-0.8848876,0.8285411,-0.7608783,0.82018876,0.8458628,0.81579995,-0.049318448,-0.5379701,-0.5750003,0.57908785,0.07168307,0.46925128,0.10229552,-0.78161585,0.58246416,0.41989908,0.46636328,-0.81127274,-0.44362256,0.47051153,-0.50145113,0.8187669,-0.75560236,-0.62034464,-0.56104213,0.5976603,0.52018285,0.74622786,-0.2915401,0.14535238,-0.09556234,-0.80159324,0.98089683,0.5784204,0.37488586,-0.3608637,-0.9539551,0.7501205,0.10263871,-0.34313378,-0.87943,-0.91674554,0.76928353,0.14716023,0.69002664,0.7652565,0.41285485,-0.36234492,-0.42752847,-0.7905632,0.8407474,0.20694807,0.43092036,0.10552631,-0.4270479,-0.8843427,-0.928479,0.3587559,0.07142112,0.098090805,-0.3397186,-0.99934644,0.9918238,0.6162579,-0.85670155,-0.9132555,0.19479606,-0.34606096,-0.6879971,-0.8993486,-0.7952221,0.8758632,0.54088265,-0.24532977,-0.6189134,0.09250779,0.630107,0.037342366,0.6899853,-0.8289654,0.7896679,0.2885566,-0.20504577,-0.65019304,0.9341019,-0.93417734,0.56387454,0.20368248,-0.91937596,-0.669837,0.12059194,0.8325502,0.2336722,0.677176,0.5537485,0.9551616,-0.6312369,-0.7740999,0.86300814,-0.052342787,0.6738319,0.7325162,0.1888227,0.20580755,-0.17325595,-0.37581563,0.9573264,-0.16302946,-0.8361418,-0.1475871,-0.8659022,0.8292266,0.3384001,-0.7381708,-0.7898729,0.8899783,-0.49552536,