{"network":{"layer_sizes":[84,200,300,100,81],"layer_count":4,"layers":[{"in":84,"out":200,"weights":{"0":[-0.015177262,-0.26172793,-0.33983013,0.15799865,0.37841454,-0.18371809,0.33686396,0.19836222,-0.15515135,-0.25371662,0.2247887,0.19083878,0.071814455,-0.39013448,0.3320921,0.4687128,0.10864397,-0.4159365,-0.4056762,-0.35636958,0.19033171,-0.08844417,0.009167371,0.032036148,0.028563293,0.17264444,-0.43623894,0.44960764,-0.08644145,0.051359944,-0.3407675,0.2611205,0.20777096,0.10833489,0.054980725,-0.16858757,-0.16877599,0.19991168,-0.034867674,-0.329956,-0.27587095,-0.08836489,-0.40152213,-0.15663734,0.06836404,-0.4092185,0.059046965,-0.22490004,-0.42092797,0.15120095,0.13469137,-0.44563228,-0.27754658,0.12570758,-0.41342556,-0.20515299,-0.15136917,0.17096484,0.14249617,0.11687426,-0.13797545,-0.18645053,0.41973206,-0.008444073,0.09636502,0.25536513,-0.35577562,0.4133536,0.040753536,-0.31665114,-0.38605872,0.429228,0.27918386,-0.35690084,-0.19355738,0.4847271,-0.259368,0.11771167,-0.062183872,-0.11050756,-0.29599455,-0.19151759,-0.1300943,-0.45533258,0.21267262,0.48648208,-0.011586442,-0.26493147,-0.1354884,-0.2168195,0.21467668,-0.12614211,0.41318184,-0.14005974,-0.010009606,0.41863382,0.3822315,0.074165195,0.27589414,-0.18513659,0.3795307,0.18757482,0.48359856,-0.43298155,-0.3405368,0.07715857,0.19758222,0.4166583,0.25083554,0.41528112,0.38309434,0.44612616,0.24709328,-0.36124563,-0.011852736,-0.24049118,-0.24436823,0.41752058,-0.20147587,0.398664,0.5020581,0.21942496,-0.015317951,0.3906626,-0.09927918,0.002424894,-0.27109718,0.43583545,-0.20586096,-0.20906694,-0.4057556,-0.23929845,0.47330934,0.048206996,-0.011939998,0.48706594,-0.16785671,-0.11034998,-0.062814854,-0.36269087,-0.4583678,-0.16016121,-0.3879193,0.4810509,-0.2631083,0.41296005,0.22829753,0.028823657,0.2230186,0.11090041,0.05241893,-0.07133287,-0.19995971,0.09652823,0.28236547,-0.054727126,-0.19303334,0.22393031,0.42874146,-0.19936047,-0.10247573,-0.37632558,-0.49095225,-0.4756105,0.41484,-0.27042648,0.013955667,-0.42901814,0.022997282,-0.3782047,0.48158363,0.3543403,0.28453502,-0.3484423,0.35009423,0.14726202,0.07765131,0.036276568,-0.06248597,0.33358532,0.0788511,0.24791564,-0.09351225,-0.17236334,-0.036573127,-0.10114956,-0.48357022,-0.024643144,0.0131777385,-0.42914516,-0.41509497,0.086885385,-0.22332394,-0.3880286,0.0667189,0.14348687,-0.3546722,-0.09982011,-0.12469328,0.15124649],"1":[-0.08147246,0.40598676,-0.3247804,-0.31860194,-0.25030708,0.47398683,0.4685713,0.38811052,-0.3740195,-0.459349,-0.107581384,0.1703957,0.14245857,0.3118886,0.3623893,0.30137908,0.19082609,-0.45537812,-0.2768685,-0.28234974,0.49080065,-0.35578254,-0.3011966,0.28021523,0.02406275,0.4257465,-0.43264627,-0.30652845,-0.39178738,0.30872717,-0.14096762,0.36984366,-0.43197578,0.11917501,0.16371931,0.43481436,-0.074864104,-0.4228625,0.30392855,0.23663746,-0.36294368,0.22372067,0.4560012,0.22812338,-0.09936702,-0.36928466,-0.032512512,-0.1699444,-0.40036833,0.4275777,-0.05856587,-0.10346522,0.4157321,0.009743613,0.4377141,0.36011267,0.47352841,0.075108476,0.23342164,-0.38621163,-0.040742632,0.26431018,-0.08923491,-0.14912267,0.43557948,0.32474232,0.461596,-0.42413485,-0.23058239,0.33969322,-0.066290505,-0.08442534,-0.41360185,-0.10260789,-0.40228012,-0.4472707,-0.08214801,-0.22642224,-0.27807257,0.0724405,0.42272726,-0.37901655,-0.0008690556,-0.48848167,-0.07696731,0.18475583,0.26989594,0.2121463,-0.10434119,0.17645378,0.4956389,-0.21346082,-0.034256812,-0.05113526,0.4634699,-0.24113916,-0.2503967,0.24759321,0.0006604956,-0.3770433,-0.33917126,-0.2727443,0.034502547,-0.0012187267,0.4977969,-0.22593026,0.17456351,0.46759203,-0.19742407,0.21160816,-0.046371844,0.25335413,0.26190493,-0.05016387,0.44351232,0.22154425,-0.45210546,0.30654904,-0.32361215,-0.27377862,-0.3878207,-0.24946667,0.18796545,-0.45189598,0.3551367,0.44765654,-0.009762712,-0.014592613,0.28596547,-0.2584276,0.06330292,0.14864917,0.21493573,0.38970053,-0.28148767,0.5002824,-0.26535147,0.48751542,-0.39539635,0.09353621,0.2425967,-0.25020036,-0.2356913,0.21869983,0.25969404,-0.49804693,-0.1901859,0.34541494,0.4189899,-0.14858261,-0.43524942,-0.42158926,0.029719334,0.29250842,0.09885048,-0.3909922,-0.41982022,0.06024048,0.21528293,0.124487795,0.04364945,-0.06165872,-0.46239746,-0.28339875,0.4215642,-0.038376372,0.034718618,0.024559865,-0.092653476,0.27516222,0.20378743,0.34122762,0.4677605,0.21073696,0.017064715,-0.061784696,-0.49178436,0.43196714,0.029674677,0.13897836,0.45632017,0.25833794,0.16046518,0.43388554,-0.3132412,0.4641988,-0.5108742,-0.34830356,0.28967205,-0.42275086,-0.07147775,-0.232454,-0.46669787,-0.08106658,0.49577925,0.001123928,0.4367413,0.23814484,-0.2548319,0.41246152],"2":[-0.23358247,-0.037171103,-0.016441753,-0.35613745,0.24112281,0.29721946,-0.25936472,0.24492487,0.3105704,-0.26155454,-0.41741538,0.3495401,-0.06383187,-0.34318674,-0.43524012,0.15392148,0.003918725,0.47718766,-0.08509708,-0.06846258,0.33757222,0.00015760494,0.08792934,0.3355945,-0.28522807,-0.23096079,-0.24854073,0.03212965,0.051551,-0.1466244,-0.39769673,-0.17562787,0.14110518,0.2046208,0.08694741,0.44223756,0.4892804,-0.20067078,-0.26629657,0.110042565,-0.46056366,0.418227,-0.24202304,0.30468103,-0.4829821,-0.15469585,0.0061895465,0.21852656,-0.42897063,-0.25171557,0.14070036,-0.3759675,-0.06529305,-0.38949803,0.3048571,-0.39788023,-0.26720268,0.08452334,-0.3312898,-0.16041628,0.09487684,-0.34119803,0.2896532,-0.3657255,-0.50353795,-0.06481445,0.10976992,0.017844195,-0.018044734,0.043030348,0.12549792,-0.21321273,0.16564256,-0.29535928,-0.36924836,-0.21124637,0.08010957,-0.4149044,-0.33750132,-0.4162399,-0.1106799,0.14954674,-0.27086508,0.12802015,-0.15743476,-0.34382537,0.28491732,0.068921216,-0.123356156,-0.45529133,-0.15053794,0.027371855,-0.33205247,-0.4419037,-0.33487642,-0.4527372,-0.01965219,0.19213656,0.1217188,0.1878456,0.04911609,0.06430652,-0.042420812,0.062029503,-0.23348063,0.320455,-0.17266327,-0.24302489,-0.49399054,0.37634832,0.47577265,0.16797748,-0.1244742,-0.15780012,-0.39100647,0.25210363,0.4252935,-0.4189048,-0.37205282,-0.29043135,0.16154699,-0.46098414,-0.132435,0.18598232,-0.31442776,0.454281,-0.34726363,-0.2751661,0.05291452,-0.34448585,-0.13246143,-0.25313288,0.19243442,-0.07726775,0.2729508,0.21348757,0.15016483,0.36152723,-0.32115173,-0.05941728,0.14677866,0.45135227,0.14949492,-0.4953984,0.03723056,0.20241722,0.40323988,0.29196283,0.34096766,-0.07569747,0.45575613,-0.40460676,0.045435626,0.33724216,-0.49336228,-0.118062705,0.042062,0.32482645,0.1651639,-0.3146234,-0.43715596,-0.43692836,-0.0863718,-0.04958835,-0.36887345,0.15916535,-0.42088002,0.2979212,-0.32923377,0.13482617,0.10595748,-0.04894403,0.31528234,-0.2718902,-0.2606007,0.25319558,-0.45409843,-0.31920916,-0.07780415,-0.21580012,0.19693789,0.32560068,0.07730208,0.4544605,0.32691467,-0.23011026,0.34610826,-0.0015516593,-0.120235056,0.50839895,-0.10270489,-0.15803449,0.31935567,-0.33656284,-0.1381667,0.27869788,-0.42895004,0.29790434,0.013127952,0.34215847],"3":[0.4346376,-0.20137557,0.15744965,0.13807487,0.08167686,-0.100038186,0.19375655,0.47129643,-0.24912505,0.1754322,0.3834238,-0.4138941,0.4108508,-0.06184735,-0.27977067,-0.38128045,0.18478923,-0.23754631,0.38850012,0.43724677,0.25561526,-0.1125752,0.32267097,0.44318694,-0.34402838,0.1810459,0.14334294,0.39676115,0.06689559,0.35748863,-0.28387907,0.26201537,0.35946542,-0.19667494,0.48332393,-0.03160748,-0.3480785,-0.3424293,0.32466355,0.13664691,-0.2429958,-0.30549973,-0.43716243,-0.097895354,-0.2501077,-0.4775495,-0.12445666,-7.101869E-05,-0.13974965,-0.47616017,-0.3369551,-0.2653175,0.27758598,0.04715873,0.38984984,-0.1583978,-0.18816978,-0.21803059,0.40716237,0.19447812,0.084600314,-0.13097775,0.3430505,-0.09677343,0.38413823,0.28202543,0.4181237,0.23637326,-0.132667,0.21564144,0.08927698,-0.18313843,-0.14995456,-0.4884021,0.056499824,-0.19374901,0.130183,0.26061085,-0.40238902,-0.13535462,-0.39622158,-0.4480216,-0.37517607,0.37411052,0.026659489,0.32954445,-0.076319516,0.16739814,0.003930296,-0.17687075,-0.0402274,-0.028055003,-0.04165203,0.20597468,-0.35369146,-0.5022547,0.12421443,0.1769341,0.015105229,-0.25963175,-0.24390188,-0.1316442,0.02862535,0.4887246,-0.13034582,-0.06037453,0.099623635,0.39343014,0.30503407,0.44557336,0.3309761,-0.4273731,-0.23028196,0.2845608,-0.18501614,0.20327845,-0.0986033,-0.18007953,-0.20661102,-0.22249705,-0.23609889,0.3457477,-0.15184255,-0.040104713,-0.313529,-0.1978879,0.19889928,-0.27950194,0.051866494,0.25176865,0.2878539,-0.4055964,-0.293775,0.0129926335,-0.3213062,0.10670535,0.25247434,-0.09076074,0.10512174,0.2439013,0.3723361,-0.47450718,0.3888858,-0.031032296,-0.07465014,-0.23832582,-0.13632134,0.2883792,0.18318318,-0.18357609,0.04063453,0.3983495,0.3387441,-0.27631813,-0.48185486,-0.27589333,-0.2004127,0.0802055,0.41460636,0.30722517,-0.11239696,-0.3370521,0.08892849,-0.23571031,-0.08290832,0.4737224,0.49771175,-0.12089006,-0.2357786,-0.3718245,-0.3758911,0.44414407,0.14509153,-0.24374129,0.46271998,-0.41564035,0.43150058,-0.46259332,0.26883015,-0.11760799,0.18725342,0.35327977,0.17392857,-0.2376842,0.22448315,-0.3477465,-0.2594248,0.2253389,-0.23341663,0.26606625,0.23673303,-0.48023096,-0.28439444,-0.39054695,0.2074748,-0.3114869,-0.10646351,0.29055595,0.23265083,0.3126112],"4":[-0.46281564,-0.25873083,0.00929859,-0.31200248,0.118143745,0.30712387,0.15957871,0.035413932,0.42368287,0.18933177,0.2670276,0.13083562,0.2917448,-0.5041517,0.48298725,-0.43594018,-0.016212083,0.29881594,-0.36870882,0.45936197,-0.098101854,0.4593901,0.15024829,0.29420486,0.06577093,-0.45464575,-0.3373898,-0.12519294,-0.27926674,0.29885703,-0.0070984806,0.16332078,0.25851297,-0.35976025,-0.32294482,-0.26703668,0.029920014,0.060516946,-0.4969668,0.41599187,-0.25695643,0.4162734,0.23167944,-0.40241447,-0.25948927,-0.17527752,0.17837568,0.17683269,0.28493902,-0.055904113,-0.46388587,0.33595842,-0.16377577,-0.2790178,-0.30327156,-0.3065682,-0.004778895,-0.15439472,0.2104443,-0.45863762,0.33126324,0.2535586,0.2993122,0.25484833,0.06659905,0.49609077,0.43624797,0.4140928,0.061553262,-0.063692056,0.10757169,-0.49580315,0.4849201,-0.4229237,0.4609807,0.4606904,0.2835227,0.050752662,-0.31559634,0.25344694,-0.009685647,-0.17110611,0.32625154,-0.025081469,-0.14910914,0.30493882,-0.23343445,0.49028215,0.48627114,-0.04016796,0.059693526,-0.032920755,-0.3061418,-0.5024617,0.095624745,0.22894461,0.15981847,-0.4327494,-0.4519829,-0.34667838,0.10643865,-0.102609016,0.16234784,0.5003468,-0.4607653,-0.084029086,0.17184499,0.18683822,-0.3866478,0.26665777,-0.42924237,0.21676114,-0.19263801,0.020137466,-0.12574387,-0.38263077,0.28613356,-0.028174764,-0.37984183,-0.39543748,0.102593474,-0.28522444,0.2835311,-0.042673122,0.40220928,-0.33146095,-0.44716594,0.49694562,0.07046939,-0.30779442,0.20414114,0.2092261,-0.25339094,0.25269476,0.46436557,0.19951424,-0.2815275,-0.31135008,0.3337496,0.34496546,-0.36685812,-0.2668409,0.02360284,0.3008508,0.14541991,0.2819037,0.412098,0.05511039,0.189867,0.46193832,0.24966975,-0.38506445,-0.29815057,-0.2382654,0.114311114,0.13793504,-0.053564705,0.06322239,0.3243218,-0.39887637,-0.43433437,-0.006771652,0.05834712,-0.4358934,0.019372376,-0.2509065,0.11991156,0.19678439,-0.3927863,-0.15358645,0.13369972,-0.2995963,0.114424065,-0.33361015,0.454372,-0.15742798,-0.1503838,-0.24097757,0.014555241,-0.17747809,0.33446547,-0.35555178,0.4652709,0.45412183,-0.268832,-0.47064203,0.44938976,-0.34990802,0.30925164,0.08684117,-0.103570305,0.27777636,-0.1738387,-0.2085242,0.042006623,-0.44402242,-0.42540562,0.31284654,-0.19373688,-0.13691857],"5":[0.1456791,0.17245924,0.3968683,-0.21179575,-0.43318298,0.059230972,0.23492995,0.2730959,0.3858463,-0.43365377,-0.0367115,0.19661509,-0.014841494,0.13639551,-0.07053248,-0.119662434,0.23822068,-0.344717,-0.4628508,-0.0069849906,-0.05604704,-0.45236954,0.045886505,0.17613575,0.10954534,-0.35995597,-0.24454074,0.42267966,0.044763174,-0.05047685,-0.3020427,0.05907851,0.2797188,-0.17608586,0.19091554,-0.41946915,-0.16758764,0.4290521,0.2079393,0.1436064,-0.3943162,-0.44124871,-0.31605706,0.34359393,0.14258602,-0.31231374,-0.39301682,-0.020751636,-0.21729323,-0.00030154857,0.4678741,-0.27688304,0.0961676,-0.448795,0.30409864,0.02548307,0.47966284,0.31708017,0.033120207,-0.22280228,0.44073328,0.07521464,-0.42808205,-0.411796,0.28276253,0.45973533,-0.21320972,0.03732332,-0.45056123,0.1451217,0.36306143,0.10315729,0.22662188,0.30679256,0.06727082,-0.33998576,0.29777932,0.38705876,0.16973409,0.3828128,0.25939053,0.06568088,-0.12077995,0.111476235,0.4087709,0.46715528,-0.10843684,-0.134442,-0.22464487,0.2155957,0.2396889,0.3138932,0.17214565,-0.3064386,-0.044608444,-0.22876228,0.46562418,0.2723548,0.11923792,-0.07315698,-0.13841912,0.053371623,-0.24745145,-0.13866442,0.23472239,-0.46986246,-0.4777359,-0.061093055,0.2899458,-0.42259043,0.08437646,0.09649611,0.060190897,-0.4730513,0.11046476,-0.32364023,0.44845265,-0.02094248,-0.24611482,0.4843578,-0.010000124,-0.1194627,-0.35063803,-0.29931322,0.15071738,0.10879302,-0.35934675,-0.41571012,-0.11102478,0.4698895,-0.34250298,-0.31785592,-0.08496349,0.030456457,-0.09543194,0.30725467,-0.19552508,0.47600582,0.28202787,0.3131123,-0.24445358,-0.18339275,-0.20576741,-0.018064465,0.12392974,-0.20136268,-0.33390087,0.13209604,-0.059623465,0.0289748,0.064617045,-0.069099754,-0.222377,0.26555803,-0.41908592,0.3032606,-0.26136202,-0.08199998,-0.41496646,-0.0960781,0.005643458,-0.081022196,-0.12474195,-0.23692079,-0.28440076,0.078964025,-0.3838063,-0.121266164,-0.15460666,0.115693234,-0.44840404,-0.4336228,-0.09885121,-0.34387,0.163471,-0.27198678,-0.03500542,0.2190288,-0.4578109,-0.06879002,0.070667736,-0.09248738,-0.22034408,-0.42989367,0.4179886,0.10889179,-0.17798495,-0.31945804,-0.09774569,-0.083374485,-0.4256864,0.021966422,-0.33565637,0.49881807,-0.38512465,0.08505406,-0.33141553,0.31668288,0.08879405,-0.19718508],"6":[0.3330761,0.0386598,-0.15463966,0.3456355,0.19522616,-0.18381594,-0.019873133,0.037490528,0.21996729,-0.27107257,0.45443755,-0.42411858,-0.201547,-0.00221753,0.00851177,0.49672803,0.17238566,-0.2853924,-0.3950432,-0.086278684,-0.02888903,-0.12395546,0.06382424,0.046641376,0.14798039,0.11132451,-0.47859177,0.42804646,-0.11524436,-0.281768,-0.18304358,0.4449163,-0.1961752,0.016150495,-0.11990132,0.028497003,-0.13610642,0.04162379,-0.0769001,-0.10040468,0.1373103,0.2863435,-0.19876486,-0.25325218,-0.46151933,0.10572864,-0.34305626,-0.09599257,-0.404397,0.11727235,-0.23583981,-0.36813113,-0.21868363,-0.427172,0.094145976,0.4112432,-0.50631946,-0.5078283,0.32411495,-0.026563846,-0.42245123,0.3225413,-0.23062317,0.0801415,-0.13525349,-0.42833295,0.44598198,-0.16591279,0.4933458,0.07892134,0.34863904,-0.3709677,-0.22499831,0.3615744,-0.055021215,0.24634106,-0.24745242,-0.29828528,-0.38719645,-0.3236777,0.14496794,0.2986893,-0.49201235,0.11443723,-0.012010238,-0.44224146,0.23057324,0.40260527,0.40492573,0.47079033,-0.44783074,0.16225423,0.2542831,0.4296134,0.2734253,-0.23827328,0.34528577,0.22639656,0.13770811,-0.09375947,0.15954265,0.4661154,-0.21502867,-0.20461883,0.10720413,-0.46318758,0.43830845,-0.44915524,0.13048491,-0.34295148,0.1260931,-0.36499488,0.4493579,0.13298632,0.45815828,-0.0056802565,0.32666945,0.17462602,-0.080722205,-0.22594188,-0.3885465,-0.49939722,-0.3557886,0.44390503,-0.37978345,0.20021163,-0.3254826,-0.3888175,-0.33618397,0.24904898,-0.032952815,-0.1662678,0.07254246,-0.47923797,0.43001336,0.054141317,-0.5103327,0.14776751,0.41001943,0.32314563,-0.32281917,-0.43544203,0.17572874,-0.3060095,0.07428052,0.47854763,-0.34493348,0.1998841,0.24625234,0.20448908,-0.02076825,0.41387722,-0.49030763,-0.24101418,0.22966658,-0.37156746,-0.41567406,-0.18753126,-0.1689728,0.2164474,-0.09864161,0.18725297,0.16101912,-0.3848091,-0.009576177,-0.10594062,0.21150541,0.21549967,-0.25987422,-0.43892747,0.08277609,-0.18631768,-0.07465563,0.30613527,-0.1765072,0.021067124,0.06131096,0.46528143,0.05919988,-0.259223,0.0013706555,-0.087196134,0.10295148,-0.18156758,-0.45979905,0.0066294624,-0.18194188,-0.41950113,0.0067295544,0.45945442,0.4866383,0.09508412,-0.31315526,0.35827222,-0.46560717,0.39372656,0.36832926,0.11002985,0.24437854,-0.21087612],"7":[-0.04613873,0.092654906,-0.0049625905,0.1686317,-0.09204937,0.49139988,-0.33688253,0.34560004,-0.39527276,0.2320723,0.30968037,-0.3061972,-0.029526561,0.10288954,-0.10420759,0.38875252,0.36009854,-0.37589958,0.026516274,0.1711807,0.12353871,-0.24115448,-0.16080755,-0.42427287,-0.3683416,0.020969044,0.45124638,-0.39605716,0.18552355,-0.33698645,0.05908556,0.18089804,0.3958937,-0.33922386,-0.2938009,0.495131,0.11685504,-0.47963205,-0.35277936,-0.38987356,-0.41975516,-0.33705366,0.010043769,0.31405222,0.017340578,-0.06881968,-0.11630566,-0.22060034,-0.10475087,-0.011520381,0.46133873,-0.077748306,-0.25584993,0.4742179,0.03131844,-0.030383866,-0.14623824,0.24026912,0.06786187,-0.37348238,-0.4003659,-0.25702488,-0.41452432,-0.15479122,-0.18432313,0.23221596,0.48444057,-0.40151888,0.070587985,-0.0023925998,0.010037067,0.013645305,-0.17772609,-0.1658501,-0.19372743,-0.14210708,-0.16672656,0.3537386,-0.13120522,0.08003311,-0.036541507,0.4408249,-0.30288446,0.037005465,0.028074015,-0.35766208,-0.22886823,0.3398233,-0.47284514,0.024710061,-0.08957134,0.09664303,-0.17659084,0.09114754,-0.22613938,-0.17947656,-0.32593036,-0.24774106,-0.022015696,-0.48147532,0.28618634,-0.09019502,0.22792447,-0.38384533,0.21794005,0.058083486,0.10985627,-0.19595139,0.4196944,0.041277677,0.31019193,0.47507817,-0.012993153,-0.18220608,0.4436535,-0.14663483,-0.2228424,-0.44125363,0.2868683,-0.24735123,0.020048605,0.27584362,0.14584514,0.030995715,0.04702366,-0.059828907,-0.23072769,-0.33453962,0.023964712,-0.0136614265,-0.044954974,0.08349418,-0.15509412,0.10306709,0.41355854,-0.42088747,-0.48828927,-0.44851923,-0.3078705,0.24563499,-0.13589711,-0.37429708,-0.44364986,0.38450766,0.24259947,-0.016553912,-0.014792763,0.21660988,-0.3308403,-0.2194033,0.29605976,-0.014723382,0.06784531,0.26939207,-0.11332982,-0.12006609,-0.4553406,-0.3389009,-0.27043477,0.05719198,0.46760017,0.17387968,-0.06819263,0.16575886,-0.43412974,-0.25940388,-0.47553602,-0.017899022,0.20441727,0.382077,0.060792107,-0.04662536,0.41240382,0.3895445,-0.46095183,-0.4907573,0.2948078,0.20546174,-0.2589126,0.037965216,-0.12138314,-0.41769186,0.45102382,-0.31656903,-0.34564322,0.4740968,0.13658375,0.17566083,-0.07591185,0.14573728,-0.10533781,0.028664328,0.44706294,-0.23802458,0.034261152,-0.086146384,0.36206153,-0.0059890705,0.43423393,-0.26144326],"8":[0.30670726,0.25596753,0.123295754,0.46045834,-0.01831444,-0.043494124,0.108816124,0.196649,0.4742451,0.33674052,-0.4402751,-0.22136724,0.2833732,-0.016742053,0.014061827,-0.3066146,-0.044952605,0.21355581,0.21424243,0.24704911,-0.0013108463,-0.11738086,-0.34915787,-0.08838691,-0.43801525,-0.1147621,0.22984338,0.07276239,0.4840189,0.25641245,-0.40358454,0.18640864,-0.3920463,0.10610299,-0.02932926,0.005069711,0.29196426,-0.2313522,-0.13220197,0.3646028,-0.18666469,0.4657412,0.0645751,-0.19960818,-0.45285878,0.49346504,-0.20030656,-0.38064516,-0.18842669,0.05176979,-0.34712183,0.33066303,0.42535126,-0.34438682,0.4921699,0.4309984,0.34845188,-0.3781995,0.4602367,0.15530919,0.49300689,0.44620946,0.19112904,0.065950654,-0.22934447,-0.29623014,0.20923476,0.36031035,-0.20151684,-0.26828277,-0.08749753,-0.14984627,0.0952103,0.22766857,0.22888829,0.14622319,-0.39154223,0.15996967,0.487172,0.077918336,-0.1494681,0.1328802,0.08514464,-0.46361944,-0.36162123,0.21998471,0.10926543,0.20618607,0.2936427,-0.18265946,-0.25106922,-0.3996397,0.021169817,-0.4821337,-0.4310223,0.16230163,-0.024143647,-0.38368958,0.4700736,0.30102643,0.41312668,-0.46361494,-0.38075566,0.4999591,-0.073553726,-0.17884536,0.19478129,-0.23431394,0.16704786,0.22479819,0.05041091,-0.20550501,-0.13264664,-0.40092072,0.253577,0.30742133,-0.32095072,0.0033128038,-0.15593292,-0.3933859,-0.49936184,-0.100759715,0.20485082,0.36682725,-0.22007786,0.09786258,-0.1841977,0.41090274,-0.19525246,0.36755845,-0.10934898,-0.1306279,-0.3907114,-0.018866427,-0.21592683,-0.14427447,0.42370483,-0.34711182,-0.45992592,0.0017356247,-0.49996027,0.28452018,-0.031958625,0.4346443,0.49686962,-0.4806514,-0.35072428,-0.03912314,-0.3932618,0.2621175,0.07726279,0.4710966,-0.22820789,-0.40595484,0.09541785,-0.34460714,0.1755602,-0.017066415,0.16963127,0.49522263,0.0013497544,-0.073839866,0.38003758,0.0942745,-0.14583503,-0.10464709,-0.32376945,-0.27708465,-0.4710175,-0.24708228,0.3487348,0.4526605,0.19768393,-0.2748515,0.3776424,-0.04216189,-0.2479543,0.333373,0.32424107,-0.31830975,-0.12641516,0.1814867,-0.026839256,0.48933604,0.3442297,-0.19903117,0.4061142,-0.4290221,0.37186936,-0.15964459,0.47976026,-0.30975327,-0.0703194,-0.42591518,0.043357734,-0.33263355,0.17061782,0.46980825,-0.40955395,0.12047542],"9":[0.034486815,0.15804164,0.09104596,0.012352652,0.3169355,-0.06688042,-0.120009296,-0.35956302,0.23306683,-0.12629952,0.4670575,0.46043545,-0.42392892,-0.17043883,0.43261403,-0.3970778,0.06978699,0.34936386,0.35595754,0.1935746,0.14142102,0.44476345,0.27427664,0.38905385,-0.121005036,0.4808514,0.17332686,-0.43619183,0.04659218,0.082247175,-0.12983328,-0.11342113,0.123648554,0.06802493,0.17786124,0.35916725,-0.15859155,-0.49101773,-0.29884648,-0.2912932,0.31522614,-0.31904635,-0.030972783,0.49488083,-0.03224244,0.011884032,0.35441563,0.2643818,-0.118440665,-0.32574,0.009949612,0.20192906,0.16894433,0.4694394,0.33666983,-0.215751,0.07555273,0.060544275,0.422361,-0.19833809,-0.27249736,-0.36608902,0.39856943,-0.17546013,-0.4201508,-0.21093793,0.33547413,0.14563636,-0.100293726,0.23247696,0.46813765,0.14765875,0.011641566,-0.48840842,0.4498163,0.12900339,-0.30957463,0.27113837,-0.20916578,-0.32432243,-0.25958762,-0.3679474,0.19327882,-0.49205706,0.046953373,0.2512395,-0.34895045,-0.45076427,0.013358414,-0.2537438,-0.18278953,0.42512098,-0.308787,0.15867856,0.2427089,0.021548137,-0.41542795,0.14836888,0.09306212,0.40990117,-0.026132349,0.27563858,0.20010401,0.35813934,-0.42493698,0.010307025,-0.11649458,-0.31503496,-0.17123562,0.30319193,-0.044691548,-0.21361826,-0.011945953,-0.09030505,-0.26562428,0.3798323,-0.30545986,0.03312376,-0.386131,-0.295389,-0.22000997,0.044266604,0.11164234,-0.087417886,0.22501509,0.12522662,0.31317133,0.27647218,-0.36034754,0.4986559,-0.10244204,0.1108799,0.463665,-0.27395803,0.36108598,-0.35772812,-0.21154657,-0.08210943,-0.3382156,-0.36010435,0.41822168,0.3104431,0.3598382,0.26795703,-0.064812,-0.46410498,-0.40706992,0.4846099,0.46777603,-0.4657524,0.08212866,-0.3057542,-0.028611273,-0.38305357,-0.39823523,-0.19706267,-0.41857788,0.30176428,0.013954636,-0.31622398,0.16374196,0.26818746,0.47181386,0.40426004,0.17242636,-0.13975021,-0.12213738,-0.071111806,0.26459405,-0.28107044,0.31484166,0.2827685,0.39111602,-0.47006577,-0.27409148,0.23093939,-0.10576936,-0.4780372,-0.4291539,-0.075856276,0.1453164,-0.4636401,-0.39851207,-0.090517476,0.14150901,0.44099474,0.038773637,-0.39374417,-0.043279115,-0.4006528,-0.062328838,-0.0012553964,-0.42887682,0.45132962,-0.46604142,0.16406465,0.35273284,-0.20328966,0.33418754,0.48482305],"10":[-0.3107262,-0.17478909,-0.18310341,0.15676558,0.017298514,0.04225275,-0.020383457,-0.099184886,-0.28679758,0.2726373,0.14635877,0.25504452,0.2854818,-0.23529589,-0.38138062,-0.41184044,0.20208745,0.33176142,0.14032167,0.4675641,0.407263,-0.45854533,-0.005764213,-0.060725052,-0.11463782,-0.1814694,0.37193757,0.25036335,0.24358954,-0.36332342,0.09014592,0.19217211,-0.34795964,0.4896718,0.4420139,0.07265716,-0.26147765,0.26835343,-0.31816453,0.4474688,0.1149062,-0.24765152,-0.20118909,-0.40129083,0.18386868,0.42224732,0.39293662,0.31737965,-0.37818947,-0.22563872,-0.19600268,-0.055146255,-0.11359751,0.4973859,-0.46636936,-0.0737179,-0.18961959,-0.35874128,0.2363721,0.35510728,0.42251834,0.0713042,0.43216568,-0.47632414,-0.43329698,0.14463528,-0.10096847,-0.07704416,0.19201796,0.42947128,0.18861657,0.30953765,0.012995588,0.3703413,0.2456991,0.4325862,0.4602324,-0.38688594,-0.45304078,-0.20847617,0.3531092,0.23489504,0.4570031,-0.2587756,-0.19030413,0.38382855,0.2305111,0.28315938,0.42534208,-0.20441985,-0.4156262,0.112767816,0.25024077,0.060417503,-0.33610654,-0.30394885,0.09998729,0.13438721,-0.21729834,-0.10772396,-0.37636244,-0.30678073,0.06988283,0.120923415,0.03420785,0.3708377,0.47537383,0.35897166,0.37494916,-0.11489911,-0.02216275,0.23185396,-0.46604922,0.040824477,-0.13620268,-0.1557921,0.2600409,-0.45223045,-0.40806416,-0.16290501,-0.3095746,0.44934002,0.2918141,0.1055114,0.41952398,-0.3525859,-0.16328514,0.12182411,-0.49367037,-0.053646963,-0.11204853,-0.22555162,0.44842064,-0.3658039,-0.2531662,0.18019041,-0.4502825,-0.23000823,0.43790475,-0.09305001,0.26898333,0.46416304,-0.31480947,-0.15675199,-0.088061735,-0.48692885,0.44402152,-0.24128765,0.085930265,0.08364434,0.36790916,-0.09613413,-0.41661307,0.104773,0.28327605,-0.3448046,0.26757506,0.117655024,0.23664173,0.41990092,-0.3811932,0.12938006,-0.041535873,-0.05264473,0.30637538,-0.041844785,-0.17654863,0.47955075,-0.10591067,-0.018362593,0.21378317,-0.09833398,-0.14356305,-0.029377926,-0.4077757,0.022907833,-0.2587719,-0.12052818,-0.33497834,-0.035176136,-0.473302,0.4294557,0.11620632,-0.07711515,-0.39479333,0.4361287,-0.19477867,-0.2704209,0.48969755,-0.01534511,-0.02600046,-0.2663208,0.21471936,0.13949853,-0.24327183,0.47095692,-0.09774143,0.28568196,-0.14975946,0.25688386],"11":[-0.34529024,-0.1374789,0.32151586,-0.0111351535,-0.115919895,-0.20390432,0.13723527,-0.08725134,-0.11223962,-0.41142595,0.053552955,-0.24897955,-0.3456918,0.49397847,-0.35490665,-0.22844857,0.23617113,-0.12462527,-0.21647014,-0.09129194,0.3516919,0.21513571,-0.105918154,0.23494624,0.05898707,0.11373921,0.33005038,-0.32686868,-0.36553675,0.23410486,-0.1804213,0.20925367,-0.052202594,-0.32509923,-0.23845664,0.015701074,-0.012081615,0.34220323,-0.24129409,0.31057265,-0.4160543,0.3613566,-0.42332357,0.38448885,0.4628638,0.0279551,0.39793152,0.15124053,0.041715387,-0.11153526,-0.10316612,-0.26061454,-0.2338427,-0.2847449,0.14097393,-0.4995615,-0.091886364,0.4916222,0.11637173,-0.104524896,-0.2523569,0.26806545,0.23062208,0.21706446,-0.43096876,-0.44637698,-0.35721812,0.0535407,-0.47567093,0.22278762,0.44793916,-0.08337709,0.2532277,-0.23147155,0.35391578,-0.48653397,0.15934141,-0.16363573,-0.029197471,0.12099019,0.027157167,0.00863707,0.35058892,-0.24751444,0.0519974,0.3774049,0.42283168,-0.41458705,0.4131319,-0.15648524,0.37453446,0.18548755,0.29600018,-0.16357133,-0.24664997,-0.3364886,-0.17219512,-0.3526284,0.5150018,-0.4885804,0.46158943,-0.45471314,-0.37285388,0.050978158,-0.21621253,0.3551819,0.35555196,0.005183226,0.06906096,-0.42550662,-0.034945708,0.4087676,0.36148596,0.41817385,-0.31308186,-0.036680624,-0.31366378,0.115200825,0.44751677,0.16818783,0.35002145,-0.055166405,0.061154548,0.43885604,-0.46966362,0.35829064,0.40531427,-0.4754892,0.1149254,-0.139195,-0.2993192,0.40363723,0.42061517,0.114167534,-0.30738577,0.07194702,-0.04421782,0.084726445,0.10426754,-0.13506588,0.5028933,0.16387059,-0.13626713,0.15752283,-0.46578833,-0.43783745,0.14717287,-0.067285836,0.32348877,-0.043782398,-0.49536997,0.22267285,-0.3188363,-0.34971356,-0.34894434,-0.38181937,0.21806353,-0.4511195,0.17238551,0.13876936,0.32166633,-0.32842353,0.061022837,-0.1074408,0.20682864,-0.24654685,-0.30590215,-0.20230743,0.033855475,-0.4987848,0.38089174,-0.19530357,0.09760718,0.27857083,0.100450836,0.46858105,-0.06428397,0.40318155,-0.19847177,0.48431122,-0.5033861,0.4879879,0.367481,0.13016511,0.29634702,0.018776609,-0.33777517,-0.37601188,0.20856413,0.053254582,-0.33290336,0.08593877,0.39099756,-0.07891679,0.3757998,-0.0137932105,-0.2333467,0.4478827,-0.08830607,-0.21291699],"12":[-0.5053309,0.10523323,0.27143732,-0.37688482,-0.042761814,0.31103247,0.03280892,-0.13255131,0.3597526,0.4323541,0.44957846,0.09996339,-0.45732352,0.34198013,-0.43219095,0.36388734,0.17430262,0.108105406,0.18881798,0.33717385,0.12723683,-0.32661596,0.03395926,0.34579164,-0.19303928,-0.3243673,-0.02632045,-0.23619588,0.17911378,0.22500674,-0.2275697,-0.4440668,-0.14450946,0.22353366,-0.25478116,-0.18786454,0.5037517,0.48686585,0.36629546,0.053020418,0.0060382597,-0.36201644,-0.25888667,-0.18693402,0.43002483,0.23653856,-0.30394876,0.19639647,-0.18283887,-0.38957506,0.37495366,0.035761368,0.14839207,-0.4752704,-0.013921639,-0.27786833,-0.3208633,-0.35329023,0.42781594,0.23438767,-0.08481202,0.04426682,-0.26641965,-0.06572102,0.21044739,0.4565498,0.39552295,-0.3047102,-0.44568813,-0.4933279,-0.21795957,-0.231222,0.02076577,0.45249,0.23515467,0.37925687,0.27313733,-0.31652054,0.1426036,0.38573912,-0.08341588,0.2751423,-0.34090585,-0.46311185,-0.42929468,0.06143522,-0.2808656,0.19846725,-0.32907617,0.42559883,-0.25378582,-0.49767658,0.118625775,-0.016977655,-0.14258803,0.44178393,0.20078714,-0.15601656,-0.47005346,0.3495491,-0.30149296,0.06601932,0.006019743,0.13392404,-0.27521238,0.06637572,-0.32880184,-0.0013354338,-0.17294173,0.21795447,-0.28155246,0.20328219,-0.15008005,-0.0793451,0.30269635,0.40167585,-0.26079193,0.15730159,-0.48127607,-0.40516913,0.24676883,0.37317672,-0.07447142,0.48890796,-0.09983862,0.38063234,0.37713268,0.31928992,0.4336041,0.41803,0.31046256,-0.2719539,0.3680329,-0.19838037,-0.07082616,0.15479822,-0.36164352,-0.16936807,0.3070411,0.25213292,0.19197422,0.009351726,-0.41861102,-0.25244597,-0.30890632,0.27268645,0.2675692,0.2284074,0.1496168,-0.19148803,-0.005950413,-0.25218198,-0.3093196,-0.13211355,0.24466206,0.48572245,-0.097316734,0.50632036,0.41535175,-0.019134972,-0.34399486,0.009394296,0.18741496,0.32091337,0.30988193,-0.025647316,-0.48618454,-0.0062095905,0.28029895,-0.106341325,-0.235679,0.046268992,0.03487351,-0.08808,0.40293118,-0.061712895,0.38043836,0.030154176,-0.46473852,-0.0073040696,0.21467151,-0.454983,-0.19848977,0.40159938,0.13855405,0.15130778,-0.4331942,0.32589576,0.19182532,-0.019947225,-0.08341627,-0.13903496,-0.2708635,0.17829044,-0.20397258,0.4204995,-0.06624457,0.26582897,-0.296088,-0.30741167],"13":[-0.35677916,-0.08639562,0.23465133,-0.27990595,0.23928759,0.1596096,-0.19298823,-0.24001144,-0.3546603,-0.4507306,-0.3140294,-0.4578442,-0.31131172,-0.008970789,0.47742796,-0.06475395,0.26915357,0.26395416,0.14790466,-0.026759256,0.35816222,0.07368368,0.014947855,0.46895704,0.31464216,0.39925915,0.21877891,-0.37691393,0.24429968,-0.4139319,-0.016954476,0.19311959,0.4964843,0.0041602696,-0.091915816,-0.35128587,-0.46147949,-0.062003445,0.07811146,0.43815807,-0.09956571,0.45557693,-0.11480218,-0.18646069,-0.4180966,0.1120844,0.1861477,0.13363542,-0.2753133,-0.08148619,0.45722863,-0.23434179,0.24293448,0.16291344,-0.16089116,-0.055319488,0.21595421,0.0737186,0.20776573,-0.09597635,0.18697266,-0.32748812,-0.10622163,-0.1820905,-0.13797551,-0.29926544,0.0482708,-0.032771192,-0.22149202,-0.34341213,-0.38419288,0.38152036,-0.40606964,0.047647428,-0.36556965,0.14275818,-0.033135626,0.30330563,0.3520562,0.44241273,0.38081914,0.4136897,0.4883691,0.38629952,-0.20229495,-0.2656454,-0.2530123,-0.080228046,-0.1289262,0.15282622,0.14181288,0.48000285,0.38094857,-0.32103762,-0.18160371,-0.48705995,-0.20253663,0.22605988,0.1683345,-0.18794036,0.37379247,-0.1743814,-0.27660808,-0.3746879,0.06476094,0.39035806,-0.3856845,-0.44280156,0.38316098,-0.39230564,-0.40648347,0.12471753,0.42083576,-0.16994107,-0.37919435,-0.045999672,-0.1559107,0.10913687,0.19442332,-0.17550094,-0.076225534,-0.24032483,0.1242292,0.22673011,-0.4538005,-0.26204288,0.48114026,0.24034563,-0.26691976,0.47626093,0.4928455,-0.23519461,-0.38685054,-0.24270338,-0.059947893,0.27741703,0.37381336,-0.20071651,0.2759236,0.12354778,-0.27693504,0.49224326,0.19007556,-0.25282976,-0.23412102,-0.42454913,0.27051595,0.0996478,0.4738007,0.3204166,0.34813982,0.025305921,-0.34494454,-0.2681282,-0.25499478,0.45139417,-0.031050563,-0.47379085,-0.30031392,-0.04213637,0.122659884,-0.07740958,-0.43706012,-0.22211865,-0.26926497,0.10341031,-0.22565581,-0.15950178,-0.09986474,-0.35592282,-0.020095274,-0.24324529,0.39422584,0.1276947,0.14189333,0.46767607,-0.18228813,-0.22824705,-0.24965765,0.37020746,-0.38819757,0.4870185,-0.38623682,0.3948696,0.13175534,0.3170099,0.2121686,-0.20085901,0.4652227,-0.028013017,0.352373,-0.3857469,-0.1316747,0.35209274,0.4567951,0.43743217,0.046844438,-0.097258985,0.017884001,-0.30095857],"14":[0.2855914,-0.46164578,0.49504378,-0.3996803,-0.068624765,0.19976595,0.42312956,-0.33095828,-0.3521511,-0.38034052,-0.15749969,-0.09605392,0.27558562,-0.4720985,0.3411572,0.3810589,0.17157483,-0.0065143034,-0.28663582,0.27166775,0.33401462,-0.36001974,-0.20093305,0.25579232,0.19494925,0.41357982,0.10226272,-0.4255705,-0.26450366,-0.2921432,-0.45624933,-0.01436981,-0.3319189,-0.33711374,-0.4575252,0.31251878,0.19143738,-0.23490834,0.4446361,0.27574828,0.11251363,0.4025436,-0.07864521,-0.41796055,0.110261224,-0.43872496,0.39400172,-0.4052079,0.39677295,0.44652632,0.06206748,0.08424849,0.3762235,-0.12686664,0.17745756,-0.26256186,-0.44645065,-0.020558596,0.405874,-0.22435354,-0.41689304,0.28271696,-0.2913863,-0.12679671,-0.2885432,-0.0842777,-0.4785718,-0.12895858,0.36282915,-0.5086337,0.3085194,-0.0050477134,0.064371035,-0.25427273,-0.19772077,0.10694965,-0.05133492,-0.44271848,0.04520352,0.15241958,-0.059472766,0.00179001,0.1726705,-0.121266045,0.018941533,-0.35622144,-0.1747664,0.454152,0.06017984,0.20581721,0.048419468,-0.37312537,0.08143283,-0.45134598,0.10350668,-0.09220945,-0.24255493,0.48077562,0.051649027,0.103014685,-0.44973803,0.42968383,-0.02177323,0.46533287,-0.17505527,-0.09070202,-0.07115164,0.016069984,0.46073285,0.11941309,-0.49033898,-0.004765264,0.08361409,-0.46031332,0.43124458,0.20423564,0.19842425,-0.23398036,-0.33618313,0.22741078,-0.14018577,-0.31664208,0.09858301,0.043837693,-0.15752983,-0.20943518,-0.27475238,0.023276439,-0.3325142,0.27592164,0.48887774,0.1555755,-0.03021603,-0.22474004,-0.01843128,-0.30710346,-0.15569557,-0.42854032,-0.10266842,-0.093485296,-0.21209034,0.4789329,-0.15865259,0.4364924,-0.023887606,0.10105533,-0.12831007,0.061846696,0.31227705,0.39676157,-0.2181928,0.29187733,0.4735707,-0.08372656,-0.26011708,0.3413246,-0.25167066,0.045286752,-0.3200724,0.3062341,0.29309174,-0.39123204,-0.44320637,-0.26881513,-0.22384022,-0.0072413348,-0.3247333,0.4561687,0.10237726,0.09006377,0.032688413,0.086191125,-0.3763927,0.17301752,-0.4700437,0.2536701,0.43791392,-0.40144098,0.062479716,-0.16679959,0.18011515,-0.31634778,-0.1163711,-0.1183536,0.30493808,-0.35364977,-0.42191893,-0.46631715,-0.022014452,-0.2701929,-0.11581211,0.4107874,-0.22127177,0.41698068,-0.2698811,0.07663551,0.43486932,-0.40452537,-0.13092998,0.005491448],"15":[-0.4675478,0.20958348,-0.049235575,-0.49390608,-0.23157804,-0.38235083,-0.09219206,-0.48167646,0.19133112,0.46821243,0.43363106,-0.46307644,-0.312047,-0.46278235,0.29232892,0.00980247,-0.07380627,0.30007404,0.14543815,0.20044996,-0.120524794,0.15114313,-0.19933803,0.2562838,0.09063568,0.13365246,-0.15245111,-0.32340443,0.3853708,0.39291677,-0.37125513,-0.24745668,-0.22863427,-0.37188444,-0.11388189,0.24953578,0.18480468,-0.29839292,0.14642273,-0.360459,0.043990735,-0.0056807394,-0.4364209,0.33472297,0.039209485,0.03475517,0.41546026,0.1454301,0.27914572,0.08811024,0.29618213,-0.19360976,0.03610763,0.019073509,0.1505249,-0.37456623,-0.33650213,-0.33220676,-0.31716463,0.10696963,0.19508736,0.2789611,0.038228232,0.33745548,0.0012789905,0.18763681,-0.37063473,-0.13395749,-0.4262185,-0.3111894,-0.18741715,0.20722699,0.4573024,0.11023474,-0.25549415,0.32108724,-0.10401002,-0.483452,-0.2864191,-0.34457338,-0.29901242,-0.055181235,-0.13634479,0.17469104,0.48006472,-0.42626834,-0.19917354,0.0678748,-0.13780886,0.07283171,-0.06417545,-0.04539716,-0.39336377,-0.3050966,0.41612476,0.01115664,0.17136008,0.38588345,0.09789879,-0.000592001,-0.008076634,0.4217685,0.038421217,0.13353044,-0.4529709,-0.39815456,0.3428841,0.21740457,0.21929128,0.42524782,-0.019655362,0.057442833,-0.30952424,0.45405677,0.1645789,-0.1844556,-0.48845437,-0.22376142,-0.4511892,0.28438258,-0.10809613,-0.17698747,0.36703527,0.43314323,0.033777766,-0.2742286,-0.086224034,-0.0809206,0.0014004473,-0.27185398,0.18405822,-0.027561722,0.36838922,0.40447062,0.1518074,-0.27710375,-0.25752297,-0.10387666,-0.49965334,0.35403728,0.07287357,0.41576824,-0.26924926,-0.43634957,-0.48265687,-0.27083555,0.22924507,0.03988354,0.1121514,0.16263784,-0.061119467,-0.4399206,0.20011948,-0.33375952,0.32125837,0.12572846,0.4097491,-0.2961105,-0.33997604,0.19030337,-0.26510733,0.112357914,0.27937308,-0.4855737,0.34938437,0.034276824,0.39763767,0.18428972,-0.28683764,-0.18971251,0.019113997,-0.06342722,0.21174192,-0.04578299,0.39700508,-0.33138224,0.32377273,0.13139826,-0.3595644,0.03307379,-0.17440552,-0.06938285,0.4674778,0.3678861,0.4648254,-0.16991004,0.23154399,0.43272474,-0.4169694,0.3810895,0.26444542,-0.33328518,0.01864139,-0.32350793,-0.06932319,0.013864454,-0.42746758,-0.1709884,-0.39937875,0.23932554],"16":[0.44710448,-0.28253064,-0.12137823,-0.3685916,-0.00227418,0.2660331,-0.18984601,-0.33222756,0.42380604,0.124057576,-0.0782071,0.50329554,0.47925967,-0.21871793,-0.30364057,-0.26091504,0.40823564,-0.18371482,-0.039110377,0.1974573,-0.29521406,0.45757473,-0.0074394094,0.14832796,-0.26506504,0.37737846,0.012863864,0.054903228,0.038639944,-0.09294775,-0.014851288,-0.17755291,0.483857,-0.14892198,-0.3846045,0.19069596,0.31445244,-0.3407265,0.06880455,-0.3620198,0.3593936,-0.11028963,0.07784867,-0.16422844,0.40443403,0.35235724,-0.40593022,-0.4110522,-0.31940332,0.43555307,0.073899776,-0.26377568,-0.24609773,0.40092197,0.12913468,-0.45737824,0.36868942,-0.33416444,-0.23281415,-0.2759927,0.16021319,0.30856743,-0.030437488,0.3546788,0.16871388,-0.18735975,0.035972647,-0.033940192,-0.2655894,0.18682508,-0.09268125,-0.08223363,-0.36725768,-0.035038177,0.4926996,0.39612132,-0.4514783,0.3410459,-0.27757558,-0.096071936,-0.48454702,0.22133134,0.49163905,0.48536402,-0.1592775,0.08410556,0.26447028,0.23210855,0.43247047,-0.4878491,0.4228632,0.09535189,-0.083306305,-0.1586157,0.4929623,-0.36225927,0.06043468,0.01755634,-0.41622046,0.1542347,0.10278631,-0.31085247,0.21473141,0.30403712,0.15679334,-0.3502334,-0.3996719,0.25215816,0.096588865,-0.02444046,0.22784235,-0.1927799,-0.24829009,-0.35940865,-0.3866566,0.23298018,-0.29737455,0.046888616,0.11533809,-0.41312304,-0.34057063,0.1467277,0.314772,-0.28252062,-0.14796773,-0.07228767,0.281035,-0.0031234229,0.4160332,0.25663012,0.36647308,0.07297129,-0.061797757,0.50783336,-0.46009278,-0.38106447,0.28981036,-0.15628386,-0.008038877,0.19692628,-0.291509,0.3656851,0.27721882,-0.115900375,-0.4138584,-0.09063001,-0.14833559,-0.012237923,0.46906772,0.09978295,0.3099826,0.19852562,-0.2419027,0.36481568,-0.02941936,0.021905,-0.17333008,-0.35337782,0.11183308,0.22166663,0.33082995,-0.38240826,-0.09381993,-0.4556835,0.4441695,-0.102452666,0.45291072,-0.49224544,0.05546571,0.19170809,0.05801828,0.03273859,0.14281984,0.2581649,0.33429635,0.28832057,-0.23890194,-0.29357603,-0.433212,0.053448264,-0.3858112,-0.15762268,0.37195858,0.21394399,0.13139234,0.15634136,-0.34476307,0.3682079,-0.46876967,0.34075192,-0.054599978,-0.02199019,-0.08734714,-0.42431426,-0.3797289,0.40352607,-0.24325351,-0.23814774,-0.031901486,0.21954492],"17":[-0.10857543,-0.14035341,0.017373195,0.37885115,0.34047002,-0.21615002,-0.1518242,-0.4307465,0.29876688,-0.31274664,0.46852165,-0.4168126,0.32855687,-0.25547102,-0.31223455,-0.21730937,-0.21491452,-0.39825752,-0.112509616,-0.2522171,-0.082896575,0.18536445,-0.49085954,-0.23752752,0.17903122,-0.37142974,0.41549042,0.45937163,0.29362908,0.30399647,-0.5198869,0.45705163,0.4803247,0.073714495,-0.39001125,0.21739772,0.19256125,0.10212866,0.40017444,-0.059498314,-0.11398794,0.21807085,0.11049515,-0.20606138,-0.11132836,0.17052826,-0.06841638,0.09796129,-0.27296782,0.31381676,-0.29155415,-0.031116994,-0.29932478,-0.23415159,0.23839106,0.015964888,0.45615235,-0.03502053,-0.29107183,-0.32261646,-0.19821677,-0.28717068,-0.15959956,-0.08791081,-0.15587445,0.3517157,-0.27960414,-0.12815543,-0.18106702,0.007005588,0.3371138,0.3696433,-0.057056386,-0.25433716,-0.43768483,0.09134547,-0.061676156,0.4821676,-0.28917703,0.22339942,-0.010316476,-0.32792127,0.110133365,0.018020723,-0.02618418,-0.23384945,0.07589607,-0.15413113,-0.42409593,0.061355986,-0.099005215,-0.2948314,0.28388736,-0.44305494,0.41503763,-0.120601855,0.1594933,0.034465645,-0.37051588,0.20851429,0.3196117,-0.24581088,-0.30431375,0.31003943,-0.42120934,0.12988202,-0.32674938,-0.40783453,0.14602645,0.3152065,0.091584496,-0.1874239,0.14405175,0.2510584,-0.0027805557,-0.1428128,-0.4222252,0.22969022,-0.44268665,-0.09534317,0.42004365,0.005954759,-0.36882937,0.34534872,-0.4478701,-0.43150848,0.03755042,-0.35074034,0.06883901,-0.3254882,0.32310158,0.40787226,0.3431311,0.49442542,0.029277906,-0.41008985,-0.068846315,0.08919032,-0.41563484,0.46240962,0.18641269,0.118739545,0.087960295,-0.12802121,-0.110781685,0.3288532,-0.39733756,0.1601427,-0.25007766,0.4483417,0.08550267,-0.3479,-0.24102342,0.009861238,-0.33742636,0.43592644,-0.2918994,0.397419,0.1063828,0.45633492,-0.48594958,0.34803697,0.058351677,0.16605236,0.09185314,-0.27356791,-0.23777033,0.32786882,-0.02386655,-0.4981734,-0.41587716,0.19873393,-0.4688876,0.11295572,-0.3167737,-0.083217114,-0.46147552,-0.001665421,-0.22633786,-0.23718573,0.36704764,-0.43075702,-0.46756095,-0.46906364,-0.052533086,-0.10717206,0.44665754,0.35840774,-0.3021353,-0.24321993,-0.34129113,-0.13822879,-0.2415577,0.43946025,0.1583098,-0.43642876,-0.41041082,-0.19516227,0.30052137,0.042743653],"18":[-0.3016625,-0.4457387,0.25585747,0.29499286,-0.34529582,-0.416277,0.014544001,-0.117731385,0.3300506,0.12034035,-0.43695888,0.22613803,0.3171565,-0.1482793,-0.44756988,0.1323314,-0.16378745,-0.31426302,0.19357803,-0.23289648,-0.3359798,-0.40988308,0.36113352,-0.16104694,0.051028103,-0.16409168,0.24352722,0.18975964,0.44772872,0.085766256,0.29181787,0.08691767,-0.4374056,-0.42297667,0.34946054,0.018987792,-0.1744545,-0.019190893,0.07955181,0.38044816,-0.44805866,-0.13415356,-0.34308368,-0.33612758,-0.21957403,-0.037407618,-0.41865757,0.35926458,-0.009287829,0.27763388,0.18711188,0.30763346,0.27006197,-0.049375553,0.22273487,-0.01367326,-0.31899825,-0.020523788,-0.13776569,-0.50152886,0.14702886,0.04871675,-0.4639446,-0.4899835,-0.32874647,-0.47257137,-0.10604248,0.308536,0.18110023,-0.4564105,-0.10439614,0.14071518,0.2717356,0.36668852,0.057456393,-0.40926886,0.04496289,-0.1049457,-0.48913518,-0.4288391,-0.4195767,0.22850047,-0.06786264,-0.3718554,0.100264296,-0.47346652,0.45377895,0.23317601,0.18935373,-0.08654143,-0.0014698654,0.35391676,-0.12613237,0.0056346343,0.007896127,-0.42570084,-0.34349993,-0.4023298,0.040413145,-0.26068738,0.4699183,0.14044146,-0.4608007,-0.08966418,0.42201674,-0.356019,0.06867548,0.16707815,-0.2845328,0.3991921,-0.34174684,0.4070034,-0.46972552,0.15613465,-0.14423077,-0.43023688,-0.3249037,0.11125015,0.015700532,0.32315713,-0.18224801,-0.41694373,-0.44233382,0.18637916,-0.3583853,0.48313087,-0.27042854,0.45941025,0.1790125,-0.46309936,-0.25341213,0.47681493,0.4839989,0.0851589,0.12026954,-0.43477508,-0.029234828,-0.28215638,-0.1193091,-0.3178171,-0.4866384,0.28347954,0.033350997,-0.00022094592,0.22431609,-0.4817596,0.0038338457,0.033806846,0.42865115,-0.060736068,-0.014172349,-0.21401839,-0.23735598,0.34736925,0.2818519,-0.08582951,-0.34932238,0.10205524,-0.3246329,-0.012462677,0.36005282,-0.3946359,-0.031190677,-0.14303719,0.15037897,-0.26203075,-0.37325165,-0.027274793,0.13031939,0.47318,0.13989891,-0.4425907,0.36635488,-0.22808447,0.08100477,-0.3008894,0.20876993,-0.47701097,-0.3067196,0.25879386,-0.3776405,0.21553113,0.01144274,0.08528392,0.27077082,-0.1724485,0.48019174,-0.35522205,-0.2061316,-0.33720505,-0.41489643,-0.42575043,-0.27348888,-0.060102407,0.24450342,0.26743138,-0.05177109,0.100192584,-0.1183974,-0.2865156],"19":[0.1740819,0.49970183,-0.3043414,-0.24894795,0.3105951,0.22166948,0.055759937,0.27489713,0.040056825,0.45245093,0.40957212,0.025330046,0.17709154,-0.26063725,0.2558419,-0.16768508,-0.40518045,0.26464266,-0.383065,0.40507773,0.28323233,-0.33148623,-0.031079274,-0.28961676,-0.08008734,-0.36244795,0.3397487,-0.15609191,-0.03743858,0.09034152,0.29959035,0.24761741,0.3730235,-0.0071805157,-0.18491541,0.090455785,0.2969726,0.18512946,0.29263836,-0.24912205,-0.42775398,0.45123845,0.511031,-0.36734426,0.4385005,0.00234671,-0.23746154,-0.2726841,-0.022856995,0.23618141,0.29803115,-0.19178192,-0.40103957,-0.11590389,0.0058018337,-0.4197596,0.3145007,0.34820336,0.044769783,0.14439312,0.21437372,-0.2500224,0.21537884,-0.27562422,-0.012564643,-0.3560777,0.2744248,-0.006236945,0.29530856,-0.14854124,-0.15032718,-0.31384942,-0.36851132,0.2340457,0.3165607,-0.012545355,-0.21819666,-0.15734491,-0.18359454,0.4019164,-0.44514954,-0.27974224,-0.47802904,-0.081131235,0.332154,0.25786945,-0.061722014,0.008033642,-0.13411157,0.032150146,-0.062188394,-0.2061934,0.3425564,0.14356327,0.4667889,-0.102961674,0.20000616,-0.42635733,-0.25928795,0.09828297,-0.06927248,-0.50663036,-0.50149673,0.39203143,0.4394561,0.22372095,-0.24973314,0.44289017,0.011091938,0.20830049,0.29596233,0.5076247,0.15778734,-0.17261583,-0.20796506,0.13183482,-0.20234585,-0.30291376,-0.18252844,-0.11551522,0.3892933,0.41474238,0.072813325,0.27739885,-0.46676803,0.25830573,0.42262515,0.2610004,-0.35148016,0.42418286,-0.38117498,-0.04422515,0.47243804,-0.16444704,-0.4568616,-0.081077695,0.37558043,0.28062996,-0.07001325,-0.40566835,0.22693288,-0.18760768,0.11224132,-0.3267582,0.20548642,-0.084047735,0.15710318,-0.15477175,0.4638203,-0.02459633,-0.24167995,-0.35633147,0.34722996,0.29284915,0.19967096,-0.40999165,0.37265012,-0.42704037,-0.3943274,0.44889674,-0.3810997,0.3033704,-0.39724052,0.26281744,-0.37171,0.47739965,0.15240137,0.06279532,0.23238192,0.064305246,0.48086944,-0.48491085,-0.12881503,-0.071964726,-0.14514676,-0.099240854,0.15935154,-0.04051058,0.38383344,-0.12220184,-0.269027,0.256913,-0.31883198,0.1302808,-0.12291812,-0.10324605,-0.21877082,-0.20314433,-0.41717476,-0.1755879,-0.24438913,-0.41950926,0.092690095,-0.17447351,-0.42358306,0.14621462,-0.36781457,-0.22037442,0.4876332,-0.15746002],"20":[-0.4513476,0.014659896,-0.4831364,0.082905516,-0.29361805,0.32869127,0.44890973,0.25588202,-0.06392316,0.17258027,0.38528904,-0.31085634,0.114804044,-0.14125904,-0.11430788,0.23714155,-0.17036779,0.028917046,0.3375084,0.42413777,-0.21760663,0.09780774,-0.2882992,-0.42220524,0.37794408,-0.4092627,-0.46762925,0.015272447,0.029103428,-0.14223543,-0.055961646,0.4969364,0.48874608,-0.25603747,-0.23472269,0.14543127,-0.034730993,0.41995928,0.29862148,0.11199049,0.36046714,-0.10905998,-0.35470432,0.2210762,0.35206702,-0.14030269,-0.34636647,0.18045749,0.3690225,0.39318117,0.07987417,-0.25772348,-0.09178155,-0.37293085,-0.35227507,0.052298542,0.47325802,0.44138944,0.03369624,-0.14205104,-0.043033756,0.42818505,-0.09565571,0.22185099,0.17184913,0.19096674,0.24041028,0.11773143,-0.2523819,-0.15604158,0.36576128,-0.45087785,-0.31706554,-0.14851718,0.22696508,0.036406476,0.2783348,-0.06153321,-0.3271912,0.23125406,0.08631464,-0.457487,-0.12368982,0.20129362,0.042922217,-0.087173976,-0.4649942,-0.4936258,-0.3537185,0.081366755,0.11954488,-0.40717992,-0.4676456,0.26807144,-0.13754912,0.3205262,-0.31964716,0.2766544,0.1471537,-0.1325003,-0.4820279,0.25805205,-0.36783656,-0.46060455,-0.3844738,0.09980984,0.05243579,0.23895364,-0.21267927,0.42986023,-0.29696164,-0.49340817,0.1787379,0.48265296,0.49079734,0.14574815,0.24605122,-0.3647865,0.024497354,-0.28415632,0.102386594,0.10544717,-0.1250342,-0.48687464,0.1442078,0.22917032,0.14524719,-0.37948394,-0.29061884,0.28343445,0.31268802,0.1414373,-0.025379099,0.48170254,-0.030978091,0.4761306,0.45465043,0.031503364,0.21002063,0.32172117,-0.06830231,0.4088804,-0.40523824,0.4586457,0.34142122,-0.2395304,0.42766267,0.075191095,-0.28878346,0.13160354,-0.30741286,-0.30483988,-0.50779444,0.37930322,0.17855358,0.18522123,0.26790026,-0.4029786,0.10538699,0.2928316,0.39695567,-0.36539012,0.09391119,0.17871368,-0.32106242,-0.020230327,0.09955307,0.18132691,0.13839851,-0.297378,0.41925955,0.06975225,-0.47093648,0.121499985,0.38070342,0.045270838,-0.1122531,0.41457492,-0.47169906,0.03598211,-0.30998597,-0.40303054,0.16548969,0.39587766,-0.06576253,-0.37726316,0.119216636,0.14675464,-0.3073796,-0.3614165,-0.17054608,0.399932,0.5010748,-0.3991669,-0.02694466,0.26303983,0.13320976,-0.47556078,-0.26803583,0.20025416],"21":[0.06293942,0.2766135,0.120343715,0.16088323,0.25981843,0.4287486,0.2281442,-0.4467852,0.38679567,-0.29088208,-0.31222248,0.23810034,0.18093124,0.076922655,-0.18097837,0.36506188,-0.41570878,-0.33502665,-0.19417682,-0.345323,0.25313717,-0.1802731,0.3340542,0.28806302,0.2559351,-0.27213335,0.32029444,-0.22911671,-0.36573207,-0.2916962,0.39392146,0.2741866,0.12645857,-0.43098944,0.3260782,-0.08221268,-0.0042844317,0.021541236,0.06796359,0.092664056,-0.0913002,0.31351432,0.49342933,-0.46959034,0.4066005,-0.41993603,0.31183857,0.49256378,0.17343761,0.36414632,-0.3532116,0.27608344,0.32484713,0.28206068,-0.32251465,-0.1106915,0.48770443,0.21469769,0.017993558,-0.28467426,-0.19562055,0.19680205,0.36760503,-0.3155809,-0.22717503,0.30632263,0.03692529,-0.0802225,-0.42298496,-0.26555288,0.11860222,-0.3616607,-0.1625379,0.21508977,-0.0010929767,-0.14960945,-0.2041751,-0.076659866,0.38337076,0.3447283,-0.055369742,0.39516777,-0.1780694,0.3952396,0.45410421,0.41661352,-0.43350577,0.3759248,-0.18845433,0.1505593,-0.48694646,-0.19529013,0.47202122,-0.5097602,0.34655157,-0.21396922,-0.3405369,0.3196877,0.4809487,0.34357277,0.2504649,0.43114418,-0.17009458,-0.17125928,0.20416945,0.29480496,-0.4374853,-0.10662439,-0.023907576,0.17487521,0.4141697,-0.0018822366,0.23103274,-0.2902793,-0.039821625,-0.14014591,0.12864967,-0.45378152,-0.28861284,0.4139653,0.20295458,0.39526722,0.061893784,-0.2856042,-0.39268866,-0.2967695,-0.43103015,0.20401928,-0.38003817,0.16359575,-0.3369541,-0.19632961,-0.4109337,-0.10710642,-0.14822155,-0.14854802,0.08517589,0.4455308,0.08330351,-0.21125202,-0.06791381,-0.29063717,-0.31967035,-0.31458968,-0.035638936,0.3949534,-0.17040208,-0.22239989,-0.3603511,0.48012906,-0.16092415,-0.17893253,0.38154432,-0.23724353,-0.4615802,0.4759725,-0.18314654,-0.44985732,0.40193018,-0.080981955,0.34189916,0.17992714,0.16382895,0.06734771,-0.062784374,0.3707113,-0.09384006,0.32362148,0.3716057,-0.089310676,-0.20299873,-0.085279524,0.48333254,-0.023193365,-0.2607274,-0.45275748,0.22651525,-0.19054398,-0.24387842,-0.27989686,0.1297325,-0.37950057,0.28410485,-0.04941838,0.4025502,-0.067925654,-0.32910398,-0.15661858,0.11635682,-0.48877499,0.28571904,0.14408149,-0.30609843,-0.403484,-0.49584693,-0.13001424,-0.24694195,-0.21083207,0.4371047,0.16208059],"22":[0.33431825,-0.3186073,-0.36077678,0.277868,0.07243406,-0.028944809,0.25696638,0.14418265,0.033075653,0.37987816,-0.21210001,-1.1146851E-05,-0.24026369,-0.026151644,0.1362033,0.3289329,-0.44517785,-0.13496614,-0.21205844,-0.11790914,-0.14916521,-0.14884278,-0.060640894,-0.41259363,-0.2815984,-0.4002455,-0.01897322,0.065687425,-0.21969485,0.122730106,-0.29502612,0.12217977,0.28146127,0.33035955,0.1579997,-0.012013105,0.09513295,0.11211343,0.46674487,0.4145736,-0.38005754,-0.32301277,-0.4473585,-0.40402466,-0.26944673,0.09503367,-0.40539137,-0.47140688,-0.060393993,-0.27629048,0.044436745,0.1487495,-0.23237006,0.07376355,-0.32670963,-0.010380896,-0.27014625,0.46665344,0.10221241,0.16340415,0.17384863,0.47218302,0.24929231,0.41156355,-0.30167925,-0.32285264,0.2504766,-0.40429983,-0.016857278,-0.19332422,-0.21623848,0.082033336,0.06718068,0.17888917,-0.11050452,-0.29495025,-0.15313698,0.01522185,0.3823071,0.18596093,-0.27989313,-0.013010861,-0.07676073,0.11498819,0.49850652,0.1619643,-0.4208659,0.07390308,-0.2935315,0.11109168,-0.47199813,-0.15121405,-0.47342202,0.3104941,-0.3346238,-0.019517612,0.0033230323,-0.09495226,0.15522552,0.23572026,0.09923397,-0.01878046,-0.116837,-0.41577014,0.0012021681,0.19608875,-0.21145631,-0.2812957,0.42503047,-0.4899925,0.16857156,0.4386324,-0.039458092,0.2829964,-0.27036014,0.12021519,0.07555208,0.4652548,-0.118253425,-0.30586436,0.058651786,-0.15322843,0.011283082,-0.18356508,0.30707243,-0.29226834,0.47410503,-0.050121337,0.21528096,0.4995662,0.073654346,-0.05315808,-0.17435879,0.32753947,0.09640639,0.47623813,0.08434116,0.010630449,-0.25478792,-0.0016138947,0.3510444,-0.008247508,-0.1402466,-0.011071275,-0.29727504,-0.4335341,0.2529182,-0.19642434,-0.12163676,-0.12886792,-0.18190843,-0.38077882,-0.22068404,-0.0064942213,-0.46124777,0.21317703,0.42080048,0.23016484,-0.49478844,0.18166365,0.35630003,-0.16720381,-0.17917918,-0.28236204,0.4624702,-0.20413524,-0.28618407,0.14346497,-0.13554953,-0.28530833,0.08022405,-0.42957404,-0.2328049,0.25782022,0.15902571,-0.13048597,0.3645208,0.07990019,-0.44420514,-0.033684038,-0.2862459,0.29756114,-0.47512034,0.15775284,0.30712137,0.4651904,-0.017169926,0.43135524,-0.36804047,-0.041337825,-0.13899127,0.27551374,-0.15804914,-0.49352822,0.17035739,-0.2008825,-0.05402396,0.13519713,0.42713365,-0.33196977],"23":[-0.21562646,0.414691,0.12929025,0.08432653,-0.4327222,-0.33694378,-0.027145144,-0.33826488,0.06729585,-0.4368159,-0.056299895,-0.02193069,0.29302987,0.16148157,0.43245733,0.03372604,0.08896717,0.44870564,-0.27145618,-0.049275503,-0.39675444,-0.48912513,-0.2813066,0.056953795,0.095807195,0.21829395,-0.054690532,-0.10100979,-0.3588236,-0.41436258,0.49775043,-0.19620389,0.15104666,0.18450576,0.36047143,0.4321754,0.09172149,0.003583683,0.29325277,0.24815993,0.11830475,0.18342456,0.10840485,0.22291794,-0.49186742,0.503149,0.22339147,-0.13651796,-0.24487409,-0.23812015,0.12990907,-0.090914816,-0.41783723,-0.25577033,0.11346797,0.123455375,-0.1570656,-0.06391822,0.074610904,0.22609812,0.28324434,0.105486,-0.3245065,-0.13202816,0.4661106,-0.5181666,-0.3795905,-0.48808113,-0.41965327,0.49153697,0.42495432,-0.1833657,0.49737585,0.4347261,0.010119627,0.16561277,-0.3315119,-0.32692367,-0.29866642,0.4915488,0.49860385,-0.01155099,-0.060626447,-0.009387193,0.40586525,0.004017379,-0.41465485,-0.40923572,-0.3516564,-0.14949885,-0.16870444,-0.12583694,-0.40216616,0.08614867,-0.40386283,0.015366875,0.26496053,-0.40586898,-0.17268758,-0.30122858,0.09714326,-0.057479575,-0.3788799,-0.31987205,-0.48600775,0.36056393,0.30824238,-0.3378028,-0.1989228,0.20179571,-0.08329213,-0.18709035,-0.3679997,-0.041522063,-0.25182787,0.20641987,0.33629933,-0.17791878,-0.36690688,-0.03647799,-0.057790164,0.38623887,0.12888491,0.20577858,0.27462456,0.17144778,-0.49050832,0.15497424,-0.3066746,0.4473421,0.16359122,0.43069914,-0.083415896,-0.12517157,0.38304314,-0.17533657,-0.45179552,0.48223346,-0.49242777,-0.033920474,0.08236825,-0.07922597,0.08859637,-0.3537136,-0.0072076763,-0.15328498,0.1129192,-0.43413967,0.42776763,0.08559828,0.26818237,0.26168093,-0.39044842,0.18333149,-0.045288235,-0.39671478,0.20455194,0.24515583,0.29625416,0.115516745,-0.39525992,-0.38653746,-0.36387813,-0.20750642,0.15516701,-0.42571932,-0.11929851,-0.24189879,0.23016636,0.45126307,-0.34304425,-0.32716787,0.27455267,-0.092808686,-0.10186453,0.05543376,-0.18922433,-0.37390035,0.050312545,0.4777834,0.03265772,-0.3750428,-0.36818635,-0.3619631,-0.46350887,0.37746695,-0.21123298,0.46194777,-0.4666254,0.30187416,-0.38883197,-0.04876421,0.2735476,0.41926882,-0.21156909,0.12264109,0.10008485,0.04924631,-0.46962553,-0.3226923],"24":[0.49467865,0.45949134,-0.14650641,0.12184755,0.284293,0.43703318,-0.4800149,0.27830914,0.24048136,-0.31066895,-0.35816276,0.13934906,-0.31093174,-0.35224435,-0.0026627635,-0.08835804,-0.43718153,0.41514537,-0.13976893,-0.17450325,0.34255695,-0.065057166,-0.15174384,-0.23300976,-0.23098698,0.34556276,0.43416,0.39553967,0.11162533,-0.20031296,0.104628265,-0.29031974,-0.13984299,-0.439781,0.18223631,0.3113352,-0.2808052,0.078975596,0.027873045,0.26496318,0.29414538,0.4279362,0.2947824,0.29498753,0.19845468,0.42958465,-0.36256748,-0.22794217,-0.24355319,0.24329317,0.06927929,-0.19620806,0.2619263,-0.13704169,0.025723636,0.16844828,0.14679497,0.3218643,-0.32705507,-0.0642053,0.04638717,-0.42931125,0.45781273,0.4643008,-0.40422216,-0.32625046,-0.03946589,0.29028258,0.17194434,-0.3825668,0.3126702,0.26076508,-0.047088116,0.2763999,-0.24794053,0.40925336,-0.07119561,0.17633305,0.24641141,0.24408628,-0.24613467,-0.01304838,0.050524447,0.47810873,0.28285807,-0.4671299,-0.26869106,-0.03189002,0.12554716,-0.35014358,0.30913004,-0.2914658,0.26496536,-0.13849404,0.31155667,0.31836677,-0.22538696,0.18473005,-0.042701364,0.16594122,0.10354773,-0.44958937,-0.05103341,0.022384174,-0.3960577,0.022128738,0.10105941,0.07480464,-0.060967848,0.044735454,0.10769705,-0.37234604,0.22117417,0.24986139,0.35700634,0.28243992,-0.3703108,-0.4033679,-0.27366546,0.34069782,-0.05748734,0.3347375,-0.14544743,-0.4428982,-0.24569514,-0.253914,-0.39831442,-0.1433448,0.06212617,-0.23338163,-0.4915113,0.4767379,0.108377874,0.14599153,0.027850473,0.2972026,-0.20703517,-0.39826304,0.28668487,0.15827848,-0.25381902,-0.01399631,0.14670007,-0.012924393,0.36771998,0.3119907,0.46326435,0.17622446,-0.13470688,0.17906494,-0.32225758,0.2478813,0.0024237263,-0.31010047,-0.14291346,0.032697804,0.48637363,-0.3668861,0.42328516,0.46695086,-0.21916959,0.29918295,-0.20004462,-0.31056178,-0.15185235,0.08250033,-0.12575513,0.1931273,-0.38644585,-0.04412201,0.28395396,-0.21346934,0.34653187,0.024800204,-0.25360146,-0.3467919,0.10518933,0.16548268,0.018124944,0.3926361,-0.35964853,0.34817132,0.057323452,-0.48063037,0.32902244,-0.34911424,0.1746375,-0.22076069,0.17153609,-0.49586567,-0.10129467,-0.43138364,0.08984818,-0.14833152,0.13550952,-0.31217673,0.43487564,0.21511357,0.35967755,-0.4139176],"25":[0.13503149,-0.2655608,0.41470537,0.42592868,0.046458945,0.26085493,0.27006754,0.3322468,-0.2687754,0.3424461,0.018196918,0.24674918,0.12416344,-0.39793375,-0.05285558,-0.04118027,-0.45291305,-0.1493492,0.013818682,0.021991454,-0.038017474,0.36426416,0.27814564,-0.48173973,-0.22563198,0.27885833,0.3308734,-0.39978904,0.084800325,0.38348728,-0.3774388,-0.0050526964,0.10016814,0.37735334,-0.21279004,-0.0024910916,0.07742986,0.43037403,0.37716207,0.11354186,-0.13140059,0.054525174,0.42991233,0.2700872,0.47776562,0.2392224,-0.045652118,-0.23573643,-0.42288795,-0.13779818,0.17407401,0.25648686,-0.3880117,-0.48384354,0.237349,-0.16665953,0.2966649,-0.19723038,0.19226533,0.035121482,0.26592603,0.2539692,-0.1613405,-0.1514645,0.13274701,-0.4943888,0.27830443,-0.14682572,0.16836753,0.27393594,0.3485015,-0.2610094,0.06435797,-0.47775862,-0.1443355,0.06693089,-0.2634694,-0.50706995,0.28067285,0.04306733,-0.37117484,0.13933125,0.3472055,-0.19066666,-0.31569567,0.04903874,0.108014405,0.39987838,0.19418791,-0.2416373,0.2926548,-0.4266959,0.006110894,-0.020447308,0.27085122,-0.4682942,0.40089306,0.13893105,0.17585483,-0.4544132,-0.15945815,-0.36175245,0.497877,0.2725973,-0.4812398,0.17516336,-0.47061247,0.17579001,0.44675416,-0.4631686,-0.17373551,-0.2613079,0.03458236,0.3057922,-0.06083908,-0.01850127,-0.4830495,-0.32407418,0.4848896,0.24920951,-0.3528447,-0.33257765,0.20259967,0.24253191,-0.23585914,-0.3195735,0.37515315,0.22465762,0.06589985,0.38564715,0.22071055,-0.38033435,0.29666242,-0.0071978606,0.11236334,0.29346135,0.3931928,0.11683662,-0.28320363,0.036359116,0.3280853,0.27166024,-0.24833079,-0.06323225,0.43951517,-0.4583139,0.25283054,0.11276306,-0.16891709,-0.0006765274,0.14662334,-0.058139537,0.06387561,-0.1754149,0.08004085,-0.45452484,-0.13219483,0.009143975,-0.4799301,-0.12289552,0.02902421,0.34842438,0.36207056,0.25604355,0.3370383,-0.41612974,-0.17652708,-0.3237131,-0.16056588,0.013019646,0.29202405,0.10369757,-0.20641169,-0.34496382,0.1874511,0.036802888,0.15373747,-0.18761401,-0.11802752,-0.39756545,0.4139256,0.13800468,-0.038591918,0.019092541,-0.47275084,-0.15030469,0.403276,0.36192974,-0.10830621,0.3935741,0.1515285,-0.30645183,0.24432,-0.36039272,-0.13195802,-0.36944082,0.37661994,-0.021264352,-0.40068784,-0.3469551],"26":[0.40308386,0.32804105,-0.043892473,-0.02321947,0.3907045,-0.384116,-0.021855272,0.36818498,0.06456263,-0.49118167,-0.20861498,-0.27451622,-0.3270959,-0.27631956,0.18875694,-0.011263978,0.47579286,0.279279,0.05885615,0.27146283,-0.04975772,0.36028725,0.1779378,0.4275742,0.03616471,-0.261328,0.39417616,-0.35396704,-0.078531936,0.19789957,0.27266228,-0.25110143,0.44773495,0.3295672,0.20074461,0.31491295,0.11174697,0.25009507,-0.3326956,0.32528022,0.43121818,-0.3895972,-0.09533944,-0.25979233,-0.110131904,0.25190228,-0.45399716,0.13948129,0.1781207,-0.50418717,-0.26041234,0.101455815,-0.43523347,-0.4906589,-0.1003953,0.05958997,0.45106512,0.049437165,-0.27759808,-0.38547048,0.099443175,0.24200165,0.29115406,0.100198545,0.08811391,0.3308616,-0.14172004,-0.33032385,0.15184627,-0.19926184,-0.34561193,-0.34339043,0.014196034,0.027927672,-0.46603677,0.27782896,-0.31069732,-0.30016205,0.07178627,-0.4849717,-0.17763773,-0.36195937,-0.2577719,-0.14332707,-0.47738266,-0.17240903,-0.4611348,0.4067728,-0.3412602,0.29771835,-0.35230714,0.50468063,0.4071995,-0.35527727,-0.14644301,0.1714016,-0.15248214,-0.07871537,0.19944991,-0.080695756,-0.037197575,0.08053301,0.4457932,-0.45683032,-0.18113624,0.43048048,-0.40178436,0.46968406,0.19753228,-0.18555906,0.05254493,-0.26027614,-0.027981723,-0.25577608,-0.13553187,0.3945947,-0.30836934,-0.3488428,0.148353,0.49078372,-0.33818623,-0.41864952,-0.0735011,-0.14518166,0.26545584,-0.17076041,0.0522327,0.447086,-0.3948877,-0.3116089,0.5011111,0.4192225,0.39180294,0.13260838,0.42179158,0.32889083,-0.0035244508,-0.29017892,0.41966787,0.18822274,0.3435465,0.19592494,0.08807546,-0.37396774,-0.23666279,-0.07365335,-0.055005684,0.4219086,-0.07625532,0.033263367,0.25564027,-0.13483524,-0.06176038,0.43481192,0.3757813,-0.46999574,0.26026872,0.24672425,-0.010358823,-0.36929598,-0.12852757,0.3983459,0.11900508,0.22259465,-0.048386477,0.4180478,-0.087035365,0.41801983,0.23849605,0.4499096,-0.4478794,0.38594514,-0.023856375,-0.20094305,-0.17145422,0.0144023085,-0.040278323,-0.14696181,-0.2653641,-0.39198202,-0.19409068,0.32581314,-0.3114596,-0.052917115,-0.43829,0.13961846,0.28278187,-0.4009077,-0.37616298,-0.18976538,0.4030305,0.028156351,-0.48778966,0.30726904,0.31518772,0.33188242,0.055170055,-0.13843298,-0.18231098,0.26074833],"27":[0.26159197,0.03469704,0.15220356,-0.15093106,-0.15143514,0.48458585,0.44517714,-0.39603353,-0.37162885,0.37727365,-0.24583945,0.396441,0.08529696,0.19355942,0.17733277,0.41106215,0.29673484,-0.0067865495,-0.46845454,-0.4903502,0.092380024,0.4180877,-0.018305112,-0.388426,0.28822848,0.3966766,0.0030113047,-0.2257198,0.5016524,0.31780082,-0.065098725,0.14558317,-0.38480017,-0.081279986,0.10113732,0.40658578,0.037017677,0.31355843,-0.46870038,0.14812979,0.43071422,0.17817378,-0.2075898,-0.062702805,-0.058845937,-0.48909146,0.027079975,0.30616283,0.18551308,0.027123375,-0.44312173,0.245529,0.17877106,-0.39627135,0.31154978,0.13851696,-0.49428403,-0.022986833,0.0918612,-0.3853522,0.38656166,-0.21304435,0.17721222,0.40401593,-0.4486382,0.15806939,0.02321292,0.050788924,0.025739178,-0.18076538,-0.47339877,0.3094251,-0.2287333,-0.26128757,0.40385845,-0.22906174,0.38698763,0.16452293,-0.05949572,0.14066914,0.26855782,0.040742174,0.09960407,-0.19163546,0.061075963,0.33643544,-0.11118461,0.37836727,-0.36116222,0.11478633,-0.12624383,-0.0595963,-0.22569095,0.46200988,0.2356176,0.14902784,-0.08584063,-0.017951228,0.4845398,-0.42038038,-0.03206982,0.4166939,-0.4689319,-0.2777602,0.08496212,-0.45802724,-0.06139721,-0.3455279,0.009461238,0.036737885,-0.34218818,-0.46631926,-0.031652343,-0.1889569,0.14032207,-0.2681985,-0.19112994,-0.41541842,-0.32520896,0.4440739,-0.43306184,-0.035396166,0.4006674,-0.4589689,-0.3637012,-0.18912376,-0.031371012,-0.4221057,0.5049792,-0.15630494,0.42409092,0.011881219,-0.15334076,-0.40036273,0.25043288,-0.42475316,-0.22490726,-0.02897582,0.4595176,0.17758906,-0.06165202,0.043009,0.016388,-0.39461172,0.2516136,-0.31954834,-0.3345316,0.46080756,0.4309444,-0.4882105,-0.46219137,0.075852804,0.25669456,-0.22060668,-0.37908316,-0.46657225,0.35206792,0.48059648,0.2016674,-0.27158087,0.25084007,0.5024852,-0.21626942,-0.4695538,0.17779692,-0.4663639,-0.0370543,0.29565194,-0.25802198,0.19313133,-0.24082214,0.24961357,0.040514946,-0.18809891,-0.23379889,-0.5044144,-0.12458449,-0.4624953,-0.0842639,-0.34382463,0.08114041,0.45755854,-0.33145532,-0.27808705,0.14638196,0.41452855,0.22749908,0.19356063,-0.077885054,0.45762512,-0.47466066,-0.39549136,-0.4513148,-0.110701546,0.26255056,0.13687806,-0.33816078,0.2984306,0.3249236,0.1663258],"28":[-0.3256623,-0.13185097,0.30452487,-0.012812761,0.45652848,-0.3216704,0.02842024,0.25608972,0.47973618,-0.25160614,-0.3753428,-0.47153863,0.16431832,0.4282964,-0.4850377,-0.14801344,0.31023538,0.48979676,-0.03748854,0.10656571,-0.12759928,0.15743658,-0.39367247,0.432824,0.19199902,0.4943334,0.35281715,0.21121556,-0.13189346,0.24758856,0.22724739,-0.19665372,-0.22105567,0.4896692,0.13695365,-0.10602611,-0.05070951,-0.09053531,0.40352157,0.32970548,-0.18334739,-0.27260256,-0.05950108,0.22581829,0.37289754,-0.46607164,-0.02792798,0.4603765,-0.16757157,0.32893905,0.16008204,0.19125947,0.45792887,0.08778876,0.348972,-0.49565238,0.30241776,-0.490499,0.06695709,-0.24875014,-0.5017439,-0.22624812,0.42363805,0.36513206,0.44609416,0.2781445,0.31930298,0.3958854,0.13929051,-0.4446526,-0.38255534,-0.33079213,0.14409573,-0.35440415,-0.4541758,-0.4182181,-0.2039306,0.3372173,-0.09029199,-0.038213506,-0.3659731,0.45963,0.4422062,0.276359,0.105120815,0.15006666,-0.20063409,0.30391055,-0.14114851,0.097602665,0.20580341,-0.08240498,-0.46505794,0.1307253,-0.12969343,-0.1090731,-0.35458255,0.48400098,-0.28215867,0.2125477,-0.06297913,0.24493806,0.42681533,0.15748923,-0.11338711,-0.3856297,0.03024495,-0.24561323,-0.4865519,0.30826822,-0.32824105,-0.017467933,-0.04847411,-0.39858678,0.14213063,-0.2261042,0.28386134,-0.40724522,0.43844193,-0.049816206,0.40017793,-0.22526711,-0.36611232,-0.07259844,-0.40906537,0.1649763,0.45352787,0.18929325,-0.23761201,-0.30386585,-0.33117312,0.044581346,-0.24067283,0.18297242,0.49265862,-0.19454078,0.30223936,-0.09953129,0.23604004,-0.16575353,0.39815098,0.08896398,0.1851911,-0.27791083,0.35817453,0.18356986,0.5056171,0.112952955,0.11991748,0.40653694,-0.46204147,0.18793274,-0.23568182,0.3503909,-0.2845523,0.4406455,-0.23845243,0.35932875,-0.47565705,-0.41338882,-0.19882686,-0.40986156,-0.22623958,0.034510255,0.25836638,0.24337068,0.28678396,-0.30258086,0.17092551,-0.22467116,-0.4777883,-0.21923615,-0.25287998,0.14153695,-0.12108683,0.07678398,0.50081235,-0.18177345,0.33088744,-0.008340062,0.10468342,-0.024343846,0.045204796,-0.22984284,0.28748986,-0.34158725,0.35358545,-0.1792011,0.46211132,0.3404593,0.27310628,0.1584942,-0.10373503,0.2624653,0.4747333,-0.19353081,-0.026116448,-0.45944655,0.46109867,0.43392077],"29":[-0.27226824,0.08940907,-0.24894892,0.33107826,-0.5025847,-0.34154642,-0.11648864,-0.0037193575,-0.21751411,-0.14974155,0.10415916,0.27398917,0.09171374,0.44737118,0.07869404,-0.1601304,-0.055347268,-0.19315498,0.20157854,-0.28279316,-0.2889763,-0.46227294,0.42493352,-0.4394798,0.039360236,0.15891458,0.3332879,-0.14135408,0.27261236,0.3168043,-0.41076356,-0.055378966,0.30531076,-0.39886904,0.2904817,-0.4217,-0.33819595,-0.06435819,0.38620365,0.034578595,0.26961547,-0.20580217,0.21479425,0.13710281,-0.31864306,0.053919088,-0.49515986,0.12402561,0.19677022,0.40619934,0.280797,-0.3393219,0.0008979753,0.317326,-0.18759646,-0.47069424,-0.2800607,0.48416063,0.15246367,-0.115195304,0.10537002,-0.3964238,-0.027978828,0.097808056,-0.43806908,0.096422195,-0.051383205,-0.39540756,-0.19422306,0.46269742,-0.12855372,-0.26234993,-0.1664051,-0.07916935,0.08912345,-0.36700928,0.32362768,-0.44147655,-0.24338344,-0.4270098,-0.46627694,-0.41208166,0.21713491,-0.019197328,0.1366686,-0.035103902,0.2435063,-0.097036175,-0.08818988,-0.30965734,0.055861913,-0.1240649,-0.23370433,0.4312419,-0.30492386,0.29726833,-0.4837443,0.26445636,0.18761763,-0.4526641,-0.20273714,0.39585742,-0.38043988,0.27717993,-0.15280485,0.31867504,-0.0038836258,0.3087543,-0.23529048,0.2895426,-0.08928374,0.06093697,0.20022431,0.3395929,0.40857986,-0.3095541,-0.23945,0.09659974,0.027287774,0.3005499,-0.14418218,-0.1679364,-0.1987171,0.42189977,0.023852214,0.4818664,0.16576102,0.338641,-0.49266154,-0.01720174,0.4302944,-0.44135287,-0.4315521,0.049549967,0.0068676965,-0.019663922,0.17995663,0.20960392,0.49728018,-0.4124965,0.050195448,0.418198,0.43546253,0.4927208,-0.0095074205,0.1563562,0.07962151,-0.44534734,0.08112769,0.38148287,-0.35442322,0.04381596,-0.29806438,-0.23416428,-0.11263073,0.15937102,-0.4933205,0.051676687,0.17452684,-0.47214857,-0.19562662,0.1209559,0.08206594,-0.51480526,0.22707121,-0.069527574,0.33815014,-0.2324696,0.22799203,-0.008928773,0.3430809,0.09072625,-0.17575291,-0.19093372,0.07649285,0.113674626,-0.26809356,0.07278822,-0.29547572,0.122134276,-0.25323606,-0.22717986,0.4404251,-0.09058785,-0.40139365,0.4665427,0.36450592,-0.33074394,0.15892932,-0.35029873,-0.22401796,0.038839508,-0.023172159,0.07492709,0.23170573,-0.021507446,0.25540262,-0.33440962,-0.4625311,0.5034317],"30":[-0.4119578,-0.074121214,-0.17537431,0.30262458,-0.04046971,-0.365257,-0.15458813,0.41601747,-0.23251072,-0.28238508,0.22420366,-0.0997416,0.1778224,0.19862734,0.06640093,0.10656722,-0.43906265,0.2737679,-0.26307845,-0.09595434,-0.21273054,0.036578525,-0.3011571,-0.25643417,-0.288839,-0.41300002,-0.3840449,-0.11013231,0.3808333,-0.14214072,-0.21346201,0.2399005,0.19014627,0.34792003,0.43823758,-0.27890778,-0.21233688,0.4373553,0.29845425,-0.48649788,-0.0023331481,-0.017806783,-0.1710195,-0.46956578,-0.089164376,-0.007678593,-0.40663233,-0.15410472,0.46109787,0.069129445,0.07179431,-0.24369128,-0.07520573,-0.24154182,0.10146315,0.485593,-0.10375252,-0.26529664,0.084934495,-0.35343683,-0.40621573,0.45705402,0.238879,-0.3095118,0.36051652,-0.38965833,0.095258825,0.101754926,-0.48802888,-0.43250945,0.4022363,-0.3826776,-0.4894521,-0.44083914,-0.46695742,0.03824894,-0.06788983,-0.18689972,-0.022038938,-0.11864829,-0.22274391,-0.066484906,0.28911904,0.29024595,-0.46358266,-0.2732267,0.28947031,0.4098268,-0.2025617,-0.08448598,-0.30055514,0.2412365,-0.26135382,0.100119226,-0.35597506,0.19348894,0.39727938,-0.18927473,0.36659512,-0.3155706,-0.48829713,0.092932954,0.13331749,-0.26191384,-0.053992286,-0.4036969,0.27107295,-0.031335253,0.47401825,0.18310094,0.46923324,-0.19119258,-0.31258285,-0.3757357,-0.39921156,-0.03166287,0.0777458,0.021299394,-0.27378443,0.2205664,-0.3760815,0.24360576,-0.053680036,-0.004248824,0.29680756,-0.26332232,0.29836693,-0.06509488,-0.3948272,-0.08068772,-0.29156545,0.27922025,-0.33769995,0.12953489,0.41508365,-0.09208468,0.24668622,-0.11253132,0.41966563,0.47650632,-0.2353287,0.026437007,-0.18588401,0.3783894,-0.4047237,0.31903756,-0.32202062,0.32038945,0.18511316,-0.38846892,0.14566451,0.36593613,0.25175384,-0.36790717,-0.011993015,-0.3166586,-0.3922085,-0.08840271,-0.09008156,0.17114177,-0.049817696,0.45413178,0.051559415,0.026786642,-0.4250829,-0.39806592,0.13290074,0.42038745,0.2374889,0.2747124,0.4860009,-0.3980904,0.12680082,-0.345075,0.38938832,0.14432219,0.4662033,-0.43469107,-0.035180885,-0.046055514,-0.14331163,0.10181218,-0.40940902,-0.29223818,-0.39322796,-0.3165151,-0.3098624,0.46641204,-0.068137415,0.41613606,0.10959865,-0.03883398,-0.23609307,0.375028,-0.3450341,-0.21649653,0.45804006,0.024958393,-0.37079582,0.46385172],"31":[0.19706523,0.052717213,-0.28899667,0.04293224,0.32905084,0.10581911,-0.30614787,-0.12090252,-0.077046305,0.25901562,-0.071278065,-0.3452167,0.35983908,0.38254204,0.1331166,-0.18475874,-0.100452036,-0.21877116,-0.21289974,-0.122571014,-0.3757212,-0.14810738,0.1838276,-0.4168373,0.45108268,-0.13052934,0.21051578,-0.1657881,-0.12817359,0.20780475,0.033708595,0.47575194,0.0545861,0.007468345,-0.24283946,0.3191049,0.11104063,-0.39614248,0.46594244,0.1846861,0.006555911,-0.35350347,-0.34047288,0.23319261,-0.07402383,-0.08537827,-0.009375154,0.13132288,0.1693764,0.10365555,0.2520386,-0.10417154,-0.117320694,0.33452985,0.029702272,-0.26547676,0.4454274,-0.24701488,-0.42995396,-0.3001701,0.48590088,-0.08142263,-0.3100516,-0.1707273,0.3951368,0.24545045,0.12456448,0.43910286,-0.20230225,-0.1095495,-0.08468852,-0.11876602,-0.35018662,-0.25766012,-0.089800075,0.46203342,0.43537402,-0.02518719,-0.41629446,0.3844898,0.15517594,0.17151819,-0.26005766,0.19782065,0.34250024,0.3099868,-0.31164616,-0.3784576,0.31440976,-0.23759577,-0.11398325,-0.18055259,-0.4719949,0.14589418,-0.42351723,-0.22865625,0.09644948,-0.38091707,-0.12042762,-0.3895997,0.19493052,-0.26657835,-0.3279651,-0.42254063,-0.17886107,0.35443968,-0.098174006,0.12678443,0.142386,0.29961282,-0.05822335,0.023634823,-0.42689252,0.25437182,-0.027537346,0.42520803,0.0987929,0.2791207,-0.49393654,0.078737624,0.22296754,-0.0077786837,0.08866259,0.2675371,0.03503375,-0.10711668,-0.17038544,0.18641442,0.38059402,-0.31532446,-0.019434279,-0.30379063,-0.3405753,-0.12149138,0.1681096,-0.13805102,-0.32976446,-0.1256939,0.22626811,-0.090940036,-0.4745042,0.39157236,-0.4080122,-0.13272877,0.35045147,0.00958265,-0.48877335,0.23846431,-0.39370766,-0.09990262,-0.15441917,0.41499034,-0.026583709,0.34133154,0.31654963,-0.2255512,-0.08784987,0.08228161,-0.032082886,-0.12045544,-0.28173375,0.4284988,0.21975186,0.31597665,0.043984946,-0.100826636,0.3100069,0.35473853,-0.04584812,-0.15957798,-0.4412503,-0.17757747,0.2448183,0.2501014,-0.2748905,-0.28805888,-0.3859846,-0.44763687,-0.42830288,0.15949,0.1585367,0.46699896,-0.01968865,0.48067054,-0.21423897,-0.16195138,0.16678174,0.003534486,-0.07119421,-0.13288258,0.32888535,0.39324588,-0.13544579,-0.32982,0.23575905,-0.13932,-0.31788182,-0.45810255,-0.32724324,0.42147675],"32":[0.2860279,0.5053221,0.12045013,0.21849966,0.1829319,-0.02447122,-0.42181897,0.13770714,-0.057652257,0.34022805,-0.11449321,-0.1569776,-0.32773396,0.084269665,0.41389754,-0.34214512,0.37301132,-0.116923966,-0.083756484,-0.065742835,0.11105078,0.46476722,-0.11891809,0.15454428,-0.34946376,-0.34583005,-0.37446982,0.47960633,-0.21467793,-0.13434196,-0.20168056,-0.40565208,-0.02822389,0.34522757,-0.43182865,-0.19763851,0.05011315,-0.24443619,-0.28576055,-0.0016621357,0.27864844,0.0840074,0.3942782,-0.05170148,0.0323967,0.21655184,-0.08066109,-0.4545028,-0.5042799,-0.44168696,-0.018868892,-0.07905005,0.12072688,-0.26130915,-0.16880259,-0.3788665,-0.028692635,-0.2359625,0.21473485,0.28829202,-0.28030786,0.5095182,0.43989977,0.0009952486,0.3548276,-0.42256922,-0.08925212,0.38687006,-0.3055822,0.41357982,-0.4687225,0.10997144,0.15906236,-0.0630164,0.13113023,-0.121132664,0.102135465,0.4109539,0.25135034,0.251867,-0.072896615,-0.0846423,0.3498631,-0.45002067,0.2793554,0.31137818,0.34010205,-0.11914199,0.11946976,0.41324648,0.012571405,0.23198879,-0.34702614,-0.2683395,-0.116834424,-0.07704135,-0.41465306,-0.4258763,-0.28659377,0.19740984,-0.24946126,-0.11302419,0.33763036,-0.469514,0.112210646,0.2421352,0.2852077,0.24507345,-0.25102502,0.2147162,-0.25939596,0.480918,0.14452136,0.4396416,-0.07363416,-0.31346992,-0.26228225,-0.09239475,0.16155249,0.023708278,-0.49231437,0.17636228,-0.17185166,-0.36205488,-0.20277873,-0.41334236,-0.15682197,-0.39700195,-0.44891363,-0.15108636,0.15420622,-0.3217957,-0.004903847,0.019011905,0.3989672,0.46451792,-0.21666974,-0.4875381,0.10265504,-0.49424142,0.08789598,0.44837615,0.07368085,-0.1394197,0.4568869,-0.0026362466,-0.14701355,-0.3042449,0.056731384,0.18983738,0.4376306,-0.31307703,-0.10055882,0.29897603,0.13619113,-0.3734366,0.3114143,0.21008584,0.39203668,-0.35476226,-0.4696976,0.2260859,-0.24467465,-0.32338712,0.1948457,0.38844624,-0.25672042,0.20562775,0.38688573,0.3300573,-0.086643115,-0.48396134,0.3633648,-0.3744837,-0.42440647,-0.48719454,0.26760066,0.21367538,-0.17483284,0.0494856,0.3521398,-0.38792747,0.16348912,-0.18391116,-0.2732333,-0.44005957,0.32815984,-0.06694932,-0.24978712,-0.31722736,0.06881529,-0.28261626,-0.47475907,0.028340474,-0.25356808,-0.38069078,-0.46375194,-0.2754943,0.045474187,0.12689948],"33":[0.12113096,-0.40945274,-0.22432423,0.34455305,-0.3418898,-0.37274826,-0.38323796,0.09370094,-0.48275438,0.46710524,0.070806414,0.03260052,-0.45438218,0.25211737,-0.116308026,-0.42833516,-0.07016112,-0.09221266,-0.13512492,0.375592,0.25842792,-0.12894069,-0.36600652,-0.19385701,0.11559545,0.48714948,0.29847535,-0.3843482,-0.2647765,-0.36074695,-0.47490618,-0.35650072,0.21801859,0.3411648,0.22413965,-0.28839093,0.09453019,-0.049230766,0.19196956,0.41680482,-0.44108218,0.3853209,-0.45894292,-0.17170791,0.3953119,-0.016495341,-0.46660832,0.008346652,0.4548798,-0.33360842,0.072398685,-0.43860403,-0.058251627,-0.26566708,-0.2994343,-0.02045869,0.4728572,-0.44384438,0.3389204,-0.4188469,-0.03354801,-0.324801,-0.061915006,0.1385985,0.18979493,0.27641824,0.23233272,0.08531072,-0.12270068,-0.35214403,0.31465054,0.0125032365,0.24442473,0.15194178,-0.16298977,-0.4953087,-0.2558695,0.44518703,0.4724942,-0.34602708,0.23936395,-0.32942057,-0.36280274,0.19226342,-0.18207556,0.4064335,-0.34969872,0.45244628,0.2945599,0.1346802,-0.4907673,-0.027651317,0.30143875,-0.40922755,-0.29861993,-0.15878618,-0.032181546,0.11554988,-0.33662868,-0.10144428,-0.34755874,0.014645949,-0.45217904,0.4647442,0.098263055,-0.33479375,0.08176322,0.27898768,-0.14530711,0.35538986,0.22982652,0.39373505,-0.28948212,-0.39475468,0.42759174,0.014789474,0.23016901,-0.1094371,-0.048028506,0.15348186,-0.05414241,-0.23155229,-0.27919385,-0.15696865,-0.4341955,-0.007904864,0.34113368,0.17015782,-0.44570297,0.43292096,-0.26421392,0.47546524,-0.16701534,-0.37116784,-0.44544137,0.30202612,0.37491366,0.35346472,-0.40799946,0.28578416,0.12449274,-0.06818961,-0.14222239,-0.45004496,-0.4704856,0.38883898,0.32729742,-0.44207287,0.36672065,0.098724954,-0.13906106,0.25020197,-0.04526319,-0.0099827135,0.29263732,0.2862036,-0.12495793,0.099350184,0.44405913,-0.40087268,0.15295988,-0.078111544,-0.1225522,0.43444005,-0.35454243,-0.030636428,-0.07744695,0.3529893,-0.3408876,-0.3826098,0.024182957,-0.30973816,0.2835694,-0.04221606,-0.4752488,-0.10255596,0.071660034,0.1825616,-0.49113324,-0.1852668,0.46077067,0.021041317,-0.377013,0.26829845,0.3197394,0.29673788,0.069199204,-0.47725812,-0.003034529,-0.16828918,-0.13936666,-0.46371967,0.108045906,0.27646446,-0.37471032,0.47029108,-0.39510942,-0.2748795,-0.24472384,-0.22620228],"34":[0.16349234,0.2379004,0.008065325,-0.13564415,-0.109667785,-0.20432764,-0.19709527,0.46412736,-0.24931945,0.107096136,0.43853164,-0.146022,-0.41788012,0.08818267,-0.40228304,-0.13398132,-0.43746212,-0.29709578,0.24462633,-0.40811062,-0.16828562,0.17752872,0.4584392,0.4950957,0.1107485,0.27422053,-0.12832795,0.01929369,-0.40653145,0.34939095,0.4588375,-0.4146395,0.24352852,-0.13943575,-0.17793894,0.019454649,-0.45946354,-0.37394828,-0.061293148,-0.27192366,-0.20202997,-0.13500999,-0.16583481,-0.37860578,-0.3437692,-0.36354837,0.107705705,0.34046423,0.07070406,0.057148177,-0.46295276,-0.31879786,-0.0599981,0.26927975,0.28162175,0.47097388,0.22439128,0.20506658,0.0073235044,0.2299318,-0.3762878,-0.14468227,-0.24251392,0.08323144,0.3290384,0.020376809,0.18057515,-0.4220358,0.415172,0.43783,-0.38779894,0.21462001,0.25889575,0.37011957,-0.16420057,0.4618045,0.138425,-0.39274377,-0.04609684,-0.0015783145,-0.18788838,0.5022022,-0.0855603,0.040519655,0.15691535,-0.373787,0.15335855,-0.2039787,0.13688944,-0.036022022,0.33386022,0.36459133,-0.2253892,0.21609898,-0.08264393,-0.0045063375,-0.44766122,-0.3329649,-0.4304476,0.1278423,0.25879544,-0.02601919,-0.014024317,-0.21518141,0.20550472,-0.22068971,0.4322979,-0.23232152,-0.07379127,-0.23688683,0.22819747,-0.32814023,-0.19616543,0.31555068,-0.027569626,-0.4462459,-0.014411618,-0.35046628,-0.3526827,-0.38548437,-0.36151746,-0.09458485,-0.0007756783,0.41746885,0.41861188,0.15047534,-0.38484406,-0.41355008,-0.47291785,-0.09394656,-0.23395689,0.20354596,0.47123742,0.34512714,-0.09383207,0.3097559,-0.22965117,0.2959679,0.42058134,0.109909,0.35898486,-0.26656964,-0.410302,0.30632675,0.1304596,-0.08162727,-0.009168168,0.15023376,0.21559422,-0.4520625,0.4046411,-0.34765634,0.44377694,-0.31771332,0.058725193,0.36658028,0.0329786,-0.1192022,-0.13581882,0.1641679,-0.2940379,0.36961982,-0.075823076,0.017538851,-0.20501578,0.14192235,-0.26483598,-0.25702447,0.4032687,0.09853956,0.21018803,0.1353396,-0.48234966,-0.3090984,0.3184532,-0.3817659,-0.41675425,0.41490757,0.16758391,0.086517215,0.3005263,-0.23040915,-0.24860579,0.13513458,0.42891103,-0.116145864,0.06973391,-0.3710447,0.33625168,0.13692875,-0.3271125,-0.48069933,0.2662133,-0.48442882,-0.09802999,0.23242371,-0.39965832,0.19431163,0.26360023,0.14910536],"35":[0.14174177,-0.4306457,0.23990127,0.4675705,0.22221579,0.16660579,-0.13469164,-0.3496085,0.49190152,0.10201099,-0.3564997,0.38549528,0.11999842,-0.35128504,-0.091666736,0.24614412,0.0434532,-0.2686381,-0.024485696,-0.2856503,0.2981383,0.16768688,0.035816636,0.23936841,-0.32903638,0.47035143,0.3339091,-0.47006184,0.42592266,0.34016633,0.4119688,0.21062936,-0.29801193,0.22684765,-0.24661943,0.35340464,0.4419064,0.029114073,0.003078589,-0.31461638,0.0029172096,-0.35078284,-0.14550422,-0.14956856,0.111547776,0.17776875,0.4099393,-0.011763092,-0.19545762,0.37492844,-0.21833958,0.28870386,-0.11867109,0.49095383,-0.016045688,0.37900853,-0.44835767,-0.19719063,-0.096427545,0.24398956,-0.17120737,0.43255767,0.17171769,-0.16543743,0.026551966,-0.361522,-0.38097885,-0.42098275,-0.48250154,0.35217774,-0.3733842,0.26906833,-0.21050416,-0.003469637,0.062286492,0.46514517,-0.49012282,0.1956372,-0.30558965,0.21170768,-0.40688968,-0.014233596,0.2008306,0.4712738,0.3381508,0.22188334,0.12249327,0.3568835,0.40875491,-0.44586098,0.44212747,-0.16792642,-0.13969359,0.07414903,-0.11168331,0.42404106,-0.46907923,0.36630514,0.3424801,-0.031467535,-0.2236871,-0.050299004,0.3328292,0.14132185,-0.481511,-0.18308698,0.43664455,0.3895681,0.21258348,-0.064767465,-0.3898102,-0.15960954,0.49532282,0.30518112,0.093354434,-0.0035799313,0.05818172,-0.40599692,0.26087517,0.27092785,-0.055288233,0.22476763,-0.45483518,-0.05045638,0.13403581,0.22145183,0.22791082,0.15834735,0.031139072,-0.051760778,-0.22355224,0.4784778,-0.12871334,-0.35707706,0.001055883,0.41662514,-0.40879142,-0.42172405,0.33677602,-0.1612391,0.26568276,0.25339532,0.45193037,0.4786493,-0.24237049,0.46913666,-0.13524376,0.1488255,-0.33051813,-0.2236,-0.046723988,-0.08075018,0.108829655,-0.30863917,-0.06902767,-0.35922423,0.15211254,0.32645962,0.273292,-0.08103527,0.3558756,0.23872669,-0.12136978,-0.34221378,-0.24274333,-0.08970304,-0.22884174,0.090647586,0.0064294664,0.36849397,0.360952,-0.25137365,0.0612177,-0.07839635,-0.49486685,0.15176593,-0.09590449,-0.3288816,-0.21408544,-0.16298074,-0.020245314,0.010761446,0.19925664,-0.09769711,0.20861666,0.09385481,0.22261576,-0.27162614,0.44334105,-0.007820716,0.40078244,-0.37309793,0.16557854,-0.37193683,-0.036044143,-0.33633226,-0.119496666,0.3962774,-0.13461551,0.0038182088],"36":[-0.2577101,-0.2813202,-0.2883464,0.25374684,0.003255073,-0.0325546,-0.18706782,-0.20694607,0.38075468,0.063159496,0.08512945,0.14690737,0.43834776,-0.03414498,-0.13017336,-0.3216378,-0.014536758,0.44309708,0.11429047,0.13236591,0.19549172,0.38267183,0.0023727592,-0.069516174,-0.1938352,-0.11846048,0.26030308,0.21443848,-0.31300592,0.48040104,-0.4922153,-0.09825847,-0.35293102,0.11253552,0.29931757,0.11420657,0.41992465,-0.28196564,0.3082836,-0.48428243,0.0648757,0.0816175,0.17798539,0.274218,0.1898233,-0.254271,0.05724002,-0.41719258,-0.24447338,0.2124955,0.26148957,-0.48941937,0.1328052,-0.37565342,-0.06485727,0.12971532,0.3231637,-0.3996512,-0.29536116,0.47466955,-0.28039613,0.4215436,0.46565753,-0.40687916,0.41248646,0.458441,-0.24256259,0.19688882,-0.3849198,0.5035484,-0.014337837,-0.42838073,0.48402262,0.0268293,-0.45481074,-0.16675472,0.46083978,-0.2638439,-0.12939481,0.45275593,0.4430171,0.06255895,0.20749861,0.37246922,0.30936256,0.11560209,0.2933992,0.051711578,-0.17129888,0.49679828,0.32479614,0.39135838,0.24452208,0.44467178,-0.08784317,0.13504754,0.09663775,-0.20683916,-0.2133506,0.019240452,0.3963512,0.0646799,0.43211022,-0.2884968,0.41859716,-0.34394708,0.41515362,-0.33051798,-0.19297573,-0.31489515,0.39130428,-0.47980145,0.16737242,-0.033042904,-0.46202815,0.49571022,0.35599107,0.34547472,0.27908158,0.32112518,-0.42805877,-0.3301161,0.115833186,0.19370674,-0.4603233,0.39405718,-0.44660676,-0.27797788,0.359559,-0.05414649,-0.35154763,0.42640212,0.092817865,-0.022035465,-0.45333296,-0.2589191,0.332764,0.16482058,0.26551288,-0.030022567,-0.24041367,0.40790066,0.38730443,0.38604927,-0.21268645,-0.2423907,-0.11596296,-0.33293933,0.029212609,0.14879152,-0.12942338,0.27422115,0.35668498,-0.2338007,0.14889616,-0.24452865,-0.29422444,0.13210863,0.41257626,0.34262547,0.097684674,0.48303306,0.0069126138,0.030544128,-0.043239433,-0.0986289,-0.41284502,-0.25295278,-0.37370583,-0.18339819,-0.25013378,0.096127056,-0.39002737,0.11788086,0.36618075,-0.36311755,-0.2982827,-0.16345483,0.18186253,0.4955871,0.4557472,0.4463251,-0.23541212,-0.07815672,0.2972154,0.04688233,-0.0701964,-0.4864313,-0.47527125,-0.28203323,0.00016330561,-0.35566583,0.36038342,-0.45413727,-0.052698866,-0.025023472,0.23149908,0.46556863,0.1576094,0.23352772],"37":[0.018738491,-0.06451046,0.27481046,-0.3777887,0.1209443,0.37124652,0.3067793,0.31911176,0.1704244,0.444779,-0.019378634,0.48619026,0.3343502,-0.008763139,0.19057634,0.34574822,-0.42090705,0.18216842,-0.28942037,0.19126162,-0.097671606,0.22017907,0.15808706,-0.3075932,-0.32461828,-0.2505827,0.3340559,0.28408268,0.20959303,0.16421972,0.40091553,0.20444787,0.47765952,-0.051344052,-0.13307776,0.4229685,-0.0484292,0.28688714,0.23539837,-0.09516136,0.31164777,0.028440453,0.3672127,0.4976129,-0.073061235,0.34668002,-0.03933417,-0.018282387,-0.3376973,0.38251042,0.40431592,0.105827644,0.1881014,-0.39373493,0.17637554,0.37739992,-0.33504248,0.4427057,0.23653214,-0.34439594,-0.07460205,-0.09313437,0.17565887,0.10578575,-0.103652,0.45656127,0.008734888,0.13601315,-0.29729682,-0.18062499,0.1520126,-0.23276746,0.05303849,0.16385333,-0.26282784,0.29081997,0.1485252,0.29617274,-0.18777981,-0.12046618,-0.38410804,0.22010697,0.49315524,-0.36465788,-0.331364,0.08200454,0.023719054,0.4368623,-0.044683043,-0.01780278,0.46425158,0.010978729,-0.3497368,-0.31941354,-0.25672886,-0.16632181,0.41943604,-0.1880209,-0.40603647,-0.19579598,0.35127684,0.3510815,0.08108765,-0.42213473,0.41783053,0.20427027,-0.22209689,-0.033023562,0.26599237,0.12158392,-0.45607293,0.3583765,0.3946261,-0.37324852,-0.18377264,0.13745227,-0.16719016,-0.0568749,0.070679665,0.3129871,-0.17597322,-0.1259745,-0.4638691,0.3918822,0.34001917,-0.42636,0.2871359,0.39203894,-0.14831792,-0.25542903,0.032685243,-0.34906843,-0.40401626,0.36406732,0.34001306,0.27217057,-0.37475756,-0.38217026,-0.3234545,0.41668835,-0.21940218,-0.45300978,-0.08873446,0.427601,0.35766548,0.23615757,0.21899074,0.18821052,-0.5018209,0.305457,-0.4020852,0.1650786,-0.20735179,-0.036230166,0.39207977,0.15616041,0.42170572,0.43543783,0.09981932,0.17293553,0.35727578,0.06694747,0.39764264,-0.37397602,-0.48149952,-0.058159806,0.12167261,-0.28815326,-0.18957303,-0.48050633,0.033038773,0.23124593,-0.46854213,0.11784488,0.38168958,0.039153595,-0.040436532,0.19958895,0.15661834,-0.13819313,0.1507957,-0.2303695,-0.27400827,0.411239,0.19132347,0.10418965,-0.16839842,0.29601362,-0.1977475,0.093562596,0.040453654,0.42433572,-0.47203246,0.07147786,-0.4170401,0.07340979,0.26169533,0.000853013,-0.3995393,0.34029752],"38":[-0.22131895,-0.49588138,-0.29592383,-0.28626993,-0.20886582,-0.41700885,0.30542135,-0.25501403,-0.40232384,0.06413986,-0.330769,-0.15481286,-0.09556367,0.46452582,-0.28779104,-0.03285306,0.25153178,0.2623829,-0.31897786,-0.19699803,0.19277991,-0.43756628,-0.24703081,-0.43871927,-0.26465794,6.672174E-05,0.30722323,-0.10663569,0.27150464,0.3689269,-0.27957508,-0.35076457,-0.2619635,0.025449632,-0.47759816,-0.108250126,-0.046710156,-0.47218925,0.43171695,-0.11651755,0.12395222,-0.23645476,0.31994483,0.06189374,0.31864145,0.019994663,-0.005330814,-0.47630113,-0.06781567,0.056165747,0.16480453,0.44804406,-0.46181342,0.056121934,0.38083276,0.3267829,0.5016614,-0.06595597,-0.08369223,-0.3519364,0.32580352,-0.10561758,0.26885247,0.41794944,0.26144624,-0.15495676,0.026755745,-0.20083079,-0.20530766,0.25962532,-0.40713847,-0.30645078,-0.1063967,0.38054428,-0.037361067,0.34710202,-0.07570584,0.35783,0.23721701,0.31069538,0.22860241,-0.17481089,0.019562382,-0.16513819,0.24976985,0.18516,0.34061632,0.0890969,0.21473604,-0.007499335,-0.04009634,-0.285294,-0.05614454,-0.016000513,0.08240584,-0.3020722,-0.338649,-0.10491256,-0.35769325,-0.09042424,0.16797996,0.37427074,0.3872198,-0.17821303,0.039477386,-0.3933967,-0.23304063,-0.11525354,0.04260429,-0.26652697,-0.4938543,-0.24710444,-0.30576003,-0.35218915,-0.45385242,-0.3218781,-0.3250109,-0.18281318,0.4533736,-0.13177544,-0.105781436,-0.23720932,-0.11769888,-0.2969214,-0.05396729,0.27086428,-0.1851441,0.36162242,0.4787212,0.4552314,0.09489334,0.09867772,-0.07009567,-0.4632031,-0.123205274,-0.35661384,-0.1966116,0.34989297,-0.08712734,0.45733738,0.30433643,-0.114527434,0.3483188,-0.059230592,-0.09227578,0.16574222,0.40226135,0.16330592,0.4171156,0.19693671,0.38710308,0.035214912,0.0014760842,-0.41334876,0.2628056,-0.49280858,-0.2717117,0.32445207,-0.4255026,0.1937302,-0.19753838,0.43755597,0.23838879,0.36068478,-0.3474648,0.15839621,-0.15706933,-0.42558098,-0.030341323,0.48986873,-0.11588155,-0.07017944,-0.10123312,-0.12677011,-0.0778411,0.31276315,-0.41269395,-0.05926748,-0.353663,0.25269133,-0.402134,0.053716373,0.2463525,0.40820384,-0.11369226,0.36321044,0.44145575,-0.10952195,-0.21437106,-0.28143418,-0.11870683,-0.1693584,0.4038332,-0.32776475,0.024159268,0.37308794,-0.33367214,0.3066496,-0.4875487,-0.3173198],"39":[-0.15205042,0.032484632,-0.21601945,0.47610724,0.22103564,0.28906244,-0.37564883,0.50415033,0.13578966,-0.3994368,-0.3146118,-0.05839651,0.006685839,0.035177365,-0.2231979,0.31930852,0.35002214,0.19520995,0.28896338,-0.25837323,0.313632,0.4901129,0.44156685,-0.35689694,-0.29972744,-0.48081824,0.029312577,-0.17782798,0.44979823,-0.12800212,0.37151316,-0.29792923,0.09498041,-0.26101887,0.34550792,0.48512754,0.37006512,-0.36961016,-0.22089693,-0.46553466,-0.478762,-0.35115415,-0.16511865,-0.4066469,-0.39756888,0.24355766,0.46227074,0.18408233,0.0012960719,-0.31420922,-0.4239771,-0.27647513,0.11456098,-0.037318677,-0.25911248,-0.19934879,-0.18821295,-0.49412748,-0.13647765,0.019536015,0.13124114,-0.19816649,0.24437262,0.0038016825,-0.23443556,0.08093031,0.1388205,-0.23359539,-0.39945543,0.24303824,-0.0041346396,0.01229852,0.3558605,-0.15390031,-0.20516725,-0.3154116,0.15880652,0.15239005,0.48562744,-0.50690514,0.06824963,-0.35115206,-0.17657219,-0.061426822,0.4305055,-0.03463813,0.2758118,-0.48485425,0.35883272,0.3984999,0.013958674,0.12533133,0.39284173,0.023102589,-0.23226926,-0.07611839,0.32833928,-0.45466197,0.25289047,0.23643713,-0.3662937,0.28959587,-0.18320699,0.29280338,0.08566442,-0.05455292,0.042311274,-0.32870597,0.037921477,0.40141624,-0.19510317,-0.21759523,-0.1212773,0.06927501,0.006384456,-0.19838914,0.049472686,-0.48788196,-0.49908727,-0.41241315,0.092494376,-0.43821263,0.32094696,0.5064909,-0.16106783,0.16066264,-0.32964885,-0.3852286,-0.39317182,0.10748084,0.04386995,-0.056995746,-0.41568896,0.46257952,-0.050165486,-0.016680365,0.153297,-0.25646868,0.38941842,0.0044059893,0.30048537,0.13056274,-0.08827254,0.012217087,-0.35911363,0.13015656,-0.45153382,0.10286395,-0.3736394,-0.08650889,-0.2676132,0.35706574,-0.25939372,-0.16076131,0.27298588,0.41482145,-0.25718838,0.06949231,-0.40431067,-0.20342256,0.33497718,0.12810229,0.4435046,0.4773359,-0.40867993,0.025012588,0.29577103,0.002666609,-0.07168078,-0.1869127,-0.16320172,0.14972928,-0.3952726,-0.068792336,-0.11376863,-0.19373219,0.2750152,0.5027843,0.41721803,-0.17291255,0.3228576,0.37757388,-0.008938745,-0.3579728,-0.22725073,0.31167004,0.42636648,-0.36491966,-0.27610907,-0.05096893,-0.4343137,0.17669986,0.3666088,0.44185162,0.07709554,-0.054216396,0.07381907,-0.44853488,0.1599663,0.48540193],"40":[-0.16270894,0.39985982,-0.20655061,-0.23179287,0.29063004,0.10916371,-0.2697073,-0.46941873,0.3614527,-0.2027365,0.007089194,-0.37404054,0.0061015636,0.3403559,0.3165932,-0.3611031,-0.4652464,0.1603857,0.40167442,0.33241642,0.20670621,0.26321676,0.2662581,0.45829305,-0.14914359,-0.20354451,0.016959352,-0.43695632,-0.2181933,-0.4197326,-0.42792854,0.49697965,0.14975712,-0.48470685,-0.14503565,0.39780152,0.012626538,0.16886382,-0.3894359,-0.07417222,-0.3852572,0.40127432,0.4721769,0.28312945,-0.2730057,0.011204903,0.25204793,0.19425224,-0.4731868,0.065408,0.15484492,0.124085955,-0.1873326,0.09472292,-0.16503894,-0.439896,-0.37493238,0.21550648,0.25786853,-0.11678801,0.037763357,0.054890946,0.4685173,-0.16845272,-0.10130184,0.16912368,0.43608564,-0.4307745,-0.062731504,-0.38085398,-0.3809855,-0.28260022,-0.03416971,0.03514196,0.24310157,-0.4615561,0.48880523,0.25963658,-0.15021713,-0.4480868,0.4020893,0.19750269,-0.02685027,0.3310083,-0.4397987,0.08891007,-0.36941177,-0.47851238,-0.34609744,0.1929216,-0.24202143,-0.27977318,0.29057992,-0.38742682,0.029462274,0.42468283,-0.38316733,-0.085451774,0.19384415,0.35194457,0.2127208,0.11050896,-0.2061676,-0.11786788,0.26331165,0.3209038,-0.16029276,0.3472975,0.4826805,-0.100505434,0.2540357,0.44512507,0.009104603,-0.15240572,0.32633775,0.35161698,0.34979904,0.0805216,-0.18217541,-0.31050152,-0.18478021,-0.22065122,0.42216754,0.44142073,-0.13923793,-0.37453806,-0.20773472,0.2889109,-0.19091998,-0.16693974,0.326493,0.28769404,0.07085022,-0.27021027,-0.38965762,-0.3605466,0.3337692,-0.05760567,-0.3470739,-0.45346302,-0.07774798,0.4674444,0.15428281,-0.4845896,-0.28420025,-0.18115166,-0.08166754,-0.118134804,-0.41249856,-0.4276612,-0.30570927,0.3125502,-0.2489985,0.34506005,0.026359595,-0.17654234,-0.09773221,-0.11722329,0.359822,-0.24222599,-0.24093248,0.24347557,0.14966124,-0.45765606,-0.14178507,-0.26230022,-0.103142604,-0.48677605,0.44982496,-0.31931236,-0.42479774,-0.038319033,-0.24910516,0.14984551,-0.38139296,0.089627035,0.027558163,-0.31458792,-0.05101271,0.1794077,0.0537627,0.40600818,0.36768848,-0.41269025,-0.25155118,-0.142465,-0.3191782,0.1375368,0.49299097,-0.1888531,0.42573416,-0.3000297,-0.25335687,7.9272366E-05,-0.22345532,0.012237267,0.259318,-0.28783807,-0.3552406,0.4202804],"41":[0.048601232,0.3221423,-0.19217625,0.36549008,-0.33470067,0.1899787,0.18462703,0.14424534,0.114710025,0.34503326,0.47713643,-0.26963866,-0.022596309,-0.45862725,-0.060378864,0.37083665,-0.06535912,-0.31595448,0.01600301,0.16456647,-0.38730237,-0.2821231,0.44147146,0.06264905,-0.1849777,-0.029407594,-0.30081695,-0.061167408,-0.2979877,0.44353718,0.42241135,-0.30528748,-0.34242383,0.048531506,0.1979096,0.18159455,-0.20813702,-0.12897219,0.10758237,-0.04379193,-0.45227766,-0.34780112,-0.06821977,0.26418364,-0.14561446,0.17800352,-0.4874495,0.010903343,-0.27946287,0.18866706,0.25606254,-0.09911562,-0.21397299,0.30478647,0.3483974,-0.4015181,0.4043342,0.44470608,0.018175803,-0.50937897,-0.4183057,-0.34054992,0.41207886,0.31840706,-0.37251297,-0.20963958,0.41025466,0.06122003,0.4826551,-0.13682492,0.34150797,0.47399205,0.41617206,0.01527266,0.24791677,0.17673895,0.18291774,0.16914852,0.40188083,-0.17003934,0.32317597,0.07415717,0.2554396,0.21551979,0.34513614,0.42945832,0.34025657,0.171455,0.22794837,-0.4005885,-0.27265722,-0.2622668,-0.38537067,-0.012988052,-0.1575879,-0.01825779,-0.45447665,0.14697309,0.20427632,0.13076945,0.27819517,-0.06912383,-0.4465575,-0.22128625,0.1323364,0.4449652,-0.07394396,-0.2688728,-0.12271137,-0.16041009,-0.15632291,-0.4153595,-0.3283751,0.46101034,0.40064207,0.017300818,-0.07563849,0.2836997,0.0672541,-0.046099376,-0.09606608,0.31871697,0.07433061,0.47304475,-0.3289075,0.3563815,-0.26002076,0.19994643,0.06616049,-0.12849024,-0.47177142,0.42649913,-0.09081943,-0.006199223,0.18380418,0.4472115,0.28048643,-0.028141718,0.21883632,-0.22857408,-0.24273337,-0.17753673,0.39615843,-0.37939897,-0.39085993,-0.2441798,0.20232747,-0.31289443,0.054536805,-0.1717166,-0.4021165,0.43173996,-0.23609698,0.33823153,-0.4920048,0.23013584,0.3204219,-0.37194052,-0.024013583,-0.45609814,0.45704627,0.4791841,-0.45904335,-0.10616276,0.0452613,-0.49089584,-0.18263833,-0.4785097,0.28076795,0.40639335,0.28404796,-0.18153587,-0.26797876,0.43696195,0.30250221,-0.03854465,0.3650649,-0.18606894,-0.28148174,0.078526966,0.4370786,0.09880779,0.08892695,0.099548,0.31158388,0.4193044,-0.38652483,0.21732125,0.21581689,0.19773579,0.4227864,0.29938266,-0.27561283,0.08098361,0.020104751,-0.40011147,0.32836723,-0.07901289,0.16281205,0.24562052],"42":[-0.012506715,0.22221553,-0.19708581,-0.3587389,0.34828764,-0.4390418,-0.047692504,-0.18078405,-0.4483166,0.2621344,0.32465822,0.49143985,-0.39736953,0.023622224,0.16071409,-0.035980836,-0.22396755,-0.24044168,-0.45615268,-0.14983682,0.0041416595,0.2590615,-0.5209435,-0.2695025,0.44976568,0.24381793,-0.04078906,0.33742005,0.08011388,-0.2737599,0.1649067,0.36517444,-0.07775778,-0.2532238,-0.21251416,-0.46802932,-0.32436442,0.42970705,-0.07082516,-0.07537203,-0.22690766,0.24504746,-0.06725528,-0.0912651,-0.4856069,0.37323582,0.23574488,0.13105375,0.24129869,0.45616385,0.22593388,0.087914884,-0.1901015,0.4353416,0.46809214,-0.34256712,-0.046747863,-0.44143236,0.2562078,0.49367675,-0.11636162,0.45101312,-0.4492618,-0.121840276,-0.30181164,0.053488497,-0.014442163,0.12677754,-0.29551962,0.17499411,0.20061992,-0.38951236,0.26869348,0.0018656743,0.003880806,0.04851216,-0.27286166,-0.37739336,0.19188806,0.24305849,-0.14217219,-0.09521271,0.010847753,-0.13936408,0.3335292,0.14060389,0.10066716,0.4616423,-0.42031464,-0.113305196,-0.2706545,-0.19080108,0.18644983,-0.0927735,-0.41253874,0.12736383,-0.102305934,-0.24633598,-0.101035126,0.48926696,-0.2596833,-0.040448118,0.40630433,0.46295452,-0.05349613,0.14600484,0.26055753,-0.31948605,-0.15266459,0.11880151,-0.33647576,0.37643278,0.15627833,-0.00036107132,0.41109905,-0.3361087,-0.09686224,0.3840487,0.45186675,-0.011147153,-0.50323117,0.053691052,-0.2901029,-0.42822373,0.28097612,-0.31114104,0.42938986,-0.10920982,0.15751451,-0.08438076,-0.45043427,-0.16991493,-0.3691005,0.23986928,0.31773674,0.3602627,0.27395913,-0.18792346,-0.24903452,-0.21466541,0.038648307,0.31253502,-0.3085576,-0.14132439,0.25482473,-0.41219693,0.3203186,-0.41430414,0.21105602,-0.47344342,-0.23530312,-0.41169542,0.42526188,0.16987906,0.05726695,-0.329237,-0.15911841,-0.4329581,0.46567577,-0.3255886,0.42157328,-0.10340479,0.109396026,0.25658804,-0.33038032,-0.15066427,-0.08054697,-0.2797281,0.18949401,0.08024734,-0.30747646,-0.07359638,0.20181248,-0.4047948,0.1834631,-0.31719765,0.34392598,0.25110868,-0.12422259,-0.0026237573,0.29961142,-0.4021586,-0.42218673,-0.1713872,0.41934243,-0.27520126,-0.2373088,-0.35769418,0.05360305,-0.0066023255,0.48318022,-0.06319503,-0.07088421,0.48342347,0.21692173,-0.15978172,-0.04913249,-0.35125715,-0.07073907,-0.17354326],"43":[-0.02463167,0.048540678,-0.3689809,0.22690411,0.048495084,0.06997447,0.26454788,0.28679162,-0.07732329,-0.32597953,-0.4937554,0.40954167,0.4037676,0.24898039,0.26674005,-0.35969585,0.06574302,0.24000585,0.45972413,-0.4533964,-0.42528108,0.3523873,0.09025341,-0.11896448,0.037134986,0.1614705,-0.46592957,0.22148141,-0.38511533,0.086075224,-0.4029578,-0.1287707,-0.36291385,0.37025964,0.026162107,0.119600676,0.21588498,-0.07776105,-0.46607336,-0.2521832,-0.36419672,-0.20951289,0.10263823,0.087746575,-0.17418951,0.063487105,0.3325993,-0.3102236,0.13014491,0.31555477,-0.018187564,-0.34582245,0.05076233,-0.44848168,0.024563516,0.1679773,0.29310197,-0.4646112,0.34255624,-0.061730996,0.3773406,-0.21397552,0.34287742,0.2273316,0.41116083,-0.079967536,0.13101582,0.43764192,0.19236855,0.17045017,0.08249692,-0.45863858,0.2973582,0.05829197,0.37075713,0.193121,-0.40377262,0.11390736,0.42624548,0.33952743,-0.17330956,-0.37842798,-0.3394937,0.43893278,0.451786,-0.2244233,-0.50004375,0.36738995,-0.45520368,0.12498813,-0.060399663,-0.081733726,0.284138,0.3614253,0.044928074,0.46067387,0.09824175,0.20838538,0.31734103,0.2579308,-0.29845288,-0.07447502,-0.28880247,-0.30549273,0.27497038,0.30721384,-0.44400656,0.14857695,-0.4892104,0.49871916,0.30094987,0.12142575,-0.24573448,-0.10829104,0.04365917,0.41796315,-0.2611012,0.034352228,0.1147997,-0.09430953,-0.31100973,-0.25113028,0.45774508,0.32467145,0.060466103,-0.0628121,-0.3216018,-0.30645618,-0.26804647,