{"network":{"layer_sizes":[84,100,300,200,100,81],"layer_count":5,"layers":[{"in":84,"out":100,"weights":{"0":[-0.5292216,0.021704227,-0.16538493,0.9497974,-0.85570675,1.4923407,-0.8018318,0.24071918,-0.6283243,0.0437728,0.17799433,-0.74390167,-0.3511115,0.38767856,-0.5181554,-0.06968289,0.3928277,0.7059295,1.1765223,-0.5290215,0.16119134,-0.10743227,0.3500503,-0.46436775,-0.09160941,-1.3477004,0.21443789,-0.92899436,-0.47666794,-0.7373634,0.17421924,-0.50672704,-0.3062411,-1.1861618,1.220631,0.747705,1.3446459,-0.044271477,0.85381323,-0.71077657,1.1512628,0.23208489,-0.86556613,0.3151439,-0.6184182,-0.044805795,-0.60799086,0.4911983,0.6861326,-0.80533576,-0.23172492,0.6560668,0.3410397,0.2608533,0.45938745,-2.4963818,0.74660575,0.25011802,-0.97676593,0.043832347,0.83540446,0.70921105,-1.4691366,-0.28204736,-0.45527795,0.65645856,-0.730386,-0.56979996,-0.78367037,0.61922693,-0.29000962,-0.052310552,0.7669071,-0.8079886,0.29993126,-0.39932305,0.60984784,0.622612,0.27701613,1.1072642,-0.6158417,1.513349,-1.0078007,1.5974628,-1.3464805,-0.032766677,-0.45690396,-1.0098759,-0.14686732,-2.0676932,-0.25120804,0.6766698,-1.2750264,-1.7896047,-0.038669217,0.2421879,0.11838967,0.16963597,0.6561034,0.6955601],"1":[-0.7509795,0.9287844,-0.21980439,0.3684106,0.4144646,-1.886954,-1.7071059,-0.7126485,0.5048629,1.0098073,-0.21816082,-1.5483686,1.0757223,-0.9825832,0.25453773,-0.40738925,1.010493,-0.53170013,1.4477464,-1.1322466,0.12798122,-0.36976707,0.17219208,-0.73172605,-1.1362531,0.99403054,0.87634254,-0.4878962,-0.4632659,1.1029787,0.50002784,1.9512691,-0.6547171,-0.9816718,-0.08834356,1.0412759,0.18083028,0.73745674,-0.076341495,-1.6134205,-1.9312376,0.27108806,-0.30432892,0.03165005,0.41329968,-0.53745747,-0.8896118,-0.5341146,-0.022944992,1.6988853,-0.731986,-0.73015594,-0.8404045,-1.7700125,-0.72502095,0.3329656,-0.45098218,-0.24093951,-0.61982507,0.4273415,1.3505464,-0.73824406,-1.5132016,1.0030433,-0.2969411,-0.15863629,0.34851196,-0.007611133,0.03279483,-0.40221432,-1.1319038,0.43913043,-0.8030959,0.13432705,0.25686058,1.067558,1.1366831,-0.32759783,1.290897,0.4060145,-0.7453313,-0.66665673,1.1409415,-1.5278754,0.46255937,1.3658217,0.91020685,-0.33478463,-0.74200034,-0.058616966,-0.3142334,-0.25730354,0.9742511,-1.3343333,-0.9729487,-1.2084694,0.34739324,0.90482616,1.0579178,1.0623298],"2":[-1.2678324,-0.89798605,-0.103407465,-0.044263422,-0.96632314,-0.61413383,-0.8133772,0.24544774,-0.2969174,0.39698535,0.19590923,0.10289682,-1.0502757,1.299595,-0.04772792,0.11366301,0.161627,0.09747347,-0.722331,-0.19013801,-1.3554951,-1.1163512,-0.14416547,1.3009425,-0.5537015,-0.67829955,0.78790736,0.54805094,0.42811874,-0.117671974,-0.81253976,0.42148858,-0.092646874,0.24841109,-0.7243801,-1.1719726,-0.16747828,0.2892163,-0.10698712,0.32107115,-0.93029255,-0.9349206,-0.96657073,-0.03933318,0.8867274,-1.0209699,-1.503571,0.687869,-1.8212566,-0.7945002,0.4450743,-0.7546382,0.24087511,-0.42307183,-0.81392914,-0.07010422,-0.088847265,0.798061,1.0950091,-1.1697005,-1.1269989,0.6786398,-0.17772463,2.0583625,-0.46968767,-0.2727555,0.809445,-0.4423474,0.028852927,-0.30003813,-0.394861,-1.3101999,-1.222807,0.64134926,-0.3148666,0.7033729,-1.7498404,1.4332912,-0.36054236,-0.1121531,0.4465244,0.2548885,-0.36983156,0.94390965,-0.27232197,0.3657066,0.6614763,-0.7243751,-0.925359,0.51979005,0.7008268,0.58918095,-0.62097436,1.1313922,0.45904413,-1.7337029,0.7974364,0.02481931,-0.26557064,-0.81648105],"3":[0.9339886,0.5082056,1.2618626,-0.37165904,0.57152283,-0.21377523,-0.61809987,-0.046532795,-0.950046,0.9929837,0.84947467,0.6563314,-0.7868825,1.2381762,-0.7344731,-0.2212318,1.1552162,0.7722343,0.8064957,0.51439196,-1.4333559,0.07649142,-0.47134092,0.25531855,0.08824223,1.1859759,-0.7009686,-0.4281862,-0.9996396,-1.4033798,-0.024282923,-0.3984051,0.7658634,-0.4401468,-0.40113613,-0.03760668,0.8928277,-0.40588823,0.80085456,-1.6047094,-1.0432575,-0.6561134,1.4183136,-1.9781075,-1.3075106,0.52618814,-0.48492387,0.9432691,0.25395676,0.18912344,0.4792686,-1.101831,-0.040551126,0.25410315,-0.9601317,-1.009092,0.2666606,0.40767688,-0.5624293,1.0177217,0.4068434,1.7747842,-1.8528885,0.16175188,-1.5981122,-1.8639812,0.43064195,1.0491029,-0.16886623,-1.7369766,-0.5099278,-0.50502807,-0.10150883,0.43013218,-0.45552218,0.8409535,0.59627306,-0.8167696,-0.30786553,1.3551865,-0.09754675,0.656479,-0.19965506,1.0950037,-0.26417837,-1.778027,0.1319353,-1.235359,0.74527055,0.67374444,-0.78543884,1.3239515,0.039472703,-0.896317,-1.3681457,-0.21746142,0.982058,0.4667336,-0.9667881,-0.9488603],"4":[0.9683089,-1.0211148,-0.2483355,-0.31390324,-1.972463,0.4883811,-0.010323766,0.3411429,0.63424397,-0.18539189,0.8787637,-0.2230217,0.630254,1.3271644,-0.26608223,-0.24472798,-0.08671567,0.8592397,-0.5773394,-0.15310754,0.025925402,-0.113974065,-0.7300895,-0.3719433,0.0067800162,0.546094,-0.726812,1.2884362,1.4247533,1.4715444,0.86008996,0.5457894,-1.2877156,0.8601316,1.245019,0.12542346,0.89542615,0.21933751,-0.24804811,-0.7765073,0.29902214,-0.36435184,1.7529658,1.5459573,0.5828523,-1.5703386,0.07924927,-0.36412495,0.49639136,-1.0127131,-0.122122675,1.2541052,-0.79111725,-0.5494682,-1.2846602,-1.5317328,0.88174546,-1.0237917,0.71025,-1.9684459,1.2068223,-0.70499015,1.0105754,-0.21462454,0.30596602,0.015642319,0.17648523,0.9829765,-0.9507762,0.72143024,-0.092944905,-0.2034506,1.0199455,1.0253671,0.01263478,-0.6748824,0.95715696,1.0455211,-1.1370964,-0.85244054,0.87932414,-0.5006751,0.24255352,-0.69534254,1.0252827,0.24141674,-1.0002736,0.73242384,1.823153,-0.06775547,0.5273675,0.072633125,-0.40548795,-0.012302553,1.4705127,0.72287416,0.4067166,-0.42433918,1.8040158,1.3220617],"5":[-0.70252365,0.552384,1.920405,-0.7802376,0.5689199,-0.06351307,-1.1858255,0.7393753,2.411813,-0.7831976,-0.4895379,-1.1665074,-2.1032312,-2.068612,-1.2717566,-0.43820676,-0.6396151,1.7523801,-0.32814887,-0.681159,-0.3510869,0.7516524,1.1281631,-1.1512951,-0.69999915,1.6359764,1.6082042,-0.8068806,-1.0425787,0.052808452,-0.7274937,1.2959877,-0.035411928,-1.0261593,0.77513576,1.6881752,-0.3677207,-1.3168944,0.87514234,-0.24685912,0.16609652,-0.6006748,1.3863677,-1.3542652,1.2171868,-1.0178763,-1.8089048,-0.34945515,0.9290957,-2.0375502,0.018465512,0.3063595,-0.21702494,0.16552834,0.33818892,-0.92567617,1.1019149,-0.6630486,-2.4090672,-1.1147056,1.7496328,0.71501064,-0.56326723,-0.44152346,-0.2836183,0.30802995,0.7792236,-1.1001666,0.48483148,1.5734577,-0.29520836,-2.0450435,0.97534955,1.4462216,1.4539671,1.4347028,-1.129107,-0.19602899,-0.8229707,-0.67810416,0.13703004,0.6292826,-2.301249,-0.015677545,-0.29089358,-1.3493279,0.39981043,0.994812,-0.13125823,-0.23382594,1.0331295,-0.12132287,-0.2234806,0.6875191,0.31840897,-0.1358323,1.2155119,0.18985523,-0.18173079,1.0997438],"6":[0.57707137,1.3582861,0.8392383,1.5341456,-0.92075515,0.28204665,0.6308427,0.73634446,-0.5686808,0.7359748,0.18511704,-1.4988985,0.06281613,1.1121982,1.5220045,0.4586392,0.1105999,-0.024541318,0.8160921,-1.1932863,-1.4622123,0.015738111,-0.86722654,-1.1927289,0.6254371,-0.52938104,0.1411407,-0.32255012,1.4282049,-0.2886724,1.9152573,0.9545917,1.37295,1.4773854,-0.104589835,0.9318901,-1.5814221,0.400627,-0.0026334764,-0.63828456,-0.42083526,0.11040958,1.0843548,1.0450827,0.10454528,0.10275181,-0.96729076,0.037750114,-1.5509135,0.45472437,1.3392264,0.28455546,1.4061815,0.5916538,-0.39182007,0.30037913,0.16329116,0.7982229,-0.24851453,-1.1287764,0.54571897,-0.8116374,-0.80272985,-0.84190917,-1.3500838,-0.94069797,-1.1402823,1.2096608,0.75770015,1.0919664,-1.2660456,1.7105799,-0.72725004,0.66684824,1.008843,-0.22273439,0.9135643,-0.38926372,1.0196365,-0.42215112,-0.1983957,1.0939045,-0.9370853,0.82701623,0.8150065,0.34555152,0.03152459,0.45375445,-1.1274564,-0.48934987,0.119247615,-1.202272,2.4035423,-0.29837772,-0.79679704,-1.3502297,0.46353024,0.3516989,1.0274034,0.3461533],"7":[0.8083102,0.99984014,0.9399983,-0.9768919,-0.033162188,0.18850929,0.24393341,0.18086609,0.30099997,-0.7013599,0.2528756,-1.564926,-0.52228403,0.038391978,1.2825834,0.23228908,-0.7236064,0.48250732,-0.12291794,-0.15251736,-0.48149204,-0.31504807,-1.1193261,-1.0072396,0.9089601,-0.20349689,-1.4475237,-1.3051205,1.4173445,0.41448373,-0.63295066,-1.0806297,0.40035972,1.0542281,-0.078934066,-0.33988318,-0.56192875,-0.4993793,-2.0618758,1.0630466,0.119862705,-0.23222846,0.70456624,-0.5251981,-0.9004954,0.21572359,-0.02502494,-0.58433753,-0.4911489,0.33507487,0.89295316,-0.48858753,0.03536276,-0.06912271,-0.5826854,-1.3668046,-0.8886811,1.2859371,1.4000503,0.73468226,0.37335303,0.79843813,-0.43525815,-0.65279365,-0.03544768,0.82888544,-0.42172003,1.77275,-0.71487945,0.3132639,0.25874808,1.2719585,0.0037656957,-0.7129814,-1.5086261,-0.40909326,-0.9960338,0.3010538,-0.028045643,0.5695149,-0.122505374,0.11251831,0.6199616,0.51066417,-0.37334216,-0.20218581,-0.6826531,-0.1251935,-1.8427105,0.5989741,-0.52447325,-1.3380387,0.14336781,1.214593,-0.06496182,-0.6643753,0.31162322,-1.008254,-1.0888686,0.71044403],"8":[-0.5148311,-0.028106017,0.9476679,0.45813552,-1.6231928,-0.9154677,-1.6643173,0.13716891,-0.099159084,-1.4066458,-1.9442518,-1.0537508,0.09646185,0.35583225,-1.6442791,0.54487324,0.014400676,-0.29433724,1.2855698,0.459145,-0.75179785,-0.9941922,0.33273888,1.8231407,0.94406295,0.8406827,0.99066657,-1.7270442,0.41478214,-0.4474545,-1.2994167,-0.25550327,-0.8102563,-1.0375794,1.1817786,-1.3435855,-1.4008809,0.004736192,-0.27256155,0.85109544,-0.4279249,0.21258684,-0.21215117,0.1450086,-1.6713479,1.0220983,-0.6160684,-1.2918131,0.83670694,0.5104498,0.9790413,-1.1164218,0.5402373,-0.4727088,1.0769244,-0.22428678,-0.9000757,0.7951097,0.34479824,0.63288134,0.9744899,1.1595482,0.3002195,0.4300497,-0.13445716,-0.86973745,1.1770377,0.12316357,0.31306368,-0.59783936,-0.24262558,1.6521118,-0.45887548,1.1010724,-0.4569988,-0.9748884,0.22721519,0.024224287,0.34980452,-0.8399542,1.0381937,-0.5195323,0.16853978,-0.38966936,1.7556314,-2.5911806,-0.6510838,0.64692664,-1.2999878,-2.0335898,0.17197771,-0.03861616,-0.2850312,-0.60482436,0.247834,1.3582733,-0.9968842,-1.254816,-1.472756,-1.0534396],"9":[-0.1370374,0.6493335,-2.1719356,-0.9303974,-0.20331842,0.95134544,-1.5581689,-0.56784654,-1.4747485,-0.42768073,-0.50528574,0.5394037,1.1830418,-0.9429958,0.41508186,-1.8621438,0.79544306,1.4412427,-0.64112943,2.9949734,0.1417218,1.1066239,1.0158174,0.43843946,-0.11477134,-1.6188456,-1.0608115,0.28163013,-0.63225573,-0.16295387,0.7951101,1.3331035,0.99774015,0.8692853,-0.20567194,-1.5599793,0.16639745,0.75353295,-0.9892909,0.14458096,1.234114,-0.24583878,-0.020067373,0.78523356,-0.111493856,0.30285046,-0.62534827,0.45236728,-0.81459737,1.1988075,0.7844319,-0.10212421,-0.6587289,-0.35213158,0.9814011,0.8747074,1.884642,2.1077359,-0.116096005,0.2482909,0.09856859,0.74927604,0.29353255,1.040191,-0.014732144,0.54500353,1.1992469,-0.15720211,-0.7748699,-0.39139166,0.35290182,0.20920835,0.7955375,-0.6813361,-1.1580074,0.116957076,-0.8168993,0.34560627,0.043160275,1.3159869,0.9118094,0.3289031,-0.4205181,-0.65847015,1.0822996,1.9121681,0.9622752,0.36864182,-0.4051445,-1.5928159,0.045267466,-0.48835108,-0.4410528,0.2397391,-0.9036191,-1.0525501,-0.060255144,-0.39305344,0.4613747,1.390445],"10":[-0.49055055,0.33918777,-0.13266404,1.2873284,-0.96577126,0.037592195,0.55312103,1.355138,0.13972983,-0.33291626,-0.13920549,-0.18975194,-1.6151105,-1.019042,-0.2114016,-1.1342778,-0.3171621,-0.25193703,0.4859695,-0.5111807,0.37317276,1.4644748,-0.03334989,-0.23614006,0.92109805,0.4486514,-0.41806918,-0.22520861,0.91915727,-0.45455304,0.3630586,-0.68687546,-0.91205966,-0.30990425,1.302308,-1.199521,-0.032034043,-0.008349301,-1.228371,0.94525194,-1.0833541,0.6707723,-1.1856304,0.49108726,0.11163709,0.20502146,-1.48154,0.79803556,-0.5479393,0.60393006,1.3512039,0.84356356,-0.38616776,1.2539774,1.2845206,1.5638118,0.13317262,0.47842994,1.2226098,-0.3297133,-0.6278204,-0.11566101,1.1597011,0.13595031,-0.84397566,0.59855556,-1.0296373,0.2114678,-0.012675751,0.32127815,0.28335562,0.627785,-0.5189952,0.67303336,-0.27908695,-0.7485322,0.27717584,1.3086969,-1.4221221,-1.7540796,0.48654598,1.6191628,0.36271334,0.06173246,-0.41849625,-0.98278135,-0.84417796,-1.851354,-0.22163334,-0.29572925,0.5947803,0.7718542,-0.7613138,-0.25253725,0.26738328,-0.6199762,0.454083,-1.0657558,0.6330399,-0.9378451],"11":[-0.9210163,0.20970185,-0.047827035,-0.46476245,0.31206262,-1.3514048,0.52349085,0.18401247,0.42987707,-0.37983078,1.2160404,0.5481724,0.61020005,0.8415371,0.9759219,2.0680838,-0.05952694,-1.1950347,0.106635965,0.56399924,0.26617187,-1.3258141,-0.3668796,-1.0819113,-0.068901755,-1.2079889,-0.8486456,-0.5004407,0.51045555,0.22965689,-1.0111176,-0.26029685,-0.9311342,2.1967204,0.73590493,0.9365716,-0.37152755,1.0200894,0.86784136,0.48356357,0.46196854,0.041905947,0.8447823,-1.1460129,-0.06267949,-0.17213728,-0.38277227,2.0112832,0.22264665,-0.53339255,-0.8484236,-0.44110367,-0.34074715,-1.2053268,-1.4404479,1.764067,-0.59441525,-0.69915336,2.3621755,2.2151012,-0.8714006,0.8618032,0.3282843,0.9154939,0.37620017,-0.2177423,-0.5338777,-0.25964326,0.76294464,0.19688676,0.17534651,1.8433324,0.24312931,0.22212437,0.09996945,0.5854162,0.8886631,1.2263039,-1.1463273,0.3280661,-0.27037027,0.5242447,-0.33208668,-0.22008932,-1.5784874,0.010120416,0.5887392,-0.30539474,0.1986994,-1.7009841,2.0412107,-0.7067659,0.25999022,-0.06691048,1.2357354,1.3402493,-1.405842,-1.6395265,-1.2562344,0.78232366],"12":[1.0092725,-0.22633684,-0.16319653,-1.70259,0.010969495,-1.3862278,1.513887,1.5888191,-0.35233387,-0.32930744,-1.1722785,1.2564781,0.10815933,-1.1062833,-0.099392876,0.720202,-0.14492238,0.058290884,0.7048964,0.23487107,0.017731734,0.57966363,1.0810875,0.5283155,-0.70798635,1.1798087,1.094599,-0.2063618,-0.8341872,-1.052408,0.29864478,-0.91746336,0.6849574,-0.198749,0.8686093,0.6136764,1.5559027,-1.0100255,1.0472051,-0.9891151,0.43042076,-0.651865,-1.0827938,0.18842004,-0.7139136,-0.9424174,0.90719384,-1.0007983,-1.2484189,0.7205051,-0.56345505,-0.025082622,-2.041799,-0.28817865,1.4026723,0.6166016,0.34178638,-0.2959424,0.016718486,-1.752994,0.44558194,-0.8543962,-0.13944632,-0.50551754,0.52217937,-0.8482257,-0.29099205,-1.9575708,0.675526,0.48584613,-0.074506,0.29903397,-0.37782887,-0.56347203,0.6900545,-0.7284947,0.9637189,0.27414712,-0.7504351,-0.83286816,-0.07209837,0.7339651,-0.49929917,1.049312,0.5992947,-1.0109912,-0.22732311,0.8986332,0.2910569,0.9024975,-1.1211541,-0.76614213,-1.7996026,-1.1401913,1.0120741,-1.0188919,-1.0962565,0.08555497,0.89759415,-0.6169405],"13":[-0.08397864,0.15931632,-0.2861206,0.58789027,0.77579063,-0.50418216,-0.46801367,1.2059479,0.051575523,-0.8919237,0.97733617,-0.66841495,-0.6718721,1.2826647,1.9523578,0.09392972,0.42624897,1.1514412,1.0996573,0.71877074,1.5123311,-1.8549079,0.064750604,-0.28086966,-0.16439003,0.3846034,-0.2872557,-0.6730676,1.9095521,-1.0288997,1.2486482,-2.7741814,0.48470956,0.6480715,-0.45923722,0.0406443,0.979386,0.32449606,0.6114151,-1.0524025,-0.5146068,0.036581554,-0.4491598,-0.37060192,0.4300465,-0.31863225,-1.1615407,-1.2110589,-0.42602423,0.5413663,-0.038512893,-1.5265764,0.12442594,0.699462,0.9007876,-0.0026797212,-1.0245447,-0.7814214,-1.543148,-1.274129,-1.498277,-1.0972824,-0.16258548,1.4460452,0.1708192,-0.37260383,1.3794568,0.85958016,-0.94027555,0.5466761,-1.4321183,-0.9689531,1.0804116,-0.77224463,-0.7768719,-1.707376,-0.80443305,1.4242964,-0.27955526,2.0246758,-0.9360201,-2.219716,-0.4381479,-0.32798925,0.19490017,0.48499104,-0.8405228,-0.44739088,-0.23801789,0.1050634,-1.1761756,-0.59343326,0.8784145,0.44673195,0.33757842,0.48058236,0.4635231,0.1467498,0.7944054,0.9183095],"14":[-1.2453772,0.7550687,0.4706348,0.03187379,2.0624719,-0.21978286,1.1118212,0.23094106,-0.028456505,-1.1689873,-0.77255,-0.92426914,-0.7998149,0.50844836,0.48537126,-0.16477062,-0.4570364,0.7188658,1.100806,-1.1502324,1.3355054,0.3473344,0.53257316,0.057676833,1.2090803,0.032674085,-1.8770657,-0.20075236,1.9919912,1.092611,-0.3389826,-0.05659039,-0.18695304,0.43007022,-0.86122555,0.95164907,0.05312025,1.699548,0.95918614,0.5589278,0.34630147,1.7668632,1.0969658,-0.037910495,0.029143434,0.83719885,-0.8164596,-1.3548979,-0.41511783,-0.4993872,0.069137715,0.3693968,-0.926158,0.15413445,0.35939318,0.57137716,1.8208746,-0.49819896,-0.24181807,1.1150734,-1.4303967,-1.8232712,0.5272659,0.33698502,0.56017375,0.5386304,0.60600126,1.5000681,-0.5632303,-1.0081638,0.27719262,0.8432227,-1.378373,0.1739463,-0.57433295,-0.8194332,0.8664889,-1.358748,0.24147414,0.78947496,0.88879883,-0.852121,0.25742453,-0.10368252,-1.1476465,-0.3734055,-0.22387426,-1.4894302,-0.0817368,0.43446028,-0.35999906,-0.06457167,1.3638581,-1.1068026,-0.5712991,1.2158688,-0.42339122,0.5019622,0.9516219,-1.5808492],"15":[0.20806403,1.834882,0.19240314,-0.046231102,0.74747,0.739263,-0.3204488,-0.47479892,-0.12217914,-0.5161508,-1.0124812,-1.204698,0.34892672,0.29792294,0.58056724,1.1480188,-0.82500064,-0.7680233,0.86126834,0.33311844,-0.3956259,1.7073677,1.4020854,-1.1338555,0.4003005,-1.0439837,-0.36463317,-0.0066766846,0.8555215,-1.7492883,-0.12473607,-1.0601636,0.0075584743,0.95459485,0.23961593,-0.40020338,0.56870925,0.6065872,-0.48331678,-0.119119965,0.46194848,-0.97866815,-1.1070929,0.2975567,-1.1806349,0.82054746,0.5855672,0.27894333,-0.18603659,0.16525377,0.20369625,1.0592474,-0.686302,1.2132895,-1.2654463,0.28100297,1.1894716,-1.5913378,-1.2392192,0.2173168,-1.3385634,-0.74559927,2.3589156,-0.775069,0.24142772,1.1521286,-0.40238208,-0.5695424,0.74110746,-0.13138041,0.9311019,-0.051004782,1.2533768,-1.0586644,-0.4568822,0.2083709,1.0561303,0.63635635,-0.96462625,-0.3981864,-0.8893239,-1.0261407,0.2956528,0.1437526,-0.663198,-0.5378468,-0.06257008,-0.69786346,-0.43653202,0.77188927,0.35355982,0.193855,0.7059963,0.89306545,0.8901065,0.79842025,0.054991074,-1.5413438,0.31518495,0.07440257],"16":[-0.23046628,0.4471515,0.16132003,1.8440162,0.18228896,-1.0144123,-1.3944433,-0.98481256,-0.5592104,-1.5774637,-1.9065131,1.0113466,0.06884108,-0.17767377,0.793942,-0.20098157,1.696233,1.2703478,-0.5231257,-0.97438455,0.005830776,0.6558244,2.0647776,-0.13674533,-0.43862203,-1.1552455,1.168041,0.06878799,1.4164298,0.054862574,0.29843527,0.4672042,1.3987279,-0.099168085,-1.3500648,0.12624982,-0.4757894,-0.6955455,1.6031834,-1.2782737,0.56281334,0.20022069,0.49085695,1.4805065,0.27583736,-0.111988716,-0.124461345,0.798337,-0.06144848,0.41621736,-0.22213809,0.27009487,-1.4807824,-1.0035912,0.84151226,0.5817665,-0.29964006,-1.0240103,-0.49979496,1.0448692,0.13165574,-0.30472216,-1.5636275,-0.23476277,-0.64200425,1.0753418,0.5685222,0.8902581,1.8995701,0.12748106,2.1025498,-0.61135757,0.7475727,-1.000127,-1.6165445,0.33504465,1.5365028,-0.9712801,0.300081,0.57266134,0.80901915,0.8260006,-0.6588691,0.46210855,0.3344577,-0.6053951,-2.0290732,0.21860783,-0.041383997,0.48025018,-1.5560426,-1.3804042,-0.6653644,-0.5254735,1.4437255,1.0212928,0.68225056,-0.8462801,-0.52527416,0.65462327],"17":[-0.5041508,0.17756782,-0.25326204,0.50551116,0.45776725,1.6045995,-1.4490528,1.4009608,0.7354747,0.44424695,-0.8893224,0.5971512,0.006337244,0.42268294,-0.24488719,0.4219429,0.6914228,-0.80168486,0.15568659,0.29275453,-0.107677706,1.7555912,1.0351554,0.18400405,-0.88874245,-0.16370064,1.6847689,1.1139475,0.5515571,-0.88298845,-0.25672674,-0.09598305,-0.56115425,-1.3690175,-0.55428267,0.32106277,0.93156546,0.7206873,1.6569573,-0.17359683,-0.39927274,0.80307597,0.80047554,0.65175843,1.222707,-0.7368136,-0.2120258,0.48550564,-0.20073725,-1.4081624,-0.9916859,-0.37253523,0.15489163,-0.5987255,0.27108166,-0.26788953,-0.27256033,1.1114457,-0.7132003,-0.22935456,-0.95151037,0.5278647,1.1440762,0.49361476,0.68528354,-0.16969159,-0.85394925,-0.24836664,-1.1202117,1.1082209,-0.28149703,-0.82499063,-0.918464,0.917765,-0.76846784,-0.031273916,-0.99525756,-0.72318095,-1.5729197,-0.06031374,0.22373113,0.17754719,-0.2895745,0.55667615,-0.6705273,0.38676906,-0.073308855,-0.8065035,-1.3937131,-1.7694117,0.039194163,-0.5240021,0.046086133,0.11420687,0.25243643,-1.0769488,-0.80259603,-0.9079545,0.14852662,0.3575656],"18":[0.48340124,-0.5558569,0.35817167,0.25893596,-0.3618194,1.0623561,0.43194458,-2.0357373,-0.009931945,0.042938024,-0.5216455,1.4199618,-1.0808163,-1.5910168,-0.26506358,0.61815244,-1.0611962,0.054936886,-0.122910246,0.26735377,0.3552394,-0.06627047,1.0864531,1.0572392,0.06170605,-0.3358068,-0.8147994,0.5794653,-0.44470152,1.8763938,0.20834537,-0.17108656,-0.87850755,-0.37579465,-0.34341684,-0.119069844,-1.2625139,-1.3275385,0.63379824,0.82636577,1.716096,0.11343806,-0.19199209,1.7864426,-0.7289796,-0.79216594,0.23911348,-1.2842093,-0.5104946,0.49489135,-0.35161984,-0.9739972,-0.0889103,-0.30859262,1.1699535,0.20897414,-0.38616514,0.17756996,0.99619275,0.9874416,1.9579523,0.07772935,-0.8579579,-2.4066725,-0.71984714,-1.3340589,-0.80087453,0.42818266,0.123459,-1.0496265,1.0473447,-0.20195404,-1.881488,0.21598409,-0.67352414,0.71187514,-0.17873184,0.44643316,-0.7900929,-0.5818907,-0.59742194,-0.92392856,-1.7526507,0.18638884,-0.11226347,0.5934459,-0.7922045,1.2197983,0.16581838,-1.039362,-1.1967875,1.2071314,0.19294398,0.45287228,0.64029527,0.61532134,-0.046417415,-0.5780484,0.055669043,-0.25231335],"19":[1.0866001,-0.29808155,-0.34312683,-0.27568784,0.30476508,0.14986114,-0.24710232,-0.39030153,1.190805,-0.37825552,0.057867546,0.5057591,-0.34002882,-0.7590195,-1.4115863,0.47904316,-0.01329629,1.002248,-1.1302166,-0.42676964,1.3128914,1.9777898,-0.85864496,-0.62764,1.281247,0.1018051,-0.41340017,0.3332397,-1.1067694,-2.0074356,-1.4199413,-0.6791739,-0.82347214,-1.2930853,-0.29148313,1.1971496,0.064097255,-1.5805676,-0.22836724,-0.58213747,0.5971813,-0.6415236,-0.7248374,0.30487478,-1.2223538,0.14027868,0.45906904,0.45344862,-0.23597799,-0.8175679,1.2811044,-1.321795,0.5185461,0.89599013,1.4840789,0.047131576,0.48418248,0.28075308,-0.35979795,0.56410843,-0.49993095,1.7724593,0.52649367,0.043620545,1.2739519,-0.09273693,0.32766902,-1.4858023,-0.44443035,-0.6841601,0.27538478,-0.32871392,0.35281196,-0.29889458,-0.030339962,-2.4807377,0.1183783,0.32629278,-0.15801185,0.17149924,-0.126279,0.48327032,-0.7196675,0.6893854,-0.15304159,1.5441952,-0.66064215,-0.3945817,0.43385082,0.28443766,-0.47000265,-0.4486614,0.5435224,0.95063066,1.0893396,-0.45899904,1.517281,0.735378,-0.39726403,-1.6849028],"20":[1.0669422,2.0798292,-0.8435864,-0.2401133,0.8719933,-0.2987429,-0.7652534,0.5438264,-0.7825033,0.46526247,0.5599275,-1.0609671,0.78939885,-0.7901924,-0.7016761,-0.9850305,-0.23217681,0.4608223,-0.34785634,0.5585729,-0.8613664,-0.5049732,0.51462156,-0.24044421,0.10465102,-0.1511599,1.7017646,0.080300264,1.4632576,-0.7245965,-0.096404925,-0.44531655,0.2425899,0.5888315,-0.7941682,-0.05734237,1.4955372,0.08846023,0.026114564,-0.28497833,-1.0984013,1.4775378,-0.68155736,-0.46572986,-0.3601866,1.2966342,2.1863465,0.6012505,-0.21893653,-1.024224,0.59801346,-0.4626951,0.8044944,0.7010323,0.030770501,-0.013340885,0.3455823,-1.7895511,-0.7656821,-0.89608216,2.166046,-0.07420746,0.116001986,0.6980596,2.3319564,0.7170946,0.60601145,0.0475817,0.6243455,-1.1083848,0.05404256,-0.59881973,-0.12415142,-0.47673073,-1.7177343,0.7777552,0.8464705,-1.5667125,-0.5127584,0.8859885,0.6873225,0.36555618,0.40425447,-0.2658375,-0.83064,0.39512825,-0.9206388,-0.4076189,-0.007521563,-0.15643299,-0.7193215,-0.1771982,0.7735038,0.39102134,0.30609664,0.3280369,0.15725866,1.2023712,0.9337857,1.2882104],"21":[0.44282144,0.59087056,-0.76644987,-1.0999725,-1.0935543,-0.1756675,0.99668515,0.26533496,-0.9215164,1.7202204,0.88744473,-0.046000898,1.6688981,-0.39249903,-0.138958,-1.2972438,-1.4115695,0.3234833,-0.8790552,0.37199527,-1.4248791,-0.17184949,-0.11991763,-0.39082277,-0.8777931,0.7182666,1.2377443,0.34350315,-0.33861086,-0.85935396,0.9046934,-0.38564482,1.4460791,0.51946473,0.2898555,-0.5293329,-0.9527723,-1.4822526,0.786956,1.6426605,0.17398918,-0.45769775,0.19196741,-0.15756115,0.9402749,-0.854783,-0.90666974,-0.59660083,-0.8139264,1.2146252,1.074518,-0.11829152,-0.35890737,-0.9098979,-0.45689374,-1.6443218,-1.9662199,-0.68761224,-0.2886996,-0.45790628,-1.1102192,0.24807331,0.80081964,0.05717034,-0.97297484,-0.16536312,-0.19455919,0.036820676,-0.053780165,-0.37730157,-0.30162895,-0.65310466,-1.2847533,-0.48042235,1.4862255,1.0782243,-1.0305191,0.9491271,-0.5753482,0.39054105,0.998507,-0.75533557,1.2478166,0.8232114,1.8835235,0.57310194,-0.3384691,-0.035569064,-0.13915001,0.7104633,1.055483,-0.47716558,-1.0355884,-0.8263135,-0.9707207,-0.43413725,-0.75665474,-1.8612579,0.52501565,-0.7114854],"22":[-1.6525404,0.73795944,-0.6764361,-1.1037054,-0.97439605,-0.9370297,0.20245013,0.7590367,-0.26037383,-2.2128448,-0.1444736,0.5021721,-1.0298625,-0.6458746,-0.06488442,1.8692842,0.3493333,-0.54631937,-1.12217,1.2367038,-1.0349257,0.8568773,-1.1127628,-0.5402108,-0.70794797,1.1067157,1.9632254,-0.7605318,-0.40886402,0.038461044,-0.05574035,0.1174373,-0.24245323,-1.1571288,-0.52428645,-0.55149394,0.581938,-0.5716983,0.9409006,0.21477203,0.41882268,0.8256521,0.52349097,-1.13571,-0.5563248,0.6302686,-1.3758936,0.7772494,1.289652,-1.194048,0.3889436,0.65762246,-0.82950896,0.23479404,0.11744606,0.092965074,-0.40110418,0.84493834,0.08942303,-0.6787213,-0.15535852,0.6650563,0.12311397,-0.6339567,0.9643068,0.006307208,0.11879666,0.58288246,-0.59616494,-0.6922192,-1.333881,2.4389856,0.046657026,0.56453484,0.5905745,-0.35702738,1.3467743,1.126319,-1.4333969,-0.25133368,-0.12616925,-0.78758925,-0.8976213,0.9023676,1.0725367,-0.63756496,0.6975197,1.4835526,0.23940179,-0.617335,-0.4777715,0.61922985,-0.79234946,0.5109769,1.0588856,-0.5499552,0.72247285,0.8901925,0.71512276,-0.34401652],"23":[0.6338734,-1.0816563,-0.84500945,-0.45110524,-0.392534,1.3699706,0.319329,-0.09036105,0.64313424,0.6633827,-0.766226,-0.07872522,-1.0558223,-0.5456596,0.58428985,1.6212741,0.05861154,0.20001079,-0.97367406,1.1850641,-0.1557861,0.04337975,1.3509219,-1.4214536,0.8776357,0.958235,0.50082487,1.1420689,-0.049546782,-0.17568535,-0.87605554,0.36672562,0.50537825,0.100606464,-1.1395502,0.81657284,2.3147945,0.41768685,0.96375334,-0.24960561,-0.2203878,1.1174611,-0.22763796,1.4561749,-0.27074987,-0.3332666,0.02565506,-0.96644044,-1.419249,0.34739646,0.20334676,0.6092508,0.108626455,-1.2063704,0.22241835,0.33939528,0.043009184,0.08494247,-0.03389798,-1.5739812,-0.5323153,-0.1896114,0.34445632,0.43360984,-0.041891426,0.3102944,0.58786786,1.3973402,0.0684002,0.26413727,0.6643913,0.34079826,-0.5624407,0.34493193,-0.83981496,-0.88352114,-0.1789071,-0.39572433,1.0699092,-0.32768378,-0.44689173,0.19563608,-0.87501746,-1.0843456,0.32792813,-0.032740764,-0.29087293,-0.113771304,-0.34405318,0.310665,0.015824582,0.9203754,-0.13071133,-1.3024563,-0.570898,0.8855903,-1.7100393,-1.2023301,-1.44543,-0.40803972],"24":[0.04346401,-0.31478164,0.39542785,-0.5190788,-0.31309697,1.6839786,0.39910802,0.11946397,0.3957996,-0.98115176,1.1504043,1.6112558,0.12829192,-0.39715722,-0.8045484,-1.2650001,0.87574315,-0.31439888,-0.11938526,0.9911942,-0.49706852,-0.39457497,-0.76029605,-0.45007446,-1.0200953,-1.3427777,1.1976639,-0.40087405,-0.105393484,-0.92620206,0.3630423,1.5140347,-0.70505065,-0.3891156,1.619618,0.05605665,-1.058218,-1.1062733,-0.47611558,1.215732,-0.0876583,-0.7015565,-2.445654,0.25080734,0.8638173,-0.700038,0.8774234,0.3082974,-0.28604877,1.0750697,-0.33787957,-0.17952007,-0.42034513,-0.6160869,-0.5344228,0.5073333,1.1434041,0.15693098,-0.20493475,0.83004755,-0.49734822,0.07942962,0.9905484,0.4010023,0.73375356,-0.5138602,-0.45786908,-0.00027177477,2.1916137,-0.6140852,0.19337088,-0.9799341,-0.3541017,1.5926064,-0.44060716,0.881129,1.4505881,-1.5893034,1.1378951,1.0259032,0.62517655,0.65144986,0.28018376,1.0267949,0.07295458,-0.2958853,0.28788245,-1.3437445,0.15767136,-1.4135336,1.1523138,-0.8977557,0.02655396,-0.8772051,0.5417097,0.068589695,1.4767324,0.008267181,1.0494816,-1.9368893],"25":[-1.2049595,1.6480784,-0.91503364,-1.1645199,0.21811935,0.84399706,0.63217485,0.56841147,1.1105365,2.0647936,-0.6510484,-0.40306985,-0.74275464,-0.88874674,-0.8901627,0.82410574,-0.3877795,1.3498669,1.5709493,0.25351533,0.8420769,1.0985322,-0.89634335,-0.35056344,0.29061034,0.8928213,0.827075,0.8379543,0.6006638,0.41203666,0.49746534,0.5944418,0.4164169,-1.1367441,-0.3055562,-0.27494952,0.15410854,0.62973946,0.31449685,-1.3932562,-0.802674,1.3286941,-1.0932953,1.4785062,-1.2769557,1.1810932,-0.07295831,-0.9767316,0.75542355,-0.16115637,1.5892926,-1.1469114,0.29309005,1.3978367,-0.0790027,-0.18443124,-0.82224715,0.06393026,-0.26558948,0.3269255,-0.26067227,1.5621514,-0.23799312,0.6737689,-0.919533,1.3786755,0.28705728,1.2963694,0.35746464,-0.3907633,0.75568575,0.99742746,1.2161053,1.8575822,0.3859152,0.70467395,0.21035497,0.042888332,0.17894535,0.079757296,-0.3617593,0.81091845,-0.4127884,-0.19775055,-0.38857484,1.0034289,0.628719,-2.6452522,-0.72359794,0.3812249,1.3280711,-1.1600057,0.7395412,0.7733203,-0.18916185,1.628616,0.11522642,-1.0113008,0.9935855,-0.41152734],"26":[-0.60561347,-0.07710568,-0.25220242,0.4887057,-1.6884453,0.040845323,-0.45297977,-1.3670032,0.7362457,0.928941,1.0109849,-0.7480179,-0.6975461,-0.7920045,1.0095601,1.0817279,0.2667139,0.0033484944,-0.41792437,1.4391751,-0.9350128,0.68171704,-3.0187092,-0.7293449,0.0019769939,-1.015598,-0.36063245,-0.4858702,0.37599114,-0.63812,-0.34395874,1.8108399,1.232193,1.4122374,0.02644234,1.4843501,0.43149582,-0.8813133,-0.6242224,0.06719538,0.11645663,-0.6020127,1.8146735,0.3771452,-0.51588213,-1.1716875,0.45199138,1.1477333,0.088963695,0.6858917,-0.60516655,0.2588428,-2.5256662,-1.172212,-0.6878925,0.8708271,0.04308371,0.017849354,1.2884027,0.517177,-0.48939306,-1.1933771,1.526586,-0.5842643,-0.38038617,-1.0776323,0.92383945,-0.16599506,0.33229065,-0.35282573,-0.031957533,-0.2854141,0.97108465,-0.5865588,0.43586913,-0.42041472,0.6436065,0.9941618,0.65957546,0.26369333,1.1167294,-1.7115943,-1.1967537,-0.20287323,-0.6125285,0.73826087,-0.04478763,-1.5084376,0.33594242,-1.3254656,0.62420243,-0.21885365,1.1062679,-0.76136374,0.88446295,-1.568243,-0.22285604,-1.2444795,-1.238928,-0.007355253],"27":[-1.0352851,-0.8612032,-1.1784778,-0.36324587,-1.3448907,-0.99423724,0.9580842,-1.830727,-1.5897427,1.3580103,0.8239104,0.48710012,1.9139854,-0.7645103,-0.08094744,0.21399221,-1.7674352,0.898671,-0.022522567,-0.94291675,0.7984739,-0.7668897,0.3856072,0.82137465,0.8419885,-0.8848797,-0.69752336,-0.20027336,1.9874734,-0.5747408,-0.9786458,0.548793,0.13702999,-0.595027,1.4052933,0.9363837,-0.70481044,-1.317088,-1.3204932,0.039092466,-0.35481954,0.16598235,-0.34441283,-0.6930482,0.44859344,-0.10008433,-0.31413874,1.721381,-0.17689398,-0.3687123,0.6864427,0.3662723,-0.17175436,0.35638267,-0.8422796,0.0013427918,-1.373933,-0.25606537,-0.32642642,-0.031000469,2.1866055,-0.10308195,-0.17628352,-0.2654772,0.32243258,1.435571,-0.23307212,0.6664427,0.1503662,0.52917576,1.484351,1.2912531,0.29090983,0.4435188,0.51427907,-1.9404647,1.4252105,-1.8952293,-0.4498048,1.2611718,-1.0182194,-0.14783812,-1.0500078,0.42602766,0.5441167,0.30117264,0.5181728,-1.2106721,0.7675808,-1.1954694,0.58108294,-0.44165757,-0.22409683,0.7407145,0.5169306,-0.77678293,-0.56685686,-1.736648,1.288653,-0.63717604],"28":[-1.529502,-0.15478194,-0.63467824,0.44998968,-1.0087599,-0.20758,0.529686,-0.69718426,0.55973166,-0.6882654,1.3717096,0.8729369,-1.8056604,-0.6001541,0.76091486,0.11896347,1.3916533,0.8342453,0.44835237,0.745128,2.1420949,-1.0985413,1.1827118,0.96058327,-1.1859143,-0.539378,-0.16398634,-0.24950512,0.66416025,0.23293383,-0.08901815,-0.6137575,1.1914433,-0.05261558,-0.5741346,0.15341794,0.46799538,-2.2440472,0.95921046,1.1776502,-0.68917614,-0.82414156,-0.2241697,-0.15315983,0.59671104,-0.7012049,0.1268132,-0.53491426,-0.8228088,-0.6257314,-0.23374605,-0.4216811,-0.26879174,0.51490444,1.4252,-0.86761725,1.028939,0.24498515,0.9858907,0.7990553,0.80060905,-0.37873882,-0.315434,0.07331408,0.33235088,1.4573556,-0.8372986,0.8643442,-1.2047333,0.600762,-0.2909462,0.106125645,0.49025407,-1.3404772,-0.71730727,0.08199778,0.6647154,0.7546965,0.70979184,-0.31862158,0.4353382,0.30249342,1.5931667,0.18626344,-0.16271402,-0.6209245,-0.98883975,-0.3922832,0.6622813,0.29719388,-0.24046521,-0.053856604,0.7035202,1.774275,-0.08744267,-0.28624442,-0.9094085,0.60170126,1.0998404,0.34645775],"29":[-1.6618917,-0.025931785,-0.036206055,-0.9623822,0.19448593,0.7964944,0.9949215,-0.90297484,0.75531656,-0.29579166,0.44834697,0.3388342,1.547167,0.5243253,-1.462195,-0.8270556,-0.28280574,2.3898063,0.21967122,1.199011,0.4364488,-0.23595613,0.14114253,-1.3994399,-0.4940581,-1.145696,0.14477368,1.2130653,-1.1282866,-1.0140984,0.64621294,-2.1585104,-1.3838794,1.1008906,0.3366086,1.4670272,0.5222679,-0.06402591,0.9629476,0.47987038,0.26110822,1.6960231,0.29898483,0.38675985,-1.185196,0.6931492,-0.3156186,-1.2748888,-0.00456733,-0.0037859983,0.80269367,-0.788558,-0.75405604,-0.6829629,-1.8399693,-0.14627309,-0.8518894,-1.1722192,-0.000991839,-0.65357184,-0.27215144,0.22232282,-0.5095032,-1.5274798,0.102737516,-0.48459953,1.7438403,0.6934811,-1.1828668,-1.4245569,0.799016,1.1558344,-0.52203804,0.5123546,-1.1660314,0.07236232,0.54744905,0.35848767,0.402397,-0.6660346,-0.79470754,-0.48847568,0.62630117,0.5237323,2.1270278,0.66006327,0.8691002,-0.04066039,0.41913253,0.2153564,-0.71129125,-1.8166065,0.043046854,0.03702847,0.82126755,-1.3136302,0.7830949,0.7037046,-0.30628932,0.12270264],"30":[-0.21807098,-0.49853715,0.85486907,-1.1801207,0.063403025,-0.70178694,-0.33856755,-0.8461708,-0.1790956,-0.7942043,0.45267183,0.42995468,-0.63805264,-0.64992607,-0.65093493,-0.513797,-0.69916177,-0.35609725,1.0108135,-1.5382651,0.13982981,-0.6230231,0.882737,-0.87547886,0.65527034,-0.042671535,-1.6436013,0.4378851,-0.87326133,0.50682807,-0.43192697,0.32810494,-0.54467165,-0.13521887,0.024583362,-1.4200915,-0.6331968,0.30619714,1.409783,-0.38082975,-1.4074788,-1.3670202,-1.7134911,1.0363661,0.37447202,-2.233987,0.32139918,0.5044771,-0.3132492,-0.113812886,1.1529751,-0.18937431,-0.60877424,-0.75982887,-1.0063394,-0.53196377,-0.16962765,-0.11948375,0.6295649,0.2731315,-1.2063993,-0.18427187,1.2590201,0.7653786,-1.527265,-0.10676979,-0.17329977,0.52192074,1.0324509,-0.6484694,0.8266376,-0.35392636,-1.4137976,-0.5024681,1.4701977,-0.4415382,0.9100639,-1.4807503,-0.37180734,-1.4395825,-0.90725213,0.8395375,0.22703259,-0.59332764,0.9855143,0.104542635,0.11256671,-1.5553604,-0.98757434,0.5426803,0.61255157,1.0232651,0.013489677,0.7530337,0.3470797,0.044087213,-0.46333793,0.09964805,-0.0397059,0.4813263],"31":[-0.7279837,0.5676536,1.5057371,0.7310391,0.59734726,-0.8182507,-0.2876476,-0.086596206,-0.2325519,-0.47094202,1.2754608,-0.7887177,-0.7937304,0.15136409,-1.1153635,-0.12144326,1.227515,1.3660549,-0.5380048,-0.8883045,0.36764625,-0.030226994,1.4523637,1.4442399,0.13181521,1.1280503,-0.8772733,1.0385258,0.060883205,-1.5668212,1.6275157,0.64485556,1.2131317,0.55754155,-1.798004,0.86385864,-0.39757454,0.14980973,-0.21260405,-0.05304179,0.1380175,0.13631977,0.5016592,-0.3454158,-0.36599547,1.932823,0.45305228,0.14622098,0.059961308,0.78832036,0.6146736,-0.39006,1.013134,1.449809,0.18055217,0.17618303,-0.48686615,0.58038676,-2.488931,0.81155133,-1.0032126,0.781775,-1.5244503,1.4688151,-0.98467624,-0.27836242,0.24607886,-1.7814659,-1.5316145,0.35921863,1.8553294,1.0049096,-1.534576,-1.0639719,-0.87925047,0.49057105,-2.0408769,1.0719497,-0.42666158,0.8764056,0.5212934,-0.4574629,-0.43857637,-0.41293547,-0.12191355,1.6804379,0.31438643,0.0687343,-1.7108157,-0.31200925,-0.9782093,0.11889046,0.93796444,0.55325466,-2.3310068,-2.5780523,0.03820683,-0.3401189,0.27217624,-0.6397603],"32":[-0.033271275,-0.75685483,-0.46258086,1.6069536,0.76975423,-0.6909958,-1.661077,0.7509044,-0.9038585,-0.8326614,-0.3020087,0.67116654,0.51110625,0.66401124,-0.2484951,0.19745733,0.065379925,0.12945658,-0.62920344,-0.19157346,-0.44891676,0.95297295,1.0471561,0.30753222,-0.25259012,-0.06503247,0.42332098,0.15980953,0.8802676,-1.395143,-1.4667321,-0.008420256,-1.2454833,1.4512552,-1.0950555,0.5612879,1.0415035,0.6743328,-0.5393658,1.2687606,1.7022519,-1.5940567,-0.7261453,-0.49285275,1.0989773,0.67279947,0.6225848,1.0579994,0.21975787,-1.6097383,0.32940868,0.4594907,-0.10911256,1.3293353,-1.518981,0.24694699,0.93197405,-1.0065249,-1.11138,0.22714412,-1.0099378,0.61508644,-1.4236908,1.5563568,0.6577086,-0.23056972,0.22869943,0.6873868,0.6742459,-0.9676881,0.771952,-0.3502157,-0.85806775,-0.67377913,0.1028846,1.3404912,-1.1911045,0.93708473,0.95726377,-0.4136253,0.24023496,0.5673733,0.566621,-0.88532394,-0.7793584,-1.1200805,-0.5135798,0.3100218,0.98521835,0.6151728,-0.38629135,-0.7255306,-0.38247138,-0.7253567,1.3446667,-0.64932275,-0.29023835,-0.41829044,0.6390473,-1.4492321],"33":[1.06761,-0.80305743,0.7810797,-0.61413455,-0.6134351,-0.13200429,-0.7161874,1.06958,-0.893532,-1.5219079,-0.13895264,-0.4463585,0.08507365,0.70695937,2.2953162,0.6541922,1.1481777,0.06884017,0.8498141,0.33413446,0.994105,0.76113087,0.51299155,0.31673175,-0.9850193,-0.13819842,-1.4414147,-0.6556289,0.85314524,1.1344317,0.5126913,-0.7500099,2.1117632,0.39923438,-0.50947315,1.6904439,0.9427078,-0.23610605,0.8897864,-1.3856617,-0.9554388,0.4298097,-0.9586574,-0.83219135,0.6555298,-1.2818421,-0.090073206,-0.38184813,0.5340828,1.0131716,0.38453966,-0.6284983,-0.85547155,-0.49465674,-0.81871927,-1.7913231,-0.23315059,-0.8549214,-1.1218985,0.68395555,-0.6025894,-1.0696163,0.21665798,-0.9452965,-1.1816641,0.63079935,1.0518085,1.013256,0.04220723,1.1121391,0.7067362,0.408757,0.6637115,0.45179266,0.9749477,-0.3077186,0.18713853,-0.10588164,0.061253548,-0.5937546,-0.50935006,0.8855049,1.4783006,0.5133749,-1.4508566,0.42892224,-0.4288589,0.60730547,-0.798632,-1.2054445,1.1234837,-0.6666445,0.92657226,0.5393064,0.6793089,-0.24688046,0.38229176,0.98357236,0.04712028,0.20666556],"34":[-0.35776955,1.4811928,-1.641334,1.0280617,0.87129915,0.06760517,-0.35557497,-0.44242558,-0.63383377,2.4021194,0.3191134,-0.50795346,-0.89831156,-1.2318009,1.0354203,-0.7002132,1.0000972,1.3862947,-0.2142275,-1.5281476,1.7054769,-0.3517353,0.24686168,0.18190844,0.0026369628,0.72795445,0.40754527,1.3855709,1.4972292,-0.61939377,-0.4324547,0.052980635,-0.51952994,0.5288758,1.6225954,-1.0216335,-1.0813261,0.12564039,0.5276873,-0.106435485,-0.45975158,0.687137,0.46143904,-0.08266214,0.35850304,-0.46211204,0.7390885,-0.25623834,0.27312812,0.53330505,0.7202931,-1.8242304,1.183195,0.65112597,0.014578172,-1.2140511,-1.6951442,0.92378384,-1.5124043,-0.3530156,0.2546575,-1.1664286,0.49667,0.3413772,-0.23866989,0.7917193,-0.7705792,-0.3358975,0.2933334,-0.6660224,1.1912906,1.2817559,0.51729184,0.032775816,-0.17725737,1.1935978,-0.5890493,0.7931693,-0.6269502,-0.9805689,0.65428096,0.48737356,0.30416363,1.8705876,0.1795943,-0.42395386,0.41085202,0.2561971,-0.54317904,-0.00072242925,-0.49535304,0.59900516,0.5570024,1.2363256,0.254728,0.45474684,1.6627043,0.011941043,0.28031427,0.25321314],"35":[1.0304277,-0.96350884,-0.53792626,0.3872329,-0.40441287,-0.107244164,-1.2919346,1.0815055,0.8164131,0.35706797,-0.065444194,1.334071,0.082361825,-1.3770725,-1.203388,0.08908152,-0.97937924,1.1938769,0.015497713,0.8013714,-0.02922324,0.39350384,0.9793782,-0.410121,0.11002809,0.2163231,0.02941649,0.15316646,1.2801872,0.39167827,-0.34424213,2.1917264,-0.089431584,-0.6586526,-1.2519187,0.09395168,-0.877675,-0.15093094,0.5866467,-0.41002983,0.10539199,0.20706144,1.7935132,0.93283045,1.1946927,-1.034184,0.7605741,-0.06556446,1.7550725,0.9755161,-0.12554185,0.6797996,0.0034987559,0.05475028,0.78107274,0.4513731,-0.5685456,0.850015,-0.43811372,0.61611444,-1.1343932,-0.9540172,-0.16641034,0.1299172,0.019285452,-1.1155165,0.49639302,0.23884962,-0.45860574,0.53679234,-1.1096253,-0.2719628,0.6043225,0.7191373,0.87578094,1.1476758,-1.2391012,-0.5672243,-0.27729368,0.82463956,0.90627587,-0.019716473,1.2647681,0.5346965,-0.8251423,-0.5656116,0.18804665,0.5315441,1.1232829,-0.5500618,-0.6337121,-0.2625322,-0.21258813,-0.95702523,-0.85656935,-0.38594818,1.0512619,-0.29934716,-0.23891145,-0.3950255],"36":[-0.65759456,0.9949428,0.90483534,-1.8054464,1.2252283,-0.08580773,1.0433532,-0.070867695,-1.7638578,-0.87622076,0.43206456,-1.1032151,-0.9191114,0.16397186,2.2816393,1.4526507,-0.078815274,0.2837066,-1.0524817,-0.0594184,0.9488646,0.16074309,-1.0091602,-0.35612807,-0.33748326,-0.1609223,1.3088943,0.21231173,1.6169349,0.39488018,0.53045183,0.255702,0.94607764,0.6847174,0.04193218,-1.067688,1.0015361,-0.058210067,-0.8678406,0.5601697,1.2685477,0.43967244,0.20787466,-0.26314536,0.6526528,-0.20140389,0.70278,-0.1322206,0.57630944,1.1596184,-0.9779375,-0.32672217,0.33532897,0.37872624,0.5277813,-0.14416793,0.2934445,-0.0841593,-0.06483963,-0.2517305,0.29258555,-0.4679856,1.2752129,0.14420271,-1.1055193,-0.6394202,0.23029883,1.4953762,-0.7908722,-0.37436825,-0.5760244,0.6696479,-1.7316828,-0.20421927,-0.415978,-3.2232316,-0.48711225,-1.4075108,-0.3495404,-0.61872673,1.2054126,0.2633992,-0.042033643,0.19206929,0.47039354,1.1943678,-1.1042349,0.461659,1.0300828,0.58495486,0.6705972,0.72119415,-0.056821447,-1.0944797,1.6101612,1.8085885,-0.31977063,-0.3089761,-0.7705587,-0.47379512],"37":[-0.5544724,0.8816457,0.7630499,1.3435149,-0.49429232,0.45116612,-0.22628593,-0.09943936,-1.8827016,0.96417505,2.3154082,-0.85960734,0.08272437,0.31755286,-0.7427188,-0.014438244,0.91062367,0.89303404,-1.1315508,-1.2057626,-1.6426252,0.83604234,0.62147087,-0.27312854,-0.15286964,-1.2275177,0.075768724,-0.7353375,-0.6493339,-0.9681792,1.2095393,0.42722195,0.5993011,0.9651205,0.3749207,0.8241608,0.51182854,1.0937494,0.3336498,-0.6002941,0.15197894,-0.496581,0.12287746,-0.41601515,-0.80019224,0.27735,-0.026139753,-0.91566926,-0.07544027,0.548308,-0.55693036,1.282968,-1.6231692,-0.48586664,-0.07044934,0.22578599,1.6203753,0.25203446,1.9109573,-1.121256,1.310796,0.5801326,-1.5821384,-0.28139472,-1.0035048,-0.5412391,0.37144986,-0.4715919,0.71538836,0.033106863,1.1784664,-0.08158505,0.014420072,-0.5108448,1.6239922,0.6547021,-0.68323106,0.8516292,1.0439453,0.45795724,0.5059336,0.52732056,0.1598879,0.33770937,0.13280238,0.9948618,-1.3372163,0.3143258,0.42892247,-1.2546082,-0.24054115,0.5270293,-0.40076464,-0.38368395,-0.6638519,-0.97459954,0.7636757,-2.1957364,-1.0450451,0.3471895],"38":[0.12853976,0.2809469,-1.7078656,-0.5973058,2.0112634,1.7166561,-0.9401049,1.8320562,1.2979281,1.5947751,1.6120653,-1.6247005,2.001622,0.3285948,-0.48022416,0.62209904,1.7907945,1.3383974,0.86969405,0.71135634,-1.0688063,-1.0007223,1.2551763,1.486548,-0.609847,-0.3462451,-0.93713987,-1.1485207,-1.1739018,0.57409537,1.3486842,-1.0529794,-0.53328866,-0.77618146,1.3342034,0.30253804,-0.48038775,0.7158912,0.43589786,1.1708134,-0.89337814,0.46870792,-0.86175084,-0.5012762,-0.6502471,-0.22179131,-0.6081891,-0.84010756,-0.11253795,1.8140603,-0.45466468,-0.4843306,-0.09713477,-1.300148,-1.3976347,-0.50700396,0.09238499,-0.45300412,1.4641213,0.11305641,0.17467506,-0.9012645,0.32051772,0.762846,0.95000947,0.5834303,0.5057439,-1.8817456,-1.2894509,-1.0237609,1.1253116,-1.442544,0.72849613,-1.8489175,0.0083953235,1.4229003,0.6329386,-0.80428064,-1.3693678,-0.044196874,-0.24905258,-0.61018187,1.2038544,0.89593226,-0.5729408,-0.5102413,0.5418535,1.4478407,-0.97965485,-0.59878343,-0.9032721,0.06656775,-0.32368,-0.019774564,-0.19425237,1.3349171,-0.5422943,-0.40660727,-0.76862293,-1.2785039],"39":[-1.1051489,-0.9558346,-0.21217175,0.00035495433,-1.1972688,0.11997167,0.38147414,-0.13083634,1.0051409,-0.75590634,0.2914328,1.2836436,0.011962727,-0.39400378,-1.5628551,-1.6537153,0.34762448,-0.7640938,-0.76883835,0.16331686,-0.106461376,-0.4197765,0.14395227,0.24132508,0.6471053,0.9186464,1.4395766,1.4931788,1.6961938,0.2957194,-0.39230198,-1.1185995,1.04416,0.945684,0.4420168,-1.6194178,0.024946868,-0.22079584,1.9498483,0.13003331,-0.01842326,-0.18421957,-0.6251567,1.7501205,1.1885035,1.4383584,0.23506029,-1.2085917,1.7194139,0.12753159,-0.51675427,-0.55008113,1.381611,-0.371323,-1.2074564,0.83868283,0.38153127,0.8249251,-0.08871121,0.7245399,0.8076419,-0.5409079,1.1860558,1.146124,1.1291882,0.07939075,1.5710559,-0.13162519,1.3146573,-0.10210454,-0.5600652,-1.0774416,-0.08917308,0.39862448,1.0989716,0.3318962,1.7050827,-0.79291075,-1.0459807,-0.29095873,0.14360629,-0.098392054,-0.96983564,-1.8035414,-0.026581202,0.26510942,0.9445379,-0.13561025,0.8879648,-1.1436663,0.44722122,-0.4314583,-0.88844395,-0.48069447,-1.376001,-0.45916262,0.14576662,-0.2081813,0.57019895,0.21829316],"40":[-0.7049075,-0.91227365,1.6002015,-0.09543046,-1.1505283,-0.028264567,-0.93893147,0.85723996,-1.7961686,-0.87826246,1.2171496,0.949814,-0.47633222,-0.40135908,0.53303206,0.60788625,0.8594278,-0.7113867,0.43983367,0.66930604,-0.040615097,2.221479,0.1795681,1.2473793,0.49865505,1.3777,-0.34994587,-1.1910825,-0.46262506,-2.386702,1.2647581,0.50988626,-0.11634144,-0.12515256,0.7318446,1.6876272,-0.23470913,-0.56404984,1.2126533,-0.14545244,0.7777116,0.42275506,0.8380009,0.7996132,0.22345099,-0.3015561,-0.39283556,0.8320826,-0.45724893,1.4377924,-0.0811409,1.0673707,1.190579,-1.4818938,-1.2110338,-1.3161116,1.2926028,0.37502643,-0.18100728,-1.0789571,-0.27703273,0.8525466,-1.2911215,0.8979913,0.41888183,-0.041764624,-0.71261644,-0.3652964,2.3095245,0.46746507,0.768871,-0.28820643,0.5622977,-0.79413086,-0.66132164,-0.4469152,0.12639776,1.1172408,1.1756815,-0.49256086,-0.9095381,-1.3879353,-0.9722995,0.23991892,0.33753496,-0.89878297,0.087249465,-0.034644987,0.091422595,-1.0984759,-0.8177116,0.9588403,0.7921838,0.55846673,0.31737083,0.53884256,1.2718531,0.16845033,-0.119342215,1.3036927],"41":[1.0566008,-0.75461787,-0.8888638,0.8646218,-0.26664796,-1.2615309,-0.99220634,-0.24691097,-0.13532682,-0.6454678,1.1329697,0.69487166,1.7057688,1.4149456,0.87104994,0.28011072,-0.24230638,-0.082760245,-1.0833553,-0.17801932,-0.29238442,-0.66443574,-0.22136016,2.2820435,0.71254086,-0.37445953,1.4576514,-1.2179465,0.5302027,-0.2479226,0.06959209,0.8455427,-0.5156798,1.0273935,0.7925253,-0.20051946,-0.41964516,0.13324292,0.848074,-1.0204262,1.2368883,-2.208402,0.04098746,0.5491285,-1.0529051,0.19283333,0.9385489,1.0135785,0.16711707,0.27020642,-0.24888326,-0.33161455,0.08713741,-0.925966,-0.36783972,0.4167521,0.16263777,0.21465598,0.78560627,0.038441513,0.99264205,0.35469133,-0.5721252,-0.8253504,0.8273294,0.35439357,-1.971208,1.8786753,1.0031319,1.0527426,-0.052419618,0.781444,0.9746016,0.005726213,-0.37392065,1.1062545,0.07251663,0.48140287,-0.6540513,0.59267324,-1.4235892,-0.23744161,-0.01289636,0.15839401,0.7477264,-0.83439225,0.8866871,0.46257043,-0.15138999,0.09196958,0.06882776,1.1822985,1.3078107,-0.65742034,-0.962757,-0.22786565,-0.16260266,0.8320921,-0.9198344,0.7864388],"42":[0.31562665,-0.3940736,0.03772168,1.0966561,0.96334,0.32188508,-0.40915182,-0.1806631,-1.7211987,-0.7248729,0.3255828,0.9413835,-1.6787398,-0.35350543,1.114785,0.40772745,0.4112745,1.3840406,-0.60256064,0.74004537,1.0618842,0.14299455,-0.56054133,0.0564226,1.0578038,0.42788187,-0.57372224,0.35078248,-0.40838146,0.08180254,-0.117804736,-0.15676647,-0.48505133,0.1803605,0.32481608,-0.81097156,-0.33329976,0.57389975,0.32159415,0.21087988,-1.1627847,0.951652,-0.8258243,-0.85123706,0.39391842,0.8104267,0.92527556,0.015780581,-0.5561599,0.90166914,1.0196267,0.61521983,-0.4051743,-0.06421233,-0.23302014,-0.97057885,1.0397888,1.382888,0.029925292,-0.60477895,0.34112626,0.14522727,-1.1413649,-0.41564894,1.691363,-0.49228474,0.91729605,1.5444597,0.890548,0.642283,1.3473743,-0.08697605,-0.82884514,-1.1542957,0.07412364,-0.5464051,0.20456453,0.32446256,1.3498508,1.5268589,-0.003285429,1.1271682,0.21284212,0.7200456,0.48438847,2.4514954,-0.77803653,-0.08770471,1.1435317,-0.8262694,-0.37035096,0.02855595,-1.7584213,-0.7498816,-0.69303703,-0.27436647,-0.19651978,1.1441238,-0.7092314,-0.72211134],"43":[-0.24318938,-0.51941526,-1.4147468,1.0338178,0.78151286,0.073909365,-0.4311624,-0.3337683,-0.80508316,0.25120026,0.1306782,-1.1131809,1.833391,0.92115325,0.24711466,0.3742453,1.038069,-0.43005604,-0.26645228,0.8632455,-1.6347646,-1.4783854,-0.067992255,-0.07404853,0.64678377,1.4338263,0.49543178,1.6554936,-0.82188475,0.34575644,-1.2275456,-1.2783926,-0.3855504,0.9385914,-1.0828228,-0.09038573,-0.66536915,-0.51905984,-0.2705333,-1.2660968,-1.3036368,1.4220731,0.38910925,0.8201919,-1.0025645,-1.2264502,0.4362865,1.238339,-0.5213812,1.3762597,-2.2592597,1.2578441,-1.2474815,-0.47865784,-0.39553443,-0.8582759,0.38394475,-0.43360388,1.1248035,1.8149245,-0.5319856,-0.4604546,-0.7561465,-1.4724561,1.1454833,-0.09385865,-0.11442681,-1.5352175,0.3068634,-0.45357138,-0.5677284,-0.6280043,0.53094006,0.18640979,1.2666703,-0.16962072,-0.33119082,0.7551327,-0.6283245,0.45711988,-0.22196603,-0.43908128,-1.1640742,-0.7606394,-0.7949754,1.2341506,-0.08263555,-0.8512462,-0.1635524,0.25852504,0.53393173,0.09829214,0.43486616,0.8940816,-0.21395272,-0.35349017,0.7890834,-0.36161822,-0.35960862,-0.17342684],"44":[1.323631,0.68457925,0.38997048,0.9045277,0.039760523,0.5076859,0.21882004,-0.2562373,0.7124721,-1.0914838,-0.026295869,-1.1601462,-1.0711806,0.45820722,0.47206634,-0.2982902,-0.5416268,-1.7346067,0.52617574,0.7392633,-0.3156104,0.8688769,-0.4733216,0.3621306,-0.07735484,-0.4483853,1.2886155,0.96040803,1.2205079,0.48614898,1.7035387,-1.8218035,0.550432,0.1099993,-0.38198358,-0.0052421745,0.8194422,0.593758,-0.2909585,-0.48146772,-1.056253,-0.35448444,0.88980496,-0.038299933,-1.3518342,0.56415576,1.1192766,0.40140444,0.41313353,0.65292174,0.22567612,-0.41516817,0.021747686,1.2580441,-0.011165957,0.23445989,0.53321606,-1.9233551,-0.25998515,-0.14686339,-0.81269467,-0.045427106,-0.7757445,1.1024959,0.027148433,-0.21549651,-0.51805013,-0.67068005,0.32349375,0.06354361,0.36099255,-0.8624713,-0.7276504,0.38820118,-0.6871268,0.014408108,0.08570287,-0.3446979,1.0929915,-0.26496413,-0.18443742,0.21379596,-1.7935948,-1.3103372,-0.4176394,1.0265923,-0.8088685,-1.1585796,0.8252807,0.22873731,-0.12429999,0.141798,0.56174785,0.26024646,-0.6398941,-1.2732514,0.7756922,1.4237138,0.84053916,1.6649368],"45":[-0.8648899,1.3701553,1.475088,0.27462336,0.6065687,-0.0063477233,-0.7696909,-0.57042444,0.76550364,-0.06851383,0.14217551,0.034620956,-1.2558739,-0.5279085,-0.68025786,0.6554567,2.0364454,-0.42483893,-1.3950108,1.2026291,-0.12621972,-0.6616951,-1.8413343,0.40267512,-1.2492684,0.4829727,0.43910307,0.08406479,0.87221056,-0.537048,0.2520931,-0.0074066054,0.21517178,1.6843044,-0.09874791,-0.2823046,-0.8391578,-0.6874773,1.328567,1.5048847,0.12805969,-1.1368288,0.14478801,-1.5710739,0.802139,-0.56958926,-1.2306312,-0.7533913,0.6649303,-0.8293652,0.11090164,0.33762923,1.7807584,-1.7645236,-0.2641422,0.6936743,1.1301674,-0.40109137,-1.5672385,-0.31351003,1.7178255,0.07486097,-0.5053765,0.07829754,-0.54700035,1.2790416,-0.37843573,1.5026424,0.4243786,0.26135445,-0.38205165,-0.7566689,-0.21566647,-0.6940248,-1.2892735,-0.74704736,-0.23777123,0.3155352,-1.1724693,-1.3485237,-0.29781732,-0.22475861,-0.25071117,-0.4493835,-0.18850811,0.26575354,-0.6169786,0.52262914,-0.05968682,0.12634636,0.16379501,1.4633566,0.12621914,-0.3540165,0.3523414,0.5350034,0.56784606,-0.56431997,-0.28662196,0.9245454],"46":[-0.15744565,-2.1219282,0.42344585,0.18245426,0.7781196,0.7057912,-0.8695991,-1.2945846,-0.0841435,0.26071578,0.52277935,-0.48185802,0.95238024,1.6094693,0.9548806,0.93288654,-2.2511265,-0.6582732,0.36231974,0.2834182,-0.20622154,-1.3742414,-0.57204413,0.97352767,-0.87576663,1.1208473,-0.43107343,0.7922828,1.4141974,1.504943,0.7558671,-0.5591803,-0.2738675,-1.1112572,0.45344424,-0.4606368,1.8057195,-1.7442242,0.50832695,0.97640544,0.15422305,-0.5209259,0.3796209,-1.4783446,1.1182262,-0.16482937,-0.9562066,-0.75376546,1.2084502,-0.99058276,-2.116772,-0.6881348,-0.2612356,-1.4220387,1.5972061,-0.5335888,1.3103436,0.7448658,-0.7459919,0.9230653,0.42811474,0.081899226,-0.42203355,1.7633877,-1.0240018,0.19688354,1.6237093,-0.069747925,0.7682447,0.77887917,0.31678197,-0.25804684,-0.3115571,-1.1560344,0.47159684,-0.09152248,0.86512715,0.11908106,0.35380408,0.79054964,-0.7667424,-0.81025773,0.32645896,-0.3637574,1.0894374,0.7037362,-0.3016088,-0.23880729,-1.8319708,-0.21089195,0.97090316,-0.26733994,1.2263501,1.4464189,-0.55584586,0.8211106,1.6472919,0.23462035,-1.1431173,-1.1189681],"47":[-0.035346713,1.6411712,1.6457264,-0.3699703,0.43309715,0.055067178,-0.8769316,0.08768403,0.72916067,1.5685829,-0.5321633,-1.1277158,0.5775267,0.44470322,-1.3414172,1.7435384,0.3934281,1.3020855,-1.0218985,-1.7658902,-0.68429065,0.15541345,-0.8017196,1.3057071,1.1652099,0.15822633,2.0530467,-0.55757725,-0.88004893,-0.27942145,-0.55065536,-0.97650594,-0.08763959,0.45278364,0.71145415,1.1393607,0.6127425,-0.5544736,-0.69916826,0.994497,0.79280835,0.5451207,1.2095342,-0.94123983,0.02879289,0.3872827,-0.31676638,-0.33415982,0.25078365,0.6007385,0.20741546,-0.7631404,-0.40922394,1.4865249,0.72227687,0.42731616,-1.8825915,-0.10617308,0.32522732,-0.69444525,-1.1513712,1.1716855,-0.74151355,0.44289118,0.047629,-1.4786592,-0.6396486,1.5129322,0.7008954,0.9683579,1.0495968,-0.4726621,0.40680426,-0.2048315,1.2687899,0.32996267,0.13063738,0.30352956,0.13290483,-1.3655503,0.30176747,-0.87057275,-0.4187762,-1.6020173,-0.2529881,-0.24508588,-0.9926742,-0.4185467,1.865838,-0.58477736,1.9108781,0.24184561,-0.4640237,0.80433494,-0.35759485,-0.6061158,0.6247427,-0.09965287,0.2904391,0.1578759],"48":[1.2338406,0.40763688,0.13248889,-1.1288207,1.0548185,0.033158988,0.0037901588,1.3008112,2.0852835,0.8124961,-0.20166112,-1.1565086,-0.7749446,0.76416856,-1.0030721,0.48119444,-0.053966984,-0.5454046,-0.3610056,0.8147264,0.98458636,0.16484652,0.484221,1.1180145,1.7692432,-2.0677848,-0.3048383,1.1533589,0.48788923,1.2889587,-0.35819498,0.54495007,1.0462346,-0.46477273,0.8542266,0.4137424,0.34761682,0.25552854,1.4559934,0.03710603,-1.3371497,-0.5462436,0.33118987,1.2654254,-0.027575418,0.5749962,0.02745115,0.43813092,-1.7133926,0.3057201,-0.7135834,0.18698885,0.10384549,-0.17853753,-1.6810218,-0.16853988,-0.2737386,0.7152248,0.9944255,0.6641926,-0.07862804,-0.630808,-1.1830915,-0.3058221,0.2587415,-0.007960715,-0.16089879,-1.2171637,1.2276945,1.6565173,-1.8279647,0.74351555,0.4218651,0.69075936,-1.3438386,-0.39419225,-0.1717735,-0.38568082,1.0866982,0.5754424,-0.7822644,1.1794747,-0.29214817,-0.005375825,1.1061742,-0.71954656,-0.4806281,-1.0203044,-1.0068922,-0.048828274,-0.1638657,-0.72145385,0.98979425,0.5901075,-0.14969163,0.91152346,-0.41115284,-0.47069913,-1.2112564,1.0406833],"49":[0.03419878,0.72840744,1.0642074,-0.5955472,-0.79049706,-0.6185272,0.32667217,1.3584502,0.43262056,-0.22969046,0.87119466,0.0045200847,0.54732794,0.8819687,0.8961663,1.3649974,1.5726401,0.9614436,0.078258164,0.37245837,0.093687154,-1.1371967,-1.6277391,-0.2530277,0.25446472,-0.19935921,-1.4747072,-0.4533998,-0.06614401,-0.11483603,-1.3066852,-0.0072314343,-0.18074366,-0.055228025,-0.9414764,0.14300773,-1.370591,-0.97308,-1.2114482,0.3346974,0.04918376,-1.1694045,-1.2063313,-0.38485125,0.014610987,1.1387968,-1.0636132,-0.7703067,-1.2496971,0.92155963,0.7055669,0.26286048,0.5636133,-0.65261555,-1.3801756,1.0920081,0.3278812,-0.8511898,-0.7271332,-1.2027601,-0.09397073,-0.22083059,-1.0487319,0.20915897,0.009597128,0.19416866,0.8147127,-0.74346656,0.7889733,1.3653148,-0.1766471,0.9183571,0.30286202,0.26129138,-1.104554,0.44493955,0.29696348,-0.08891942,-0.48674205,-0.7762038,-0.48086703,-0.22921786,0.8398003,-0.637508,0.520489,0.46863452,0.900116,-0.77800775,1.2150471,-0.69482625,0.2392442,1.2458612,1.2162517,-0.15049984,0.076534845,-0.7395719,-1.7470998,1.1490623,1.2862024,1.1625428],"50":[0.5926109,0.20507947,-0.3811865,-0.60474235,-0.85963124,0.13341363,1.2739506,0.547067,0.37806982,0.8520262,-0.044949476,0.80520046,-0.16103502,0.4032204,-0.5548496,0.052671578,0.25019854,0.009131403,-0.86712646,1.6784446,-0.07296354,-0.31641272,0.82097435,0.32767582,0.27924463,1.0055562,0.9519204,-0.75266147,-0.24349545,-0.9870646,0.9225597,-0.5577507,0.5536148,1.355126,-0.13495532,-1.4938283,0.4238607,0.038245335,-0.6086336,0.1572595,-0.9389734,1.2929971,1.2265497,-0.51541907,0.3681932,0.9852721,0.74040496,-1.5552955,0.00014282274,-0.8107314,0.35355172,0.3134258,0.19279894,0.41932645,-0.5494968,-0.37546232,-0.8766702,-0.3603873,0.086928,0.030019702,-0.8027148,0.24357487,-0.044966012,0.41825807,0.010589172,0.29319885,-0.9614054,1.6255069,1.2052251,1.0880651,-1.2064134,-0.5194731,0.7243051,-0.37690082,-0.948709,-1.5822473,-0.3684702,-0.8435953,0.053210597,-0.20427217,0.44722697,-0.5751066,-0.5082196,0.45296013,-0.59184885,-0.29270172,0.101214595,-0.48503858,1.5202968,-0.30566576,-0.4431188,0.41793358,1.2943361,0.040983733,1.5394204,0.045089766,1.2071925,1.4736336,1.5821933,-0.027084138],"51":[-0.89735097,0.51182747,-0.22219025,-0.042553104,0.655011,0.2126422,-0.6025379,-0.08478873,0.6110909,-0.856662,0.009695854,0.46331725,1.2028298,0.2854598,-0.6479025,0.34851214,0.068503134,1.0928893,-0.19475587,-0.38278157,-0.27398786,-0.18256539,-0.05301126,0.81434864,-0.55047584,-1.7290308,-0.60397035,1.231124,1.6134729,-0.74191916,-0.020395532,-0.57802933,0.55298996,0.053208314,-0.23873672,-0.15859199,1.1202914,-0.31702706,-0.2506979,1.484485,0.043879,1.4189378,-0.5073112,0.2277374,-0.3748815,0.5112744,-0.3569505,-1.0121962,-0.73116136,-0.810085,0.09152916,0.19049363,-0.18334644,-0.11386495,0.0055870656,0.5681701,-0.042214125,1.3515383,-0.44771272,1.2107117,-1.4859357,0.78644276,-0.09078808,1.1595032,-0.7287565,0.18985532,0.31130952,-0.32151073,0.40129882,0.60050905,1.0722611,-0.5689821,0.35619506,-0.47342005,-0.3491193,0.204945,-0.07357346,0.25215983,-0.59055746,-0.47374788,0.24139327,0.65757424,0.43520328,-1.1804302,0.49383986,-0.5562772,-0.81846946,0.33339587,0.18288526,0.89091456,0.50046057,-0.12562284,0.9499437,0.6703593,-0.23764677,-0.55814874,1.3749495,0.033332672,0.4581854,1.7860839],"52":[-0.2830012,1.3877579,-1.53615,0.20899138,-0.48552397,1.6903602,0.20833506,1.3577417,-1.7523057,0.25920492,0.7957572,-1.5437176,-1.1066352,-1.355289,-0.47165227,-1.0627164,-0.6711218,1.0866534,-1.7558686,0.3690011,0.56104445,-0.049342975,-0.15357962,0.05965179,0.2902434,2.0973172,-1.1994975,0.82620454,0.6969499,0.7616792,-0.009102465,-1.0939114,-1.537263,1.55911,-0.07727478,0.64394593,0.76564425,-0.03983387,1.1332603,1.819172,0.32858536,0.47128993,0.59877443,1.2538558,-0.10637339,-0.636654,-1.5513216,1.3837329,-0.71280235,0.50803006,0.3284814,1.2546643,-0.6830951,0.7215086,0.5734495,1.4837455,0.60160714,0.6416619,1.0039994,0.84473157,-0.8015369,0.9835683,-0.60148615,1.4256951,0.0929406,-0.6565106,1.026461,0.49015918,1.3330796,1.4757583,1.2447859,-0.1542164,0.6610391,-0.0805151,0.07003136,1.3075812,-0.47908938,-0.5877726,-0.17076059,0.567451,-0.27075905,0.9113208,-0.42422858,0.51283944,0.53064466,1.8752022,0.67562944,-0.1752637,-0.60966176,-0.5794247,0.80067915,1.2123698,0.118684955,0.26005065,0.33251652,0.16896723,-0.14185116,0.41786525,-0.19867475,-0.7184445],"53":[0.9755077,-1.6014192,-0.25959453,-1.5119418,-0.5163512,-1.2660546,-0.45766062,1.2660046,0.629868,-0.25806996,0.5240412,0.35587114,0.6953205,0.36227852,0.60122573,0.26172003,0.79463345,-0.2790655,-0.061172858,0.3057133,5.554293E-05,0.3806258,0.06652534,0.63809854,0.37561694,0.47230917,-0.112834886,-0.11172063,-0.19484927,-0.49171087,0.10702427,-0.5034355,-1.0457056,0.065587156,-1.0642291,-0.1018044,0.2824422,-0.3142398,-0.065628774,1.3555291,-0.785941,1.3368573,-1.2335168,1.3554472,1.3847257,-1.3593413,-0.025251696,-1.3645383,-0.09494626,0.2958991,-0.052471228,0.45169935,-0.29728186,0.33186373,0.37815532,0.18142624,0.25233495,-0.45817375,-0.87566257,0.40345418,-0.22217311,0.49919295,1.107633,1.308194,1.0546558,0.29954734,0.6846946,-0.3639441,-1.0156358,1.5285139,0.5389003,-0.8260134,-0.0027443094,-0.46622,2.0082288,0.65345186,0.61082774,-0.2776176,-0.5885822,0.7793786,0.38814828,-0.032928348,0.31789306,-0.9431086,-0.6911876,0.6182095,-0.63117296,0.92878056,0.66150755,0.48510566,1.2982554,-1.7154012,-0.008174331,-0.1757047,-0.4236108,0.02636879,0.48498523,-0.66571784,-0.8523166,1.0722731],"54":[0.07837561,0.26667348,-1.5129452,-0.13113518,-0.6026317,0.90776885,1.6572462,-1.9061533,0.55178064,-0.0111307595,1.6229849,0.8236309,2.438471,-0.13161047,-0.4134999,-1.4586223,-0.4396406,0.016866283,0.30390665,-0.37950072,0.1498748,-1.9927335,0.46565768,0.7325149,0.022546964,-0.22568558,0.2461686,-1.0074785,-1.3593588,0.2930944,1.3816905,0.62479645,0.47526205,-0.10471177,-0.16109577,-0.15807408,0.36753574,0.18576738,-0.9549218,0.46712625,-0.46982446,-0.022414366,0.5580108,0.55132455,1.3621625,-0.85105205,-1.051545,0.2423594,0.2695322,1.5580254,-0.049961798,-1.1366161,0.33066568,1.0980916,1.941409,-0.11968836,1.0833032,-1.5318168,-0.14468636,0.26441976,-0.29022005,-0.64537966,0.031461358,-0.45227146,-2.178307,1.443613,1.2354705,-0.18809615,-2.0439477,0.8350667,-0.63642055,1.3077447,-0.73742265,-0.3375196,-0.4891953,1.0827515,-0.38653067,0.77229005,0.9949323,-0.20450763,0.072805226,0.49146405,-0.9835066,1.088208,-0.3406006,0.736471,-1.6721884,1.0864465,-0.21845542,-0.11852488,-0.43636408,0.042586435,-0.287122,0.913305,0.33759907,-1.4052856,-1.4378015,0.705919,-0.20713948,0.03664997],"55":[0.86474955,-0.36287573,0.53722745,-0.86284304,-0.64341795,-0.70830274,-0.38969538,-0.48043442,0.025619872,-0.38904524,0.20858437,-0.5544239,1.1770747,-0.8860803,0.6643853,-0.6185767,0.67393947,-0.31432313,-0.4382914,-0.76894915,-0.717863,0.26926506,-0.041863516,-0.49765846,-0.9554071,-0.7557343,-0.33506304,0.11324239,1.2905773,0.6489011,0.7206799,-0.73930836,0.044133607,0.2529974,0.5258494,-0.19354157,0.17492531,-0.34618545,0.06324339,0.94705284,-0.13477422,-0.0074083405,-0.608355,-0.31071618,-0.098487906,0.6105219,-0.13649796,-0.6662741,-1.1952718,0.6769032,0.38164848,0.9794268,0.2536967,-0.25087517,1.2629892,-0.0519489,0.006096128,1.2170806,0.22843228,-0.031674746,-0.18498996,-0.059361264,-0.1832264,-1.0979041,-0.2416077,-0.53830475,0.21545579,-0.030119088,-0.3302867,0.25045237,-0.7356748,0.15901592,1.6924076,0.9447471,0.71288794,0.2872459,-0.008500372,-0.0041978667,-0.53585964,-0.42457512,-0.79718584,-0.19864659,0.27953777,0.6366965,0.26241913,-0.48459113,1.4263663,2.0459778,-0.37915367,-1.4253626,1.0884635,0.66286165,1.3506697,-0.58229977,0.9340181,1.8153802,-1.3187982,0.21608813,-0.06194971,0.58611894],"56":[1.4877493,0.20982367,-0.8964491,-0.31768882,0.27356684,0.7292356,-0.086901315,-1.4983026,0.23349272,-1.5246341,0.9254862,0.38298464,0.35359973,2.1871393,1.6255844,-0.17392139,0.14476952,0.29730573,0.8293689,0.90680856,-0.8507598,0.61650896,-0.9133661,-0.3717654,-0.27212337,0.792054,0.89022607,-0.9133147,0.15542604,0.76370054,-0.014515263,-0.1440199,0.7188864,-1.394406,-0.5333669,1.4361132,-0.84574777,1.360502,-0.49246567,-0.33173493,0.58971196,1.3692772,0.031447805,-0.58159447,0.34829873,-0.11209527,0.9765594,0.8498125,-0.66554207,-1.4067824,-0.6563185,0.49447286,-0.060298443,-0.614341,-1.0025581,-0.31620222,0.6457986,0.61341137,-1.2847154,0.5030946,0.21959633,-0.8050306,-0.29166827,0.32555783,1.5166397,0.83617955,-0.5107092,-0.48293498,0.4360678,1.0817217,0.28523627,0.60437816,0.7614494,-1.274856,-1.0556808,-0.49969408,-0.9238314,0.36109498,0.5865481,0.44047746,0.122774854,1.0001037,-0.64516336,-1.1851295,-1.6630906,0.70186,0.17018504,1.0453811,-0.21243508,0.3818666,-0.28821364,0.31801072,-0.62102526,-1.1281312,-1.4930184,-1.231307,-0.33541203,-0.25673202,-1.1591668,0.55401427],"57":[0.56210655,-0.97585696,0.052840546,0.76643944,0.66843414,0.116372086,-0.32224897,0.94995654,-0.013556611,0.36834195,-0.17017923,0.34298995,-0.14507979,0.33699614,-0.88185036,-1.7380928,0.06994346,0.5068839,-0.54150635,0.43008983,-0.80594987,-1.2695951,0.95529896,-1.1376034,0.011317784,0.37197164,0.07180516,0.23394397,-0.763435,0.6784193,-1.1741853,-0.59132206,-0.2588323,-0.35021156,0.34206888,-0.67309433,1.3423408,0.46841088,0.15713571,-2.2512116,-0.7019743,-0.9389497,1.2492926,0.8821239,-0.29360825,-0.64915097,0.34968886,1.3899376,0.031095048,-1.8558145,-0.29532498,-1.0935344,-1.2939193,1.550697,1.3595895,-0.13732478,-0.5445993,-1.7115339,0.03943844,0.1906207,0.72083944,-0.6141255,-0.12866776,0.23083088,-1.5473142,0.13377549,-0.02743004,-0.8935021,-1.1942961,0.8973995,1.1385889,1.3459255,-0.98138523,-0.99223405,-0.07515846,-0.37743455,-0.34705693,0.08457289,0.021891057,0.051397163,-0.3245589,0.49730664,-0.7047324,-0.09264266,-1.4874257,-0.525975,-0.2790592,-0.47960794,-0.7464721,0.57661414,0.9228755,0.086984366,-1.9928293,0.48036367,0.83274454,-0.61345226,-0.34146562,0.882192,-0.3539975,0.503508],"58":[-0.7415106,0.9375942,-0.3192259,-0.41455072,-0.0026135617,0.4294297,-0.56572676,0.81892765,1.3440503,0.9946322,-1.2205697,-0.033433273,-1.3617219,0.4650355,-0.6711979,-1.4791905,0.6816753,-1.5773976,-0.9059403,0.6380643,-0.24981122,0.6365186,1.1199654,-0.39800385,0.51208234,1.0215644,0.043894477,-0.13747977,1.3527939,0.01872878,0.7014552,-0.104849316,-0.58542365,1.4360175,0.7283018,1.1620233,0.3304743,0.13343778,-1.1183673,0.8240495,0.19763432,1.2739486,-0.5183842,0.9455682,0.48606208,-0.55577165,-0.22023842,0.52558184,-1.6302016,-0.7237283,-0.20710708,-0.0031192182,0.31832233,0.30855885,-1.0508026,0.8466612,-0.24538156,0.46178466,-1.2981789,0.46342543,-0.14892004,-0.84683526,0.33723164,0.37806407,0.9548273,0.91967493,-0.13009843,0.068185866,0.2537919,-0.2512304,0.9037026,0.18739268,-0.19912738,0.44538358,-0.2545112,-0.7966905,-0.43265867,-1.4489598,-0.36213163,0.69468814,-0.9926917,0.35429978,-0.087168455,-0.26973644,-0.52246386,0.9998377,1.1296879,-0.19463994,-1.1039333,-0.3906438,1.6987967,-0.08730206,0.458101,1.3943697,-1.0740012,-0.9536524,-1.4150128,-0.15915109,0.97644204,0.38875133],"59":[-0.25664493,-1.1553395,-0.22505777,1.7023939,-0.37320969,0.9977778,1.3269004,-0.8027376,-0.009692888,-0.517483,0.9922241,0.33633363,-0.65245104,-0.35935298,0.6631728,0.44054738,0.9438118,-0.32011425,0.7921414,-0.5458951,0.15739094,-1.0469505,-0.78348804,-0.15134056,0.48724687,0.22997238,1.3487494,0.2945537,0.09520814,0.56909096,0.8774873,0.04939545,-0.18397196,-0.5803627,0.8345515,0.9231472,0.058610503,1.1660343,-1.0518262,1.2730486,-0.23178445,-0.41812363,0.35506314,-0.20147489,-1.4031701,-0.10737657,-1.1259441,-0.144083,1.1772168,-2.0938442,-0.36284932,0.46116802,0.67478144,0.42970675,1.3868608,-1.9279073,-0.38885084,1.007424,-0.8331593,-0.23469107,0.85904145,0.07027068,-1.1030407,0.3914924,-1.0434991,-0.09636925,1.001474,-1.2710726,-0.9477289,1.4328244,0.20131302,0.27144065,-1.0627588,0.25779524,-0.25586003,0.62861574,-0.8939537,-2.115834,-0.20013733,1.4502201,0.14940818,-1.1559614,0.89074486,-0.7542495,0.6572929,-0.88317925,-0.33715054,-0.700559,0.20465733,-0.6310208,0.83638924,-0.05724636,1.0054257,-1.0807393,0.0568183,-0.90930873,1.147581,0.5653471,0.0023639207,-0.45019248],"60":[-1.0250683,0.20974976,-0.46791002,-0.51376295,-0.13010995,-0.29504415,1.6614051,0.003649288,-1.9987714,-0.34636402,0.58556193,0.22100125,-0.054764424,-0.6145767,0.92817795,0.6508996,0.5455936,0.026922764,-0.54420507,-0.3110707,-0.13114333,-0.3244689,0.0024638895,0.23271798,1.395506,0.8170337,0.09009074,-0.76170987,0.9291873,-0.90828097,-0.075223945,-0.37684393,1.5379612,0.83429694,-0.40297773,-0.016515452,-2.0557663,-0.5561932,2.3466303,-1.2977821,0.29931617,0.13526726,-0.07286435,-0.62511617,0.8787064,1.0909399,0.1886537,-0.38037473,-1.0000349,-0.69457227,-0.9752064,-1.1701481,1.5296563,-0.3580352,-0.94220614,-0.5435448,-0.23747505,-1.7321426,0.58961684,-0.45138475,0.38009235,1.0526985,-0.33203962,-0.43580198,-1.2239112,1.1788838,0.62126774,0.6233706,2.173434,-0.038885035,1.1739331,1.4498565,1.7800723,-0.24537791,-0.90729696,-0.3587286,-0.7819543,1.1375281,-0.46819457,-1.2782365,-0.4218338,0.67923355,-0.037757657,1.3981658,1.1850017,-0.697632,0.38066486,-0.06778041,0.5153562,0.5486782,0.27145028,-0.24275954,-0.88810456,1.3268301,1.4142662,0.5585189,-1.6137631,-0.15845588,-0.95195585,-0.4133633],"61":[0.6138001,1.5877216,-0.7057836,2.4284747,-0.76579714,-0.6693755,-0.2763525,0.5563724,-0.46935737,0.51987976,0.49693015,0.74931383,1.5093337,-1.0429288,1.3698286,0.7104751,0.1736344,0.39970848,0.3317868,0.7134805,-0.2951593,-1.901877,0.056607097,-0.22028212,0.894727,-0.35595188,0.22307254,-2.0246692,1.9130169,-0.35600445,0.09031044,0.4240401,-1.4676121,1.0459175,-0.06909789,-1.63558,-1.0975116,1.1386837,0.2187195,-0.65525216,-0.82046044,-0.41666347,-0.4562223,-0.60517704,-0.39272,-0.44129297,0.9793282,0.950641,0.2918635,0.6297329,-0.0492814,-0.8760704,2.1011271,1.9206537,0.33678475,0.7017722,-0.2878723,-0.6008603,0.47849178,-0.2678936,1.4334158,-0.53754246,1.1474123,0.87906426,-1.4862878,1.0804782,-1.2094375,0.20703791,-0.239672,0.90798455,-0.24899518,-1.524767,2.2003279,-0.80922353,0.11063345,0.107269205,-0.94193506,-1.3573669,0.8748671,-2.215103,-0.2576032,1.4256314,0.14177388,0.06867323,0.2911531,0.35854954,-0.30369645,0.67025506,-0.110928655,0.5415194,-1.4759388,-0.12332977,1.6432618,0.4904165,0.7748654,0.14701636,-0.24525467,0.9740034,-0.7008572,0.9606314],"62":[-0.25930843,0.6420461,0.3078151,0.55313075,-0.8445887,-0.50218296,-0.7850408,-0.2586568,0.046298258,-1.419862,-0.28735805,0.35708082,0.5068143,-0.3050182,-0.42815804,2.050994,-0.15730807,0.9233849,-0.29418203,1.840986,-0.7493146,0.10759039,0.9687115,0.11504312,0.35864282,1.4260349,-0.32300675,0.36305392,-1.514499,-0.082945615,0.41242257,0.027376402,-0.25333184,-0.1783365,1.7366321,-0.5889856,0.5066184,-1.545197,1.2677609,-0.70152473,-0.2656649,-0.3424796,0.9122656,0.85379255,-0.5881666,-0.35056427,1.3659474,0.32493353,0.24840799,0.16424002,-0.5864596,-0.9650088,-0.31009555,0.89581436,-0.59751755,-0.0062977327,-0.41307694,-0.08867563,0.070763886,0.055687197,1.5004818,-1.1113809,0.36098188,-1.235794,0.4599691,-0.26684946,0.21754465,1.1942593,0.9167913,-0.34015086,0.23005296,-0.7109779,-0.86163056,0.08098152,1.3806214,0.68231916,-0.12282802,0.9477137,0.39580688,0.5154729,-0.8864534,-0.8326029,1.9487541,1.1473621,0.23397543,0.68071556,0.7589772,-0.56258476,0.89474463,1.8855971,0.10244004,0.7621873,-0.21315926,-0.7908957,-0.26466978,-1.5525972,0.51193726,0.21139021,-0.30260125,-0.21697482],"63":[-0.2630495,0.9786303,0.19981654,0.46133488,0.97017604,0.56097114,0.57482153,0.735063,-1.0661459,-0.6643205,-0.83227485,-1.1804181,0.13167736,1.5621433,0.00758222,1.2440193,-0.40051213,0.27212307,0.10711059,0.53537434,-0.6366568,1.2481837,0.2698402,-0.5278145,-0.7003628,0.9314931,1.9253187,-0.5266919,-0.42121297,-1.006934,1.9237866,-0.38923076,-0.78947103,-0.5814667,0.38604465,-0.7749495,1.0620095,-0.4975759,0.47418195,0.16446036,-0.24135093,0.0017503737,0.14082009,0.16685127,-0.5440867,-0.37711722,-0.21709186,0.4941861,-1.3196512,0.6119602,-0.91157925,0.29438862,0.85703725,-0.41558167,-0.37634397,-1.9507703,1.592837,0.90466905,0.031561155,0.40105364,-0.41379642,-0.24912107,1.5886401,-0.3033826,0.0014326231,0.7689808,-1.2127208,-0.060022593,0.20905189,-1.6048791,-0.7273991,0.98839724,-0.31390718,-0.3942692,-0.056926284,-0.13786863,-0.8061687,0.79485,-0.6063655,-0.29668662,-0.031359717,1.3118123,0.28680497,0.6483316,-0.32411444,0.18715633,0.17907791,0.6826691,-0.8895358,0.83002585,-1.3010701,1.1835066,-0.5596838,1.9211048,0.5431585,-0.063778736,1.5776312,-0.9059553,0.7099754,0.16089472],"64":[1.1445742,-0.41714406,-0.424122,-1.1226797,0.87789005,-0.59835255,-0.099205986,-1.4765214,-0.7404139,0.80130345,1.5664035,-0.7848054,0.1447095,-0.8374616,0.75365484,1.4564546,-1.1441382,1.3507807,-0.69750094,-0.33226177,0.18585974,0.51666373,0.38638332,0.8746979,0.99901134,-0.24910522,-0.6766032,-0.18834998,-0.6647973,0.29399034,-0.90699035,-1.2162685,0.6573384,-0.7279736,-0.023485651,0.6495164,-0.49329063,-0.62215286,-1.7028127,-1.1420236,-0.14352529,-0.53315204,0.4359362,0.8609026,-1.1134093,0.032214828,0.2968963,-0.7599266,-0.19060773,0.0057566827,-0.12689188,1.8782634,1.3037772,0.025480323,0.564814,0.16393453,-0.23440734,-0.84676194,1.3559852,-1.6365621,-0.09855478,-0.19198073,-0.3852469,-0.15316275,0.45124888,0.8817187,2.1734536,0.315084,-0.7507075,-0.76523656,-0.24928766,-0.32152152,-0.39768964,0.19636212,-0.6539577,-0.40346467,-0.39494237,-1.0905308,0.7832304,-1.085794,-0.56883425,-0.4060586,-0.16773522,-0.18234122,0.0061581405,0.034650516,-0.42820278,-0.62751913,-0.21469109,-1.1267993,-0.53103894,0.2912262,-0.035922427,-0.4777098,0.9324688,-0.4329944,-0.19113205,0.9102488,-0.7326476,-0.37053612],"65":[0.7896224,-0.3037507,0.7263699,-0.7493076,-0.5763687,0.52506655,-0.97850555,-0.12894252,1.4548352,-1.2453101,0.79345554,0.25613585,-0.40441626,0.07307348,1.6251724,-0.73257715,-0.9014802,-1.4228641,1.8609651,-0.4318605,-0.24704354,0.84552675,-1.3714482,1.3812015,1.0745107,0.7750045,0.58565223,-0.37890843,-0.6629898,0.72271645,0.15328458,-0.7052769,0.46207857,1.088716,-0.96974844,-0.77310795,-0.45229822,-1.0565304,-1.0419332,-1.5751355,-1.2563705,-1.2200648,0.19208445,-0.52748805,-0.93808645,0.42343614,-1.0428221,-0.6234278,-0.2635558,-0.5419448,-0.56646883,0.012619316,0.5479429,0.382352,0.91691726,-1.4869739,-0.74227905,1.0786719,-0.70154226,1.339209,-0.87212276,-1.497051,0.024591602,-0.6179366,-0.4473672,0.35342562,-1.5259109,0.312444,-0.6313672,-0.40463263,0.6459344,-0.5717961,-0.29354197,-0.36808404,-1.9040769,0.35808504,-2.2146046,-0.5469744,-0.46420425,1.7992989,0.21974026,0.5899045,-0.38868156,-1.640177,-0.549706,0.99302465,-0.95224327,-1.0225272,-1.5963078,0.6615786,-0.4165492,0.17974491,1.0724587,-1.3329256,1.5697637,-0.37626138,0.23374392,0.23129004,1.5713555,0.8051257],"66":[1.1780808,-0.23833066,-0.9766472,-0.55001897,-0.7494588,-0.54185706,0.06354713,0.28290573,0.5827361,0.6954919,-0.24395782,-1.0307362,1.7259393,-0.9802866,-0.10621565,0.03129554,1.8293699,-0.4235067,-0.07694547,-1.2256507,-1.4062879,0.45482007,-0.17697448,0.7220492,-0.24906223,-0.16910744,-1.1366708,1.3919185,-0.19347917,-1.0130385,-0.29168314,-2.1390398,2.1395361,0.7541584,0.52214116,1.0736071,0.13220471,-0.33874112,0.54200083,0.35014778,0.35137373,0.20466927,0.2886881,-1.3547776,0.2542824,1.3919799,0.37738767,-0.31412318,-0.3113393,-1.1411335,0.5469316,-0.94829476,0.38404536,-1.7116601,-1.5015626,-0.49982518,-0.73357517,-2.4594429,0.9735106,2.014504,-0.58550256,1.0652295,-1.6534553,0.3312117,0.6896814,-0.41426006,-0.37497643,0.33457258,1.3751597,-0.24783778,-1.6391139,-1.756882,-1.3094486,-0.06986778,1.360806,-0.7977593,0.15958562,-0.44469216,0.95507944,-1.7792631,0.3034436,-0.086764134,-0.10540616,1.2528406,1.1547941,0.45956722,-0.6699577,-0.3436423,-0.35552746,-1.2977345,-1.1454821,1.4237459,-1.321138,0.12781866,-0.3908433,-0.031429067,0.44328645,1.910564,-0.12769258,0.3971589],"67":[0.598085,1.1864946,-2.3485034,-0.9923953,-0.32655838,-0.9209146,-0.37955877,-0.41994125,0.8596334,-0.14317057,0.9343834,0.44773352,-1.3608665,-1.3303657,-0.91488,0.60894847,-1.4535955,-0.3105,-0.22125806,-1.8712441,-0.61024547,-0.52161664,-1.1081676,-1.6120217,1.0784098,0.5308532,1.0034698,-0.3138494,0.8411682,2.0136561,0.56305724,0.58833754,-0.2923376,0.27857733,-0.80079645,-0.803484,-0.51141894,-0.5843327,0.47395867,0.19526151,-0.21398956,-0.074787185,-0.32149202,0.27853084,-1.367535,-0.9118541,-0.3561397,1.1810389,-1.0260395,0.14535344,0.4949884,-0.6839352,0.93465203,0.6209656,-1.6471946,-0.9913705,-0.3987928,0.4749065,0.09604429,-0.7711217,-0.34187046,-0.20986588,-0.4904468,0.0015240919,0.29508868,1.0449407,0.38633874,0.35782436,-0.48781964,-1.2477573,-0.35136145,1.2038108,0.36124372,0.103036456,0.46669644,-0.45047945,0.5112748,0.70642036,0.8499977,0.6911457,-0.9156011,0.77048504,0.6716527,-1.1295844,-1.9827626,0.9891691,0.8491493,-1.0163,0.41758388,0.8246019,-0.29202625,-0.6031791,-0.5965241,-1.0577581,-1.6727866,1.0337971,0.7247191,-0.9923804,-0.4255236,-0.98950016],"68":[0.3695792,0.9793155,-0.8231937,-0.06098213,0.25833732,-1.1271356,-1.4506129,-0.10610403,0.08836185,-0.048585366,-0.39353335,-0.09861914,0.36147323,-1.1855718,0.28946522,-0.15478182,-1.4016951,1.2097112,0.05973571,1.6211587,0.120854646,0.42367542,0.5532342,1.0660079,0.16150978,0.34262496,0.04103905,0.3964701,-0.5510007,0.84394133,-0.2622997,-1.4292287,-0.9936772,-0.4218189,1.3104285,0.058930628,-0.60981977,-0.47999057,1.0632191,-0.10229516,0.5368696,0.0037803175,-0.69685227,0.31967366,-0.35017586,-0.10726161,-0.45163563,1.5665021,0.74344784,-1.9280059,0.670116,-1.1026828,-0.19724822,0.74403995,-0.064299375,-0.789788,1.021498,0.04408501,1.6816481,-1.1346761,1.9055282,1.5476812,0.026468573,0.070559576,-0.9729351,0.6881056,-0.793552,-0.9578551,0.708696,-2.6530652,0.18187411,-0.75105757,0.5031404,0.7397872,-0.21184218,0.23050359,-0.3582301,-1.5220997,0.3823306,1.5745171,1.1604056,-0.6835605,-0.9102967,0.2618266,-0.6587898,0.47359717,1.2193762,-1.1311835,1.2665665,-0.18316855,1.3501451,-0.24823,-0.11125722,-0.31607935,1.0119845,0.27959296,1.4609779,-0.18234704,0.6375642,-1.2344979],"69":[-0.96740866,0.63162285,-1.8056939,-0.18480636,0.1842481,0.713028,-1.154702,1.7774814,-0.7768715,-1.0324819,-1.5973735,0.6437376,0.85827535,-1.8296613,-0.20567375,0.5639859,-0.75801456,-1.1596434,0.9419878,1.8845979,-0.48381287,-0.1382854,-0.71008784,-0.54661614,-0.9586615,0.30715418,-0.07707833,0.8483408,1.3061693,0.31278747,-0.5700438,-1.4147183,-0.12305797,1.351201,-0.37643075,-0.24117948,0.8066629,-1.7518506,0.1973348,-0.12536518,0.78178704,-0.047459397,0.15884748,2.3676696,0.041138686,-0.90454066,1.3485848,1.2914914,-0.4926169,-0.8488185,0.68793637,0.39865327,0.237803,0.6906313,-0.74216676,0.19164747,-0.7192405,-0.74301094,0.06028807,-1.0374904,-0.8400023,-0.4140624,-1.3351666,1.160863,-1.0670522,0.29646847,-0.827086,0.99370253,-0.44233817,0.84940964,0.72389704,0.8695208,-0.22988899,0.50917,0.27105206,0.77889144,-0.19759098,-0.6913994,1.4523865,0.03129193,-0.21381234,0.3320442,1.768682,-1.2168468,-0.8259498,-0.55469775,0.53571516,1.5171735,-0.2442933,0.9211309,-0.028651431,-0.75277513,-0.1043378,-0.43743166,-0.24528001,-0.663461,-1.6133116,0.81201863,1.2903924,1.5100411],"70":[1.2217182,0.06567866,0.24434835,0.6438234,-1.2364141,0.08877911,-0.41483563,-0.29358628,0.010387486,0.7111657,0.4681373,0.4984246,-0.32651827,-0.65811944,1.6037861,-1.0987133,-0.28229907,-0.44077003,1.1031185,-0.8119329,2.4613004,0.13345735,-0.09249042,0.61406225,0.9130497,0.83529776,-0.09216594,1.4053447,1.4494716,-0.11058849,-0.6696542,-0.2511963,0.61665237,-0.09250959,-0.06849173,0.68472785,-1.4336541,-0.7016089,-0.4594269,0.352974,-0.21770552,0.8791415,0.20504405,-0.8443188,0.1055849,1.106792,-0.34500453,1.0804836,1.1869503,0.8122439,0.11063085,-1.2550161,1.173063,-0.21004969,0.28532085,0.2081425,-0.2594375,0.9122753,0.1840239,-0.11289895,2.046387,0.056126058,-1.0997163,-0.7339745,-0.36090595,-0.33374926,0.24046715,-0.12131319,0.28137484,-0.7740447,-0.14241038,-0.27701414,-0.6433573,-0.7413751,-0.812704,-1.5046815,-0.0479423,0.07950082,-0.29828328,-0.3589287,-0.12734145,-2.268291,0.541699,-1.203316,-0.30795744,0.5001234,1.5854038,-1.3267264,-0.06321657,1.1111093,-0.07280716,0.12926008,-0.8124597,-1.2655329,0.9460569,0.8065358,0.08052083,0.39441225,0.92579275,0.32568932],"71":[-0.7765017,-0.32673484,0.5486146,-0.15212277,-0.3355492,-0.2679749,-0.87475276,1.5019449,-0.4797996,-0.3749371,-1.0443007,0.4083269,0.22684832,0.40874383,1.426378,1.6390018,-0.4075675,-0.74474144,-0.90792364,0.8460991,-0.17110592,-0.37742683,-0.5937577,0.3102598,0.25603938,-1.3142397,-1.0425292,-1.2490609,0.79667616,-0.3207834,1.2234927,-0.87764,0.9585644,-0.0012484231,-0.5162524,1.4791089,1.4121801,1.0468923,-0.96103704,0.29981247,-0.74382985,0.39460048,1.1310393,0.97874707,-1.2360075,-0.15579776,-0.117704496,0.96885973,-0.57944316,0.8636622,0.9250448,-1.0220793,0.96411246,0.5591922,1.1167055,0.34335205,0.026739031,-0.91327035,0.5622524,0.8411092,1.1253471,-0.33677137,-1.4044344,-0.23911507,1.4726437,0.23378238,0.6439757,0.7632772,0.5123113,1.2165396,-0.60166967,-0.28906527,-0.6843899,-1.2244625,-0.91289645,0.6794814,0.016778532,-0.80478054,0.79792416,1.1171981,-1.5933634,0.7350934,1.1109844,0.5693428,-0.22971977,0.5404778,0.21999471,0.8910381,0.9375449,1.3956864,-0.031131258,-1.8277647,1.7609793,0.6374541,-0.4692161,0.6917448,1.188179,0.66438174,-0.79362094,1.1821463],"72":[0.192319,-0.81979996,-2.2962308,1.1817874,1.1831522,-1.1943265,0.86079544,0.11200571,0.09824148,0.32746384,0.8676404,1.4677157,1.2152156,-0.031638745,-0.21245834,-0.7258939,1.1979102,-0.6660717,0.11387562,-0.20018795,-0.22156453,-0.49734074,-1.4434947,-1.3903447,-0.8244465,-1.3141502,1.3482528,0.39972836,-0.8162526,-0.38543996,1.9136981,-0.4099095,0.32623968,1.020967,-0.44429725,-0.16957861,0.0018486518,0.3187534,-0.40865198,-0.45918047,1.3462459,-1.9745666,0.17393416,1.3184986,-0.719021,-1.3565179,0.5277326,1.6840194,0.063583486,-0.07229161,0.37478608,0.6373168,-1.4324678,1.3674589,-0.19839625,-1.41949,0.884026,-0.7577559,-0.64400727,2.1160579,-1.3191308,-0.35076654,0.7383768,-0.53730416,-0.14997621,0.87326884,-0.452776,-0.28651854,1.0328436,-0.9978172,0.14477201,1.0686735,0.5660107,-0.36840913,0.05432842,-0.11028857,0.7332367,-0.4522497,0.6561239,-1.7278671,0.42117012,0.8423093,0.46131262,-0.3829238,-2.1634405,-0.6004079,-0.02017213,0.6706168,1.4072924,0.9347343,0.02535647,1.6420952,-0.7268314,0.5583424,-0.25576508,-1.1524668,0.7696233,0.7010488,1.6002634,-0.36121118],"73":[0.27014768,0.12265584,1.543932,0.25033465,-0.46276507,-0.4623512,-0.24665156,0.94487107,0.74394405,-0.9110321,0.48284394,1.3494955,-0.2339793,-0.89819777,-0.4872578,0.40259036,-0.24797538,1.5574679,0.39347672,-0.4552374,1.9048116,-0.63545877,-0.1272307,-0.37892455,-0.15662777,1.6646456,-0.80643755,-0.7070978,0.8744575,-0.427579,-1.5812967,-1.0630511,-0.36158785,-0.9566915,0.07620826,-0.22283433,-0.298047,0.40611887,0.21316625,-1.1415181,0.5733539,-0.39566082,-0.38524455,-0.8728049,0.14100201,0.5906871,0.515694,0.5494875,-0.22049835,0.010333253,0.79375416,-0.17733935,0.7304111,-1.03083,0.84652114,0.2714307,-0.22637059,-0.8139103,2.2805185,-0.72974473,-0.892026,0.05402612,0.29072437,1.140316,-1.1989307,-0.46944037,-1.2787321,0.25862232,1.5744308,1.5181301,-0.7696712,-0.30560213,-0.14452311,0.92636573,0.5189984,-0.7651682,0.49784905,-0.077459775,0.057938397,-0.44930983,0.20188576,-1.0368896,0.5726833,1.438037,-0.45391756,0.3513957,1.4752628,-1.3386395,0.96330714,0.93831396,0.044680227,-1.6529638,-0.34048778,-0.112123854,0.9846485,-0.27993315,-1.4940655,-1.2075694,-0.8208471,1.8518976],"74":[-0.047613263,-0.10087915,-0.24315368,-0.19335619,0.24215823,0.004399642,0.26531976,-0.9121395,-0.27934653,0.035407204,-0.0868057,0.04600204,-1.6687286,-0.88594544,-1.1784091,-0.57998544,0.96422863,0.48590147,-0.15182535,-0.9406104,0.16086397,0.061968908,1.1868625,-0.5513971,0.009585792,0.5361182,-0.5823981,-0.12923159,1.3566116,-0.10601021,0.16067271,0.21872713,-0.18773715,1.2429554,0.50381136,1.6187856,0.1983193,1.6670538,0.56783336,1.0921282,-0.7360657,0.9126338,1.1423792,-0.32759455,-1.8802123,-1.0530386,0.054636616,0.7801883,1.7907308,-1.0899543,0.11739949,1.0120032,-0.7855408,-0.60279363,1.417379,0.22331148,0.69976693,0.32924104,0.51961046,0.91258943,-1.0051622,0.35701773,-0.72731113,-0.5310194,0.10782678,2.4714377,-0.7761092,-1.631321,-0.9018066,-1.0036626,-0.36376116,-0.059606783,1.1556836,-0.3296718,0.14621018,0.03278046,0.3335204,-0.6135666,-1.0343014,-0.9392228,-0.6797358,0.7611384,0.46748757,-0.4827403,0.06759356,0.45426878,-0.2996852,1.1099497,0.6751782,-0.84156233,-0.38459936,1.0464617,-0.9011224,-1.292745,0.19767243,-1.9719428,1.1486349,-0.6434691,-0.35120347,1.4217255],"75":[0.057860967,1.5172048,0.5779554,0.14275314,0.1325868,0.24320205,-0.02773532,0.13940509,1.0396072,-1.1245207,-0.28037763,1.2703669,-0.91989136,-0.3239771,0.57882774,0.8389064,-0.11822039,-1.5470793,1.010249,0.5186869,0.62854844,0.169462,1.7073685,1.4618918,0.21501492,1.0155505,0.615629,0.060138866,0.6018712,-0.24778497,0.50510585,-0.9979068,-0.1184135,0.11020606,-0.74288625,1.0978028,0.9133048,-0.66491807,-1.2241735,-0.3679467,-0.17495152,0.07599867,0.56559575,-0.7613796,0.29117054,-0.40251288,0.95779186,-0.023002807,1.0488439,0.7403955,1.515665,-0.42950436,1.0520898,0.8305106,-1.0250195,-0.11602799,-0.06534985,-0.08001511,0.92678624,-0.8393788,0.28452173,-1.9337826,-0.41289946,-0.92337936,0.39995497,0.2909862,-1.4545578,0.103769094,-0.24705718,-0.59090275,1.6133417,0.11230541,-1.063936,1.6459019,-0.4372859,0.7766244,1.3320296,0.3823969,0.29059267,-1.1739403,-0.36502364,0.12700945,-0.25978974,0.7772495,-1.7633023,0.4263141,0.17586417,-0.41817626,0.34916452,0.07850771,-1.5637273,-1.4974566,-0.26921204,1.2972405,1.1976858,1.9100224,-0.18453717,-0.15676636,-0.20623097,-0.840852],"76":[-0.77468854,-1.1083959,-0.65305907,-0.18498045,0.24789587,0.019963024,0.08789869,0.93883157,0.066955104,-0.9059367,0.6185135,0.2587654,-2.4906802,-0.33695158,-1.0827894,-0.93438864,-0.41457257,0.77975804,-2.4291382,0.0045590075,0.53978044,-0.9601668,-0.76493275,0.413717,-1.3162316,0.41946423,-1.4440625,-0.44987875,0.13227211,-0.34175298,-0.37546664,0.10825681,0.20589723,0.38283166,-0.8251288,0.0064849025,-0.1195442,1.217114,0.030590972,0.17555772,0.3684578,0.11130848,0.13524064,1.0292743,0.6055581,0.20031813,1.3063505,-0.3154453,-0.40929657,0.8897479,-0.32070026,0.07103201,-1.7235587,-0.44166392,0.50821364,-1.2066159,0.11216349,-0.8150388,-0.1518154,-0.6335633,-0.27193227,0.4903104,0.13718465,1.3104254,-1.0249786,1.1027528,-0.4629978,-0.22709699,0.2464158,-0.0034945104,-1.452515,1.4186543,-0.24259773,0.2263414,-1.4547044,-0.8400521,-0.5500159,1.82167,-0.9315886,-0.62205756,0.18531018,-1.5048585,-0.19339864,0.37215117,0.10180317,-1.1548343,-0.71630776,-0.5277286,0.6880194,-0.77208406,-0.3620914,-0.6385537,2.1276972,-0.2866704,0.97485256,1.8260409,0.57943064,0.18501002,-1.1518065,-0.87000656],"77":[-0.7100693,0.79570377,1.661869,-0.3539061,0.13435419,0.22271587,0.3522071,-0.5406024,0.19753294,-0.26153877,-0.44373524,1.1145958,-0.23557806,-0.5716538,1.2126534,0.24311699,1.121768,0.077324666,0.26865673,-0.20583746,1.1020983,0.06817968,0.083649546,1.6148934,0.7027578,-0.6600841,0.24662375,-0.7164735,0.51296794,1.4220729,0.5032582,-0.7245224,0.7121148,0.20568298,-0.0785808,-0.6410988,-1.4254558,1.0870739,-1.0867839,0.5930885,0.005089543,0.425053,1.4558821,-0.42935842,0.26649985,1.1287643,0.4785976,1.4855111,0.9790558,-0.4119679,-0.14864391,-0.1204636,1.3065671,1.106528,0.8109599,-0.082549535,0.49556527,0.28835276,1.6200874,-1.1386825,-0.23706913,-0.79034185,-0.57319516,-1.2677737,0.8570216,-0.36077073,-0.46448374,-0.5931364,0.48332343,-1.985954,-0.005910281,1.8233191,-1.0633249,1.5899904,-0.6462369,1.2422315,-0.71122533,0.7851305,-1.6776371,-1.7846085,-0.54719424,-0.09927184,-1.6756337,-0.7374106,0.4085828,-1.6957828,-0.33932883,-0.34153813,-0.6674416,-1.0160055,0.92609143,0.06619458,0.5233696,0.3864979,-0.53469694,-0.5872705,-1.2341204,-0.41230226,0.9655282,0.08684294],"78":[0.043918952,-0.10981529,-0.15009694,0.051592138,-1.8493515,-1.2287786,-0.60676676,-1.6651769,0.45918506,0.1918893,-0.028169567,-0.58731383,0.051734112,0.9935585,-0.0066321446,-1.5881776,-0.64740103,-0.7255131,0.6742915,-0.05817011,0.4122592,1.7584692,1.0995619,-1.4667583,0.16444841,1.006227,-0.071685635,-0.13967082,0.23701376,-0.30172342,0.111718066,0.88316905,-1.469643,-0.93225527,-0.3022865,-0.6196853,-0.9398406,-1.3200126,-0.38455656,1.5089635,0.73493475,-0.96409875,0.2487868,0.27892146,-0.07554054,0.92317986,1.7335919,-0.97531533,0.78972495,-0.23791952,-1.2407261,-0.49836338,1.6092868,0.13626415,-1.0973222,0.15814821,0.92637116,0.7615765,0.040393874,0.0011446718,-0.871403,0.2461627,0.5374259,1.6552644,0.67065156,1.2508469,0.29155183,0.46269637,-1.518616,0.6423855,-0.060820065,-0.79683846,0.014578834,0.6617852,0.6426537,0.9995281,0.689266,-1.4204514,-2.0764644,-0.4723424,1.1809032,0.5938638,1.5560701,-0.78305346,-0.49779686,-0.26422095,1.084247,-1.2532856,0.48345444,-0.61145955,-1.0265117,1.6848598,0.4649644,-1.3653687,-0.6791786,-0.34139067,-0.22737019,-0.57836735,0.5641484,-0.3873309],"79":[-0.05160231,-0.3819914,-0.09178796,-1.4439856,0.7351079,-1.1093302,-0.8449074,1.6327311,-1.2421681,-0.92161745,-0.082642905,1.117436,-0.04440535,0.2979887,0.87653404,-0.869004,-0.5363827,0.56527525,-0.83944845,-0.4022283,-0.17393829,-0.23226625,0.47101757,1.2474827,1.3167982,0.7265563,0.111384094,-0.65419453,0.060771175,-1.9047474,0.13162145,1.1247456,-0.9003281,-0.3337459,-0.23329367,-0.062070332,-0.591171,-0.18492308,-0.068872005,-0.5387353,0.22900826,0.7737154,-0.8168767,0.027586075,0.63818514,0.23058906,-0.215824,1.5500267,-0.18618171,-1.6204036,-1.7462652,1.5329349,1.0979338,-0.08634443,-1.0528967,-0.40154794,-1.1518772,-0.6680428,-0.5543028,-0.17733972,1.1773853,-1.4109012,0.040079445,-0.73945,-0.02044836,-1.2016174,1.3662215,0.6397594,0.4257052,-0.6707193,-0.7960405,-0.03565183,0.43447784,0.031549208,-0.56749916,-0.23434927,-0.8299239,0.5169144,0.78765833,0.07564107,-1.1154209,0.3466856,0.56054485,-0.25473046,-0.9334013,0.027871324,1.8340554,-0.46852818,1.5056567,-1.1157352,-0.29035997,-0.6135093,-1.0072433,-0.7765596,-0.8489182,-1.2183921,1.6592329,-1.645987,-0.5836951,-1.3707137],"80":[0.25848868,-1.1980629,-1.2979804,0.6671631,-0.0775713,-0.37338698,-0.5460554,-0.6900848,-0.51205117,1.2672153,0.0065453006,0.7043353,-0.36627576,-0.7442926,0.24923413,-0.13430044,0.02142944,-0.20934178,1.1152323,-0.2816881,0.36469874,0.28444237,-0.54743034,-1.2615745,0.8657039,0.14585587,0.9639723,-1.2637396,-0.03450227,0.54223144,-0.32467106,-0.71639967,-0.26963618,-0.8941666,0.25898635,1.9073862,0.79518825,-1.1080244,-0.005894902,1.0457226,-0.1258487,1.0619358,0.5915864,0.17561573,0.28978905,0.80111545,0.12253448,-1.6426737,0.6624488,-0.25287217,0.55133694,-0.89870685,-1.3112981,-0.40061876,0.84455156,0.07190882,0.71144956,0.7608621,-0.9745903,1.2502809,-0.26998508,-0.45852786,0.6439174,1.3167272,0.58282095,-0.28879625,0.17327847,-1.3549271,0.1688794,0.48352605,-0.8237248,-1.2484771,-0.7799726,1.1790994,-0.8898093,-0.5150055,0.67257285,0.5252964,-0.4267036,0.47795185,-0.4213451,-0.22399405,-0.45713392,0.8486039,-0.27547038,1.1273203,0.47653177,-0.60061747,-0.85520834,-1.3999329,-0.09211633,0.29612935,0.75492316,0.2429445,-1.2686993,-0.6873244,1.613611,-0.16740182,-0.07144721,0.89008945],"81":[-1.9427329,0.48529926,-0.80308783,-0.07983735,0.9312252,-0.474859,0.8169152,-0.32434815,-0.85800284,-0.95751333,0.39941633,-0.039099604,-0.9285512,0.1580508,0.1496833,0.0607417,-1.1879767,1.1922414,-0.1350653,-0.31895483,-0.41984448,-1.4365939,-0.27270925,-0.22823094,-0.06849916,0.0980185,-0.812762,1.5753468,-0.5919617,0.623715,-0.80825675,-0.58894825,-1.688118,-0.43446603,2.251412,-0.8512584,0.07999625,0.53888637,-0.4174815,-0.76970506,0.16557322,0.56052226,-0.28487042,1.3773531,-1.4754362,-0.4733475,-0.6946393,-0.8809828,-0.024158249,-0.473244,-0.8315267,-0.70195466,-1.3962195,-0.12657411,-0.008869199,-2.302777,-1.1612684,0.06796074,-0.7194902,-1.5490154,0.5395392,0.8520625,1.3637613,0.74371076,1.0916908,-0.32822323,0.0688915,0.66543543,0.18789636,0.034865096,0.8807252,-1.3074601,0.2902868,-0.38744733,-1.2260458,0.1653123,0.586244,-1.3512914,-0.3214359,-0.08795161,-0.9457111,-1.079671,1.3144045,-0.14698756,-0.17531976,1.0044926,-0.300746,-1.0410123,-0.3793206,-0.8938311,0.15797722,0.34298837,0.05463853,1.9258833,0.088866286,0.7364123,1.2327936,-0.27907568,-0.3083121,-1.2020702],"82":[-0.7285575,0.21082512,1.2694267,0.7694356,-0.575414,-1.007681,-0.48065647,-0.8645678,-0.21465015,-0.20570348,-0.56858474,0.04614579,-0.12080302,-0.5959736,0.8321384,-0.45637622,1.1445996,0.3279774,0.36969236,2.139297,-0.31045845,-1.2554996,-0.9523718,1.4225925,-0.18706249,-0.33834228,-1.4268715,2.5611446,-1.7709728,-0.42723086,0.15818658,0.61940104,-0.80338055,0.005167973,-0.12557188,-0.2527817,0.47911048,-1.240663,-1.4607161,-0.24118985,1.4083424,0.52803624,1.2557706,1.0384262,-0.69221216,-0.20144336,-1.9966273,0.18321577,0.8395191,0.7106329,0.29233515,-0.33015692,-0.59952474,-0.25094694,0.37629867,-0.009286274,0.032109123,0.30245274,0.6183228,-0.3451441,0.019489365,-0.49563304,0.2300501,-1.6654639,0.85242605,-0.74042475,-1.2987101,0.27698752,0.2984652,-0.68916833,0.6517565,0.724947,-0.2832508,0.89745003,-0.055161875,0.20796692,-0.73559105,0.48366544,0.9359677,1.0188818,-0.06878307,-0.73241913,0.48760897,-0.037804153,0.86370796,-0.5730958,-0.2544915,-0.17574458,-0.74632293,0.47783026,0.51750344,-0.7196244,-0.235977,-1.3333956,-0.4143677,0.054976344,0.052728727,-0.41408426,0.4411171,-0.29509938],"83":[0.764145,-1.0686321,0.63408,-0.95962983,0.11239111,0.22154768,-0.5753769,-0.66599846,-0.015089235,-1.3977082,-0.10825237,-1.2951326,0.8121268,0.2869959,-0.033344325,0.32427326,-0.36130062,-0.24226627,1.1728524,0.6667228,-0.061753727,1.0592815,-1.5847874,0.14779963,0.071664564,0.14782678,-0.092571706,0.3890608,-0.86653763,-0.28455168,0.04759413,0.25138646,-0.14596877,1.2295454,1.1475534,0.3557847,0.2389345,0.73442686,0.57170063,0.50722164,-0.17210713,-0.94553494,-0.19018966,0.60976017,0.04827788,0.4758062,-0.14702813,-0.44851354,-1.1631384,-1.5208764,0.69486356,0.76731783,0.7324553,0.77549833,-0.76946497,1.8691074,0.7054657,0.311462,0.069142684,0.23800161,-2.1338356,-1.4665205,1.0508794,-0.3206412,0.40024945,-0.8286112,-1.2478768,-0.39825144,-0.6286893,-1.9259923,-0.6002017,1.5330559,0.5603503,-0.5446347,-0.6960424,0.14158699,-0.80060875,-1.4302177,-0.0020731085,-0.21634322,-1.545511,0.3532743,-0.53844804,0.6182622,-1.7625512,-0.74932736,-1.7181915,1.5985086,-0.62083197,-0.19181967,-0.2456459,-0.61784804,2.088221,0.3064866,-0.44866946,1.6623584,0.3729481,0.0933031,0.909908,0.4095612]},"biases":[0.3432587,0.693805,0.5021262,-0.99122596,-0.818103,0.62672997,-0.00053581374,-0.27857307,0.43949267,0.31407934,1.2340229,-0.6209872,0.8880356,0.66604567,-0.36988518,-0.8104264,0.86936873,0.6072526,0.37329364,-0.30710137,-0.8912179,-0.27726448,-0.014386771,0.37141275,0.02759114,0.43091568,0.05705716,0.06753728,-0.6409213,0.093346454,0.6216067,-1.0895013,0.53321993,0.062256835,0.57171017,-0.78417474,-0.5531818,-0.755411,0.45978835,-1.0702583,0.056826785,-0.2864034,-0.1949372,-0.3735198,0.6746571,0.38803577,-0.67418313,0.5519958,-0.41567507,-0.4861557,0.8223997,0.97699094,0.5179842,-0.62194085,-0.052846003,0.08110668,0.25757855,-0.9421034,0.058663875,-0.65635544,0.400739,0.6805891,1.1674906,0.91504866,0.36829636,-0.21180542,0.18555878,1.2810999,-0.5495083,0.3738905,0.008112662,0.6215805,0.35073733,-0.31294134,-0.79988754,0.08828839,0.8569819,0.82397413,0.7973249,-0.511719,-0.4685059,-1.0489055,0.7896556,-0.3502719,0.2859395,0.68590397,-0.18615927,-0.088665925,0.7814186,-0.94206923,-0.27582556,0.28760338,-0.31099173,0.16409,0.1786078,0.2286741,0.6427198,-0.39381993,0.30501264,0.42651075]},{"in":100,"out":300,"weights":{"0":[-0.7104025,-0.5952007,0.99268186,0.2173165,0.7063748,1.3417085,-0.06983149,0.36577067,-1.9556646,0.5734559,0.057874266,-1.0399207,0.23943569,0.82978934,-0.6876718,-0.8645102,-0.53901625,-0.3537518,-0.10129355,1.1607572,0.30253762,-0.33732468,0.6370746,-0.42703626,0.16728003,-0.68869734,-1.4347309,-0.042101767,0.92446965,-0.56866324,0.014916868,0.50432575,-0.18361568,-0.5116263,0.005299187,-1.4597682,-1.575872,-0.16184229,1.0372508,0.3260322,0.7010987,-0.19822289,-1.0349913,0.16764899,0.79289293,-0.59893656,-0.3937849,-0.043896794,0.70439637,0.26789272,1.0776974,0.07518806,0.15371235,1.87948,-0.21142268,0.7303965,0.17454752,-1.2738116,-1.3830119,-0.6292271,-0.84801304,1.0304691,-0.57142895,0.90676975,-0.27925143,0.5866636,1.3895643,0.5635282,1.661588,0.11657178,-0.45736805,-0.51091623,-0.32691738,-1.1531676,0.8357647,1.3254449,1.1417378,-0.1281476,1.183922,1.0310807,-0.49731296,-0.58557636,1.2654479,1.259006,-1.1234426,-1.1994766,-1.6027067,2.1302671,1.0174363,0.71743155,-0.15891233,0.74669784,0.261136,0.14069268,-0.0061788443,0.048978146,-0.6868261,1.0218189,-1.4912369,0.45581043,-1.2520299,-0.3069856,-1.3585396,0.6669218,0.6301363,0.7947653,0.5097946,1.1459041,-1.4711571,-0.0442995,1.2759192,0.17890945,1.3567171,0.482267,0.034911174,-0.57523304,-0.7517137,0.06323896,-0.75628597,-1.2071581,-1.2722968,-0.3267434,0.62601334,1.4022249,-0.7167469,-0.98472816,0.7353804,0.5874271,1.0094904,-1.4666979,0.14212915,-2.293812,-0.53426445,0.6054589,-0.8143676,1.2225797,1.2315874,0.36368784,1.0125151,-0.9791063,0.19334128,-0.6179368,0.005919524,1.4631655,-1.0738147,-0.7735827,-0.016850792,-0.9478897,-0.6066499,0.73710644,-1.7643245,-0.4585153,1.2361635,-1.0457345,-0.6374408,-0.97477156,-0.29950652,-0.9252163,-0.074770086,-0.05882984,-0.46363518,-0.0059418096,1.0526328,-1.6643922,-1.060421,-2.0560744,0.27562296,0.6270834,0.414637,-0.6841227,2.1756291,0.017419528,-0.5564993,0.32243887,0.685618,1.3437158,-0.60840327,0.5162949,-0.77580297,-0.5796321,-0.4099323,0.810413,-0.17125997,-0.055270117,0.08016187,-0.8178944,-0.46758252,0.55824745,1.177118,-0.5354306,0.42411563,0.7812127,-0.30933246,-1.5411841,0.017697945,0.26331195,0.41810173,0.022443824,-0.30859926,-0.6143409,-0.5207066,0.4951267,1.524622,-0.066520005,0.3359886,-2.0514665,-0.3184552,-0.28336343,-2.416695,-0.051077347,1.8036928,0.8216981,-0.41126257,0.38104892,1.6179013,0.9214806,1.0067596,-0.62979305,-0.5474087,-0.083834924,-0.012909238,-0.24773808,-0.9468754,0.7581839,0.24735466,-0.19859247,0.013768925,0.6948204,-0.43007573,0.6665837,-0.76154155,-1.1198628,0.0033875073,-0.06743294,-1.5175418,0.2637323,2.1188471,-0.19196172,0.8049529,-0.20196539,0.30782145,0.49764583,-0.09104729,-2.1966896,-1.0572537,0.9786713,1.4424148,-1.3811939,0.78207326,-1.0414448,0.9371534,-0.29365447,-0.111996874,-1.6683137,0.4337618,0.8280191,-0.48652682,0.56505024,-1.1067402,-0.17815186,0.5260812,-0.7738074,-0.4906523,-0.23221968,-0.29719344,1.0749997,1.8930607,0.22770901,-0.5784819,0.80146253,-0.5742744,-0.14988363,-0.59406716,-0.14795093,-0.68898916,0.6255119,-0.4638716,-0.8737871,-0.8665269,0.90562654,-0.12659988,-0.33661208,-1.0561177,0.6109883,-0.39467207,1.8106419,0.6468965,0.8381608,0.3547348,0.33044064,-0.06255553,0.35713828,-0.51583755,0.75650996,-0.44016746,-0.6859025,-1.3855661,-0.93471795,1.1910014,-0.2692105],"1":[0.77273726,0.985911,-0.91402817,0.19650361,-0.3105953,-0.2046505,-0.2836051,-1.1575804,0.3877837,1.447723,0.5229923,0.7403567,2.4493062,0.5488494,0.6707962,-0.69333106,0.97684354,0.08687029,0.5603718,-0.527242,-0.418251,0.3707073,0.25186706,-0.72591555,-0.65590703,-0.72316724,0.2292791,-0.65263325,0.43149886,1.8087379,1.8612744,0.29662818,-2.1145027,-0.31616932,0.98904866,0.31307614,0.07365886,0.39022237,-0.9863047,0.75273645,-0.43104482,-1.0368524,0.3876217,-0.40104547,0.23124927,0.82480454,0.83210933,0.70875454,-0.91976297,-0.6691879,1.2990578,0.2471253,-1.0516583,-0.5465034,0.5634499,1.2639697,0.010002616,1.3621765,0.46677813,0.44201198,-0.55471325,-0.01268792,-0.8622217,-0.60862625,-0.29049242,-0.97215223,0.7659872,0.08897961,0.23760267,0.84449136,-0.9771554,-0.62974143,-0.39904523,-1.3380771,1.5122687,-0.75125957,1.0644021,0.33972842,-0.07742774,0.02265585,0.3479023,0.19473596,-0.5424274,0.36464384,1.2662923,0.92867637,0.6510644,-0.30561885,-1.9336572,0.5017306,0.2046147,0.32100624,-1.2434058,-0.85673535,0.8900041,1.0062016,-0.45352244,0.97985893,1.1397413,-0.5829457,-1.1296583,-0.751031,0.66492385,0.2249337,0.80368215,-1.3699962,-0.07198608,-0.80592316,-0.5553843,-1.6106808,-0.78515804,-0.56151074,-0.79344964,0.2381895,-0.9744489,0.23856333,0.0012962248,0.068457745,1.0794022,-0.2791453,-0.18499604,0.38291562,-1.1721157,0.12004929,0.6473533,0.89242303,0.81289345,1.3535684,0.4585331,1.412849,-0.46523917,0.91143537,1.251623,1.2328268,-0.39745682,-0.8286188,0.419536,-1.2026143,0.8402991,-0.41512537,0.09653102,0.6284811,-0.42959225,0.53651065,-0.30649626,2.012407,-1.4838324,0.5545299,0.34836194,-0.18912065,0.48903576,-0.9123448,-0.12199643,1.1650437,-0.03784241,0.5552613,-1.3808037,1.8508625,0.5531619,1.3017142,-1.1141281,-0.4433275,0.25944883,-1.0534744,-0.7767244,-0.20561735,-0.41744098,1.2181289,0.14257896,1.0618091,0.31311172,-1.1948853,0.9012244,0.6329429,0.060217347,0.6659455,1.6618209,0.65876216,-1.0618596,1.4358163,-0.2294078,-0.2607323,-0.6540137,0.4996472,0.56118965,-0.7584063,0.31793892,-0.3809707,-0.36804992,-0.52707595,0.46818358,1.8271664,0.8388825,-1.0632108,-0.34702933,-1.7676114,1.523734,0.029876404,0.68513095,-0.24697217,-0.04265271,0.47766256,-0.5722596,0.2092159,0.9154967,0.5236662,0.47140643,0.9208013,-0.42712402,-1.5543764,1.1312821,0.36372048,-0.02253353,0.5638517,-1.8617005,0.97882986,-0.18339051,-0.3459484,-1.2779524,-0.10167231,0.6298104,0.3415039,-0.22087784,0.38416892,0.20877215,-0.9088438,-0.26771057,-1.3628755,-0.6079746,-0.6812405,-0.87627655,-0.42551923,0.008482529,0.13965887,0.5686383,1.3636191,1.4464132,-0.7933532,0.23633066,0.6297808,0.27802315,0.93482417,0.96468407,0.39341667,0.7994975,-0.13706194,-0.46419755,-0.29519823,-0.9817045,-0.82512176,1.0701833,-0.8114165,