{"layer_sizes":[84,100,81],"layer_count":2,"layers":[{"in":84,"out":100,"weights":{"0":[-0.88724416,0.5819886,1.2402289,1.0568428,0.1896429,-0.8839007,1.2828321,0.75149596,-0.601978,0.5712218,-0.46432185,0.09632063,-0.18160933,-1.1155322,-0.9389988,-1.233177,-0.6755102,0.5348772,0.2776664,0.3296399,-1.4929752,-1.0780996,0.3617515,-0.37886775,-0.20718634,0.54637796,0.68386585,1.3651574,0.9393579,0.92553824,0.76765984,1.2940271,-0.11898512,0.21516985,1.1290843,-0.46532768,0.9312342,-0.2054708,-0.49464583,1.4922005,0.9758826,0.9258889,-0.79046756,-0.7722675,1.2178314,0.5099886,-0.4987859,0.14086711,0.16913223,0.6454289,1.396611,-0.8291166,-0.3881752,-0.14570242,-1.0117135,0.9560462,-0.6200128,-1.024497,0.6470677,-0.6931885,-0.23397535,-0.89798194,1.193677,-0.52816933,1.1218622,1.0082881,0.76996243,0.83339095,-1.1669952,-1.0095325,-1.0216355,1.1584342,0.29104525,-1.1090866,1.2799034,-0.24712408,-0.5458642,-1.3145946,-0.38707566,-1.3295596,-0.029176712,-0.9792963,-0.87070334,0.4915554,1.0021956,-0.90432733,1.1841166,-0.9448893,-1.428755,-0.32181752,-1.0777166,-0.8183366,-1.3592691,-0.27773523,-0.2826841,0.35838354,-1.4631779,1.0655104,-1.0350974,-1.4282917],"1":[-0.84021646,-1.2865863,-0.3179791,0.89536357,-0.5031985,-1.1374294,-0.86813647,0.3544684,-1.2804215,-0.06160927,0.3569432,0.1625011,-0.9573825,0.0780884,1.1025106,0.17529488,-0.14563555,-0.9676754,-0.22098666,-0.72232515,-0.8962544,0.21244419,-0.19005615,-0.27154773,-0.7307952,1.4647393,-0.09734452,-0.81569606,-0.18419445,1.3587761,1.361449,0.9619163,-0.09239191,-1.249069,0.9619866,0.09535396,1.0130396,0.5613422,1.4604023,-0.36547798,-0.33944356,-1.1044403,-1.3248593,0.654955,1.4624257,0.63076526,-0.11901158,0.26186997,1.4410777,-0.093559206,0.6528733,-0.7895626,0.35420126,-0.035809994,-0.045040727,1.0766089,0.29616916,0.30467856,-1.1743681,0.76203364,-0.7132684,-0.45622176,1.1384587,-0.20051247,1.2014948,-0.98469204,-0.6254477,-0.67884815,0.10816401,-1.2758701,-0.6905265,0.5349562,0.92617553,-0.22947568,0.58406764,-1.4510305,-0.097840905,0.09062934,0.51995534,0.9547389,-1.3940787,0.7063839,1.2606769,-0.3861537,-0.91396505,-0.5591029,0.5818296,0.9023752,-1.2978505,0.50016904,-0.19102675,-1.411792,-0.26222205,1.2406536,-0.59694225,1.325356,-0.9577832,0.32752866,-0.37612206,0.1490559],"2":[0.480514,-0.3477661,-0.79608214,-1.2485583,0.22925878,0.009647548,0.924254,-0.94115406,0.73066413,-0.008241713,-1.1753602,0.58358127,-1.4327692,1.4744117,0.4182136,1.2264909,1.0788343,0.60683584,-1.2268815,0.14536268,-0.6333781,-1.0370004,0.7629669,0.90433896,-1.2115943,-0.29709578,0.858159,-1.4196006,1.2298789,0.1907807,1.3819947,-0.08505589,0.33328128,0.5910453,0.59150255,-1.379348,-1.2212195,0.46242034,-1.1255686,1.4505467,-0.0986774,-0.098819375,0.9729261,-0.036987662,-1.2282212,-0.53296137,0.28059036,-1.4689276,-0.5913046,-0.089188814,0.5829175,1.059442,-0.7933343,-0.15455908,0.79501194,-0.8845927,0.70052594,1.0878856,0.1500004,-0.30829597,-1.4414628,0.913557,-1.4768804,0.9579009,0.5700681,0.032206893,-0.42151827,0.7589062,1.2273242,0.5280588,-0.26487315,1.4009161,-1.3398662,-1.0560577,-0.38984907,0.5353403,-0.7548575,-0.64465624,-0.3893348,-1.0145223,1.0183878,-0.37251216,-0.9555636,1.1894827,0.57606286,1.1557951,-1.130862,-0.15766972,-0.3857131,-0.7666624,-0.23186678,-0.50619936,-0.79996616,0.42072147,-0.1494652,-0.98130244,-0.48192376,-1.18217,1.0164528,-1.0787661],"3":[0.5812397,1.0657701,-0.6924534,-0.543452,-0.12273002,-0.9678383,-0.19945371,1.1355186,1.2133317,-1.1374631,0.32773733,-0.7981281,-1.4861501,0.9615855,0.49669397,-1.2811623,-1.4606304,1.1925995,0.8852497,1.3465393,-0.024861753,0.891633,1.3200693,0.78930867,0.7620694,-1.2915528,-1.3462124,0.42731255,0.9618564,-0.048719823,1.0789363,0.67804277,1.0904138,0.97921014,-0.69074214,1.2276633,-1.4467331,0.04107356,0.1484803,0.8423293,1.1075315,-0.17184037,1.1412274,0.63648516,-0.25968307,0.9396465,0.79577494,-0.61720634,0.55139655,0.9212086,0.5537621,1.2812059,-0.95837724,0.7118735,-0.50269085,1.2903333,-0.2822805,-0.026511848,-1.1493154,0.5079578,0.73274124,0.1409769,0.25534558,-0.4734063,-0.41248834,-1.1402503,-0.4733641,0.5636083,0.20906103,0.9450086,-0.0461213,0.37061262,0.27929986,-0.42697173,0.8672812,-1.4256023,-1.1325257,0.41109842,-0.5699739,0.8711366,0.24747723,0.30486828,-1.1705241,-1.1827848,-0.69594884,-1.0758014,0.09330064,1.0930352,1.2329407,1.0770125,-1.3650001,1.2200227,1.1695411,-1.2440579,-0.48101807,0.3563304,-0.3213315,-0.5218808,-0.44795537,-1.4046905],"4":[-1.0159432,-0.4122548,0.8640123,1.2001343,-1.2097435,-0.49754244,-0.2020837,-0.34328628,-1.3041526,-0.18043345,-0.16124064,-1.1293641,-0.41923696,-0.6547923,0.670328,1.4295027,-1.0278616,0.786899,0.88057315,0.48284608,-0.16393483,-0.38636005,-1.3784337,1.3550885,0.798553,-0.70541954,1.3087313,0.6923082,-0.30187404,-0.28072697,-0.57528466,-0.7137519,-0.05036223,1.3695123,-0.7210087,-0.75634146,0.0025767088,-1.3460379,0.9265673,-0.7974102,0.45808375,-0.17270637,0.3515668,-0.28465784,-1.3150166,-0.40020186,-0.14488989,-1.2134904,1.4435987,-0.35089338,1.1686699,-1.4320729,-0.0011565685,-0.9001116,0.32482857,-1.3468971,-0.9427829,0.5770072,0.00801301,1.2051533,-0.20804358,0.32576108,-1.3530319,-0.0652585,0.88974166,-0.035550535,-1.4081731,-0.30520427,0.046860337,-0.35216403,0.8279153,0.5928118,1.1349438,0.6705875,-0.015773356,-0.31451046,-0.3587013,0.20597649,0.6984531,-0.21880513,-1.3519317,-0.43463266,1.0727577,0.36345577,-1.2214426,-0.45568675,-0.11161995,-1.2887523,-0.14377087,0.91744655,0.80628043,-1.4864635,0.46371764,0.9217331,1.3951703,0.89670306,-1.2402924,0.8817124,-1.2205456,-0.64547557],"5":[-0.4434718,0.3002892,-0.072344184,-1.4722456,-0.79914093,-0.33432037,0.44765085,1.1875246,-0.5220993,-1.3935418,-0.40898663,-0.6757715,-1.1162932,-0.6074211,0.12084067,0.75747263,0.59035116,-0.89798015,0.85421777,-0.42480075,-0.3412723,-1.2052448,-0.7369809,-0.33258998,0.15370005,-0.87662977,1.0511038,-1.0376984,-0.9388379,-0.97655153,-0.5410425,0.13741332,0.73310995,-1.3614242,1.2513732,0.4110707,-0.29374856,-0.2544281,-1.0674495,0.4010287,-0.23910499,0.7789557,0.43242663,1.0936643,-1.0216881,-1.4515858,1.3386161,-0.9937266,1.0054018,0.5451236,-0.47818834,-0.02469939,-0.21104765,-1.104338,0.8760495,1.4101944,-0.28613305,-0.5595537,0.62801886,0.35486376,1.0941827,0.14956695,-1.2327665,1.1553931,-0.92670536,0.8609399,0.38688648,-0.2407735,-0.5761902,0.49944448,-1.0333918,0.9404383,-0.026196063,1.3518574,-0.26902592,-0.36585152,-1.3452384,1.4443142,-0.5104206,-0.5995327,1.0467975,0.06492269,-0.88675797,0.8747721,-0.09268713,-0.012445986,-0.78884554,-1.0020726,0.30995643,-0.29741496,-0.83099663,0.7540244,1.3956859,0.93860257,-1.367667,0.89877266,-0.57676595,0.73805755,-1.0028639,-1.4211576],"6":[-0.33646488,-1.1819226,-0.6656619,-0.66233164,0.6212586,0.9813566,-1.288093,-0.48992604,-0.32896793,-0.41134393,1.2435558,-0.5273005,0.040243506,-1.2550216,0.46788383,-0.652756,-0.86241245,1.3001373,1.2799125,0.24397534,0.23269576,-0.2826569,1.0436184,-1.3108675,0.17753935,-0.13758051,-0.9394761,1.3483582,-1.4409318,0.2850775,0.43755627,-0.43963587,1.1835555,-0.2721187,-0.6682488,0.543248,1.423119,-0.872843,1.1308694,-0.64055425,-0.024449408,0.17180514,1.3339853,-0.064406276,-1.1097214,-1.3758684,-1.24681,-1.362451,0.8535007,-1.4912789,-0.3346036,-1.4220825,-1.0439651,-0.6132147,-1.0456574,0.27165413,0.41909766,0.546415,0.42437643,0.47468877,-0.1205349,-0.26004177,-0.715895,-0.8501914,0.78436285,0.9092522,-0.99550366,1.3062601,0.92393535,-0.54660916,-0.08651072,0.22898251,0.85410315,-0.43246543,1.4315246,0.8074969,1.1835326,-0.6761066,-1.2131517,-0.72206855,0.74332416,-0.270016,0.9099539,0.27996558,1.2422595,0.15294296,0.30158204,0.006307125,-1.2238708,-0.5664085,-0.019716382,-0.5271072,-1.4338796,0.92147505,0.32211524,0.6237404,-0.6984957,1.455025,0.9735212,1.4543493],"7":[0.82576704,-0.1784944,-0.45638233,-0.41470402,0.6380961,0.40522492,1.015602,1.0349426,0.6120241,-1.2242821,0.024384141,0.1798861,-0.085413516,-0.24874467,0.30270088,-0.6886028,-0.55875957,-0.49482304,0.629221,0.1924603,-0.4545012,1.1340916,-0.48020607,0.98536867,0.21804571,-0.92684716,-0.23508006,1.2319726,-0.56031793,1.1140512,0.41944063,0.46066654,-1.3223709,-1.0431601,0.620673,0.6953126,-0.7598607,-1.3350066,0.42941844,0.10471094,-0.2697639,-0.6179064,0.71994066,-0.6522213,0.95212734,0.72578967,0.7810614,-0.5515033,-0.047628164,-0.40176773,-0.3825642,0.3451935,-0.57822293,-0.68801594,-1.3509629,0.0467273,0.3075834,-0.2044099,1.3475623,0.8256342,-0.4051863,1.3566817,-0.084236026,-1.2000723,-0.28262186,0.29242373,0.5787025,-0.1620022,-0.65542066,-0.88863266,-0.90498126,0.1123597,-1.3922994,-0.6447192,0.2711016,0.21149611,0.25877827,0.19087297,0.49812806,-1.0065663,1.0471346,0.39456725,0.5648614,-0.733022,0.8069519,-0.8468245,-0.5607344,-0.28494483,0.72658646,-0.6995877,-0.9933917,-0.551585,0.5331491,-1.2632265,-0.8334115,-0.89813447,0.44758093,-0.9193704,0.79296094,1.4271051],"8":[0.1734969,-1.0570018,0.28081906,-0.41697085,-0.59161127,-0.2871591,0.7027044,-0.6265277,-1.1745425,-0.98975015,-1.1650368,-0.32111514,0.10498685,0.8585295,-1.3148026,0.23530394,-1.2907307,-1.1862919,0.25005,-1.4614122,-0.9816706,1.1417481,1.3032085,0.5036502,-1.0517647,0.4686672,0.52585226,0.8949423,-0.14602482,-0.80843765,-0.9597212,0.22182548,-1.1456594,1.2767031,-0.2072314,-0.10576612,-0.9202965,0.22238249,-0.48948026,0.0055570006,0.83881223,-1.0997361,0.94542646,0.03424108,-0.084901035,-0.38775587,1.3239076,-1.4818289,0.07742965,-0.033214867,1.4306128,-0.38177973,1.2090499,-1.015125,0.932375,-1.1451198,0.61262655,-0.63944185,-1.4456296,0.09276956,-0.2522968,0.5571928,-0.9680627,-0.61346465,-1.1682727,0.46568066,-0.048455715,1.1840127,0.064417005,0.8482198,0.06194061,-1.034004,-0.61421263,1.2949264,-0.051446736,0.97230434,0.21958905,-0.80362827,1.3957318,0.6823554,0.41117907,-1.1436017,1.0712589,-0.9557596,1.3542819,1.0165176,-0.70943105,-0.31210935,-1.0137148,0.42229092,0.50776094,1.469665,-0.57029325,-0.050402105,-0.9171084,0.21860611,0.39676827,0.9541426,-0.8784059,-1.3826654],"9":[-0.36505526,-0.45235044,0.0557608,-0.26433796,-0.19239414,-0.19542325,-0.76085204,-0.21533722,0.11488438,-1.1808906,-0.016484678,-0.06482309,0.63913697,-1.0668752,-0.28654236,0.5423702,0.1979878,0.976612,0.5778299,-0.4439183,-1.10761,0.9164695,-0.08025992,0.0003068447,0.6987823,0.9758232,1.105074,-1.4983342,-0.19796634,-1.2511322,-0.8545745,0.88474023,-1.1248338,0.39730632,1.0293429,0.8466516,0.398798,0.91046333,-0.23977214,0.28931504,-0.6811486,0.81445456,-0.67233163,1.3961496,0.13157451,0.5973755,1.3830367,-1.0971878,0.03269416,-1.0841398,1.0695623,0.60761493,0.15132952,0.6120073,-0.25029516,-1.3026633,0.7784951,0.17804074,0.29987776,0.7372804,1.0364733,-1.3664765,-0.59746367,0.40772474,-0.19710803,-0.62287456,1.160739,-0.8886532,-1.4137893,-0.87197185,0.41742486,-0.48524415,0.2749529,1.4624652,-0.2599969,-0.5337728,0.52827376,0.18662041,0.2736554,-0.28638893,-1.1389441,-0.7127779,0.18112296,0.03831643,0.72539073,-1.3907273,-1.3390458,-1.4967946,1.4391972,0.6192339,0.0041645765,-1.0814276,-1.4855794,1.4493811,-1.1227287,-0.8800639,0.44401968,-0.44784844,-0.20526534,-0.79548794],"10":[-0.06544608,1.1697328,1.2712326,0.7865737,-1.1476011,-0.7724215,0.48915106,1.08041,-0.9919912,-0.38264877,0.14232016,1.3503053,-0.34754527,-1.2345114,0.4981336,-0.27355707,-1.3055744,-1.0295694,0.42619568,-0.059277892,0.6391509,-1.2860094,-0.035786927,-0.18796974,-1.1576668,-1.2637689,0.97163004,0.58466274,-1.2851853,0.4475389,0.6799956,-0.92084223,0.19835794,0.24816334,1.0814128,-0.5747566,-0.14950866,0.5966041,1.0675449,1.3769915,-1.4409871,1.408276,-0.34769672,-0.8352138,-0.97924465,0.18957925,-1.0344354,-1.0733855,1.240567,0.5509313,-1.3854601,-0.57470155,-0.6949205,-0.6090785,-1.387589,0.4936797,0.37871218,0.4800802,-1.1725699,-0.6089857,0.07993966,-0.26337737,-1.3529081,-0.06037277,-1.0824897,0.7192998,1.2738571,0.6936398,0.4803543,0.8944965,1.4628103,0.34393376,-1.3155112,0.3785321,-0.6702014,-0.84251314,-0.52015793,0.15555292,1.0259199,0.6303699,-0.80987155,-0.847891,1.1398778,0.7386267,0.98220974,0.9766837,-1.3240925,1.1087756,-0.8740037,0.96326673,-0.95229256,-1.123244,1.020048,0.05140364,0.39294434,-0.99323165,-0.86242354,0.11907917,-0.6814016,-0.96715575],"11":[1.1509573,-1.4676923,-0.75061333,-0.6480816,-0.5555681,-0.48684633,-0.6525044,-1.4870996,0.0381369,-0.34577823,-0.89168376,-0.4229132,0.7708701,0.0076673627,0.4406104,0.94572705,-0.9593321,-0.95098794,-0.3625962,-0.7004233,0.8318989,-0.65526295,-0.1241675,-0.13038951,-0.5972643,-0.52423507,0.9512522,0.26622748,-1.4431882,0.5159719,0.8293281,-1.2323785,-1.0961919,-0.21335149,0.8398774,1.0633388,-0.42116904,0.8900224,0.106241405,0.73063195,-0.41976142,1.3680006,-0.51311356,-0.30149335,-0.47527403,-1.2069819,-0.87712383,-1.275773,0.36639655,1.1235356,-1.3083324,0.4228964,1.3352532,-0.90319115,-1.1958661,1.094208,-1.2716434,-0.58494276,-1.222925,0.4179377,-0.14916551,0.8269483,0.056181908,0.3060928,0.85309106,0.9464958,0.31505477,0.85479444,1.3157384,-1.172538,-0.2975285,0.33194482,-0.72661453,0.61231524,0.40672785,-0.58856124,-0.7885489,1.2247539,-0.40437806,-0.58942527,1.1091428,0.5051245,0.54978454,-0.31111193,0.72187185,0.18087476,-0.90001005,-0.6088067,1.1296906,-1.067116,0.0073367357,0.19840461,1.0670342,1.2301903,-0.55864656,-0.57772833,1.099653,0.38659304,-1.0358555,-0.3475333],"12":[0.54023266,-1.3330854,-0.020055413,-1.1207492,-0.9612753,-0.7350919,1.1170814,-1.1175926,0.5075689,0.54723805,-0.82649285,0.88580275,0.19223785,0.17002147,0.34991777,1.3851073,1.1050773,0.06576222,0.12299287,-1.2762384,1.0452702,-0.9385121,0.4601192,-0.37877762,0.7370585,-0.6625968,-1.1232251,0.7979711,-1.1008325,-0.26460063,0.7232852,1.325439,0.34566236,1.0927098,1.4486763,0.58587885,-1.2898057,0.2415905,0.32164925,0.29259074,0.30009145,-0.057068467,1.1180141,0.65598285,1.3860526,-0.82414,0.40851402,0.4353819,0.05502838,-1.0152795,-0.5016698,-0.114978075,0.44265693,0.9184726,0.2893358,-0.5414815,-0.31899834,0.6949945,1.2367189,-0.4794218,-1.0581412,-0.12717605,-1.156222,0.7498571,0.050228477,1.4527228,-1.4201586,-1.1433003,-1.4615611,1.0216506,-1.2860329,-0.9705008,0.02198857,-0.16796476,0.5662531,0.24436104,-1.2410578,0.054263055,1.2614794,0.08243966,0.5014937,-1.3284585,0.32004476,-0.4124785,-0.6274041,1.257082,0.56578785,1.4890459,-0.23188233,1.2330465,-0.89711094,-1.1697762,1.3374462,0.61411464,1.368041,-0.9387086,0.7101617,0.38043576,-0.6968885,-0.833198],"13":[0.9101996,0.33939278,-0.42790997,-0.7373212,-0.46666718,-1.0640473,-0.8001961,-0.9136759,-0.10815328,0.6529761,-0.6711064,-0.26056963,-1.0950956,0.80181813,0.34675455,-0.68871367,0.13656396,1.0740076,-0.45418096,-1.2526159,0.88853467,-0.08570677,0.62847733,-0.041208923,1.2926738,-1.0216079,0.50847405,0.64311844,1.4026105,1.3467182,1.3260088,0.30632687,-0.56380713,-0.6810111,-0.40997225,-0.46348,-1.1625248,-0.92945874,0.95659804,0.48671508,-0.3884915,-0.76509225,-0.6534258,0.94792235,1.2249594,1.3041208,0.081068695,-0.50596046,0.26072162,-0.11324304,1.4809223,1.4929426,-0.14370328,-0.92987305,-0.6103045,-0.37684822,-0.33346027,0.86169577,-1.1809237,-0.038255453,0.39378065,0.6235993,-0.61007434,-0.62791425,-0.30955285,-0.40630764,-0.22457117,-0.97973764,-0.33899528,-1.3327532,0.07262099,-1.0838466,1.2080176,1.422198,0.412677,-0.88880503,-0.95315284,-0.17942458,0.37176776,1.146708,-1.1990229,1.484276,-1.3490183,0.49826252,-0.8291014,0.7826752,1.2865267,-1.2651533,-1.3435779,0.9038617,-1.0700889,1.0418644,-1.4805069,-0.7454542,-0.6856858,1.4727578,0.6902105,0.52216136,-0.46947294,-0.46069783],"14":[0.4684074,-0.46896046,0.0782454,0.6282554,0.7781902,1.3912894,-0.8197376,0.39794487,0.014898777,1.2836742,1.4123075,0.24299866,1.3792899,0.97718865,0.5293545,0.47625232,-0.5978669,0.59673196,-0.91192657,-0.9387712,0.058591783,-0.056365192,1.4544085,1.1476997,1.078532,-0.4216302,0.9023443,1.2930572,-0.0025507808,-0.9647541,-0.9880693,1.4465928,-1.403332,-0.8438743,0.92986447,-1.1187382,1.0437534,-1.3516127,0.86775005,-0.4651217,-0.39230043,-0.47681952,0.7241621,-1.2504933,1.0587802,-0.2526818,0.43868262,0.5494639,1.2670512,-1.2320113,0.3215291,-0.062258363,0.57093894,0.7921761,1.3790262,-1.2512841,-0.60491395,-1.3622646,0.6309902,1.1234679,-0.42007792,-1.2403603,1.0653824,-1.3228261,-1.4126354,-1.2824757,-0.4865175,0.5764457,1.284865,-0.51444036,0.3365466,0.16593665,0.7530286,0.4773937,0.26324934,0.9182491,1.492099,1.3785937,-1.2597883,-1.1685709,0.16517973,-0.22899467,0.22708172,0.50299305,-0.5993827,0.1486296,0.810209,-0.04258436,-0.92636436,1.1767666,0.006124735,-0.18044454,-0.36806363,-1.0478768,-0.37598544,0.012298822,-0.41227108,-0.44545698,1.2351676,-1.0552121],"15":[0.09088647,1.0974374,-0.35621202,1.402215,-1.2664948,0.22276121,0.359173,-0.4973486,1.0275764,-0.10700905,-0.31550753,-0.41973728,-0.97884643,0.03291267,-0.55008084,0.68509877,0.36859113,-0.0024037957,-0.7875876,1.1890213,-1.3737996,0.5298196,0.038691938,0.54905856,0.27338845,-0.09285754,1.0696592,-1.1908145,1.2301233,0.7917191,-0.7610568,0.7594764,-0.03345716,0.23321861,-0.20477307,-1.3570971,0.07363951,0.141918,-0.07946938,-0.59834933,0.96085596,0.7222127,0.609127,-0.16850334,-0.44683224,-1.0745692,0.67670417,-1.3338459,0.4340372,0.71291274,-1.08395,-0.044143617,-0.997457,0.32635707,1.0219735,0.5997641,-0.38572937,-0.9393119,-0.61609554,1.300539,0.041863024,0.4974525,0.8667478,-0.748773,-1.2282643,1.0560911,-1.1875845,-0.7774231,0.5000403,1.2491772,-0.26183188,-1.154753,0.03356266,-0.24820518,-1.3872442,-0.28566223,-0.92820364,0.7431321,0.43823916,-1.0018262,-1.2104108,0.5975384,0.39993417,1.2724748,1.3210993,0.17167729,-0.42009115,0.8702951,1.2383051,-0.27712405,1.313629,-0.9112787,-0.3246864,0.29859674,-1.1881524,-0.36838603,0.68666536,0.13718158,0.69228476,1.1691073],"16":[1.330396,-1.3677094,0.55256724,0.5002089,-1.397733,-1.2788618,1.216054,1.1079621,-0.5167898,0.333893,0.22489357,1.0034513,-0.68763167,-0.0792945,-0.07938266,-0.34074962,1.2632943,-1.0459363,1.099463,-1.2615211,0.82116044,0.324224,-1.4301298,1.4351674,-0.10769212,-0.10927606,-0.8274586,-0.16675186,1.1274717,-0.03703147,-0.91913295,0.3887211,-0.7347649,1.0056055,1.1143103,0.5517905,0.72280544,-0.68895847,-0.12640804,0.76701343,-0.17481154,0.7606709,0.58462,0.45355332,-1.2132529,-1.0704932,-0.5787842,0.4489857,0.31471843,-0.76275015,1.2053022,-0.26130062,-1.4608052,1.1388521,0.73756546,-0.69474363,-1.3958323,-0.4327206,1.3901551,0.20330518,-0.74870306,0.73037446,-0.021141171,0.42772436,0.9567917,-0.06995934,1.1463788,-0.02904278,-0.56450075,-1.4204555,1.4542487,0.4772957,-0.25121248,-1.4095212,-0.65643793,-1.1343462,-1.2170774,-1.468464,-0.28618097,-0.90122795,-1.2988856,0.3950538,1.0529346,1.2643137,-0.12426174,1.4752522,-0.10755086,0.31303203,0.5108417,0.83316547,0.39278644,-0.7243234,-1.366034,-0.09675032,0.7875041,-0.84818816,0.5666633,-0.31714654,0.5076508,-1.1620088],"17":[0.6574146,0.53711486,-0.95741916,0.10887122,-1.1126888,-0.28242177,1.377536,0.331501,1.2622349,1.1277182,0.5554719,-0.56170267,0.1646381,-1.311511,0.68179107,-0.14876121,0.0019091964,-1.4603682,-0.33087552,0.38305843,-0.7182888,0.18162256,1.2441456,-0.980629,-1.3040717,1.3747785,-1.2356919,0.2350071,-0.2085092,0.85334605,1.0238425,-1.3284583,-1.3969765,0.31027794,-0.15420145,0.7293536,0.8475405,0.6401607,-0.86546195,0.8162082,-1.2026149,1.0438266,-0.010023415,-0.9428267,-0.4214539,0.22904795,0.7418999,0.46201497,-0.98600847,0.03704703,-0.15975648,-0.5461455,-0.6377542,1.4578164,-1.4004718,-0.6377785,0.7950813,0.23827314,1.335957,-0.45845068,0.27328438,-0.16343486,0.17004275,0.47146636,-0.20653564,1.2096795,-1.2506071,0.7763289,1.1176891,-1.0139351,0.70067793,-0.658956,0.47987705,-1.3113232,0.2613616,0.6358529,-0.90691656,-0.005856335,-1.0661412,-0.15264845,1.050991,-0.2477923,-0.05804622,-0.6850215,-0.81839454,0.5543141,-0.4933133,0.11398584,-1.2497132,0.381948,-0.4115941,0.65242124,-1.1747844,-1.0726029,-0.14470625,-0.18201971,-1.2124305,-0.63053423,-0.56782275,0.77611274],"18":[-0.85416037,0.60663646,-1.0634304,1.1722723,0.630278,-0.57651365,0.39613312,1.1585248,-1.0316532,-0.92944443,0.8033851,0.36585706,0.83006144,-1.4342058,-0.99034095,-1.4553869,1.3131135,0.161381,-1.4960546,-0.801281,-1.1706709,0.4219483,-0.85762596,1.2695806,-0.5125943,-0.037198484,-1.0137489,0.5043225,-1.2451397,-0.26602864,-0.43278354,0.017515361,-1.4685147,-0.6521412,-1.1891096,-0.09921938,-0.12525934,-0.5321367,-1.3075116,-1.3894358,0.19584578,-0.2598034,-0.0434103,-0.32282513,-0.6009368,1.1383631,0.77099293,-0.6607472,1.1395411,-0.69377804,0.24202216,0.8300457,-1.277224,0.88053185,1.387505,0.84234434,0.097736835,-0.4734437,0.21422982,-0.21886897,1.0337359,-1.3630257,-1.1827524,-0.6163877,-0.30420792,0.9411664,-0.67629397,-0.84178287,1.1251595,0.3825068,1.3054758,-0.87590647,-0.9380926,0.9253902,-0.20415187,0.83149284,1.263689,-0.90998787,1.215981,1.4419236,-1.16201,0.17025179,1.3103623,-1.1033932,0.63880473,0.07398087,1.4504213,-1.4530932,-0.76744527,-1.2069471,0.21764213,-0.17096275,-0.26014066,1.1696501,1.4806412,-0.80707186,-0.6629387,-0.91107506,0.55223733,0.5471803],"19":[0.7776532,0.6028853,0.4368857,-0.82756627,0.71580756,-1.3116606,1.2747238,1.0071155,-1.2358965,-1.1530588,0.061127543,-1.4639672,0.89606863,1.0399516,-0.30457252,-0.31923115,1.4828334,1.2013139,-1.0759109,-1.201929,0.013201296,1.0235274,-0.73439956,-1.0081029,1.0749657,0.6890112,0.14962327,-1.0104908,0.27653253,-1.3678211,-0.5145836,0.1978156,-0.48809052,1.4347351,0.27224243,-0.25866902,-0.43798292,-1.0914719,-0.42942417,1.146735,1.0771927,-0.2904625,1.4961516,-0.045758665,-0.19982815,0.3053661,-1.4282107,-0.08762026,-0.48831278,-0.66462153,-0.88924295,1.4841976,1.0321136,1.4809988,0.17003274,1.12504,1.1464303,-0.63652164,-0.9532612,-1.029377,0.32278633,0.89444035,-0.5804234,-1.2253981,0.4607672,-1.0004702,0.84435475,0.32277596,0.21940005,1.0865618,0.099573076,0.81690645,-0.35018975,0.2994715,-1.1421475,1.4505327,1.2375414,-0.30174726,-1.0813515,0.6554493,0.607302,-0.009362519,-0.3525213,-1.2394278,0.567846,1.4150072,-0.99926573,-0.34855324,-1.0360682,-0.23454988,-1.0482684,0.45325953,1.429148,-0.58206993,-1.0867419,-1.4438796,0.41520756,-0.96225446,-0.34528774,1.2975645],"20":[0.18265182,-0.23433512,1.4573812,-0.97588134,-0.9406557,-0.46571624,-0.19008046,-0.9260527,-1.4942274,-0.23983991,-0.45779514,-0.36964756,0.4386009,1.0656137,-0.47439927,0.5708297,-1.2441294,-0.19451272,-0.61440307,1.1963507,-0.92292863,-1.2741146,-0.39391154,0.6907786,1.4846914,0.3053813,0.2194646,1.4433863,1.0471287,1.4978092,1.4445372,0.65810734,0.7335402,0.8869933,-0.23746437,1.4545417,-0.7584665,0.76395947,0.13433379,-0.5184456,-1.3896625,-0.80105174,-0.7018735,-0.5018011,-1.4846324,-0.30486077,0.6307322,0.67062217,-0.91411704,-0.33522928,1.2143371,-0.40186447,-1.3827777,-1.1000221,1.2736318,1.0182939,1.0414684,0.3635459,0.24212497,-0.8879433,1.2870595,-0.34000987,1.4632294,-1.2820888,0.42438877,-0.11502099,1.3352292,0.9235806,0.9401427,-1.2706144,-1.1914182,-0.6283209,1.2991464,-0.58319324,0.33143377,0.80371714,0.7514761,0.46158117,-1.0568879,0.09063363,-0.3090427,-0.29075593,-1.1283445,-0.25400054,-0.3432843,-1.2745132,-1.2509305,0.6813267,-1.3897173,-1.137012,-0.9665267,0.11715227,0.9446876,-1.4784783,-0.96972173,-0.6352503,-0.92243403,1.1015443,0.07383728,-1.0256314],"21":[-0.6034126,-1.3754829,1.073894,1.352808,1.1615292,0.2592017,0.640776,-0.13214493,1.2963572,0.8657831,-0.8704934,-0.6762507,-1.4706627,0.069995284,1.3308553,-0.83717036,-1.430564,-0.3575145,-0.049663067,0.39384073,1.0434183,-1.1709218,0.89866304,0.8890577,0.16903353,-0.45842814,-1.0104651,-0.20232207,-1.1384436,-0.5617406,0.61000675,-1.4240932,-0.6962607,-0.14077163,-0.5896706,0.17521977,-0.7233124,0.09564078,-0.59845394,1.324497,-1.0040971,0.30601376,1.4403613,0.83885515,1.4456823,0.7458358,-0.01669103,0.66835016,-1.3099091,0.719443,-0.8430521,-1.3338268,1.1113498,-0.28949225,-0.36183536,-0.45370656,0.39374185,-1.0237722,-1.3550409,1.2640445,0.7847028,1.0460196,0.15252489,-0.9640914,1.1732309,1.1446209,-0.42516142,0.5555894,-1.3330259,-0.6915375,0.47605205,-0.069478154,0.125907,-0.5003911,-1.1950889,-0.6904857,-1.2132297,-0.15214509,-0.8785136,-0.8618036,-1.0846885,0.34353375,0.5551999,0.27337897,-1.293906,1.2026632,0.1790151,0.629167,1.406158,1.1338159,1.3811891,0.5398636,0.27308714,1.466336,-1.1977303,-0.8820167,-1.2466104,-0.57428294,1.026751,1.1820048],"22":[1.1980329,0.36121023,1.3460577,-0.1864509,-0.37537605,-1.2258875,-0.27730143,0.89656216,0.13779026,0.7085012,0.7213796,-0.40206563,0.3408208,-0.8007236,0.6537954,-0.6121048,0.23354691,-0.2019335,-0.19944352,-0.6649348,1.2670062,-1.4882674,-1.411375,1.4323816,0.36260676,-1.1840887,0.14165515,0.50131416,-0.992739,-0.93636006,-1.0681518,-0.4320733,0.19934517,1.1488698,0.39136273,0.19097006,-0.0062309504,-0.08332729,-0.09302652,1.2837943,1.4884325,0.6538056,-1.4323871,1.4486349,1.1701481,-1.2080716,0.04772705,1.2667389,-0.25880384,1.2906849,-0.6617954,-0.9993135,1.4916532,-0.898962,-0.18724036,1.3557193,-0.29982233,0.45993036,0.7470873,-0.72052306,-1.3119725,-0.5929885,0.9268332,-0.021537066,-1.1085362,-0.43972886,-0.7983565,0.41301298,0.50723773,-0.9804749,0.103684366,-0.91446877,-0.38644624,1.4300735,0.34939975,-0.7313102,-0.7829055,0.51494443,-1.324438,-0.99196386,-0.016255975,0.66856563,0.6105439,0.31311518,-0.82765424,-1.3942845,0.15572244,-1.3386707,0.9055379,0.06540942,-0.44369262,0.12389892,0.7972514,0.89592165,0.16437346,-0.5019434,0.44574094,0.92868733,-0.2194106,0.2503581],"23":[-0.86179733,0.57873005,0.3184288,-1.235559,1.3404269,-0.6324032,0.64051545,0.23843712,1.1483526,-1.0920451,0.94915545,-1.225219,0.17908108,0.40423644,-0.16755939,0.8425303,-0.20739448,-0.26328385,-0.48707718,0.81668687,-1.2903106,1.4576235,-0.17619252,1.45453,0.83524096,-0.8017516,1.4586899,0.41101527,-1.4636066,-0.27692574,1.4281573,-0.19737518,-0.27998704,-1.0469294,-0.6556272,0.7264123,-1.2727373,-0.049437046,-0.1808871,0.22528464,0.81757647,-0.17169785,-0.19490576,1.2370656,0.46501386,-0.8139283,1.3662841,0.47350466,1.077019,-1.3577499,0.0035870075,-1.2071233,-0.18796867,1.4625719,0.1706931,-0.94691813,-0.3834468,0.9031216,0.95535314,-0.83938444,1.2345154,-1.0833553,1.0807468,-1.0788763,-1.1713784,-1.4954686,0.70616,-0.9877678,-1.1644604,1.3569456,1.0811036,0.81642455,-1.4472549,1.0764223,-0.1369273,0.7666431,1.215217,1.3082829,0.42289317,0.54848206,1.1046113,0.58793914,0.98527855,-1.1754402,-1.0131431,0.4744175,-0.054819703,0.6729487,-0.17691046,0.2593335,0.4234634,1.3372654,-0.54258764,-0.118971705,0.8117877,0.7615977,-0.1892125,-0.29368025,-1.0476966,0.44025904],"24":[-1.0930195,0.088177264,-0.08595675,0.41159302,-1.3189807,0.94535494,0.37631375,0.8102206,0.38187736,1.0378972,0.16003525,0.68179035,-0.7429027,1.1877649,0.22868532,0.868105,1.0959245,-0.5128988,1.0329742,-1.2082248,0.036087334,0.41303784,-1.2261164,1.4804724,-0.104898155,0.6835579,-0.57510495,0.7505876,0.5013524,1.3852283,0.10484326,0.44771308,-1.0870357,-1.1891291,0.35991293,0.4909215,0.6776138,-0.459984,0.7200456,-1.2435577,-0.1768325,-1.1281918,-0.13705301,-0.6132345,-1.4807711,1.2196981,-0.04091549,-0.017128587,-1.466246,1.3024371,-0.21907407,-0.59325546,0.23768234,0.020584881,0.3442272,0.7457122,-0.5877385,0.18969315,-1.2167169,0.76470405,0.97202575,-0.3067183,-0.26305068,1.3001237,0.09037721,-0.20318753,-0.004374683,-0.1733281,1.1668653,0.94180924,-0.41104567,1.2986841,-1.484122,-0.18683642,0.10695416,-1.3913237,0.92393357,-0.3249169,-0.8495693,-1.130796,0.7848201,-0.88019764,-0.52510196,0.74958926,0.5714012,0.47391826,0.97061044,0.54459375,-0.06438357,-0.2105357,0.77821594,-1.0350649,1.1166625,-0.55472946,-0.90170914,0.07700533,0.2731871,0.41235083,-0.2497015,-0.9625404],"25":[-1.0418899,-0.049657524,0.09464228,1.2886524,-0.2725584,0.08135587,0.0030375123,0.0020425916,0.93194497,1.2261754,1.1807467,0.05111611,-0.7195473,-1.47864,-1.3245647,-0.5672913,1.4314482,1.31531,1.1945572,0.6304137,-0.49137175,-0.42263603,1.1378369,-0.40954864,-0.27757806,0.5535312,-0.470676,1.3193648,0.2868669,0.8107336,-0.89144826,0.878446,0.8132842,0.5619022,-0.58350205,-1.1895008,1.1682647,0.8998534,1.0829562,-0.40654278,-0.316373,-0.79934406,0.4125545,-0.1509692,-1.041213,0.5933132,1.1488642,1.0621309,1.1060278,0.19795007,1.162137,0.72578645,-1.2944208,1.3585141,0.42945063,1.2246938,-0.8830138,0.21966666,0.71247876,0.91913724,0.29677784,-1.1520014,-0.99979806,1.0745748,0.35202116,-1.1580131,0.49716532,0.42319643,-0.05633694,0.03361398,0.9744546,-0.7053033,0.2279656,-0.49210042,0.13694859,-0.56846917,-0.72691727,1.0998602,1.3467681,-0.38444477,0.9011146,-0.39804304,0.3572014,1.032254,0.9246125,0.8509662,0.061667383,1.1055458,-0.7010309,-1.2254877,-0.32273036,0.9306582,-1.2316396,0.71962094,0.9916649,0.22540534,1.2240441,0.7878406,-1.3282678,1.1346602],"26":[0.3199997,-0.86464065,1.4592866,-1.3793324,-0.4921226,-0.22369891,-0.1523264,-1.1342862,-0.3065611,1.1663268,-1.4665773,0.1188696,-0.94228756,-0.18614566,-1.2381494,-0.029627502,-0.030272305,0.982439,-1.3939075,0.18589586,0.7597611,0.2244553,-0.12073803,0.7817722,0.7411993,-0.40262032,1.0955074,0.8510946,-0.12102091,-0.08347839,0.5260581,0.6411295,-1.4199593,-0.95605624,0.86610335,-1.1177258,0.61118996,1.149354,0.65291566,0.2826619,-0.57668173,-0.14414942,-0.5676352,1.095685,0.97695476,-1.3718505,-0.05859661,-0.834199,1.1072409,-1.1360638,-0.51524234,-0.27546126,0.35687417,-1.1668751,0.7835541,0.53253096,-1.2154157,-1.3554114,0.61782736,-0.45693433,-1.3329227,-0.41788048,-0.13232338,0.29574877,-1.0752897,0.12428945,-0.3828469,0.9093656,1.1518953,-0.3544997,1.2841392,0.82410496,0.747581,-0.0210405,0.7384479,0.2269671,-1.3945689,0.34610224,-0.73036265,-0.8292668,0.23400754,0.17966312,-1.4274287,-1.2847292,-0.36521208,-0.01059401,0.4461345,1.0661817,-0.8447183,0.0772537,1.13203,0.29364234,1.07233,-0.38121772,-0.66582173,-1.391785,-0.73736036,-0.6881114,0.5533814,0.5919335],"27":[-0.25965196,1.4652073,1.3255223,1.1081858,1.385647,-1.4935024,-0.9599717,0.20211893,1.4239728,-0.5644072,0.8761797,-1.4562459,0.9805046,0.2685855,0.23333895,1.1860081,-1.4139109,0.08112019,-0.3794455,-1.2057105,0.7400821,0.31148583,-0.13342577,0.6445488,-1.2141898,-0.52764827,1.3392123,0.86313754,0.7755981,-0.24685925,-0.9286267,-0.45745844,-1.2353206,-1.3625447,-0.9008571,0.4904852,1.4162245,1.4070721,-0.45461476,0.7425565,0.9333844,-0.059099436,-1.2691944,-0.09382725,-1.4696735,1.2808625,-1.2709782,-0.2966575,1.0723497,0.5242254,0.873969,-1.1663585,0.09891701,-0.10392344,1.3072429,1.4304503,-0.009984076,-1.0640097,-0.87750936,-0.64606154,-1.0088005,-0.6332597,-1.3980687,0.55145735,0.42031395,-1.4561803,-1.4039841,0.9648378,-0.012685776,0.23362005,-1.2851372,-0.06823486,-0.1340763,1.0957485,0.80326474,-0.5101474,-0.75223714,0.9417048,0.21031058,-0.67362696,-1.2011595,0.5537646,1.0267106,-0.03124845,0.46832174,-0.052887797,-1.3244745,1.0737789,-0.3806069,-0.83021396,0.61375093,0.0462057,-0.7970116,1.3877456,1.1950285,0.4179461,0.68348336,0.11145294,-1.2370446,0.71282226],"28":[1.3256195,0.47928143,1.3799982,0.28201586,0.5625978,0.7400472,-0.004658103,0.802167,0.6543392,0.41060883,-0.5969192,-0.37142712,1.235129,-0.8268544,-1.1396087,-1.1380014,0.07606065,0.3144831,1.3755512,-0.20193475,-0.7719698,-0.5461827,-0.79796845,0.2584759,-0.019528806,0.37075925,-1.1651659,1.1678764,0.74929655,1.0557379,-1.1310418,-0.7979772,-1.1483729,0.7410486,0.81099576,-0.36737645,0.7253428,-0.44499028,-0.0006533861,-0.5827562,-0.27008414,0.1547386,-1.2676351,1.0925056,-1.1252694,0.012890339,-1.3414416,-0.7996958,-0.025473475,-0.7343418,-0.20389241,0.37693816,-1.2288212,0.56975985,-0.0556342,0.19971389,1.4089186,0.28389055,0.5166076,-0.97703165,1.4820039,-0.7146803,0.7306071,0.43058717,-0.07672244,0.111968994,0.8239757,-1.150476,-1.3908808,0.82375485,1.2213094,0.6541393,1.2562091,1.2032712,0.83974063,1.1209452,-0.44619548,-0.8008529,0.14529651,-0.5254508,0.11139965,0.5058029,0.8324477,-0.2098639,0.12460077,-0.5906099,-1.1435738,-0.04569286,1.1416502,0.67293584,-0.4917072,-1.3468707,-1.4011159,-0.3492844,-0.81399965,0.3793527,0.07276511,-0.7702741,-0.35329896,-0.8774482],"29":[-0.093316734,-0.002169013,-1.2372433,0.49763918,-0.9716522,-0.26936227,0.796848,0.7582932,-1.1898719,-0.66333246,-0.48898423,-1.4774412,1.2618968,0.73413974,0.41565388,-1.0589273,0.509425,0.20726556,1.3910755,-0.02952683,0.82104063,-0.086113036,-0.26295948,-1.1130674,1.1378207,-1.4258456,0.8997692,0.5014318,0.30114573,-0.57300675,-0.36745942,-0.80856586,0.029244483,-0.39521134,0.124078095,0.7005828,-0.3029378,0.14653087,0.31356043,0.038573563,-0.22811884,1.2532842,0.3963738,0.21288908,0.46583158,-0.8372948,-0.99625075,0.22501034,0.68840486,-1.3157945,0.19694656,-0.9911029,-0.035927117,0.036389172,-0.302845,-1.3287342,-0.48027813,-1.203109,1.3777966,1.441973,1.0476573,-0.75362724,-0.032305956,1.1237564,1.1951598,-0.007889092,-0.7842436,0.8426732,-0.44656116,-0.49091023,-1.1109321,1.1422405,-0.87162673,-1.0268345,1.1381946,-1.3273692,-0.2741779,-1.0577692,1.0863909,-0.046453714,-0.872185,-0.23885196,1.1381046,1.2180805,0.60728735,-0.21721065,0.6784485,-0.47882938,1.1102089,0.076728165,-1.4243872,-0.5632433,0.75596327,-1.363533,0.021878064,0.06282216,-0.21875829,0.009969771,0.2684943,-0.9808595],"30":[0.055216134,-0.42748708,1.0772891,-0.28308606,-0.6620613,1.4858118,0.0985347,-0.6232964,-0.3705865,-0.44922334,-0.5202082,-1.2833705,-1.0829332,0.80280286,0.0935964,-0.6334226,-1.1800263,1.1263021,-0.83711815,0.12777293,-0.3405195,0.9548301,0.11820495,0.30815148,0.9374628,0.28301132,-0.97438574,1.2188671,0.7016516,-0.17508423,1.3672382,-0.30209845,-0.9157221,0.3582809,-1.3520825,-0.2022314,-0.55117947,-1.0963349,-1.1813245,1.4527476,-0.09297073,-0.019768775,0.3568418,1.3870311,0.27579796,-0.19177294,1.1553123,-0.45665878,-0.6961836,0.9123364,-0.6692401,1.0742593,-1.1366694,1.4979954,-1.4171407,1.3156767,0.047109425,-1.4207407,-1.0927463,-0.00041627884,-0.34171718,0.83130205,0.8716323,-1.4388038,1.0530088,-0.17016059,-1.4145072,0.9575347,0.8788283,0.020528555,0.43718773,0.9831852,1.454793,-1.2494706,0.10141361,-1.1999406,0.9761222,-0.9053196,-1.1000283,1.3613374,-1.1123264,0.8138269,0.35855663,0.8915289,0.50390446,1.3443279,0.87581724,0.60959584,-0.28128898,1.135591,1.3026457,-0.92797154,-0.8513766,-0.044152737,1.3104447,-0.7495356,0.9542434,-1.3269701,-0.24165773,-0.42257398],"31":[-0.06389487,-0.74862814,-0.19885397,-0.82738924,-0.065412104,1.0412531,-0.12123191,-0.84296143,-0.5760988,-0.46014225,-0.41437054,0.25858873,-0.7428192,-0.4618832,0.6324667,0.44627076,-0.099411964,1.060774,-1.2926702,-0.5934416,-1.01686,0.27357584,0.27516174,0.5311185,0.06695241,0.42455453,-1.0903435,0.6346264,0.16946518,-0.77637184,-0.86347765,1.0890781,-0.18441921,0.08232647,-0.6756672,0.2863326,1.0412819,-1.0846539,-0.4485104,-0.08689499,-0.744475,0.9126842,-0.37387902,-0.75729185,0.24857908,-0.5822516,1.4224359,0.09442502,0.7917123,-0.25389665,0.21745795,-0.08542889,-1.460218,-0.66144687,-1.3374069,0.52485216,-1.1538365,-0.42325258,-1.3664911,-0.14603233,-0.98859733,0.017032743,-1.3121896,0.2752869,1.4918543,-0.6927425,-0.022512674,0.46364433,0.113135755,1.3006165,0.32151085,1.1531291,-0.4968567,-0.0066817403,1.4582813,-1.0604715,0.21634573,1.0941964,0.42777568,1.3585339,-0.13588697,0.7857202,0.4412259,0.73630196,-0.23862433,0.35311818,-0.88347995,-0.07583052,-0.6139952,0.79003054,1.4328107,0.29550236,-1.0041258,1.4659277,-0.64882815,0.2516216,0.48943448,-1.4738567,0.8125713,-0.41489553],"32":[0.2450484,0.7433594,-0.693476,-1.1343172,-0.8625083,0.33608758,-0.00051015615,-1.0113959,0.8233799,0.45854902,0.4224245,-0.34911078,-1.2066226,0.818271,0.9738752,-1.3601565,-0.6307118,0.47778243,1.0407782,-0.720645,-1.0993109,0.013881147,-0.79451877,-0.1658392,1.0246036,-0.58455795,-0.6391087,-0.32797498,0.06637752,-1.232384,1.1859684,-1.1070542,-0.1749866,0.82873124,1.13997,-1.169893,0.28074092,0.2822805,1.4814737,-1.2847549,-0.29797232,-0.79211104,-1.1104842,-0.6408246,-0.4007576,1.2222745,0.64727193,-0.3549816,-0.536837,-0.29879218,0.5997623,-0.2552948,-1.2993627,-0.40680993,-0.66401964,-0.23841208,-0.80474836,1.3518457,0.9430436,-0.8259142,0.81431204,-1.291805,-0.32556313,-0.89522624,0.10657543,-0.2776646,-1.3515332,-0.6980286,0.16304791,-0.9725234,-0.06052047,-0.9002663,-1.3068783,-1.2327722,1.255934,-1.4863138,1.353575,1.362428,-1.4743152,-0.72629213,-1.4401549,1.3292209,-0.3113594,1.4306363,-1.1446921,-1.059091,-0.5031175,0.4410478,0.1531198,-0.06050384,-0.03364724,-1.191211,-1.4474308,-1.4355798,1.1891086,-0.6172142,0.7375767,-0.37467706,-1.2639368,-1.2592039],"33":[0.76300424,-0.18930334,-0.40386897,1.1607044,-0.59002644,0.41406262,0.10666394,1.0527189,0.19858557,-0.8717376,-0.8693125,-0.3847357,-0.28319085,0.86719626,-1.4487495,0.20295238,-0.4997188,-1.3757524,-1.0568769,0.44376737,-0.030722022,0.22896034,-0.23277962,1.4043005,0.8144256,0.022849023,0.8184743,-0.48005033,-1.1870937,1.1592175,-1.2442442,-0.529592,-1.3051798,1.2451863,-1.4919713,-0.26141435,1.1203771,0.96738696,1.4700344,-0.51744586,0.13763684,0.47364038,1.2653185,1.3499844,-1.3597459,1.4267392,-0.8952255,-0.54956836,-0.9352028,0.12071389,1.273338,-0.43504804,-1.0486951,0.8739086,0.27709204,-1.2662714,0.28346193,0.75035906,-0.49145544,-0.96656656,0.9606584,-1.2294292,0.1195609,1.1945568,1.1700811,0.58662254,-0.90605825,-0.18893552,0.08003032,-0.052149653,1.3489785,1.298553,1.4601848,-0.9945556,0.8981057,0.08581263,0.83686477,0.62089205,-0.2426185,0.5611417,0.36278093,0.9277248,1.1988451,-1.3074827,1.3612571,-0.48843366,-0.685227,1.4504224,-0.3187126,-0.052205622,-1.3251698,-0.40079534,-0.0052440763,0.11261952,0.27581048,-1.2749758,0.5409488,-0.57742274,-0.40213698,-0.5920878],"34":[0.57190704,1.4830999,-1.1387751,-0.10107136,0.9426057,0.8490039,0.30785447,1.1475284,-0.24106765,-0.79154205,1.4124395,1.2862177,-1.0291729,-0.34154695,-0.19077158,1.2333531,1.1527238,0.014532208,-0.1751967,0.7425043,1.3380868,0.46648246,-1.1164119,-1.2000196,1.4453499,0.13547659,1.0001006,0.96241736,-0.16989756,-1.3024244,0.5266301,-1.4731139,1.0671837,0.90871114,1.0153608,-0.4745189,-0.7477212,-0.67141575,0.75260764,-0.6841809,-1.1855485,-0.80392116,-1.3384326,-0.31294924,-1.0132717,1.204869,-0.6085623,-0.09689337,-0.7790129,0.40590727,-0.4161129,-1.2544956,1.3796141,-1.4791243,-1.1430414,0.6287774,0.22175556,-0.9294616,1.1090244,-0.010657489,1.1762149,1.2610352,0.42165148,-0.29003388,0.54357505,0.027887285,0.97800153,0.22098917,0.95633197,0.39370787,0.31047714,1.1750596,0.28726476,-0.58235925,-0.39147073,1.45158,0.5983842,0.1763252,-0.24053174,-0.74906516,0.69968337,-0.34937453,0.1854583,0.3580615,1.1442399,1.205001,0.7609858,-0.43158066,0.512404,-0.81244093,-1.2363732,-0.26361054,-1.0966601,0.20879781,0.45834786,-0.90691566,-0.8028758,-0.7028759,0.44563365,-0.75376976],"35":[-0.50916624,-1.1705239,-1.1324775,0.16850424,0.93064016,-1.2618046,0.47214675,-1.3673246,1.2597659,0.58219206,-0.47518855,1.4445035,0.19004256,0.877892,-0.49833655,0.822982,0.25611162,-1.306879,0.9153895,-0.3341968,-1.1589577,-1.3067181,0.832268,0.14250398,-0.6430362,-1.3432784,0.7607528,0.15080416,0.35140353,0.67764974,-0.9024303,-0.08540332,1.4246287,0.44471258,-0.30740654,0.933216,1.3885574,-0.380265,1.0264812,0.055053234,1.4074681,1.4842775,-0.46172923,1.2121193,0.52573174,-0.6092314,1.3509622,-1.221415,-0.662776,-1.3725697,1.0623584,-0.34127963,-0.27923995,-1.2160066,0.9597704,0.7739666,1.235115,-0.014244139,-1.018458,0.6252794,0.9527748,0.278767,-1.2583911,0.43312472,-0.65939033,-1.15579,0.32035375,-0.03485048,-1.4316411,1.3168297,-1.4420643,-0.32414854,-1.3745005,0.18900847,0.29823643,-0.28988296,0.60520524,-0.1673829,0.9178394,-0.14033014,1.4182653,1.2632551,1.0434666,0.8470731,1.2689288,-0.65140414,1.2107055,0.03486979,-0.49744803,-1.4063712,-0.5649723,0.6850734,-0.16226542,1.4057376,0.76623183,-1.4150839,1.0961169,-1.4791977,0.08225101,0.7760802],"36":[1.0078826,0.38626957,-1.0168409,-1.0739946,-0.4513278,0.67232984,0.012062073,1.3291773,-1.3229703,1.1777737,-0.9216201,-0.7916322,-0.36678654,-0.13000381,-0.91642463,-0.39956188,-1.2610931,-1.2658277,1.2082647,0.48274845,-1.1222034,-0.07086164,-0.15289325,-0.36382502,-0.31698722,-1.3333526,-0.68035716,0.84657973,1.2774014,-1.0427332,1.1525635,0.11337358,-1.004986,0.19876438,1.1611122,-0.32397115,-1.219404,0.12574339,-0.52058744,-0.49260288,0.19665116,-1.4467738,0.54532135,1.4140638,-1.0836713,-0.5896209,-1.3809896,-0.08740479,-1.3137524,-0.96643996,0.11438191,0.57248497,0.1584186,0.5932701,-1.1802088,-1.2351505,1.1887405,-0.16704226,0.7560584,-1.2471831,0.22444189,1.31058,-1.2858542,0.3915249,0.25509346,-1.3455575,-0.33546585,1.4336268,-0.47802347,-0.32373422,-0.5525556,0.42668134,-0.52173114,-1.4917399,-0.182679,-0.9125921,-0.13611853,1.4095981,0.5093667,-0.54267114,1.4482858,0.6981114,-0.40474713,0.9483009,-0.90805346,-1.1262097,-1.4227388,0.07815796,-0.9149839,-0.9372956,1.2642614,0.38223428,-0.11879915,0.13900459,1.2480608,0.12641984,1.1562921,-1.4429781,-0.64524883,1.1786673],"37":[1.2876928,-0.93645215,0.527703,1.2470366,0.10136765,0.041436195,-0.20220101,0.30005264,1.2641234,-0.76124525,0.66942644,-0.9166682,-1.4412637,0.65849394,0.51013845,1.0145586,-0.024986744,0.14280564,1.3301675,-0.59958655,1.4852204,1.2422651,-0.14275181,-1.3094704,0.9431786,0.8914352,-1.3781996,0.7323534,0.3462038,1.2115979,0.45551723,0.19006848,1.1892128,0.17337853,-1.1250334,-1.0413649,0.7653197,1.3338006,-1.2795806,0.44852668,-0.60931367,0.58601457,-0.32291293,-1.2929788,-0.22522062,-0.33726436,-1.2366589,1.1893024,1.0060074,1.2139931,-1.4809145,0.95483726,-0.91472375,-1.0472333,0.4461379,0.49588555,0.8892923,0.57889277,1.3032,0.95752573,-0.20250839,-1.4871,1.1055189,-0.55441725,0.9937801,-1.4916301,1.1639425,-1.1067765,1.1357245,1.4858869,-0.04314208,-1.0757056,-1.0398414,0.15412581,-1.1008508,0.16016239,0.9607095,-1.0044748,0.2013604,-0.62646997,-0.8515064,0.8815951,-0.60861933,0.49450547,0.9967042,-0.6748143,0.19382322,0.27981126,1.2557831,-0.52341986,-0.83236957,1.1431105,0.27709615,-0.11467481,-0.14874834,0.23300368,0.4861436,0.41625595,-1.1334641,-0.30945987],"38":[-0.23250729,-0.06609714,-0.07560378,0.5914555,-0.806635,-1.4471786,1.4757825,0.10831207,1.1606069,0.40337008,0.26319265,-1.0212367,-1.0101345,-1.4384762,-0.55066305,-0.45933098,0.89586854,0.56850296,0.7553015,-0.8341786,0.26061058,-0.13099265,-0.97933763,1.3778236,-0.59693795,-0.8648774,-0.8391516,0.7748462,0.14014971,-1.2297739,0.2717809,-1.2541627,-0.64785755,-0.12879181,-0.5947484,-1.4784567,-1.0505321,0.5036534,-0.811505,1.0386025,-1.2890792,-0.16785532,0.54243547,-0.47257805,0.024168313,1.4628174,0.07699692,0.96040696,0.19873005,0.9132396,-0.007965982,-0.25066477,0.21597433,-0.14299929,1.272579,0.9835392,-0.81950873,1.0155833,-0.01296705,0.41440773,-0.27903163,0.3208927,1.0247581,-1.4713987,1.0457149,1.363601,-0.6828525,0.98959225,0.0667904,0.9952385,0.2955798,-0.706381,1.1861899,-1.0299819,0.3241802,-0.8705662,-0.557392,1.4091457,-1.0294552,-0.59473693,-0.9872421,-0.44735724,-1.4932189,0.54621255,0.841238,-0.08054227,1.4409025,0.27049989,0.91927403,0.41917294,-0.08432096,-0.50843596,-0.65741175,0.41585147,0.56203634,-0.7036641,0.53694963,0.89021695,-0.62174124,0.54280186],"39":[-0.6670879,-0.9304644,-0.87977296,1.0515695,0.78658426,-0.43764478,1.1252608,0.93820703,-1.3506248,0.18545312,0.126719,0.06396264,-0.37849724,0.438546,0.0444991,-0.71316755,0.740687,-1.0001681,0.17027307,0.6883378,0.5235404,0.5821186,0.55280113,0.9562735,-0.9655518,-1.4775476,-0.4089895,0.55946857,-0.46831244,-1.3638194,-1.1245058,-0.24669904,-1.0114821,-0.9412068,0.5835698,-0.48332942,1.0660245,-0.45984238,-0.5397118,0.65132064,0.45174783,-0.52209556,-0.54495656,-1.0784552,-1.2865903,-0.6715472,0.18520457,0.61065227,1.316041,0.5591308,1.3399777,1.3288252,1.1973367,-0.92074996,-0.008490622,-1.3587415,-1.3565488,-0.23293841,0.054142,0.084914446,-1.4114914,0.3663937,-0.17721605,0.23871928,-0.43254375,1.1560471,0.7179444,-0.0780049,-1.2112802,1.328877,0.2398467,-0.8896301,0.5734695,0.18057078,1.1242554,0.12950009,1.4613631,1.2895098,0.3561716,-0.7304608,-0.6757584,1.3202033,0.30025524,-0.9331357,1.1444311,-1.3008578,-0.7913845,0.78475195,0.27843976,1.1503916,-0.8061408,1.1297638,-1.0141032,-1.0713476,-0.3550939,-1.0959802,1.4724576,-0.8546836,-0.20993185,-0.8874804],"40":[-1.0356345,0.0045597553,-0.654216,0.29100716,0.21516395,0.037127316,-0.993104,1.1867073,-1.4683719,0.65854096,-0.9483905,-0.57034653,-0.52306205,-0.41480666,0.79936373,-1.3144107,0.21113384,-0.89851284,-1.2210472,0.3503462,1.010911,-0.7334933,-1.1354654,-0.1133582,-0.43377078,0.0709219,-1.4070807,-1.3449987,-0.28703517,-0.43221545,-0.30564666,0.1182248,1.4048063,-0.6204647,-0.68819743,-0.9242928,0.9118506,1.0269638,-1.4121599,-0.029658437,-1.3948653,0.068549395,-0.6895627,1.3012385,-1.3506106,-0.68520427,0.65543175,1.2247038,-0.8147882,1.4199083,0.9957209,1.0330019,-1.31688,0.66287684,-1.2451403,0.86130345,0.10249901,0.38932675,-0.048508465,-0.49057907,0.91845703,-0.25080317,-1.4714274,1.1634374,1.3761052,-0.85955805,-0.7049058,-1.3758607,-0.43139648,-0.5773553,0.4986198,0.8088382,-1.0694866,-1.1321944,-1.0228882,0.4245084,0.75733244,-1.120666,0.016731441,-1.1041679,-0.4630671,1.052271,0.17675364,0.45530158,0.04769951,1.2542582,-0.90743566,-0.59749836,-0.36911666,-0.26765656,0.77571684,-0.49534142,-1.0025663,0.4340161,0.82107174,-1.4565759,0.9659781,-1.0117064,-0.24295807,-0.40159106],"41":[-0.11065632,-0.13220125,0.4890738,-1.1219912,-0.63089526,-1.4226093,1.3944554,-0.6913703,0.49803865,-0.6862457,0.12577093,1.2125809,1.2856665,1.4461613,-0.71803933,-1.0804828,0.290161,-0.4691965,-1.3256822,0.6800369,0.94291985,-0.38130015,0.9881047,0.7390396,-1.0973792,-0.8099152,0.014327824,1.243988,0.100449264,-0.2162,-0.30775863,0.8706574,-0.57561404,-0.608791,-1.4288096,1.4827605,0.84637785,-1.2964597,1.4195371,0.5219652,0.24782735,0.43399018,0.603828,0.67976564,1.4532993,0.85594225,-1.4449475,1.3295522,0.479854,1.067199,0.3093694,-0.9545848,0.6501215,0.18560404,-0.27342743,-0.019512534,0.5034106,-1.2838545,-1.2747893,1.3424647,-1.4345366,1.1831906,0.48281336,-1.4004819,0.8525521,0.23676234,1.0597734,-1.4295201,1.0248756,0.9720102,-0.7978086,1.4912621,-0.6027712,-0.44239748,0.3542177,-0.16419965,-0.24718273,-0.1249938,0.3431552,1.4543064,0.8085605,1.284045,-0.04962355,0.20525533,-0.8863034,0.5830173,1.029557,-0.4748944,-0.7021766,-0.49896133,-1.2669752,1.2383512,1.0139923,1.3816549,-0.08401555,1.4139998,1.3094239,-0.8426335,-1.060789,-0.87138677],"42":[-0.75879693,-0.26685745,0.1763708,-0.9389278,-0.39400774,-0.9031947,0.22208995,-0.32168037,0.8227172,-0.94445586,0.449059,1.2547381,-1.0412639,-1.3774599,1.0896394,0.8869305,-0.74899703,1.3047577,-0.7095494,1.3257349,-0.6873073,-0.091238916,-0.6981772,-0.79637504,-0.48555207,1.3110342,0.23793644,0.42083842,1.100627,-1.033402,-0.28589147,-1.2469862,-0.9937007,0.77582127,0.13947755,0.10269749,0.6373345,-1.0806823,1.1534076,-0.28279138,1.283947,-0.8990432,-0.18671536,1.0722067,-1.3174231,-1.0451822,0.4823311,1.4615897,-1.2929239,0.97616154,0.47439122,0.68120205,0.6000286,0.6969112,-0.19723803,-0.40208638,-1.193908,-1.4650416,-1.3249884,-1.3157752,-1.1674323,-0.7923721,-0.3328725,1.4628099,1.2370274,-0.866199,0.3055315,-0.8151553,-0.12576342,1.0794616,0.60099775,0.7448482,1.310592,0.4350949,-0.025437891,-0.24463338,-1.1805575,-0.37201327,-1.0930662,-0.7091144,1.2022666,1.0412931,0.4717841,1.0333903,-0.7117991,1.0258646,-0.3356291,-0.85100216,1.2019353,0.5919619,-0.035716295,0.5007874,-0.22600973,0.1528287,-0.5978669,0.22800082,-0.8670341,0.21198463,-0.2626952,-0.6551138],"43":[1.3259399,-0.99048096,-0.15800464,0.9844301,-0.4784251,-0.37847328,-1.3080887,0.23404187,1.1095208,-1.0659406,0.7785058,-0.6624756,-1.2100091,1.4962223,1.1850483,0.83799934,0.9910358,-1.2200421,0.5425941,0.15000254,-0.58816874,-1.2075787,1.2121441,0.018530846,1.4480462,-0.7847001,-0.6321398,-1.3112895,-0.63780373,-0.92848116,-0.09220791,0.2642042,1.3779869,1.2630948,-1.4329093,1.1964848,-1.128513,-0.9654218,-0.80779016,-0.069821656,-1.2614391,1.4113709,0.42704523,0.46388072,-0.41045558,1.3817081,0.35850853,1.2539873,0.822111,1.1466906,0.8672864,1.1206307,1.4787514,-1.4975109,-0.1806364,-1.2917626,0.103693664,0.84246093,-0.08914608,-0.19209892,1.0926676,0.14320081,-1.218076,-0.04872483,0.28747237,-0.53048444,0.45054477,-0.58225375,-0.6522664,0.82053226,0.7220816,0.9645297,0.18518525,0.12560016,0.3761809,0.11506873,-0.0280568,-0.39404172,1.025279,1.1996593,1.1401246,0.24660856,0.042963266,0.9232494,0.46751797,-1.0838939,0.14933717,-0.57530147,0.26449102,1.1990106,0.631399,-0.0057252645,0.39669585,0.5951491,1.3318257,-0.3290881,-0.23895407,-0.6251802,0.009363413,-0.7438077],"44":[0.60101134,0.85308,-0.295232,0.4896024,0.18772423,0.2898674,1.4432535,1.3041298,-1.0095923,-0.6277671,1.2201186,1.0956275,-0.34114784,0.044513583,-1.1139934,-0.44647193,-0.043095052,-0.951487,-1.187403,0.71435934,-1.1085688,1.0290323,-0.4811023,-1.3882995,0.19198179,-1.0788178,-1.0047874,1.2938694,1.2756417,0.913984,1.4262533,1.1428516,-0.8021736,-1.1643723,1.4461324,-0.6398771,-0.55903995,0.82927537,0.38173395,1.4789135,0.05113113,0.12373817,0.1766231,0.04974228,-1.2234918,0.25059664,-0.0061326027,-0.63502425,-0.7084395,0.58831805,-1.4788882,1.4527593,-1.4259467,0.85845906,-0.68385494,-0.49060965,-0.26749367,-0.10599643,1.4312735,-0.6825614,0.013387978,1.2031198,-0.43165165,0.68530387,-1.3309982,-0.12981051,-1.1862888,-0.2801149,0.6701764,0.10354918,-1.431896,-0.51394576,-0.90807223,-0.3370623,1.4123629,1.2354233,1.4989023,0.76165205,-0.2251221,0.08334857,-0.81704736,-1.3886046,0.8365293,0.29853737,-1.3789728,-1.3486288,-0.17627656,-1.2657955,0.45281553,-1.1156878,-0.9519228,-0.43066138,-0.6170363,-0.3574378,-0.7155388,0.6307951,0.57288873,-0.42549008,1.2578437,-0.34419644],"45":[0.021964788,-0.97904634,-0.97855175,-1.1869717,-0.21669137,-1.4704481,-1.3158355,0.1305322,-0.9907898,-0.16053933,1.312177,0.08596426,0.6611692,0.51630306,-0.6891938,0.49781013,-0.5384867,-0.027303457,-0.6245663,-1.4538628,-1.1789407,-0.5692524,0.52273893,-1.1862614,0.25691432,-0.8271859,-0.5411523,0.40580893,0.23318696,0.46064132,-0.7314155,-1.4719589,-0.5524682,0.49301112,-0.09029049,0.74691457,0.045526206,0.8812496,1.0290968,0.2601267,-1.1851584,-0.063785255,-0.32934433,0.40043396,0.8816081,1.3537102,-0.13322443,-1.4275353,-0.51206785,-0.3086586,-0.66994286,-0.33642894,0.9329932,-0.8549375,0.7165586,-0.7903569,-0.8978795,-1.4138106,-1.3687044,1.258166,-0.8864077,1.3163545,-1.0069528,0.19347632,0.4040224,-0.7278739,-0.31328702,-1.3974699,0.65852094,-0.18703562,0.032538235,-0.8209128,-1.0979358,1.0418043,1.042079,-0.17908949,0.84788865,-0.84550273,-1.2372465,0.5465934,-0.35610527,-0.52119327,1.3135235,-0.5551715,0.38633752,0.41458154,-0.32414085,-0.9591694,1.2446404,-1.3091252,0.23300868,-0.654636,1.0769637,-0.8724076,0.42385876,-1.4457707,-0.35466778,1.0784822,0.5499916,0.6166338],"46":[-0.5517313,-1.0918726,1.3625631,-1.2936046,1.1041443,1.0241058,-0.16100585,0.55936736,-0.32418627,1.3279879,-0.6018462,-0.7402972,-1.3404654,-0.3630159,-1.0450006,-1.4100559,0.666903,1.3692601,1.2233516,1.4232326,-1.4592824,-0.8540867,-1.2881529,-1.1243272,1.2019181,0.2525409,-1.4605417,0.6740114,1.3091809,-1.2400038,1.2456274,0.380184,-0.71742064,0.42227304,0.6546167,1.1503433,-0.17070758,-0.16008514,1.077971,1.3743646,0.36106253,-0.9568455,0.41197908,-0.79517233,0.26906472,0.54186934,0.60955846,0.8875669,1.3341441,1.4503722,-0.24623233,-0.4993297,-0.19530219,-1.1812603,-0.15711826,1.4819672,0.35991597,-1.3975747,0.13601714,-0.42243218,-1.32165,-0.10985559,0.0031399727,0.4004985,-1.2288668,-0.12286842,1.0545347,-0.6448792,0.6768238,-0.81984186,0.3206039,-0.6378971,-1.2122927,0.4242164,1.4512334,0.98085004,-1.414191,0.5313703,-0.1472699,1.2407336,0.7115087,1.0117238,1.0324795,0.32505423,-1.3313065,-0.026177287,0.893991,-0.51096225,1.4584726,0.88851374,0.8270395,-1.1754999,-0.068036735,-1.2543552,0.722647,-0.5284699,-0.57959425,-0.03066641,-0.21402526,-0.8905522],"47":[0.8636645,-0.98834825,-1.4153659,-0.72026896,-0.4243024,0.8895532,-0.6877679,0.24648553,0.8188087,-0.7375903,1.0295341,0.72020924,1.1562982,-1.0720961,1.3651001,-0.13227135,0.07091832,-0.2815227,1.3276992,0.5643527,-0.5420138,-0.86376125,0.9215507,-0.71801734,-0.8509948,-0.6358477,1.0308223,-0.37978774,-1.1497375,1.014252,-1.4244688,1.1480889,0.5669693,0.3180036,-1.0286561,-1.2218388,-0.6680145,0.55492884,-1.2215247,1.334894,-0.14566612,-0.87351555,-0.71340483,1.1041821,0.90707785,0.32127446,0.64633584,-0.037012696,0.23216218,1.1906501,0.08705467,0.005776942,0.7480538,-1.2665782,-1.2920089,0.12505996,-0.90953887,-0.7532916,1.2140298,1.4573061,-0.70674115,-1.1231514,-0.29668093,-0.25458384,-0.23337936,0.4682749,1.3655133,-0.8892655,-0.39668673,0.97318447,-1.4988296,-0.48662907,-0.55095845,0.97529,0.9357759,0.10519606,-1.1958085,0.045696437,0.49094725,0.2475915,-0.475065,-1.3412683,-1.1326457,1.2407223,-1.0523539,-0.12869132,-0.62007344,1.3241563,-0.5118483,1.3598344,-1.055961,-0.7087498,-1.2080975,-0.4873463,0.61795986,-0.84246844,-0.20854104,0.25999027,0.029656827,-1.2617989],"48":[1.4211373,-1.0865293,1.2922251,-0.70321137,-0.93012,-0.90774125,0.2188443,0.3431747,-1.3264148,-0.15071994,-0.15081042,1.4177889,0.6050686,0.9019772,-1.3408613,1.2856629,0.9614827,-1.1843216,1.2015965,1.4155571,-0.057241738,0.07293159,-0.4031083,0.9591526,0.18530416,0.54968405,0.92449826,-0.80810237,-0.7544621,0.08860338,0.69964814,-1.0264775,-0.43361825,1.0073715,-0.52508193,-1.0795543,1.1628016,-1.44176,0.97345,-0.6648622,-0.090302646,-0.117747545,-1.1372557,0.26928413,1.108959,-0.40819162,0.5456432,1.4275664,0.14620632,-0.59332985,-1.2581208,1.0608155,-0.98100936,0.46021968,-0.07962781,0.34348887,1.0004529,0.5477155,-0.3075866,-0.107494,0.062452912,1.2215197,-0.32388353,0.61583036,1.4474418,1.1089479,-0.7950738,-0.18595451,0.029797733,-0.10156578,-0.14219856,0.61728036,0.21288013,0.65530175,-0.9169026,-1.195843,-0.060129046,-0.43226713,-0.75202847,0.95948946,1.3094707,-1.3650501,1.3248641,0.83362556,0.41208923,-1.4271394,-0.28744018,0.2701757,-0.11954963,0.41632104,-0.16836298,0.57593393,-1.0923525,0.44978696,-1.4351163,-0.2888342,-0.1920957,-0.7812102,-0.35982853,-0.45335805],"49":[-0.5211366,-0.8876329,-1.4042745,-1.353625,-1.0171734,1.259872,0.8256306,0.62307465,-1.4146796,0.6730671,-0.30128968,-0.06905687,-0.27551526,0.17736286,1.1736879,-0.794645,0.30708414,1.398377,0.011907399,-0.042351365,1.4064707,0.9333703,-0.44029963,-1.1482282,-1.4806063,0.84356403,-1.0379373,-0.041516304,-0.6211973,0.6042604,-0.25906026,0.9762132,0.7861104,-0.6743719,-0.4046917,-0.70508695,0.062126398,1.2065511,1.2468293,0.095101476,0.013881683,-0.9264359,1.2665224,-1.3946862,1.2493007,-0.46846426,0.706182,0.46677393,-0.7148693,-1.3899018,0.32629824,1.4208293,-0.07041514,-0.7906469,-1.4376087,1.0085027,0.31885636,-0.29287577,1.4376171,1.2712138,1.3928211,-0.22015285,-0.6635231,0.26400697,0.3708558,0.5902337,1.3083453,0.47335303,1.1645384,0.66399854,-0.74322045,0.109062016,0.009297073,0.64116365,0.25359517,-0.0015181303,1.2774861,1.4996579,-1.1658987,-1.2433534,-0.5468754,0.046504498,1.4205812,-0.75755936,-1.286538,0.1596846,-0.30866325,-1.3770676,1.1177313,0.14280778,-1.2461162,-1.0461012,0.95896965,0.11877179,-1.2952752,0.8165331,1.0998491,0.5883431,-1.4113884,-0.68423474],"50":[0.8144846,-0.43405777,-1.27092,0.89879,-0.8639193,0.8939738,1.2089975,-1.3799175,-0.1171394,1.2082524,-0.9637749,0.5019947,0.7114915,1.3508301,1.0850639,-0.3560822,1.1063547,-1.4083074,0.18506134,0.98278284,1.3337665,-0.20933819,-0.7116687,-0.6867172,0.7784552,-0.7558649,-0.4389596,1.1460681,0.04548776,-0.7027611,1.1884995,-1.1607473,0.7057947,-0.8219068,-0.28403324,-0.0033053756,-0.083747864,0.044153273,0.017195642,-0.5088149,0.43579602,0.5402241,-0.5859865,0.75999016,0.9774526,-1.1267831,-1.3855188,0.7138894,-0.6780587,-1.1162235,-0.8494152,1.4451392,1.3896124,1.2985014,0.085201085,0.88766223,-0.9324353,-1.292501,-0.07010293,-0.10144454,-0.7500851,-0.4667446,-0.7445435,0.7019552,-0.15592253,0.25195152,-0.005311668,1.3649833,0.9129181,1.4426768,1.0891547,1.4969695,-1.4828002,0.72277755,0.6099703,0.43695956,-0.7308063,1.4617822,1.4238029,-1.128864,-1.4957621,1.4037287,-0.0952431,-0.82403576,-0.48264134,-1.3111036,-0.9223042,1.3086407,-0.42544484,0.1685164,0.9432578,1.4696591,0.8153279,0.98815316,1.1057255,0.4962353,-0.5396544,0.16361243,-0.12879038,-0.93272674],"51":[-0.70741636,-0.12850052,-1.2888117,-1.0008906,0.28233004,0.19439417,-1.0593204,0.57754004,0.41716665,0.9340859,1.0607848,-0.37698072,0.7211693,-0.044362485,-1.271484,-0.7544013,1.4671824,0.56074154,-1.1888537,1.1209102,-0.38831145,0.13941854,0.022163093,-0.99219847,1.022896,-0.36599547,-0.50029224,-0.70874226,-0.17219871,-0.24811828,0.51041347,-1.0367882,1.4707264,-0.072404265,0.14241153,-0.009836733,-0.39850956,-0.44492608,0.9534695,-0.56770706,0.6575523,0.91295725,1.0383306,0.7468865,-0.8441954,-0.20913917,-0.7430105,0.81744915,0.3281452,1.0629859,-0.14504153,1.0076569,1.1204624,0.6011574,-1.4514143,0.582289,-0.8782507,1.4725776,-1.1260698,0.050735056,0.034929335,0.57771975,0.7204857,-1.3254032,-0.1265502,-1.2272406,0.8619842,-1.2098025,1.0813229,-1.4859284,-0.5406815,-0.33063644,1.0972309,-1.2043374,-1.2679317,-0.07249975,-1.2592773,-0.65979373,-1.1777819,-0.11570692,-0.808185,-0.46115005,-1.3631773,-0.00047171116,0.13313448,-1.4202873,0.089475274,-0.8695321,-1.3547795,0.025729895,-0.3805384,-0.15556759,-0.7166401,1.1450996,-0.23316693,-0.13237953,0.36522192,1.4813929,-0.39041483,-0.71057063],"52":[1.3847258,1.0016499,0.38029575,-0.28998095,-0.40720814,1.3489695,0.9632832,1.360739,-1.0601846,-1.1998079,1.4018285,0.5279392,-0.06776476,-0.2882638,0.21343374,-1.2162871,1.0984414,-0.444417,-0.39972246,0.959102,-0.0043067336,-1.3780494,-0.6787593,0.83355457,0.87202406,0.6149395,1.4675971,0.29581618,0.56870896,1.1768856,-0.9096835,-1.0254457,-0.50934523,1.0263367,-0.5265607,-1.0067856,-0.0025067925,-0.75094,0.82384354,1.108699,-0.34349924,-0.21753001,-1.0093198,-0.56106716,-0.87748486,-1.4012178,0.50852734,0.5750098,1.2276051,-0.2882849,1.4980634,-0.8852493,0.22424698,0.5340684,-1.3858762,-0.61214197,0.14562231,0.029687226,1.0837543,-0.28453034,1.0686117,-0.78964376,0.704386,0.81853026,-0.9028582,-0.19449914,0.07998723,-0.22457528,-0.7929014,1.2068121,-0.015288413,-1.4383371,1.330576,0.16537142,-1.2384293,0.8620441,1.2685508,0.7395174,-0.94890493,-0.37770706,0.1770392,0.34641784,0.37663704,-0.57845163,-0.6018877,0.4698413,1.1247435,1.2917236,0.38415742,-1.0365696,-0.78247225,-0.9682578,0.18570471,0.67948884,-0.3899188,-1.4167101,-0.38080466,-0.4039634,0.09176713,-1.4793451],"53":[-1.1681925,0.46214837,0.90330666,0.4933033,0.23376936,0.366055,1.382137,0.2536438,-1.1231751,1.3550767,-1.3510462,-0.82836574,-0.7817098,0.56386113,-0.08475834,-0.5918607,-0.30693573,-1.1766746,0.6893971,0.25529838,0.5999957,-0.90532565,0.7948206,1.1576142,-0.9728338,-0.6415576,-0.26795053,1.1709175,0.92966205,0.6097255,-0.5862159,0.6107143,-0.53228456,-0.9413901,1.019871,1.0838606,-0.33179927,0.35286802,-0.009611785,-0.42982757,0.30565202,1.461177,-1.0936403,0.3751706,0.48862267,0.8266023,0.71777076,-1.433341,-0.69391465,0.1267628,-0.9896094,0.8328388,1.1288369,0.9251429,0.5079004,-0.87499845,-0.07644886,1.0043181,-1.3910713,0.9025971,-0.8514939,1.2663553,0.047023773,0.68355525,1.1049192,-0.34528148,0.0459947,-0.51947486,0.13073784,1.1826162,-0.5207557,-0.13629967,-1.1419439,-1.2175479,-0.055539787,-0.49248648,-0.47549003,-0.517041,-1.4751267,0.6228753,-0.31075877,0.18669105,0.55478597,-0.80988675,-0.35230404,-1.1493075,1.001889,1.2877822,0.029682934,-0.39444906,-0.85788935,1.0136466,1.2637929,0.7599215,-0.058851063,-0.059302926,-1.1391551,0.55055344,1.2926767,0.6040694],"54":[-0.00032150745,0.57159644,-0.7426341,-0.4691257,0.6787963,0.028178215,0.76676023,0.3001367,0.33893323,1.1203821,0.60459995,0.5544019,1.4803507,1.2301905,1.4430957,-1.1396145,-0.7063231,-0.2445631,-1.3628888,-0.50396025,0.49587178,-1.4405154,0.9884146,-0.8790901,1.0200751,-0.11143237,1.1127808,-0.53962845,1.031942,-1.3491547,-0.7679697,-0.87859654,1.3670923,-0.2334423,-0.2811218,-1.4298309,1.0443453,-0.42670405,-0.6790695,1.0658875,-0.048565686,0.37485927,1.4286699,1.3869156,-0.6354802,-0.27365953,1.2376252,0.869462,1.0741829,-1.3935254,0.489317,-0.41378707,-0.69000363,-0.28541225,-1.2533187,-0.35383093,1.0802758,0.34515274,-1.3460629,-0.6510617,0.17760962,-0.8730658,-0.06983632,0.41042054,0.794071,-0.73813194,-0.8032753,0.898415,0.7462862,-1.3759348,1.07265,-0.49555063,-1.0104733,0.013313949,0.58158785,1.3687205,-0.2968744,0.3822112,-0.12867236,-0.889364,-1.1876425,-1.2889062,0.61562186,0.50615054,-0.3355245,0.5856979,1.4651561,0.30965692,0.7039343,-0.3841306,-0.42352885,0.008330405,1.3631804,-0.85467964,1.0237522,0.0054007173,0.5495011,1.040294,-1.4164186,0.121389806],"55":[1.0591974,-0.9110947,-0.5656872,1.318286,-1.1057678,0.6991394,-0.11430949,0.5103541,1.437207,-0.5218663,1.0484903,-0.67588663,0.6742412,-1.2768109,-0.64714086,-0.82595086,0.38327855,0.11285806,0.6978539,-1.1958897,-0.05100721,-1.1053036,-0.5275635,0.7050687,-0.06278014,-0.3462553,1.3495843,0.72329664,0.6949096,-1.3165201,1.2031014,0.85209274,1.0128446,1.11554,0.6339238,0.61965376,-0.89429533,-0.6461828,-0.9092147,0.100170314,0.49933362,-1.2494549,1.1920016,0.7125022,-1.4035499,-0.44867224,0.8753253,-0.8355748,0.4037903,-0.57862794,1.1650109,-0.17007637,1.4132991,-1.1956998,-0.44807768,0.56119287,-1.410587,1.2765495,-0.53498626,-0.5783581,-0.5204551,-0.076189935,1.402147,0.942758,0.23570824,-0.25257736,0.5358156,0.9440371,-0.7485237,1.0135946,-0.52867573,1.4788387,1.4210308,0.60527605,0.30575985,0.8862963,-0.31751758,0.7627022,0.3598119,0.27109283,0.42988586,-1.3774357,-0.94752735,1.0604734,-0.57082915,1.0771046,0.9304172,0.2288729,0.071030974,0.6425502,0.6379255,-1.2118642,0.7833924,0.9235872,-0.19802088,0.23621267,-1.3913233,1.3801198,-1.3598144,0.30644274],"56":[-0.24033844,0.33887118,-0.41034007,1.3375944,1.0746989,-0.43829495,-0.7709393,-0.34574658,-0.89724576,-0.67295104,1.4403191,-0.9327024,0.03717774,-0.64446956,-0.9210028,-0.9233903,0.010426462,1.2860423,1.4442031,-0.9832828,-0.88693357,0.2370835,0.6566334,0.76784223,1.3233665,-0.5195199,-0.6936806,0.24541354,-0.28364092,1.0135438,1.3237379,0.27182704,-0.68580705,-1.1590787,0.054695606,1.2189951,-1.1098907,0.028593242,0.06992197,-1.3498852,-0.27577633,-0.97361416,0.37295383,-1.2694554,-0.37108487,-0.9428097,-0.021345198,1.483398,0.16856825,0.9131019,-0.023376167,0.79496366,0.46497005,-0.8747982,0.3015529,1.3335378,0.60521954,-0.27743965,-0.36070955,-0.72616,0.16274446,1.4739516,0.9703662,0.14987576,-0.04954344,0.3433655,0.4398635,-1.4691339,0.1912837,-0.5513631,0.6797912,0.8353665,-0.41343462,-1.2784834,0.41768646,-0.8066259,-0.24825418,-1.3616314,-1.003519,-0.05108142,0.054150224,0.38405782,0.623691,1.3588847,0.25126308,1.4205104,0.32124978,-1.2585595,-0.13157594,0.64301723,0.9053888,0.8160796,0.927424,-0.8888263,-0.0034688115,-1.1833853,-1.2037679,-1.3204582,-0.4541983,-0.95575494],"57":[0.46807158,-0.53397185,-1.0961695,-0.15376621,-1.3408581,-0.4887725,1.2759206,0.7203398,-1.4925547,-0.6348964,0.051736057,0.18122989,-0.22274673,-1.1087139,0.60164434,-1.4326503,-1.2506601,-0.3594076,0.4092409,1.2639095,-0.7056638,0.048712313,-1.4976478,0.25015533,1.0533633,-0.0060442686,0.80106926,0.07731539,1.3843937,1.1531637,-0.9628898,0.627415,1.1275687,-0.82610536,-0.69732964,-1.2429725,0.89176655,-0.20051551,1.0459589,-0.4754035,-0.079573095,-0.40967184,0.43418008,-0.118778765,-0.58530897,-1.3690822,0.5516553,0.9140273,0.93509066,0.16306186,-1.2821263,-0.3226449,-0.8542097,-0.24425,-0.12136531,0.6658253,-0.27148783,-0.5322105,0.15185988,-1.1169695,1.0049195,0.12775183,-1.0165025,0.9367629,1.1439922,0.3149371,0.6943751,-1.2583642,-1.1554389,-1.1711156,-0.33759874,0.4598322,1.1317861,-0.61617726,-1.3284842,-0.60014194,-0.8247097,-0.62379223,0.16163957,-1.3458593,0.8504931,0.22625971,-0.29727548,-1.1466663,0.6007415,1.1938101,0.32813394,1.3976371,-0.023981094,1.3579602,0.56696266,1.1060257,-1.1755781,-0.2546634,1.1663725,0.030771196,1.0736363,1.0296018,-1.2737911,0.82296824],"58":[-0.02804929,0.82359606,0.5119949,-1.2028592,0.96719795,-0.7367742,1.3920476,0.57244205,-0.46261078,0.3563726,-0.24450427,0.10302204,0.14879715,0.54368913,0.3332904,0.7286559,0.3816923,-1.2301233,-0.71731657,-0.6754723,-0.021797955,0.6205253,-0.6431177,-0.46243644,1.3267024,-1.2561455,-0.22064441,0.56723195,1.0743523,0.78095144,-0.275254,1.4777172,1.2598604,-1.4781349,1.0744407,-0.16697717,-0.8510585,0.10093492,0.8871855,1.2978489,1.4826547,1.4490445,-1.4794426,0.352058,-0.36945534,0.26227033,1.3969141,0.16052252,-1.323941,-0.4085546,0.385373,-1.0990107,-0.64472973,0.042058647,0.56102103,-0.39556056,0.6050463,0.20636022,0.057022333,-0.26355654,-0.862455,-1.3054357,0.85643417,-1.4412179,0.29473132,-0.7515026,1.2318227,0.9689015,0.029971898,-0.49611247,-0.020184338,1.1297755,-0.9495356,-0.5006511,-1.4091113,0.81491446,-1.0578535,0.5623632,1.1609678,0.49102628,1.23695,1.3869278,-0.07416129,-1.0693156,-0.7492615,0.7150213,0.0022298098,-0.44568372,1.1183672,1.4112561,-0.08327794,1.3959514,0.04936284,-0.86686546,-0.32358974,0.7311641,1.1074538,1.1453673,0.8396412,-0.20975357],"59":[-0.2651587,-1.2248479,-0.05986941,0.53336155,-0.8861509,0.062788725,-0.37024122,1.4810911,1.1166898,0.8081415,-0.84863824,-0.0016474128,0.5846713,0.6400439,-0.6615876,-1.2687099,0.81932116,1.054969,-1.3129883,-0.6367843,0.79718363,0.5682081,0.55459267,0.30260235,-0.53215796,1.148656,0.3416918,-0.9025966,0.15366715,0.6820813,1.2643136,-0.6834145,-0.2779677,0.7683465,1.3638537,0.5186611,0.22535276,0.4398923,0.06365329,-1.4048243,0.96715003,0.4237978,0.30266297,1.249717,-1.0945106,-0.47390985,-0.7327652,0.9554599,0.86606365,0.0064548254,1.0547612,0.3221857,-1.3630675,-0.5252786,-0.9917373,1.4120657,1.1280617,0.5586274,0.283144,-0.7978719,0.9427816,1.4103537,-0.104310036,1.035636,-0.80891025,1.0284953,0.6163514,-0.06461799,-0.56731045,0.06362289,0.5530552,0.07356781,0.24191898,1.276747,0.43172908,-0.91533387,1.1463497,-0.105949044,-1.1087662,1.3560536,-1.364316,-0.7297062,0.4034021,-0.20749694,1.109596,-0.009553492,-1.2284131,1.2383049,-0.33846706,-1.0290279,0.9296508,-0.73198646,1.3387552,-0.7703199,0.085089326,-1.3258235,0.14713293,0.13814628,1.0065162,-0.16448718],"60":[0.15217692,1.4143252,-1.3584218,-0.68093044,-0.046717465,-1.2403307,-0.09827131,-0.6015891,0.9913078,-0.5559606,0.9217447,0.488326,-1.1307633,0.07777101,1.1481767,0.27528745,0.6859975,0.3628124,-1.3649393,0.84775615,-0.9057641,0.5759899,-0.94088227,1.0930406,-0.18926847,0.6784317,1.0090125,-1.2063537,-1.3606614,1.2767756,-1.0973268,-0.86874104,-1.2470145,1.2153494,-1.2176646,0.0063115954,1.1420431,-0.7477108,0.6430462,1.4874961,0.26503336,0.39654207,-0.66622406,0.21724534,-0.095609665,-0.99903435,-1.1844437,-0.511822,0.79734725,0.105661154,-1.0756534,0.78884715,0.3891551,0.8786904,-1.4963669,-0.062734544,-0.08028799,0.40571344,-1.2262249,-1.2066844,-0.69275665,-0.42925394,-1.1094389,-1.2787789,-0.85004157,-1.4962839,-0.17280686,1.1043091,-0.46168345,-0.18084365,0.8406551,1.3924482,-1.0596774,0.35702884,-0.02153635,-0.7603592,-0.22877115,1.3020017,0.36213666,-0.34051967,-0.085124195,0.46363556,0.49004477,1.339458,-1.2227001,0.87806207,1.3831947,-0.35815698,1.2843902,-0.17754167,-0.26245165,-0.26028353,-1.4467621,0.5369709,0.103171706,-1.3958421,-1.2212286,-0.26112145,0.16639405,-0.9341394],"61":[-0.19914865,-0.7925606,-0.0043614507,0.8045776,1.4194883,-0.57962376,-0.2533502,-0.93521565,0.49519426,-0.7852135,0.8296702,-1.3604776,1.0495012,-0.896979,-0.65509504,0.63438267,-0.34735537,1.1048024,-0.2204495,0.44431186,-0.8925478,-1.3617358,-0.6473159,1.4217274,-0.5635325,-0.8328763,-1.4623554,1.1812989,-1.2377176,0.43039048,0.8503223,0.38222015,1.027536,1.178715,0.9788704,1.4154439,1.2309036,-1.4086301,-1.1663944,-1.3562247,0.557929,-1.0463252,0.6852876,-0.78616923,1.3015873,-0.60804874,0.6832686,-0.15344703,-1.3828542,0.5732097,-0.21629584,0.97458494,-0.25523078,0.88683254,0.62332624,-0.72356147,-0.78784436,1.1815164,1.194029,-1.4182591,-1.3603354,0.8831025,-1.3456689,0.96097845,-1.3889699,-1.1941785,-0.2735998,-0.5467045,-0.88790613,-1.0721946,-0.6797347,-0.58450717,0.081492126,1.269824,1.3732063,0.9945876,-1.0271266,1.2401471,0.24760151,-0.98093015,0.34898955,-1.0800214,1.3485006,-0.31525487,1.2399377,-1.0267384,0.063153505,-0.65015405,-1.4072404,0.30964923,-0.17251396,-0.4978636,0.9806244,-0.22956884,-1.242735,0.5721241,0.865362,0.2786792,1.3972203,-0.9487982],"62":[-1.2581244,-1.4724689,-0.5806607,1.0705643,-0.9758561,-0.23798972,-1.2793338,-0.15337676,-0.10791868,-0.26062542,-0.8426265,-0.41341996,-0.3297556,1.109317,0.64901805,0.43711317,0.7069788,-1.3983697,-1.3741472,-0.034618735,0.2610764,1.4493152,0.71472573,0.36898828,-1.2568133,0.9584198,1.0174649,0.56729776,1.3596745,-0.7423809,-0.45831764,-0.7763731,-1.1756512,-0.43555945,-1.1525284,-0.9598228,-0.5703601,1.3909476,-0.22768968,0.5156688,-0.91834885,0.7449753,-0.8593619,-1.4016169,0.72271264,-1.0429537,-0.004269719,-1.362426,-0.9639448,0.30374426,-0.46770465,1.2540411,1.294225,-0.930832,-0.21452755,-0.7007999,-0.7951269,0.7622255,-0.7646422,-0.4775566,-0.27115005,-1.2855775,0.06490141,-1.0077326,-0.8218621,1.3862426,1.098832,0.36615425,0.28227085,-0.70442086,0.6120195,-0.07640022,-0.1053713,-1.1083848,0.9569771,0.8093562,-1.3278718,-1.1125579,-1.1725559,1.115481,-0.25404668,-0.004875183,-0.9567588,-0.49490172,0.23308718,-1.2487757,-0.51467854,0.5463853,0.23149467,-0.0036867857,-0.8363689,-0.22121805,0.51221555,0.6355539,0.63713837,-0.8437441,0.7336691,0.3432269,0.2686497,-0.30396527],"63":[-1.1916857,0.9006184,0.45827633,0.9873233,-1.449058,0.97753805,0.44591403,0.18863207,-0.65460974,-0.50559175,0.8377127,1.2802162,0.14387101,0.9829459,-0.7345467,-1.2294385,-1.3745966,-0.6456413,1.4636039,0.6976399,-0.206931,-0.31268764,1.1648415,0.8576925,-0.5970433,-0.70952404,-0.032039165,-0.2430346,1.2874457,-0.09379506,-0.3872888,1.1656312,0.74689364,0.6630551,-0.33807206,-0.89531726,0.15692586,-0.8829485,-0.5420462,-0.9369031,-0.5199276,1.3791701,-1.4273589,-1.1344295,1.0239265,1.0456147,-0.46186996,0.21376133,0.102537274,-0.59206116,-0.8394354,-0.8537223,-1.4737147,0.9390909,0.5296138,1.4591693,1.3878887,0.116261065,0.5537608,0.39917976,-1.1361419,-1.092736,0.77103657,-0.69836944,-1.298116,-0.04911697,1.3298655,0.61650896,-0.72718155,-0.7267599,0.56762177,-0.34889513,-0.5543187,0.5178062,-0.48806173,-0.89469516,-0.32254726,-1.3608227,1.1162884,0.07381886,-0.9287149,-0.522671,0.17451775,-0.23706973,-1.074584,0.29826093,0.53312784,0.08156687,-0.6871024,0.9384713,0.3012346,0.08393043,1.3165388,-0.5541356,0.8037361,-0.30636692,0.11965191,0.5410266,-0.40222406,0.2985447],"64":[0.16381073,-0.60346806,-0.53395057,-0.451657,-0.652165,-0.37163973,-0.9610296,0.9163549,-0.18145037,-1.0608225,-0.9524122,0.024489105,0.73480904,-0.092018366,-1.0441406,1.2736602,-0.021954238,-0.055923343,-0.25073808,0.86009556,0.52404463,-0.3868509,-0.14182878,0.6325802,0.0773415,1.1932547,-1.2382718,-0.16181034,1.2777708,0.27721274,-0.24606067,-1.4909246,1.1812066,0.48462796,-0.9598097,0.7389348,-1.3485792,-0.91164744,0.3535198,-0.57210034,0.011315346,0.12832046,-1.0270908,-0.8538723,-1.1520247,-1.303714,-0.21659249,0.11849195,-0.31626016,1.2635562,-0.9244648,0.99893564,-0.7717012,-1.3114667,-0.91552806,-1.125211,0.60490286,1.3223753,-1.2704619,-0.67084765,-0.42652702,-0.07560825,0.675279,-0.8002462,0.48080617,-1.442894,1.1279644,-1.2661383,0.85111284,-1.419224,-0.707745,-0.18834901,-0.5678426,-0.656976,0.28825897,-0.50085014,-0.28755498,-1.0798051,-0.86172205,-0.98789173,0.35680407,-0.42467165,-0.32427388,-0.9561308,-1.1802986,0.29183525,0.814692,0.66519606,0.08915287,0.63160354,-1.2734516,-0.39466757,0.62602794,1.3966186,-0.5846595,-0.61200285,-0.6493537,-1.4076859,-0.625857,-0.7366669],"65":[-0.5459427,-0.4567963,0.5804125,-1.254192,0.9364584,0.5279229,-0.90916425,0.9994195,0.60450053,0.5029539,0.54238933,-0.18445462,-0.98064923,1.0008106,0.57335615,-0.5918387,-1.3584957,1.2855668,0.11835998,-1.0342908,1.366956,1.056019,-0.43965608,-0.14727294,-0.12635368,0.27961993,-0.81607085,0.6489855,1.2985277,-1.0412798,1.2341859,0.49203658,-0.8676469,0.48115772,-0.5719042,0.9748108,-0.58334595,-1.361192,0.12611836,-0.01944691,-1.0287656,-0.37506008,0.09076345,1.2795436,-0.031232715,-1.2531569,0.26820266,0.75471926,1.1111743,0.7143817,1.1650133,1.4178863,-0.36517793,0.15396148,-0.29943627,0.2413187,-1.4517535,0.63516587,-1.2157162,-0.22574723,-1.3775039,0.7327008,-1.0759306,0.9559577,1.059519,0.44839454,-1.1177552,0.9204567,0.060513675,0.48507643,-0.52336174,1.288615,-0.380741,-0.7633547,0.90417874,-0.276137,0.61815906,1.4671991,1.465375,-0.5187562,-1.3553677,-0.2786824,0.3648743,-0.9671157,0.8774539,1.1680663,-0.5844215,0.075214505,-0.73558813,-1.2814826,0.87237525,-1.1647382,1.4399807,-0.016134381,-1.135206,1.2342618,1.4130955,0.3605858,-0.18200773,-0.08363503],"66":[1.446132,-0.7607179,-1.1528556,0.7683894,0.82514566,0.8470155,-0.44959384,-0.096416295,-0.6548009,-0.14621222,0.9471844,0.7930441,0.29185992,0.5256386,-0.27041835,-0.926222,-0.7291315,-0.9137047,-0.6548703,-1.3657062,1.1035826,-0.75757635,1.3352405,-0.080548346,-1.0728874,0.5708268,1.421473,-0.48380488,-0.98055875,0.61938983,-0.35303557,0.045464337,-0.36585277,0.12444806,-0.5588765,-1.4902275,-0.5222415,-0.7959019,-0.38052213,0.14740098,1.3933872,-1.4977634,-0.7880686,-1.4489009,-1.2224526,1.202271,-0.7975713,0.71049947,-0.15549177,-0.5376075,-1.3184304,0.34647954,1.0277503,1.2415566,1.3759651,-0.8903709,0.6417507,-1.4601599,-0.8357715,0.98493844,0.5944809,-0.06330782,-0.46550775,-1.3708016,1.2757206,-1.3333731,-1.1607437,1.339693,0.25925428,-0.4939127,0.18583685,-0.57895607,-0.46590078,-0.12785143,0.46892613,1.4646646,-1.462256,-0.80999905,0.019028485,-0.676785,0.2212109,0.6735104,-0.3876087,-0.92331487,0.89738953,-0.22892618,0.21765393,0.6165878,1.2420769,1.0481741,-1.1131607,-0.58512676,1.1237578,-0.8186828,-0.036156356,-0.8026151,-1.4965811,-0.6351203,-0.98820394,-0.6332515],"67":[-0.26601183,-0.9595937,-1.4259813,1.2408929,0.965579,1.1798146,-1.3741853,-1.4569305,-1.1284075,-1.3200722,-1.0120103,-0.10397458,-0.23473513,1.3019629,0.69489616,1.2947662,-0.19061708,0.986431,0.47444612,0.9272341,0.027004838,0.20232028,-0.6998502,0.46530855,1.4876885,0.7401429,-1.2498653,-1.1217624,0.055431426,-1.3036648,-1.413332,1.1240934,-1.126909,0.73951757,0.3527575,0.1386264,0.71256816,0.18143928,1.1463151,0.51549804,1.39995,-0.8998148,-1.3789334,-0.123040795,0.47252458,-0.4466738,1.2787492,-1.0957282,-1.3768598,-0.8250405,-1.4874303,0.94915116,-0.55415064,-0.25417668,-0.7051134,0.5949336,-0.6763113,1.4188247,-0.7484477,0.8491425,-1.3605373,1.0484254,0.34376353,0.35156572,-1.4615918,1.0790324,0.2921185,0.27443576,1.0849264,-1.2912458,0.7795499,-0.6213986,0.4127072,-0.6746265,-0.11537969,1.0127275,1.1265147,0.6184666,0.06277692,0.05286795,0.8599187,-1.184557,-1.0592728,-0.89721286,-0.8075967,1.1612816,-0.3524453,1.1913946,-0.7865292,-1.4628949,-0.0135240555,-0.3932376,-1.1258737,0.3737669,-1.2561383,0.76489055,0.7114325,-1.4380968,-0.76123595,0.8319315],"68":[-1.024386,0.27551687,1.4316062,1.0128644,1.2275759,0.40370196,-0.77570593,-0.9543198,0.9657551,-0.32840824,-0.99961513,-1.2995548,1.0250163,0.67978996,0.3579288,0.086114824,-1.0717231,0.43059397,-1.3218079,1.2128581,-1.1681163,0.1267587,-0.73984694,-0.44760704,1.2719305,-0.68616736,-0.22168368,0.6945269,-0.97151077,0.985091,0.24544,-0.7809509,1.1249228,-1.1435213,0.65759665,-0.8029947,0.79337955,0.7628712,0.80834645,-0.788278,-0.8643565,1.4697037,0.81901145,1.4384356,-0.18270314,-1.3432939,1.0669495,0.4429291,-0.24918169,-0.87252027,-1.1985261,1.3034581,-0.8506175,-0.24299812,-0.90864515,0.20950377,-0.23899806,-0.40169442,-0.43078583,-0.94616157,0.0540753,1.4580872,0.5196685,1.1216462,0.4763909,-0.88847333,0.6845332,-0.6395311,0.18848544,0.48995912,0.4428302,-1.0638285,-0.39864296,1.4640446,0.2916196,0.22819519,0.17456567,-0.6955687,-1.1764687,-0.0055906177,0.19619966,1.2705145,-0.49125552,-1.2713238,-0.7949624,-0.408953,0.1665085,-0.103401124,0.24839616,-0.014291167,-0.30645418,0.9542987,-0.75630033,0.061233044,-0.5125653,-0.4681592,-1.1948023,0.37724948,-1.2906715,-0.43540388],"69":[-0.7100526,-0.57756686,-1.025155,0.27029818,0.91657555,0.904192,0.20673054,1.451222,-0.53864855,-0.8913832,1.0187933,-0.60246617,1.3822174,-0.93884003,-0.65715927,-1.2903028,-0.15553343,0.5830461,-1.0016363,1.0234752,-1.003494,-0.65160763,-0.4609648,-0.24327439,-0.3596667,0.033935666,-1.3370123,0.31966192,-0.50033945,-0.1489191,1.2692538,0.041104138,-1.3366401,-0.5727312,-1.1457363,-1.2464552,-0.29185188,-1.3620777,1.2974851,0.4238389,-0.16480905,-0.08441681,-0.35761946,0.8803033,0.05954218,-1.4646907,1.3615855,-1.1446528,-0.6578731,0.718736,1.1935635,0.79976624,-1.4034865,-0.88681465,0.7973238,0.5716451,1.3701167,-0.1938191,0.055095077,-1.347157,0.2792439,-1.2081277,-1.3892941,-0.31033587,-1.1055998,1.1874136,1.3125511,-1.2085645,-0.23758185,0.5536925,0.76022923,0.53258014,-0.27951372,-0.5652255,-0.5407507,-0.2911175,1.4373919,-1.2946687,-1.2349133,-0.58436,1.3499787,0.7182087,-0.1056447,-0.6866053,0.9945511,-1.0690889,-0.8768379,-0.32705945,-0.70994514,1.4227688,-0.08977085,-0.34459645,-0.6640942,-0.9326003,-1.0735829,-1.1865817,0.8083284,-0.7893641,-0.87632865,-1.2191298],"70":[-0.5303471,-0.28270197,0.7481818,0.41360646,0.88602287,0.06471795,0.71182984,1.1510141,-0.805467,-0.73785406,-1.097674,-0.0217309,1.3300292,-0.8545046,-0.17887777,-0.08287132,-0.21789014,-1.4909402,1.1744752,0.38670892,1.0199492,0.83796716,-0.544681,-1.290921,-1.098478,0.60694313,1.0467414,-0.13248682,0.21802568,0.7625506,-1.4176171,0.57080877,0.39412522,0.15792847,-0.58238196,0.8202111,1.1149449,-1.237892,-1.2238208,0.015820205,0.06798184,-0.16898614,0.34188205,0.99561167,-1.0597315,-0.19974679,-0.022374988,1.1423066,-1.4563179,-0.9289305,1.1797645,-1.3797237,-1.4448929,0.48593098,0.51731426,-0.58746797,-0.8444393,1.4909688,-0.15136313,-0.39857358,-0.8648749,-0.96284205,-0.520603,0.22057968,-1.430423,-1.491816,-0.5925032,-0.9464169,-1.0628653,-0.8689551,-1.1112053,-1.0383371,0.17012072,1.3800734,-0.4767099,-0.024591565,1.1341081,1.3486285,0.83409655,1.2354609,-0.615288,1.495498,0.91377425,-0.76922876,0.8009906,-1.191428,-0.05184281,-0.8932305,-1.062552,-0.0059523582,-0.6099563,-0.63242036,0.5866109,1.3718988,0.8890836,1.2037306,0.13683432,0.87738204,-0.043376505,-0.07902056],"71":[-0.30135137,1.2041078,0.37239897,0.6072051,-0.7894723,1.4276514,0.99238497,0.84942985,-0.92575085,0.070016384,0.10953283,-1.2723166,-0.90382665,-0.70393413,0.43646443,-1.2349112,-1.0241578,-0.53753704,1.4154654,-0.95572203,-0.23910123,-0.05048597,-1.2218997,0.5082325,0.8935545,0.7386128,0.9683182,-0.10908079,0.624898,0.0634743,1.4624915,1.0765092,0.9751312,-1.2640132,-0.69468284,0.9936102,0.9287735,1.1856847,-1.1202145,-0.871086,-1.2445031,-0.22596431,1.0824566,1.0401661,-0.29874837,0.29437137,-1.4016993,1.4417999,1.3209776,0.54143375,1.3372123,1.4280868,-0.4571936,-1.2611636,-0.79272115,0.027138948,-0.67338234,-1.261592,1.4842747,0.3277933,0.36009747,-0.72165835,0.5697121,0.68000937,0.9288769,0.6169655,-0.7339779,1.111198,-0.5311729,-1.0044298,-0.18070167,-0.38331753,0.4617185,1.1127183,0.37154174,-0.7641188,0.7994485,0.3880754,-0.18342519,0.84056425,0.14111924,-1.2185315,0.4740976,0.4438398,-1.2663469,0.56729776,-0.40859234,0.014122009,-0.72876567,-0.6199767,0.005318463,1.0961605,-0.33631986,-0.972731,-1.1645167,-1.0484565,-1.0343903,-0.78225535,-1.0958629,1.3476844],"72":[-0.8385122,-1.1777691,0.7282065,-1.4577425,-1.1851856,0.37291378,1.278261,-0.7177892,-1.2644295,0.7967355,1.1878542,-0.12086427,0.7801355,0.44657457,1.4625533,-0.65844405,1.1857284,0.3870542,1.2103007,0.3657689,-0.78030825,-0.6658103,-0.40003824,1.2901065,-1.3931512,1.3202033,-0.26761186,0.9279501,-0.9974592,1.4767889,1.4311291,0.68663067,0.54066986,-0.6491021,-0.13026774,-0.87557423,-0.4912634,-0.7845481,1.2671525,1.0115571,0.18785083,-0.046717644,1.2352849,0.5668638,-1.206023,0.63593405,1.0696473,-0.43388772,-0.03473836,0.2880081,-1.15992,1.0022788,-1.0298095,-1.479326,0.038143516,-0.024621248,0.7893641,-1.3625361,-0.9320006,1.0004513,1.4256914,0.17393178,-0.28789937,1.0833153,0.59562546,1.2315688,-0.64541906,-0.5800325,0.21706706,0.38272208,0.4365304,0.13085443,0.737424,-0.56211823,-1.2578914,-1.4039686,-0.28860265,0.22167277,0.39059597,-1.066721,1.1045415,-1.3924096,-1.2625473,1.2605041,1.1667583,-1.3138721,1.0093896,0.058894515,-0.489241,0.28451496,0.7049702,0.5632739,1.1227123,-0.26946062,-1.268236,-0.9055812,-0.7393266,0.8501825,0.2689392,-0.72872436],"73":[1.3079433,-0.26892418,-0.008892238,-1.3918221,0.07946867,-1.4605093,0.6568365,-0.104872406,1.2939302,0.16581076,-1.0134609,0.82032734,-1.1882997,0.7319398,-0.0486238,-0.7022853,1.4268792,0.6067738,-0.39052588,1.1881046,-0.49188048,-0.7407623,0.56848884,1.111114,-0.8359292,-1.062577,-0.57568645,-1.0060973,0.9130867,1.1904335,-0.5766542,-1.1595745,0.8355063,-0.94938916,0.9995987,-1.2700577,0.9575774,1.0477049,1.1063071,-0.047923923,-0.10959238,0.9492604,0.9537009,-0.18286192,-0.1988166,-0.7205556,-0.96594715,-0.5274718,0.62274116,-0.57392764,1.1092212,-1.4298656,0.14115286,0.252248,-1.1762893,-1.0450332,0.32139194,1.4143306,-1.2291207,1.1093262,0.8929589,-1.3038619,1.1673825,0.8508092,-0.009452462,1.1577051,-0.8213423,-1.1754253,1.1368629,1.457,-0.69750756,0.9173264,-0.41524726,1.0209904,-1.3519831,0.37011766,-0.4390599,-1.1237242,-0.86400086,1.3528297,-1.2402438,-1.1676555,0.2925403,0.2997898,0.70630217,-0.7762431,-0.5412115,1.233505,-0.5021058,0.28587306,0.87005943,1.1698539,1.0119617,-0.7779177,1.3726954,1.4949329,-0.4875893,1.3577173,0.038010657,-0.31786108],"74":[0.30779457,0.5451504,-0.045316458,-0.68885994,0.96591854,0.5354526,0.010188282,-0.61418027,1.2356719,-0.036049068,0.50509626,-0.61791587,0.04968989,-1.1725833,-0.43701732,0.11677569,1.0570791,-0.054229796,1.3462654,0.38367373,-0.1269046,0.86243033,-1.2942083,0.21644032,-1.3269925,0.99713874,-0.99603903,0.41594,0.13180912,0.22009385,-1.415637,1.308691,0.5230905,-0.8112268,-1.4321513,-0.155137,-0.38115942,-1.3359494,1.1468458,-0.4676957,-0.7730588,0.55694443,-0.106511414,0.33413225,-0.663799,-0.31949222,0.7729159,0.8940604,0.37204868,-0.22382033,0.9387295,0.8690713,-0.49522787,-0.016766846,0.6392854,1.4266098,-0.6956758,0.9348539,-1.0306139,0.5874136,-0.6996571,-0.21202147,-1.124244,1.2209764,-0.26295984,-0.09081012,0.3974322,0.0023002625,-0.9089089,0.4043945,0.4446625,-0.05738139,-1.1940427,0.88955176,0.5873696,-1.415573,-1.1662233,-0.24522042,0.15352571,0.3331257,0.16170359,-0.41229665,-0.76890135,-0.740687,-0.9534139,0.264405,0.53356236,-0.41188753,1.1878171,0.47447222,0.79965824,-0.58311296,-0.99219275,1.3035203,-0.9522711,0.8831168,0.35785425,-0.72682965,-0.7954375,0.109919965],"75":[1.333667,1.3549592,-1.4080219,0.659363,0.98548204,0.19086993,1.1731358,1.3042424,-0.5344475,1.0654124,0.99525315,0.14492244,1.0925443,1.0844954,0.97209424,-0.34748697,0.33070815,0.103479266,-0.74634844,1.0020078,-0.38257688,-1.1976695,1.1472673,0.9153042,0.37792933,-1.3535614,-0.7648637,-0.59559524,0.7024398,-0.36676884,-0.14108527,0.3264826,0.358074,0.33839446,-0.5920297,-0.8289045,1.2881395,-1.4607536,0.6761137,-0.433401,1.2380517,1.4727799,1.0372789,0.12121546,0.106407166,1.3133795,-0.19668067,-1.0312017,0.0503878,-0.34290665,-1.0520858,-0.7943748,-1.1998763,-1.3833865,0.46406472,-1.2045519,1.2592916,-1.2584535,-0.12234324,-1.1385193,1.4622703,0.08893132,0.53783906,0.6031546,0.6824659,-1.2354667,-0.15008014,0.31393307,0.6971138,-1.4155086,0.47802258,-0.4306199,-1.498637,1.235782,0.8724028,1.1112689,-1.0844103,-0.9552993,0.7582941,-0.4623193,-1.0640635,-1.1552494,0.16543525,1.0252429,-0.59948105,-0.41555518,-1.2822851,1.2539878,-0.8192096,0.87286216,1.0451117,-1.1315163,-1.2521607,-0.55725753,-0.6627288,1.4705274,1.0975174,-1.4190433,0.640023,-0.75618213],"76":[0.7098704,0.9678249,-0.321719,-0.69588107,1.4874913,-0.7795361,-0.87597996,1.283997,0.014701903,-0.8751442,-1.1357322,-0.51701456,-0.1254353,-0.8219027,0.5160012,0.42513978,-1.276013,-0.9693718,-0.9477922,1.3167762,0.96181744,0.60495615,-1.2174549,1.0614535,-0.8661715,-1.4502964,-0.26928288,1.1108805,-0.08898854,0.8875526,0.40000802,-0.45823574,0.5504569,-1.3729947,0.40567607,1.3301371,0.50175244,-0.92925507,-1.0251607,1.2419028,1.0394077,-0.7416576,-1.4279075,-1.0284374,-1.149976,0.70711327,0.14140034,-0.27598482,-0.9204805,0.753361,0.8071296,0.56626064,-0.6621432,0.6984864,-0.88965744,0.44723135,-0.3112936,-0.11459935,1.1370238,1.0181663,0.15299016,-1.0965917,1.4791625,1.159786,0.4439124,-0.7962209,-0.57643926,-0.9041501,-0.19282275,-0.36182427,1.4591241,0.22818339,-0.8818769,-0.74177474,-0.15091467,-1.2400951,-0.7024015,-1.2776932,-0.24429667,1.1125159,0.8006712,-0.1507684,0.16810942,-1.3883216,-1.1039836,-1.2398082,-1.200281,-0.6891893,1.4084855,-1.0811774,0.05340314,1.065142,1.3140826,-1.3099375,0.44988173,-0.4610533,-0.2750516,-0.5224489,-1.2437036,-0.7689795],"77":[-1.3289033,1.1192248,0.13542008,-1.0671158,0.486871,1.1144116,-1.2300979,1.336721,-1.4219131,0.26699692,1.4671415,-1.2736399,-1.216151,1.476929,-0.42990303,-0.8495162,0.13538092,-0.4276235,0.48125052,-0.19760066,0.5406364,-0.021226645,-1.3949454,-0.93367535,-0.7801173,1.2122011,-0.12742817,1.3088832,1.0316731,1.1563919,0.7486274,-0.2655759,-0.10562128,0.5178827,0.043439448,-0.107349515,0.42658335,-1.147167,-0.13011324,-1.1070569,1.0346012,-0.2369349,-1.4148042,-0.047208667,1.1564366,-1.339905,-1.1094872,-0.69996786,-0.9065786,0.9583517,0.35368413,-0.7061632,1.2695587,0.25413662,0.15198147,-0.97252107,0.37262392,1.0086433,0.46974903,-0.6857477,0.74914813,-1.1509349,1.3978179,0.7985682,0.70884204,-0.24084091,-1.4306878,0.15750057,0.8832355,0.26755196,0.4843499,0.7362612,-1.4274899,0.04854405,1.160553,1.2411451,0.07770449,0.33732373,0.49482805,-0.7575919,-0.19315088,1.0352824,1.1505492,0.6041969,-0.13983321,-0.74107915,0.35026842,-0.11449885,1.0931325,-0.64453554,0.95875686,-0.0651319,0.5898224,0.68083924,0.24852312,0.8218941,0.21831912,0.7145394,0.53285944,0.6694282],"78":[0.14446932,0.8483727,0.034220338,1.1302392,0.9102516,0.222238,-1.4203019,0.4869781,0.10468894,1.3316345,-1.1554524,0.73009336,0.2581442,0.6758262,-1.1247593,0.29875463,-1.1246583,-1.0605166,-0.46851915,1.4665484,-0.018602192,0.6732409,0.51400656,-0.043730557,0.94534725,-0.43926233,-0.064083695,-0.43940502,-0.33532065,1.4416769,1.2258836,1.2058065,-0.94181925,0.27444845,0.12697434,0.7568933,1.3619323,0.42980665,1.2527385,1.1865494,0.654508,-1.0561448,1.1695936,0.6011846,0.97903365,0.05238086,0.76986945,-0.013274431,-0.67569584,-0.84071946,-1.3448057,0.3663252,1.2504857,-0.4111787,0.040338457,-1.3475873,-1.0049222,-1.4321251,-1.1119056,-0.33200437,0.3022138,-0.662717,-1.154264,-1.1008198,-0.8740091,-0.073759496,1.4056151,1.4577734,-1.4011742,1.0388113,0.5988164,0.68824,0.3021353,1.3881316,-1.0767298,-0.67337126,0.6793585,-0.35342735,-0.5959931,0.7862919,1.4841753,-0.8678981,0.056116104,-0.15523946,-0.25208527,-0.27826667,0.96586704,-1.0400777,-0.26140416,0.53629786,-1.4933879,0.012248576,1.4230995,-0.12829024,0.16342449,-0.95127887,-0.74409235,0.40371823,1.4510105,1.2603819],"79":[1.379961,-0.34427387,-0.33544278,0.281601,-0.013781905,1.2740774,0.7689319,1.0554261,-0.20645678,1.137564,1.0032939,-0.78401005,-0.8770496,0.0034589767,-0.14574873,0.6799561,0.6587162,0.7932156,-0.087127805,-0.90196735,-0.9695202,-0.6058227,1.4826651,1.0675368,-0.24313062,1.0504858,-1.35017,-0.43814975,1.3189883,-0.45878077,1.4578768,0.69575214,-0.9606149,-1.1365957,0.7731761,1.3796904,1.421363,0.35996532,-0.31009394,-0.42725354,1.2049615,-0.9421161,-1.2159237,1.2065668,0.9193606,-0.77657425,1.3842369,-1.232229,1.0492777,-1.2360467,-0.56086886,-0.33914387,1.0729676,1.1193819,1.3664353,0.5985153,0.26331478,0.8637348,0.57603836,-0.78173304,0.11753422,0.020717025,-0.98561615,-0.5237097,0.9918632,0.5455059,-0.43948692,1.0635412,0.6828441,-0.518432,1.1503718,-0.7043495,-1.3878839,0.24106193,1.2537055,-0.43308198,-0.16453153,1.2802837,0.83060735,0.33762074,1.4098731,-0.72103894,0.53754616,-1.3015764,-1.0285127,1.4081259,-0.3907553,0.37865406,0.49322945,-1.0611484,0.9465623,-1.4038392,0.38216132,0.77153724,-0.63793266,1.1283084,-0.98765445,0.40223533,-0.4482118,-1.153121],"80":[-0.08819497,0.53508604,0.2698921,-1.283277,1.1188507,0.36853784,-0.07570481,-0.50517404,0.3425544,-1.0430263,1.1690322,-1.4317385,-0.7418398,0.07862592,0.040408194,0.11578524,-1.0328676,-1.2127116,1.1565735,-1.0185345,-1.4394722,-1.3911134,-1.2746177,0.9536292,1.2486058,0.68662727,-0.34655696,0.62762904,0.5126009,1.0619413,-0.68919486,-0.858777,-0.4617623,-1.1557685,-1.0036708,-0.32380718,-1.1478753,0.5682222,1.1020935,-0.5292898,-0.19777197,0.88796335,-0.6401469,1.4609066,-0.25422585,-0.6594758,0.89226097,0.20925254,-1.4905475,0.87064326,1.1592796,-0.8054729,0.16758692,-0.9538649,0.8500979,1.3967396,0.42344373,-0.48330206,-1.3941132,1.138679,1.2511656,-0.9090062,-0.62957096,-1.0389132,-1.0348775,-0.43725443,-0.74515074,-0.179676,0.63958937,0.9711347,-0.6651181,-1.2832811,0.53292596,1.3517115,-0.35268223,-0.8536779,0.77798635,-0.44081372,0.95069665,-0.12596637,-1.0421022,-0.9849649,-0.37140548,-1.1676669,0.6952352,0.4530115,-0.86831707,1.1871655,0.070428014,-1.3233211,-1.2468848,0.27229983,-0.082223475,1.2246904,-1.0321238,-1.3213518,-1.4919223,1.3085725,-0.04044789,-0.6061721],"81":[-0.3573988,0.79859537,1.4836968,-0.83882046,1.186305,-0.5074151,0.7618548,1.1476026,-0.761092,-0.2743519,1.2763443,1.1314552,-1.2438426,-1.3236877,1.0467188,1.1307417,-0.332951,0.43241268,0.8112511,0.5409261,-0.39320093,-0.12967122,-1.3001325,-0.11980623,0.92523694,-1.0279438,0.9710968,-1.3686767,0.981728,0.7091775,0.41208887,0.693716,-0.7040148,-0.84086627,-0.6193444,0.67180717,1.171591,-1.4390216,1.437979,-0.86011416,1.1834004,0.71972626,0.7678519,-0.86915123,-0.84889394,-0.36703902,-0.67531496,0.0076782703,0.18426222,-0.22137469,-0.6227521,-0.9852512,-1.2399638,-0.14216548,0.18010783,0.16134435,-0.840119,-1.3355854,-1.2872987,0.88926655,-0.73637366,0.40714967,-0.9016326,0.20320147,-0.57793146,-0.5119039,-0.653465,-1.124649,0.54555523,0.82237405,-1.2392955,1.3135009,-0.5886823,-0.32329756,0.009908438,-1.1758189,-0.55164975,0.27136946,-0.518564,-1.282484,-1.2703968,0.81163394,1.0811536,0.22961926,-0.40267646,0.48537326,1.0000606,-0.14613658,-0.6593721,0.28091276,-1.4003923,0.50687885,-0.22488749,-0.19200951,0.6644992,0.7242467,1.0555651,-0.07031965,-0.40874094,0.15273178],"82":[-0.11048108,-1.1620106,0.31745446,-0.043676198,-0.5245959,0.4242357,0.8496997,-0.952515,0.71006066,-1.4719839,-1.449074,-1.1359924,-0.099321306,0.60502017,0.16256082,0.57785547,-0.09064132,-0.496437,-1.3236898,-1.1817852,1.4853241,0.18221676,-0.8104908,-0.35409737,-1.3535593,0.02565658,-1.0688035,-0.24228555,-0.48556405,0.12894487,0.5006329,0.15404338,-0.98114187,-1.1053977,-0.20741987,1.0803654,-0.3499056,-0.5200905,-0.41246974,-0.507418,-1.1306767,0.16732568,0.42189002,0.3070575,-1.1245333,-0.9161489,-0.3673396,-1.3554958,1.2922027,-1.0550297,-1.3994193,-1.2807913,-0.3706357,-0.7074582,1.4175198,0.72374475,-0.0127283335,1.0511158,-0.07590598,0.08299327,-0.13535893,1.0737021,0.48422527,-0.8524838,-0.1687079,1.2659192,-0.3665033,0.24219096,-1.1976639,1.2796896,-0.91023856,-0.26300383,-1.0406038,-0.8538369,-0.60414255,0.53267884,-1.0590408,-1.1731665,-0.86496145,-0.058490038,-1.4697521,1.3203188,-0.25034183,-0.41575062,0.34479636,1.238206,-0.020148754,1.3088722,-1.0458809,0.107097566,-0.09861928,-0.7597461,0.25021327,-1.2586696,0.008155167,-1.3640602,-0.30665803,-1.446163,-0.4467886,-0.59019595],"83":[-0.7048881,-0.3160166,1.3470635,0.3941347,0.13674206,-0.16657054,-0.93532723,0.93974215,-0.9296676,-0.36666673,-0.3862658,1.2910256,0.25752228,1.3301786,-1.13689,-1.1499853,1.3855596,-0.33205587,0.2116018,-0.75545186,-0.6161846,1.4522306,-0.46996057,1.1386437,0.64001656,-1.35383,-0.426728,-1.06447,-1.4034078,0.6583137,0.6686593,1.2124304,-1.4382279,-0.53085315,0.06222242,-1.2043424,0.40489644,0.19439524,-1.4525776,0.6115533,-1.0915107,-0.86887425,-0.048158884,-0.75738895,-0.22463661,1.0251343,-1.4643395,0.227032,-1.4641467,1.1994514,-1.3635149,-0.58662146,0.7732113,1.1199563,0.6202453,-0.5651112,-0.24635822,-1.1151727,-0.44764888,1.2356105,0.78971815,-1.4432963,-1.2673786,0.72926974,-0.91489524,-0.22640955,-1.1920542,0.6564102,1.2009526,1.3779148,-0.057273388,0.52540076,-0.57031256,1.1330066,0.5046104,0.31182933,-1.4595494,-0.77279127,1.0817488,-0.15830433,-0.9356255,-0.730456,-0.7173566,0.55206317,0.18736428,-0.8883671,0.9582018,0.49799144,-1.0948651,-0.64576757,-0.23829871,1.4918289,0.6126398,-0.13246787,0.37763625,0.5129142,-0.20530361,-1.4585449,-0.66796553,-1.1756055]},"biases":[-0.48322338,0.7925266,0.23141474,-0.010698438,-1.0837364,-0.03408122,-0.6745214,-1.3931301,-0.45840293,1.0292904,-0.9301942,-0.77794915,1.2779832,0.6167382,-1.3590579,0.8728346,-1.453478,1.3676448,-0.33773965,-0.40817052,-1.2168748,0.9345111,-0.3948682,0.7322057,0.9368284,1.3448285,-1.2558686,-0.069022715,-1.2119297,-0.689543,-0.47453642,1.374302,1.0180998,0.41265,-0.26442415,0.050898135,-0.087539434,0.83885103,-0.61084914,0.35704958,-0.8114859,0.23716986,0.1552831,-0.9232022,0.6053839,1.2114311,-1.1218904,0.029614627,-0.413099,-1.3558756,-0.16506225,-0.7885893,0.9361081,0.26802653,-1.0398357,-0.32951617,-0.56267774,-0.43628365,-0.31379646,-0.782824,-1.1137769,-0.47703266,0.6228125,0.60093516,-0.30760682,-0.837344,-0.23526692,-0.94146967,-1.4019551,-0.40921605,-0.31148082,-0.97108215,1.4925461,-1.3613486,0.47966677,1.147197,-1.1470745,0.08193952,-0.13661402,0.016217172,0.056726396,-1.0848622,0.10745841,0.08508003,-0.060997903,0.5418704,0.7161768,-0.58865726,-1.4242905,0.2843585,1.4852889,1.4494638,0.2655158,-1.090291,-1.0644827,0.16087013,-1.0256388,-1.1774676,-1.1546881,0.19920391]},{"in":100,"out":81,"weights":{"0":[1.486002,0.14350641,-0.8442151,-1.1081889,-0.5947389,-0.10253227,-0.85018176,0.14118397,0.85535806,0.58789515,-1.2625258,-1.1235512,-1.3934934,-1.178695,0.7896373,-0.5874052,0.08737528,-1.0508137,1.4269731,-0.377191,-1.3346633,0.80553514,-1.1086218,-0.64268464,1.4084418,1.4428457,0.020192206,-0.96681637,1.4534007,0.53242224,-0.06349182,-0.13880628,0.8820026,1.0740935,1.0131845,-1.2852781,-0.39691365,-1.4078984,-0.545535,-0.20182765,-1.3662517,0.39359933,-1.4338682,1.2934353,1.1860752,0.045188963,1.2450439,0.3774047,-0.41699284,-0.49442965,-1.372029,0.9739194,-0.009434938,0.8451712,1.417598,-0.9701439,0.016238272,0.45388037,0.10074681,-0.28980625,0.9121181,-1.312386,-1.1603267,0.6061095,0.85441786,-0.6815699,-0.30333263,-0.7850892,0.14682037,-1.3135552,1.3943732,-0.43858445,-1.2679713,0.08044195,-0.58764267,-0.63070124,1.4679098,-0.8647594,-0.27780908,-1.4450269,-0.5839627],"1":[0.3376372,0.45916396,-1.4256195,-0.8218544,-0.52899134,0.36522263,-1.1697736,0.32969856,-1.3149776,0.4734308,0.30464798,0.22359288,1.289329,-0.5621819,0.40242183,0.97351617,0.043662965,0.6687895,0.2866913,0.39699644,0.4922256,-1.0605621,1.0274166,-1.3708731,-1.0189688,-0.87354076,0.20395839,-1.3040819,-0.8376442,-0.48282444,-1.4220572,1.3278748,-1.3212721,-1.3392518,0.4916135,0.82742465,1.2763492,-0.7870175,-1.2960835,-0.6895675,0.05524993,-0.7926709,0.17514646,0.37092358,-1.3954264,1.1983991,-1.2591287,1.032604,-1.251529,1.0158588,0.44124967,0.70975274,-0.6779335,0.7112476,0.64090526,-1.0063995,-0.48251778,-0.8389399,-0.22217399,0.74419177,-0.46511132,1.2812487,0.8103742,-0.9861828,-1.1883048,-0.102127254,-0.33168697,1.1740179,0.9379465,1.2048365,0.7954747,-0.5467504,-0.08228874,1.1439059,0.089743674,-0.44341403,-0.6355487,0.5249639,0.62547165,-0.6049606,-0.69839734],"2":[0.34310246,-0.60663754,0.0092205405,-0.81432974,-0.8887664,-0.85868615,-0.9232886,-1.4093682,0.111608505,-0.6285664,-0.44997132,0.6601714,-0.09543443,-0.8788372,-1.0141958,-0.61864597,0.919308,0.50542724,0.94581306,-1.0172079,0.2733069,0.30030048,0.36081523,-0.51450205,0.11296302,-0.32982802,0.08499938,1.3647683,-0.90189457,-1.066849,-0.027232647,1.3924088,-0.9522105,0.3865959,1.1396043,0.84871423,1.1418189,0.04473263,0.63760114,1.1181418,-0.12614554,-0.556712,1.36571,-0.5571429,0.2993281,-0.61440593,0.4918179,0.3722123,1.2999384,1.3853731,-0.82921386,0.025058627,0.7295242,1.3381009,0.4320091,-1.0404718,-0.2523322,-0.73832935,0.4764483,1.2654009,0.5086153,-0.263036,-1.1538243,-0.23145962,0.5349026,-0.526413,-0.25539672,0.6058672,0.19290358,-0.11549628,-1.040787,1.2053316,0.37421143,-0.9993442,0.92272496,0.8089941,-1.3640875,1.2211623,-1.4412392,1.1201745,-1.1667182],"3":[0.14221483,1.2162226,0.18645269,1.4944661,-1.0986543,-0.15676886,1.1020191,-1.437413,0.5411936,-0.0120027065,0.12087017,1.4963582,-0.4975521,0.32964313,0.33507192,-0.4747392,0.8871056,1.1882962,0.44829226,0.040534258,-0.11396366,-0.9350703,1.3944485,0.41419137,1.3508165,-0.32797587,1.2026621,-1.1329284,-0.27894634,0.5102379,-0.6521294,-0.32376498,-0.9454667,-0.3716349,0.18291253,0.76048404,-0.8365701,0.85553473,0.23783898,1.2130826,0.37128943,-0.8908412,1.31269,0.14657396,0.9697872,1.3144927,-0.07215214,-0.9178444,0.7534096,-0.66272914,-0.67954266,1.3594987,-0.37808436,0.3860548,1.0040506,-1.2999434,0.14477205,-0.30844277,0.955702,0.3325839,-1.2898761,0.3216353,1.49604,0.7865417,-1.1270599,0.68145114,-0.78422624,-0.25931257,0.13348997,-0.03142011,1.0561591,-1.0666807,0.7231845,-1.269732,-0.14305365,-1.0870869,0.8283992,0.83463335,1.0545348,0.80194044,-0.49772555],"4":[-1.4402192,-1.167455,-0.7962046,0.04230112,1.3213289,1.0045409,-1.0872011,0.54383504,-0.76331645,1.3633063,0.56462324,-0.94316053,1.4761422,-0.046613038,-0.7199657,-0.052294314,0.46792567,0.900706,0.7898485,-0.08474976,0.30830956,-0.9962239,-0.91797084,0.73278594,-0.30673206,0.4066447,1.3435224,0.73140746,-1.4691777,-1.2167056,-1.0935764,-0.42801994,0.7799626,-0.5072279,-0.59988785,-1.4099332,1.4212407,-0.75626117,-0.18831486,0.7247974,-0.5307659,0.07131207,1.1005323,-0.058874488,0.40954578,0.51075447,-0.35701346,-1.222265,-0.345576,-1.4508705,1.0041087,0.14901996,-1.1421697,-0.42885876,0.33515704,0.7456865,-0.046625197,-1.2265538,1.1672432,-0.73471427,-0.032844543,1.3805714,0.21605694,-0.87705284,0.5406745,-1.4369001,1.1081446,-1.1097207,0.2883178,0.36031955,-1.086692,1.0737987,0.4019385,-1.203975,-0.17222714,-0.40940917,0.3248248,1.0105472,-1.1590703,-0.66857135,-1.2151027],"5":[0.31165016,-0.38723105,-0.33597654,-0.86838716,-0.59882265,0.25633568,-0.09427178,0.72206444,-1.1989119,0.5466859,1.3580155,-1.3460808,0.741568,0.86447954,0.21117496,0.08968949,0.64735025,1.1498365,1.4398108,0.7461135,-1.3337636,0.40190953,-0.6759619,-0.147421,1.1725183,-0.49957305,0.1359837,0.21335167,0.47303778,-1.1938858,0.7363953,1.364581,-0.057848632,-1.3938664,0.24407744,0.8402676,0.3823623,0.3858438,-1.265046,1.1483223,-0.42427593,-0.92846006,-0.71132594,-0.012435079,-0.2780789,-0.7276797,1.3105831,-1.1465335,-0.2635519,-0.2984022,-1.2715485,1.028591,-0.5643169,-1.1404717,-0.008887231,-1.129681,-1.445436,-0.3095067,-0.16632289,-0.35285836,-0.06901699,0.3103906,-0.57720816,0.57694566,0.8066252,-0.8069667,-1.1872512,1.347397,-0.685502,1.3977494,1.4769498,1.1656928,1.2997974,-0.2776206,-0.48233628,-1.2033966,-0.84071106,0.15997285,1.4409807,-0.43862987,0.8871932],"6":[-0.4730807,0.74155927,-1.200263,0.8405317,-0.5287678,-1.286734,0.20442706,1.3962462,1.1579286,1.2194374,1.2400343,1.3238213,1.3286281,-0.0052766204,-0.39125454,1.082355,1.0521644,-1.2855409,0.1368565,-0.060107768,-0.8187284,0.020079732,0.017323494,-1.288897,-1.2527357,-1.2669873,-0.1635096,-0.27439392,-1.2079808,1.1980987,-1.4467617,0.31270713,0.1751706,0.50394344,0.39764553,0.47832513,-0.6370833,1.2609283,1.1011058,-0.24448729,-1.2692842,0.86362356,-0.89070207,0.32395506,-0.77568984,0.57756793,-0.4218151,0.46686566,-1.0048724,-0.92643607,0.16060549,-0.44409478,-1.2183263,0.16349083,0.789166,0.6299851,1.1612825,-0.46389002,0.6855011,0.029301703,-0.044926643,-0.5272406,0.40561312,0.6285528,0.69045675,-1.3381522,1.4123533,-0.35737306,0.6048442,1.342417,-0.02438736,-0.3641855,-0.6820702,1.0585244,-0.55083114,-0.6082569,0.5564407,0.2976501,1.1516554,1.4243013,0.29602933],"7":[-0.5336437,0.21122485,0.53952295,0.6899119,0.18388331,-0.17991579,1.0930531,-0.70592326,-1.0364946,0.71486235,-0.21079892,0.024916112,-1.2516754,-0.667533,0.099858284,-0.9106441,1.1484408,1.427474,0.8753793,1.1424384,-1.2018499,-0.7666667,0.94891995,-0.03834182,-1.1556802,-1.289222,-1.2494013,-0.6192663,-1.1751527,0.11064863,0.8649425,1.3704722,-0.9814516,-1.4442573,-0.8688964,-0.2099036,-1.1781185,0.4064691,1.4859257,-0.33624762,0.9481575,-1.1582422,0.49604988,0.24510062,0.5602167,