{"network":{"layer_sizes":[84,100,300,200,100,81],"layer_count":5,"layers":[{"in":84,"out":100,"weights":{"0":[-0.5447418,0.03328405,-0.15888734,0.9673907,-0.85486376,1.495497,-0.8119964,0.24041624,-0.6055806,0.05592331,0.17353445,-0.7516509,-0.34037456,0.40136606,-0.5134855,-0.07083211,0.3894983,0.7137477,1.1690567,-0.51855725,0.19377238,-0.09007365,0.3603418,-0.44169158,-0.107708625,-1.3586771,0.22618039,-0.9425532,-0.46855068,-0.7294087,0.16004635,-0.5372853,-0.29447994,-1.1776364,1.2216473,0.7657457,1.327182,-0.06387679,0.8674291,-0.7100226,1.1664429,0.24257539,-0.8805848,0.32224366,-0.63786703,-0.034860563,-0.6043982,0.49861065,0.6831127,-0.8105802,-0.2373181,0.6826455,0.34238213,0.25557056,0.43461397,-2.4745343,0.7611326,0.23350409,-0.9738493,0.053761613,0.835146,0.7026647,-1.4725261,-0.27325204,-0.45879635,0.6420829,-0.74048847,-0.5737862,-0.8061876,0.6214492,-0.28526846,-0.060886286,0.7778049,-0.8143574,0.29368955,-0.4033593,0.5826923,0.5999455,0.2830169,1.0945147,-0.59824663,1.4901088,-1.0106558,1.5900089,-1.3445219,-0.057558328,-0.44340894,-0.985797,-0.16980757,-2.0697675,-0.25457382,0.6980942,-1.2842677,-1.8150436,-0.031083843,0.24158536,0.1062503,0.14565319,0.66748667,0.69318926],"1":[-0.76454437,0.9278093,-0.2173973,0.35148814,0.4264842,-1.9211562,-1.6872237,-0.69943124,0.5024206,0.99718225,-0.22392395,-1.5263386,1.0664119,-0.9947042,0.2993752,-0.44049996,1.0352184,-0.53853786,1.4162055,-1.1389508,0.113036245,-0.3602541,0.17377737,-0.7347976,-1.1227198,1.0008715,0.88216895,-0.46884596,-0.48674664,1.130013,0.48659337,1.9386415,-0.6628108,-0.9901333,-0.07567256,1.039141,0.20382752,0.73137456,-0.070217706,-1.6345062,-1.9080873,0.2873122,-0.30418146,0.004206961,0.39343145,-0.5445432,-0.9060968,-0.54415566,-0.021396343,1.7118322,-0.7238581,-0.718871,-0.8553481,-1.764959,-0.70139664,0.34049255,-0.44377676,-0.24037075,-0.62934995,0.41450176,1.3581427,-0.74631613,-1.4815067,1.0144697,-0.3046465,-0.15237983,0.3601561,-0.016032448,0.034380373,-0.41659275,-1.1456134,0.45090255,-0.7908417,0.13762401,0.23265353,1.0546741,1.1386318,-0.33373427,1.2949768,0.40061978,-0.73143464,-0.66383755,1.1444215,-1.5231426,0.47232568,1.3692212,0.9010267,-0.33748665,-0.7670262,-0.07864674,-0.3435974,-0.25010362,0.99262583,-1.3225298,-0.98439264,-1.209255,0.35669523,0.9268773,1.0379466,1.0509809],"2":[-1.2518334,-0.87936246,-0.097964026,-0.019901223,-0.99239826,-0.61848533,-0.8111233,0.254192,-0.29043794,0.38831693,0.20908195,0.093222044,-1.0636259,1.299045,-0.031992573,0.13298732,0.15699697,0.07314985,-0.7129126,-0.18771382,-1.3443612,-1.1016034,-0.14818092,1.318164,-0.5505582,-0.66311276,0.80431086,0.5753052,0.41756055,-0.1353104,-0.78615427,0.43263036,-0.08929045,0.23459235,-0.7392194,-1.1474942,-0.14734502,0.29075587,-0.121940084,0.33495814,-0.92069435,-0.93589133,-0.9787532,-0.04100974,0.8847115,-1.0166866,-1.5031668,0.69233006,-1.8311182,-0.7900479,0.46145147,-0.75361276,0.24447514,-0.40591985,-0.80108726,-0.07252176,-0.08039075,0.79354197,1.0678464,-1.1698036,-1.1130688,0.67461276,-0.19717762,2.051663,-0.46464035,-0.2690273,0.82689273,-0.4526207,0.018973023,-0.2876387,-0.39390716,-1.3242854,-1.2286292,0.63035524,-0.31739882,0.67727375,-1.7410448,1.4289069,-0.34672222,-0.14238273,0.42172268,0.25168827,-0.3600491,0.9370111,-0.27329165,0.3709147,0.6273586,-0.70064515,-0.9185039,0.52144235,0.71285295,0.5643063,-0.60884196,1.1417316,0.44785535,-1.729092,0.809206,0.038953166,-0.27439883,-0.8120713],"3":[0.9345433,0.5122167,1.2419764,-0.39335662,0.56960016,-0.18324797,-0.6030204,-0.052745394,-0.96922785,0.997722,0.86588013,0.68102473,-0.7999663,1.2220986,-0.715689,-0.19012634,1.176114,0.7559898,0.7955331,0.5349598,-1.4173144,0.050930474,-0.49400452,0.24870762,0.08941349,1.1891379,-0.70158666,-0.44214228,-1.01598,-1.4083369,-0.025225924,-0.38445792,0.75591415,-0.4447914,-0.420871,-0.019290676,0.88407266,-0.40199995,0.80768096,-1.5889509,-1.0701594,-0.63196206,1.4168441,-1.9537257,-1.28882,0.516834,-0.46675223,0.9253069,0.26311356,0.2054739,0.47721207,-1.1315335,-0.02624802,0.2461258,-0.9716753,-1.0226184,0.2582019,0.4129121,-0.5698008,1.031588,0.40411952,1.7510637,-1.8469043,0.15976314,-1.6023281,-1.8598548,0.43328065,1.0507565,-0.16984893,-1.7498901,-0.520886,-0.5133142,-0.120759696,0.42544487,-0.44695857,0.84239715,0.6084439,-0.8317731,-0.30107895,1.3560374,-0.07797411,0.64799213,-0.21635023,1.093796,-0.2864274,-1.7889011,0.12457902,-1.2307456,0.749935,0.66681767,-0.80536765,1.3083198,0.023049433,-0.88461417,-1.4001622,-0.2160259,0.9702068,0.4721343,-0.9711859,-0.9459311],"4":[0.9550561,-1.0419068,-0.25959313,-0.30572373,-1.9533455,0.49248677,-0.0068504973,0.35203677,0.63905144,-0.2040716,0.8654267,-0.23873638,0.63873553,1.3531637,-0.26274946,-0.23567332,-0.06154935,0.86747634,-0.5803395,-0.1381115,0.037445195,-0.0782711,-0.7446287,-0.37507734,0.0026324913,0.55043876,-0.71848613,1.2890375,1.43507,1.4699863,0.86609983,0.5276703,-1.3054022,0.85356003,1.2309479,0.098995276,0.8949103,0.2140259,-0.23175542,-0.79234326,0.29249656,-0.39065117,1.7609653,1.5537354,0.6043168,-1.5476646,0.109624624,-0.38444155,0.4656676,-0.99854106,-0.10930418,1.2386764,-0.8338172,-0.5636732,-1.2744297,-1.5593634,0.8900876,-1.0116613,0.7050783,-1.9698814,1.2052547,-0.69715387,1.0194893,-0.23560901,0.3073176,0.03029925,0.18637237,1.0043262,-0.91472644,0.7403141,-0.08727719,-0.22603625,1.0312797,1.0330447,-0.0038556566,-0.6712746,0.9583538,1.0557896,-1.1152272,-0.8599198,0.8647335,-0.5098815,0.2401604,-0.67651033,1.0133866,0.24628626,-0.9942207,0.7303867,1.798846,-0.07495621,0.54016453,0.06944011,-0.40454498,-0.00795959,1.4898616,0.7157166,0.42986244,-0.4287635,1.7684126,1.330093],"5":[-0.70638835,0.5635842,1.9088416,-0.7759966,0.5623936,-0.06845305,-1.1917362,0.7172476,2.417843,-0.7807828,-0.4734909,-1.1659749,-2.1168983,-2.035243,-1.2717239,-0.4221019,-0.66565156,1.7478564,-0.34127858,-0.67391783,-0.32485807,0.7465321,1.1344569,-1.1641896,-0.71558696,1.6132834,1.5984321,-0.8160596,-1.0700951,0.022194125,-0.753392,1.3229557,-0.031190801,-1.0244677,0.77767986,1.6749704,-0.356096,-1.3256097,0.8640673,-0.26226312,0.155348,-0.5931089,1.3956089,-1.367985,1.1956593,-0.9972921,-1.8228073,-0.3213998,0.9043946,-2.0431435,0.038164265,0.2829313,-0.23005983,0.1697606,0.33695117,-0.9568508,1.1064728,-0.645601,-2.3924756,-1.1084237,1.7562582,0.70438755,-0.5606752,-0.4352107,-0.27668262,0.29890326,0.77942944,-1.1075402,0.4728428,1.5849863,-0.30901775,-2.0609767,0.96158916,1.4739501,1.4645145,1.437043,-1.1406808,-0.18814567,-0.80379903,-0.68092287,0.139467,0.6088204,-2.2869296,-0.01774145,-0.28761366,-1.33485,0.3830288,0.98685145,-0.120823026,-0.23204745,1.0472652,-0.10041968,-0.23583804,0.6967104,0.3119255,-0.14001288,1.2223284,0.19606549,-0.184238,1.109076],"6":[0.5671137,1.3564453,0.8540216,1.5461149,-0.9189293,0.27432802,0.64885795,0.74858415,-0.5681735,0.7489406,0.1622525,-1.5094566,0.044269264,1.1075834,1.5089518,0.42879665,0.08979425,0.0041031535,0.81685,-1.2099761,-1.4565887,0.005081053,-0.87930626,-1.2213024,0.6220217,-0.52842563,0.17247635,-0.3107434,1.4153543,-0.2464044,1.8980191,0.9725872,1.3750248,1.4723941,-0.114229426,0.9487473,-1.5907891,0.4254727,-0.0028431586,-0.6299417,-0.42479295,0.0950501,1.0811841,1.0727361,0.11698581,0.08931404,-0.9638941,0.031214016,-1.566516,0.4417181,1.3319752,0.2885958,1.3954742,0.5735683,-0.3965943,0.3046109,0.14950357,0.7976884,-0.25346187,-1.126318,0.5665569,-0.8189589,-0.79261154,-0.830676,-1.3389968,-0.9299563,-1.147271,1.2148745,0.75434005,1.0748223,-1.2801384,1.7261488,-0.6988646,0.689185,1.000125,-0.20133935,0.92084366,-0.37147918,1.0147119,-0.4283269,-0.18788463,1.0640023,-0.95022887,0.81918025,0.7875777,0.35056397,0.029834677,0.43952742,-1.1525778,-0.48859957,0.15431859,-1.203456,2.392216,-0.31656545,-0.7810252,-1.3520491,0.4715367,0.3697773,1.073754,0.34886143],"7":[0.81886923,1.0092931,0.9486007,-0.97129995,-0.032315273,0.17132805,0.2560605,0.1817719,0.3349986,-0.67542136,0.2774177,-1.5606279,-0.5143871,0.04001138,1.2800527,0.20515382,-0.7218769,0.45615408,-0.12382863,-0.14085206,-0.4703466,-0.3321809,-1.1071482,-1.0215974,0.9101056,-0.20310834,-1.4223734,-1.3052593,1.4179441,0.4299501,-0.6496916,-1.069561,0.39028227,1.0539248,-0.078031175,-0.33362657,-0.56340593,-0.50134796,-2.0593338,1.0824183,0.09743267,-0.20351349,0.6956023,-0.51781917,-0.88010263,0.16996357,-0.034746993,-0.5833923,-0.49525943,0.32541513,0.89211845,-0.49456832,0.031119157,-0.07328152,-0.55646485,-1.370613,-0.8919902,1.2700193,1.3817432,0.74155855,0.37377915,0.8025932,-0.4191759,-0.65066636,0.0017791188,0.8226825,-0.4012619,1.7862735,-0.72919387,0.3000103,0.25565064,1.2823263,0.01775899,-0.71762484,-1.4852467,-0.41434953,-1.0124356,0.30639306,-0.025152296,0.55570585,-0.114168696,0.12986356,0.6453356,0.49793583,-0.35545906,-0.20397234,-0.67657036,-0.14019372,-1.8455828,0.6041587,-0.5351593,-1.3525834,0.13912903,1.2209343,-0.05185724,-0.68898,0.31168744,-1.0303881,-1.0919622,0.71291226],"8":[-0.50466883,-0.032463353,0.934719,0.468635,-1.6194313,-0.9144525,-1.654659,0.14504491,-0.09579842,-1.4086834,-1.9626247,-1.0688218,0.1001977,0.37541664,-1.6626923,0.5384938,0.006267723,-0.2950823,1.2508566,0.45537788,-0.76294637,-1.0140761,0.33152798,1.8219388,0.95835096,0.8336689,0.9869421,-1.7336487,0.4335906,-0.43401366,-1.3250196,-0.29790533,-0.8150622,-1.0045974,1.1627227,-1.3165169,-1.3892498,0.0018781747,-0.2539091,0.8508327,-0.42466322,0.21058531,-0.21714471,0.117849156,-1.6822461,1.0471537,-0.6026414,-1.2844653,0.81943727,0.5038314,0.97098327,-1.0975729,0.55618644,-0.46818605,1.0948242,-0.22765055,-0.88918704,0.81932884,0.36185163,0.6647198,0.9530181,1.1405548,0.2996704,0.42544168,-0.14082132,-0.8892421,1.1726421,0.114716165,0.3136966,-0.6033029,-0.2561891,1.6399629,-0.47150844,1.072513,-0.46064276,-0.9831874,0.22808765,0.018946113,0.3466389,-0.8405996,1.0466627,-0.50862205,0.15809566,-0.37799138,1.780254,-2.5778618,-0.65535235,0.6386938,-1.312626,-2.046306,0.15467131,-0.04869243,-0.28652224,-0.60082436,0.25710416,1.3475343,-1.0104591,-1.2627218,-1.4880525,-1.0469455],"9":[-0.14178437,0.66092,-2.1400428,-0.92515284,-0.1942634,0.93845916,-1.5614557,-0.54875636,-1.5140163,-0.44281584,-0.49261484,0.51254255,1.1884671,-0.9381272,0.41603982,-1.8647094,0.802382,1.4521796,-0.6207512,2.9946735,0.16627741,1.09901,1.0371268,0.45280752,-0.117093965,-1.6111026,-1.084518,0.28281525,-0.63036853,-0.14514938,0.77586883,1.3256376,1.0050358,0.8547886,-0.2120938,-1.5486641,0.1777881,0.77560914,-0.9905299,0.1588916,1.2383062,-0.21014674,-0.005200031,0.77846557,-0.11488849,0.3088263,-0.6311572,0.46998802,-0.7902169,1.1977556,0.7550901,-0.11595148,-0.6556725,-0.3366837,0.9785955,0.8374574,1.8969612,2.1060393,-0.13415806,0.24533337,0.10754449,0.7387901,0.2907151,1.0521395,-0.00933121,0.52546906,1.191843,-0.14451493,-0.75088924,-0.3826209,0.33198434,0.21692799,0.80478287,-0.6742408,-1.1463336,0.13603614,-0.79724216,0.35975665,0.06309361,1.3014023,0.90778774,0.3525269,-0.41466597,-0.67492497,1.085429,1.9209312,0.94936633,0.3666357,-0.41847968,-1.5950164,0.030422177,-0.46811533,-0.43695378,0.24547021,-0.88909286,-1.0374755,-0.068417005,-0.38279665,0.4481083,1.4146935],"10":[-0.4884908,0.32703447,-0.14095636,1.276384,-0.9581613,0.052146032,0.5482076,1.3460602,0.14076507,-0.36531517,-0.14107992,-0.1699744,-1.616784,-1.0217454,-0.2131242,-1.1574471,-0.32555258,-0.25412047,0.49093255,-0.4983652,0.38915882,1.4365882,-0.044708394,-0.22783521,0.94188845,0.45249653,-0.43611276,-0.20724414,0.930464,-0.45063484,0.36228862,-0.6856252,-0.9367219,-0.31805152,1.2724506,-1.1919184,-0.01559643,-0.010346812,-1.2476466,0.9154524,-1.0970824,0.6984062,-1.1756979,0.49221078,0.11253065,0.19258694,-1.4768935,0.8249977,-0.55741113,0.63705516,1.3662171,0.8313055,-0.37836444,1.2449917,1.3035371,1.5549158,0.13721137,0.47731116,1.2348562,-0.32722834,-0.5912051,-0.1382629,1.170966,0.13502155,-0.85297656,0.5946755,-1.0409282,0.22923209,0.006374102,0.33041486,0.29294974,0.6221483,-0.53554124,0.66257644,-0.28260687,-0.7426742,0.24435665,1.3204919,-1.4333524,-1.7455968,0.472054,1.6170737,0.3499673,0.07868368,-0.40055048,-0.97686255,-0.8464889,-1.8702962,-0.22385469,-0.28295952,0.5795681,0.7589016,-0.74375474,-0.25914448,0.28092915,-0.5971514,0.46423078,-1.0747377,0.64911914,-0.9639136],"11":[-0.93666553,0.2323801,-0.06366893,-0.4378417,0.3130967,-1.3314599,0.5284934,0.18055032,0.41344893,-0.36183065,1.1910242,0.56913716,0.6029398,0.8398772,0.9803759,2.0785632,-0.07879458,-1.2030114,0.11882571,0.5533597,0.2698274,-1.3234588,-0.36260247,-1.0737092,-0.062035095,-1.2077596,-0.8729584,-0.5101059,0.4947517,0.2500348,-1.0138149,-0.2576437,-0.9519215,2.2158945,0.7248238,0.91182107,-0.40765068,1.0309979,0.84716004,0.48371783,0.4559607,0.035705097,0.8246632,-1.1306264,-0.02163577,-0.17635892,-0.37620592,1.9996862,0.23799698,-0.55727226,-0.8507314,-0.43097952,-0.37896782,-1.2199076,-1.441901,1.7595811,-0.5807351,-0.6955267,2.3470583,2.217932,-0.84873885,0.8650371,0.33588117,0.93849444,0.37627274,-0.2246501,-0.540925,-0.25898853,0.74872655,0.19582015,0.16264355,1.8702042,0.264069,0.23807696,0.09890122,0.60340196,0.8812443,1.2375462,-1.1560818,0.34832194,-0.2729721,0.4992088,-0.3419391,-0.22519986,-1.5552065,-0.00042073143,0.56226736,-0.31390068,0.19682641,-1.7116307,2.0343874,-0.7096633,0.26148605,-0.0632423,1.2375598,1.3416456,-1.396245,-1.6217434,-1.2323453,0.7721465],"12":[1.011389,-0.22737356,-0.15134168,-1.7068868,0.00462575,-1.3964716,1.5056863,1.5867646,-0.3543655,-0.31547156,-1.180129,1.2467833,0.116763465,-1.0604231,-0.103903756,0.724918,-0.14886108,0.06392299,0.7196666,0.24619748,-0.002327053,0.5636638,1.0724164,0.5154045,-0.67953545,1.1846025,1.0973709,-0.21811536,-0.828983,-1.0215566,0.28477073,-0.8976709,0.6798754,-0.21562713,0.8752685,0.596525,1.5666428,-1.0416842,1.0451207,-0.98456514,0.39798614,-0.6538123,-1.0813473,0.21345831,-0.71320593,-0.94001955,0.90867746,-1.0241101,-1.2424521,0.72431797,-0.57494456,-0.02915148,-2.0320694,-0.31091678,1.3982763,0.62666446,0.3336618,-0.30265522,0.009064321,-1.753042,0.44596335,-0.871701,-0.14044666,-0.5075284,0.52763647,-0.85575205,-0.28309008,-1.9724478,0.689781,0.48612514,-0.09161757,0.2986891,-0.37102732,-0.57089585,0.6954519,-0.73425394,0.948232,0.27164596,-0.75572985,-0.8347105,-0.07737968,0.71265143,-0.5078117,1.0518923,0.61868936,-0.9953889,-0.2311015,0.9019561,0.29251152,0.8898245,-1.1229262,-0.77843755,-1.7830839,-1.1568439,1.0071198,-1.0128708,-1.0930234,0.07480026,0.89019454,-0.6049043],"13":[-0.062024236,0.18574923,-0.27147374,0.5919591,0.7604208,-0.5059719,-0.4773307,1.2098235,0.047690187,-0.9002006,0.97345954,-0.69124,-0.6885783,1.2657584,1.9479399,0.10163397,0.44166675,1.1616921,1.0872122,0.7150722,1.5119966,-1.8491238,0.05176424,-0.30957368,-0.14403981,0.38254744,-0.31383166,-0.6540232,1.8978908,-1.0397685,1.2264289,-2.756742,0.4785228,0.64664227,-0.4708314,0.047339175,0.98420864,0.33610043,0.60530686,-1.0878094,-0.48725143,0.039527368,-0.42967534,-0.37172952,0.45150054,-0.28797916,-1.163577,-1.1888891,-0.42518246,0.5276205,-0.035140388,-1.5287477,0.109515585,0.6981706,0.91654056,-0.031069329,-1.0374658,-0.7959734,-1.537045,-1.2753773,-1.5179573,-1.127274,-0.16171046,1.4375453,0.1633624,-0.367297,1.3834076,0.8505256,-0.932181,0.54750025,-1.4425215,-0.9490492,1.0787184,-0.7663178,-0.7736989,-1.7075071,-0.7941563,1.4274834,-0.27627182,2.013926,-0.9327871,-2.2164853,-0.42387828,-0.35325778,0.21386078,0.4994804,-0.8326609,-0.45969525,-0.23036255,0.116698444,-1.1718664,-0.5994784,0.89037037,0.4486847,0.3320099,0.49627155,0.41799963,0.15643026,0.7916957,0.9103542],"14":[-1.2486875,0.7426609,0.48963442,0.029944237,2.0639362,-0.20519398,1.1251922,0.2260822,-0.035771597,-1.1751378,-0.77095735,-0.92234975,-0.82269347,0.48336935,0.46667925,-0.15755634,-0.43356073,0.71384084,1.0991635,-1.189191,1.3447981,0.35295546,0.5271738,0.06220515,1.2086394,0.032286115,-1.8729913,-0.19480084,2.0203424,1.1035895,-0.33751547,-0.024497246,-0.18964672,0.44173104,-0.87908214,0.9299974,0.06456616,1.7161691,0.9362335,0.5558006,0.33223212,1.7890118,1.0993266,-0.02416165,0.057522964,0.8326271,-0.7970886,-1.3544078,-0.42017716,-0.49769583,0.051571537,0.40009645,-0.922953,0.18581845,0.36038694,0.601364,1.8034084,-0.49820244,-0.2383727,1.1100239,-1.4334059,-1.7950187,0.51821053,0.34626976,0.5578171,0.5482103,0.6102643,1.515694,-0.5456785,-0.99267566,0.28347608,0.8522503,-1.3775258,0.18728927,-0.57235557,-0.81807417,0.875287,-1.3737996,0.23765454,0.7731332,0.8806212,-0.8578541,0.24115777,-0.0701871,-1.1550273,-0.35751706,-0.23055154,-1.517271,-0.07370542,0.4552655,-0.37517577,-0.070938855,1.3465408,-1.1194154,-0.53200024,1.2395637,-0.4327023,0.49597737,0.9537255,-1.5787866],"15":[0.21325451,1.8215154,0.20578465,-0.028205222,0.7574137,0.73708194,-0.31746855,-0.49453434,-0.12724812,-0.52091825,-0.9957669,-1.1892788,0.35947582,0.28304642,0.5802835,1.144046,-0.8110887,-0.7768222,0.8472786,0.30513555,-0.39098597,1.6988332,1.3921279,-1.1393462,0.41471037,-1.0269759,-0.34568676,-0.012235745,0.850662,-1.7430971,-0.108229324,-1.0797389,0.028021604,0.96661144,0.24036203,-0.4109168,0.5708572,0.59153944,-0.5015432,-0.10397672,0.46247134,-0.9859277,-1.1168652,0.30579817,-1.1855876,0.8312872,0.5682198,0.27211627,-0.18541695,0.1795556,0.20325343,1.0698749,-0.69852173,1.2455441,-1.2747009,0.25214687,1.1758181,-1.5860516,-1.2468466,0.23732395,-1.3659148,-0.7776703,2.3751807,-0.76389676,0.2420668,1.1497848,-0.39080915,-0.57847846,0.7550487,-0.13149112,0.9127853,-0.08739635,1.2381533,-1.064838,-0.47659725,0.21035565,1.0558347,0.6085402,-0.9444877,-0.4131008,-0.8838821,-1.0130067,0.27396488,0.14347303,-0.6781525,-0.5180686,-0.062328536,-0.69890267,-0.4517077,0.7649644,0.36199847,0.19236615,0.7168182,0.91657025,0.8773978,0.78096145,0.064319246,-1.5461696,0.32593513,0.07858676],"16":[-0.22759171,0.45810568,0.14696765,1.8431151,0.18439509,-0.9952176,-1.3635238,-0.96468,-0.56999636,-1.5723647,-1.9141856,0.99213797,0.057512943,-0.18259868,0.78580695,-0.21428807,1.6797553,1.2528589,-0.5198894,-0.9699396,0.00852182,0.6573005,2.057798,-0.13531968,-0.44051325,-1.168457,1.1663368,0.07732644,1.4080461,0.06850366,0.309074,0.4600004,1.3784853,-0.103255704,-1.3611393,0.099247575,-0.4860426,-0.6846588,1.5800163,-1.2554677,0.5496127,0.1806176,0.50038403,1.4826086,0.27765942,-0.10943815,-0.123870626,0.7816,-0.05652898,0.4227934,-0.22371124,0.27361342,-1.4873018,-0.98381263,0.8179137,0.5883431,-0.31609672,-1.0441463,-0.49470806,1.0246513,0.14335847,-0.3021707,-1.5610775,-0.23528105,-0.6397677,1.0803941,0.59751016,0.87611043,1.9149356,0.11495424,2.1019716,-0.5999926,0.7682666,-0.9996027,-1.6140444,0.35282773,1.55491,-0.982922,0.28940713,0.5890593,0.83011264,0.81149423,-0.64012545,0.49212408,0.33493322,-0.5988061,-2.0342612,0.20777456,-0.05949289,0.47551954,-1.5574507,-1.3996338,-0.6609038,-0.5268404,1.4462785,1.026944,0.6962392,-0.8574251,-0.52924806,0.6789862],"17":[-0.5212658,0.18389933,-0.25366357,0.5167132,0.45038447,1.6020174,-1.4622505,1.4033389,0.7345711,0.4151606,-0.8736853,0.59030837,0.014014722,0.4170642,-0.23441115,0.4185259,0.68266,-0.7944094,0.17475122,0.32022455,-0.0954226,1.7745516,1.0324131,0.17279278,-0.89465773,-0.12411211,1.6857326,1.1246041,0.5230542,-0.8965611,-0.24328719,-0.113656975,-0.5602135,-1.3576401,-0.5734068,0.31143814,0.9272298,0.7493898,1.6640781,-0.13069794,-0.4213687,0.82652444,0.7949841,0.6264622,1.2326715,-0.7288945,-0.2096829,0.4904573,-0.20055477,-1.3992504,-0.98124826,-0.37079543,0.12990718,-0.57512134,0.26706535,-0.2628664,-0.2858544,1.109462,-0.7049882,-0.22399509,-0.95277256,0.5104459,1.1335543,0.5133633,0.69512683,-0.16460961,-0.87603074,-0.2537528,-1.1267796,1.1039335,-0.28643453,-0.8488118,-0.9084324,0.9189305,-0.77500856,-0.022948205,-0.96899605,-0.7197028,-1.5884477,-0.100165986,0.22667421,0.17936963,-0.30183697,0.57873577,-0.67786294,0.39574224,-0.10674656,-0.77784157,-1.3818328,-1.7793837,0.06277477,-0.5123984,0.02971601,0.10675106,0.26085854,-1.10292,-0.80057627,-0.89931655,0.15817147,0.347788],"18":[0.47238928,-0.54546523,0.3827929,0.26783708,-0.37888637,1.0693208,0.435822,-2.0185962,-0.043075908,0.023907006,-0.4979338,1.4203062,-1.0752219,-1.5890881,-0.2634844,0.5969958,-1.0538822,0.07311398,-0.11817326,0.25253284,0.3478911,-0.09470989,1.0728517,1.0798028,0.04333623,-0.31557736,-0.8315715,0.5751089,-0.41794717,1.879658,0.20665897,-0.17496952,-0.86387026,-0.37665823,-0.32687604,-0.12966354,-1.2564151,-1.3111614,0.62497365,0.8159036,1.7381766,0.12790754,-0.20701025,1.7777083,-0.72083986,-0.79042745,0.2554987,-1.2826372,-0.52026975,0.4959935,-0.3661164,-0.99473685,-0.067917325,-0.30081487,1.166614,0.2103527,-0.37582278,0.1569261,1.008829,0.9762398,1.9717373,0.079672344,-0.85923195,-2.3972645,-0.7288986,-1.3216839,-0.7962156,0.3930382,0.13438702,-1.0453395,1.0485233,-0.19837956,-1.8555675,0.24697839,-0.6641037,0.71597636,-0.17940074,0.4562937,-0.7905607,-0.58101207,-0.63373137,-0.9399824,-1.7536169,0.19933802,-0.12068169,0.5863211,-0.8037098,1.2089556,0.16625299,-1.0467227,-1.2145208,1.2137322,0.21228142,0.4602363,0.6243936,0.6260877,-0.058565713,-0.5727257,0.060210377,-0.25691965],"19":[1.0767379,-0.2726371,-0.34319663,-0.29395884,0.30114862,0.14802104,-0.23446521,-0.37691638,1.1683283,-0.37707758,0.044206537,0.510915,-0.3360055,-0.74157965,-1.4230686,0.49639392,-0.0023970422,1.0495241,-1.1202039,-0.41495362,1.2931999,1.9558778,-0.86161,-0.6057264,1.2586902,0.09476467,-0.39779362,0.3428513,-1.1253589,-2.0149486,-1.4521836,-0.6961123,-0.8367284,-1.2971679,-0.28378093,1.2042651,0.06496752,-1.5676502,-0.22216843,-0.5640941,0.6126853,-0.66257524,-0.7137503,0.31170827,-1.2342806,0.1362279,0.47064674,0.44576535,-0.24343921,-0.81037927,1.2768278,-1.3305458,0.5255276,0.91021,1.5261782,0.048844248,0.4660976,0.27578452,-0.34742427,0.5947404,-0.49477622,1.7871796,0.53031784,0.027154818,1.2930124,-0.09695622,0.32543793,-1.4988079,-0.4384296,-0.67524725,0.2701512,-0.3430044,0.3484935,-0.29236597,-0.041892532,-2.4963996,0.106899805,0.34488294,-0.1432002,0.17476618,-0.15067998,0.4854319,-0.71359426,0.69993097,-0.12977727,1.5551819,-0.65903825,-0.38346863,0.44323996,0.28517845,-0.4933574,-0.50081277,0.5506067,0.91926044,1.0947151,-0.4874961,1.5273623,0.72666883,-0.3734443,-1.6848238],"20":[1.0855027,2.1011715,-0.81216216,-0.24758513,0.8652086,-0.2799825,-0.74430805,0.5600934,-0.7844806,0.48063526,0.5564445,-1.0741162,0.81081456,-0.78573877,-0.71816194,-0.97537935,-0.22347221,0.46166238,-0.34341216,0.53794116,-0.8586072,-0.5202004,0.51531434,-0.23154302,0.09218505,-0.15217768,1.7261336,0.07958743,1.4686377,-0.72058713,-0.10704809,-0.44550404,0.24889801,0.5937294,-0.80651253,-0.06616329,1.4948032,0.072351925,0.02203319,-0.2917621,-1.1167533,1.4950935,-0.68925124,-0.47738484,-0.3673012,1.297122,2.2023919,0.61776507,-0.21721333,-1.0403194,0.61344266,-0.46971646,0.8127391,0.69807667,0.028786223,-0.0072419844,0.31884924,-1.7966536,-0.8008329,-0.8665841,2.161763,-0.056355033,0.11185735,0.6913379,2.3212266,0.73642516,0.58424705,0.090098076,0.63141185,-1.1279215,0.05427158,-0.59467065,-0.108401775,-0.4607458,-1.7432668,0.7991377,0.8297335,-1.5670565,-0.52368385,0.8984494,0.6843155,0.36716813,0.4076989,-0.26752716,-0.8136674,0.4259667,-0.9278187,-0.41026244,-0.013954028,-0.15962595,-0.7173413,-0.1415903,0.79785854,0.38491505,0.34326917,0.33443102,0.13845469,1.1910123,0.9719763,1.2997674],"21":[0.44200638,0.61213017,-0.75030303,-1.092186,-1.1081434,-0.17866625,0.9815687,0.27942103,-0.926234,1.7445444,0.88843215,-0.03225393,1.6397505,-0.3856246,-0.15835486,-1.2786906,-1.4067076,0.31322286,-0.86752456,0.36239263,-1.4311464,-0.16586481,-0.13665566,-0.38385648,-0.87619114,0.70262206,1.2334903,0.34994683,-0.3274069,-0.8537433,0.901428,-0.35491037,1.4474195,0.5285665,0.2739361,-0.5222136,-0.96782815,-1.4674324,0.7656535,1.6433665,0.16918328,-0.46139526,0.17552803,-0.15175518,0.9369742,-0.8461729,-0.87290925,-0.61551684,-0.8440816,1.2099036,1.072589,-0.12697443,-0.37114304,-0.9053515,-0.46433994,-1.647211,-1.9460546,-0.6710603,-0.29138914,-0.45560342,-1.1228794,0.26741984,0.78313136,0.04489598,-0.9911184,-0.1359446,-0.19128083,0.023820266,-0.02806774,-0.38074988,-0.3078831,-0.6445145,-1.2818738,-0.48957422,1.4932739,1.0910281,-1.0356934,0.9750186,-0.59126836,0.40423775,0.9857081,-0.7571851,1.2507969,0.8344438,1.8875266,0.60121906,-0.34144908,-0.05230312,-0.15205881,0.71844006,1.0540196,-0.46365553,-1.0537237,-0.82435393,-0.973531,-0.46135318,-0.74184287,-1.8043725,0.5256561,-0.7145433],"22":[-1.639677,0.73558176,-0.6792492,-1.1171095,-0.97602445,-0.9316175,0.2096707,0.7702149,-0.2550219,-2.2066808,-0.16938768,0.50139105,-1.0182766,-0.6583862,-0.046399225,1.8855206,0.3446117,-0.51941663,-1.1219672,1.225791,-1.0234212,0.8649442,-1.1420062,-0.54288125,-0.69215834,1.0939407,1.9478308,-0.7640964,-0.39525345,0.027612546,-0.052142568,0.10728984,-0.23388611,-1.156548,-0.53614247,-0.5700049,0.5754847,-0.5654756,0.93901825,0.22394083,0.42189708,0.8205698,0.5306747,-1.1350853,-0.5608056,0.64093024,-1.3999903,0.77713853,1.2883953,-1.2237586,0.38397822,0.6642955,-0.8367454,0.22487089,0.12498529,0.090816155,-0.40361875,0.86755496,0.094509386,-0.66468084,-0.16937254,0.6778339,0.10705987,-0.6352069,0.97269225,0.01410929,0.13458778,0.5894082,-0.5971515,-0.69359577,-1.3441225,2.422903,0.055770352,0.5683417,0.57526046,-0.33123767,1.3365588,1.1225017,-1.4531823,-0.24197114,-0.12297472,-0.76979685,-0.8795834,0.904168,1.0889667,-0.637185,0.69591784,1.5034786,0.23832919,-0.62449694,-0.48747456,0.6042109,-0.78318816,0.48786438,1.0580927,-0.55307233,0.7191217,0.89994836,0.71848977,-0.34901986],"23":[0.62742287,-1.0733267,-0.828956,-0.45100117,-0.3597409,1.3679156,0.32045314,-0.09118229,0.65020996,0.6780165,-0.7568244,-0.07323896,-1.0404143,-0.5731637,0.59728307,1.632854,0.06391523,0.18206486,-0.99122006,1.17967,-0.12606181,0.008400677,1.326359,-1.4187827,0.89898705,0.9699109,0.507955,1.172631,-0.056330666,-0.16302013,-0.86968917,0.36695278,0.5102831,0.11569846,-1.1280866,0.8138599,2.3298926,0.41550916,0.97098786,-0.26046875,-0.22872476,1.1201,-0.22989908,1.462416,-0.27496636,-0.34505796,0.023322538,-0.9632972,-1.4350556,0.33656457,0.1710019,0.61296904,0.14194141,-1.1994482,0.21363154,0.32961825,0.044981718,0.08723065,-0.023853073,-1.5747532,-0.5225816,-0.1929917,0.35420555,0.4208721,-0.061129045,0.32300508,0.5706339,1.391728,0.068883635,0.251813,0.66110545,0.35014236,-0.55559564,0.36433783,-0.8538853,-0.8799754,-0.17097811,-0.36207336,1.0362313,-0.36718795,-0.45613953,0.20060453,-0.86630386,-1.0668752,0.3421792,-0.035851423,-0.2978052,-0.113376975,-0.35279158,0.3063528,0.0052284044,0.92322004,-0.1534638,-1.3038754,-0.5900933,0.87782776,-1.6872685,-1.1693356,-1.4246603,-0.42879438],"24":[0.04184603,-0.33060375,0.38813958,-0.5251621,-0.31619778,1.6948383,0.40122843,0.11401808,0.41744098,-0.99208444,1.1595156,1.614799,0.11086553,-0.38996387,-0.842562,-1.2526631,0.8877177,-0.31672582,-0.14117621,0.98476344,-0.5050853,-0.3752884,-0.7662658,-0.43352753,-1.0100741,-1.3447338,1.1988221,-0.367995,-0.12248163,-0.923948,0.3669346,1.5362841,-0.6903987,-0.38428992,1.605822,0.06448931,-1.0711166,-1.1120358,-0.48826408,1.2119409,-0.09808055,-0.70926344,-2.434474,0.27283418,0.8478719,-0.6857858,0.88836426,0.29868063,-0.26435506,1.0562022,-0.34705427,-0.17033298,-0.4293505,-0.63765484,-0.521259,0.4870341,1.1204374,0.16190802,-0.2125614,0.8297456,-0.51248187,0.07304877,0.9881349,0.39776188,0.730667,-0.47392303,-0.44996816,-0.019399716,2.2215226,-0.61569285,0.21231404,-0.97485393,-0.3746293,1.5726695,-0.4535192,0.88682044,1.4695249,-1.566202,1.1149501,1.0407592,0.64517576,0.68275714,0.26364183,0.99413395,0.061216444,-0.286733,0.30160704,-1.3515612,0.15535174,-1.3934168,1.1518869,-0.9212426,0.006409725,-0.8632645,0.5139058,0.0443917,1.4754709,0.008594349,1.0402738,-1.9356691],"25":[-1.2097515,1.6494738,-0.9026475,-1.1361916,0.18849944,0.8475719,0.6270813,0.59419805,1.1010079,2.0613585,-0.66530395,-0.38225457,-0.7479351,-0.87126344,-0.90897244,0.8251987,-0.42672288,1.3470689,1.5753406,0.23969288,0.8251671,1.1079804,-0.9120827,-0.33525276,0.29308262,0.89578617,0.83081144,0.87376183,0.5864248,0.41063315,0.48307198,0.6058453,0.41793096,-1.125809,-0.33405903,-0.24837321,0.15048946,0.6457182,0.31827053,-1.3907102,-0.8037294,1.3100275,-1.0852723,1.480038,-1.2672668,1.1808144,-0.07343411,-0.9735351,0.7745641,-0.15542178,1.588273,-1.1633624,0.31986806,1.4045224,-0.07963031,-0.1962701,-0.81463176,0.06655303,-0.24885818,0.3241772,-0.27967343,1.5526657,-0.23021914,0.67274207,-0.9174049,1.3845772,0.25746256,1.3096819,0.36616176,-0.3950083,0.7411887,0.9979184,1.2239863,1.8436296,0.38894686,0.69074726,0.21026233,0.054061685,0.1675144,0.107193574,-0.3590086,0.82544905,-0.41644332,-0.19928218,-0.39192012,1.001939,0.61284184,-2.6352065,-0.7555896,0.3744802,1.3214643,-1.147511,0.7422807,0.77736807,-0.20123045,1.6109443,0.09086283,-1.0120064,1.004414,-0.40472773],"26":[-0.60325545,-0.066456966,-0.26706842,0.48076454,-1.6748794,0.037245046,-0.44760022,-1.3560055,0.71818626,0.94075835,1.0227838,-0.7327358,-0.6895993,-0.78649473,1.0034772,1.0922904,0.24008724,0.005641279,-0.4320138,1.4319942,-0.95171005,0.66891164,-3.0651217,-0.738527,-0.01965218,-1.0198375,-0.37697792,-0.49228054,0.39091218,-0.63189346,-0.33017063,1.7896909,1.2243551,1.4132564,0.02402291,1.4762638,0.42933685,-0.86067307,-0.6188639,0.07313226,0.111062504,-0.63436973,1.8112438,0.357795,-0.510191,-1.1595112,0.45017514,1.1523925,0.07727094,0.7001466,-0.5838725,0.274442,-2.5194092,-1.1885891,-0.7106148,0.8729305,0.03553722,0.023260562,1.2845514,0.5403467,-0.4546589,-1.1864723,1.5316836,-0.5801953,-0.3793148,-1.0910342,0.9217246,-0.17124788,0.34799483,-0.36195612,-0.017860843,-0.29916474,0.9720512,-0.5917128,0.433736,-0.40352392,0.62969315,0.9902834,0.6835134,0.25903985,1.1145297,-1.717307,-1.1957805,-0.20319276,-0.6080011,0.7581311,-0.049706485,-1.5305387,0.34662604,-1.335306,0.6100465,-0.23745544,1.1351664,-0.7751507,0.8685922,-1.5881654,-0.22245993,-1.24859,-1.2462424,-0.005929246],"27":[-1.0530318,-0.8528069,-1.163596,-0.36191362,-1.3301733,-0.9790218,0.9713716,-1.8305598,-1.5872281,1.3568519,0.8168227,0.48138264,1.9185123,-0.75417215,-0.06861618,0.21086854,-1.771732,0.8875505,0.011103636,-0.9443239,0.79908967,-0.7762887,0.3829629,0.81091696,0.8186107,-0.8850137,-0.7013914,-0.18098614,1.9908113,-0.5814519,-0.9902104,0.5224587,0.13713285,-0.5581902,1.3922542,0.93304425,-0.7001855,-1.2976751,-1.3517271,0.040025022,-0.3614141,0.18493263,-0.34723312,-0.66882366,0.45100194,-0.113476485,-0.3150943,1.7327176,-0.19643687,-0.3695905,0.66592956,0.3473315,-0.15804048,0.3388032,-0.85726154,0.00036478022,-1.377987,-0.2576548,-0.33847034,-0.054860167,2.1817732,-0.1033597,-0.14975278,-0.25805438,0.3198838,1.4451572,-0.22644103,0.6316113,0.13127269,0.5069525,1.4747812,1.3045022,0.30827728,0.46080664,0.53958434,-1.9539129,1.417716,-1.9127444,-0.4542901,1.2694824,-1.0089369,-0.15298,-1.0309309,0.42168003,0.52574486,0.3044489,0.5124075,-1.1868995,0.7527762,-1.1825004,0.57293856,-0.44177255,-0.23299122,0.7303014,0.50454485,-0.79923034,-0.58567977,-1.7333261,1.2928673,-0.6545934],"28":[-1.5243465,-0.1419997,-0.62768626,0.45661503,-1.0233119,-0.21433108,0.5237485,-0.7149555,0.5427794,-0.70724547,1.3765008,0.8734935,-1.8055441,-0.58653915,0.7708536,0.13274083,1.3518492,0.8232985,0.45242193,0.7444263,2.1334412,-1.0813719,1.1595206,0.9369801,-1.2032254,-0.5594003,-0.13414736,-0.24190228,0.65165037,0.26864776,-0.092583746,-0.5962371,1.172571,-0.057509474,-0.5667583,0.16346595,0.4882109,-2.245934,0.97370493,1.1597062,-0.67712975,-0.8162387,-0.22283293,-0.14672764,0.6092409,-0.7135667,0.14586185,-0.53286076,-0.8300792,-0.6201221,-0.23691563,-0.4482369,-0.27414688,0.52349764,1.433447,-0.88139886,1.0317665,0.23608749,0.98410153,0.81575966,0.79364645,-0.3789495,-0.32781273,0.09027304,0.32044315,1.450382,-0.8524392,0.8633199,-1.2455907,0.5761119,-0.2833793,0.1288041,0.48209295,-1.3337868,-0.7136365,0.085225545,0.66158414,0.7381379,0.6905619,-0.3056494,0.4515886,0.30423036,1.5949003,0.18363339,-0.18690604,-0.62491846,-0.9760617,-0.396145,0.66352564,0.27124622,-0.2468261,-0.06745649,0.6900007,1.7743338,-0.09896672,-0.3217784,-0.894274,0.59164804,1.0783426,0.3445267],"29":[-1.657912,-0.03779914,-0.034731906,-0.9719655,0.2130911,0.82351756,1.0068811,-0.9119302,0.76648104,-0.304652,0.44553617,0.34499863,1.5272919,0.53594226,-1.4627612,-0.8377897,-0.27986753,2.409831,0.21501856,1.1862061,0.43354246,-0.23886995,0.17283833,-1.4080511,-0.50807023,-1.1591369,0.1673751,1.1869102,-1.1350584,-1.0243922,0.6607951,-2.1754906,-1.3795108,1.0970367,0.3192379,1.4529482,0.53373826,-0.08353536,0.94386256,0.49387866,0.2687121,1.674805,0.3070869,0.36861515,-1.1800809,0.7041245,-0.30226812,-1.2879896,-0.011086836,-0.024313282,0.79838634,-0.7999108,-0.727129,-0.7163735,-1.8599054,-0.14044076,-0.8709642,-1.1743171,-0.007619167,-0.66125566,-0.28262067,0.23064247,-0.50654536,-1.5237544,0.109202154,-0.49157336,1.7504929,0.6984476,-1.1632628,-1.4162925,0.80910456,1.138088,-0.5359906,0.49014094,-1.1533132,0.10060925,0.55258894,0.3711948,0.38108432,-0.69033045,-0.7874253,-0.49663112,0.6215542,0.51658326,2.1151195,0.67190474,0.90240264,-0.047004256,0.40312842,0.20566396,-0.708803,-1.8172992,0.057460334,0.041597284,0.7939275,-1.2983152,0.79099345,0.68529356,-0.2814904,0.1479053],"30":[-0.24502467,-0.48615637,0.85511506,-1.1748248,0.08467157,-0.6942688,-0.34369978,-0.8414767,-0.19016086,-0.7919997,0.43838033,0.43471697,-0.63761026,-0.62982565,-0.640413,-0.52425355,-0.67898315,-0.35708135,1.0194163,-1.5526078,0.12797634,-0.6264012,0.853047,-0.86738336,0.6628859,-0.03973209,-1.6457428,0.44284472,-0.86499524,0.49571398,-0.45053798,0.3195844,-0.55183774,-0.12978746,0.028687134,-1.4147044,-0.6379462,0.31668767,1.4176046,-0.38140008,-1.4059592,-1.39017,-1.7075307,1.0014114,0.35913545,-2.2242267,0.34059423,0.52244925,-0.29099432,-0.10988674,1.1320721,-0.18917122,-0.6040589,-0.74311936,-1.0063484,-0.5395918,-0.1810849,-0.11907132,0.6285084,0.2669959,-1.2032418,-0.19148342,1.2442253,0.76748836,-1.52795,-0.09360136,-0.18568832,0.51068276,1.0362047,-0.65625733,0.8312022,-0.3397817,-1.3849913,-0.47974092,1.4533806,-0.4512767,0.91785216,-1.4609048,-0.37106237,-1.4648352,-0.88760424,0.818222,0.23993434,-0.61780906,0.98077464,0.13038562,0.095434815,-1.5586011,-1.0177306,0.5506039,0.615516,1.0238402,0.02342997,0.73443836,0.346499,0.056998704,-0.4466914,0.101851195,-0.026169794,0.50577116],"31":[-0.7182817,0.56633496,1.5236939,0.73559064,0.62257,-0.8060042,-0.28288737,-0.067975216,-0.21545516,-0.47298902,1.2771313,-0.8068077,-0.79758286,0.13614617,-1.1354023,-0.11232431,1.2195902,1.3590584,-0.57092905,-0.90830964,0.37912387,-0.045676887,1.462588,1.4211798,0.14453128,1.1224258,-0.8679841,1.0492948,0.07328787,-1.55098,1.6302646,0.65433675,1.2084993,0.51413095,-1.8001895,0.85278577,-0.39251193,0.14999303,-0.21028468,-0.06418404,0.1449128,0.12870781,0.50401783,-0.33014515,-0.37849045,1.954459,0.45590922,0.17381768,0.08017033,0.8117942,0.62516904,-0.4350968,1.0076585,1.4677091,0.1699954,0.18227588,-0.48093206,0.58814275,-2.466317,0.832689,-1.0176849,0.77824455,-1.5220135,1.4522003,-1.0174394,-0.28546298,0.25156635,-1.7760662,-1.5473809,0.34449837,1.8494372,0.99736834,-1.5497185,-1.0745038,-0.86099976,0.46454003,-2.034131,1.0588802,-0.4240528,0.8706245,0.5350689,-0.45525286,-0.44519696,-0.4223132,-0.129224,1.6976569,0.31863788,0.06261403,-1.6906849,-0.3362624,-0.9926677,0.11988292,0.95765567,0.56107646,-2.328936,-2.5745397,0.03300713,-0.35585535,0.26164064,-0.63041127],"32":[-0.03506282,-0.73905325,-0.46440157,1.6003146,0.77752006,-0.6891233,-1.6574564,0.74361765,-0.9101928,-0.8228716,-0.2946562,0.6816293,0.5192634,0.6524097,-0.2138436,0.20344737,0.06065937,0.14616886,-0.65067106,-0.22844863,-0.45413247,0.9326791,1.0662361,0.29786673,-0.26526457,-0.07228221,0.39605367,0.15380014,0.86613667,-1.4204981,-1.4530104,-0.0038172728,-1.215761,1.4396015,-1.1107333,0.58250135,1.0466576,0.6838393,-0.5583632,1.2566438,1.7003071,-1.606219,-0.7351239,-0.48682183,1.1137104,0.68996954,0.6333499,1.052902,0.22283903,-1.5995709,0.30716416,0.43899348,-0.107358,1.3131491,-1.538014,0.24569641,0.9180925,-1.0020872,-1.1100042,0.233358,-1.028677,0.604947,-1.422025,1.5554451,0.6381778,-0.21501398,0.24061643,0.72281885,0.7000303,-0.9936389,0.74997413,-0.37197718,-0.86600095,-0.6696001,0.10144667,1.362008,-1.1931251,0.92151403,0.955435,-0.41602927,0.24769446,0.5783687,0.56553257,-0.91559017,-0.78813326,-1.1235423,-0.51811635,0.28004465,0.9927498,0.6033514,-0.3594266,-0.73254925,-0.36325768,-0.6938772,1.3343686,-0.65990525,-0.28900805,-0.4218235,0.6341613,-1.4521344],"33":[1.065062,-0.81380624,0.7749228,-0.62202674,-0.59549093,-0.10091336,-0.7134836,1.0690081,-0.91084707,-1.5103765,-0.16627106,-0.4422174,0.07111536,0.715226,2.2791374,0.6379326,1.1435385,0.053898964,0.8517252,0.33445302,1.0419165,0.75895315,0.5083666,0.29774407,-0.98225164,-0.104339816,-1.3992344,-0.6488045,0.8502428,1.1085905,0.5142312,-0.7246084,2.097567,0.39007917,-0.50212973,1.6734166,0.9537216,-0.23423204,0.871089,-1.3990035,-0.944484,0.45087063,-0.94906634,-0.8194984,0.66080874,-1.283524,-0.08917369,-0.3970241,0.55279833,1.0350012,0.37036043,-0.613584,-0.86014545,-0.49688005,-0.8152975,-1.7802342,-0.23886317,-0.8500264,-1.1365385,0.67032224,-0.6131982,-1.0836011,0.22158438,-0.9533101,-1.1915997,0.6376789,1.0416974,0.98963004,0.032502055,1.1126148,0.6997702,0.4330747,0.6515377,0.44525534,0.970892,-0.3212191,0.17502268,-0.13811646,0.07669472,-0.6088026,-0.534565,0.8819261,1.4514097,0.51973265,-1.463154,0.4288094,-0.40203306,0.5959694,-0.7837891,-1.2136478,1.119068,-0.67715156,0.927354,0.5272708,0.65927595,-0.24958444,0.37682426,0.9778593,0.055762988,0.20840923],"34":[-0.32852727,1.4892722,-1.6173211,1.0412636,0.85287136,0.04626411,-0.3458065,-0.43790156,-0.63459,2.3829606,0.30110252,-0.50802237,-0.8902825,-1.2334194,1.0350473,-0.6893945,0.99875575,1.3871136,-0.1893403,-1.5225841,1.7051995,-0.3467803,0.26371315,0.18335943,-0.02187071,0.7218505,0.41245574,1.3785293,1.5085816,-0.61008865,-0.41941714,0.05095935,-0.51136297,0.51852804,1.6216217,-1.006307,-1.0801862,0.10688418,0.55264,-0.1174771,-0.433283,0.688891,0.451776,-0.0803825,0.37477303,-0.4554203,0.7439945,-0.26364556,0.27543387,0.53992003,0.7232442,-1.8350847,1.1916617,0.65019274,0.018134551,-1.2279359,-1.6853337,0.9159474,-1.4974244,-0.3627462,0.240966,-1.1664184,0.49488902,0.33976838,-0.21940151,0.7768796,-0.7804928,-0.3673423,0.3077991,-0.6880426,1.179888,1.2584081,0.5048166,0.016775738,-0.17126861,1.1871338,-0.58912086,0.7758357,-0.63238704,-0.9868115,0.66497654,0.46794295,0.28096795,1.8885483,0.16927326,-0.42980567,0.41929308,0.26688495,-0.5371016,-0.013739914,-0.5092553,0.5922742,0.5770045,1.2688742,0.25446334,0.44812497,1.6497062,0.030618066,0.30336624,0.25673005],"35":[1.0467954,-0.96758854,-0.5590093,0.38815853,-0.3842982,-0.093431555,-1.276819,1.088685,0.81647706,0.3582076,-0.07804167,1.3448147,0.08240828,-1.3842121,-1.1953981,0.10313125,-0.9849681,1.1942072,0.013647074,0.82346815,-0.03677972,0.40583652,0.97751695,-0.38887465,0.072354645,0.21636519,0.034412585,0.15269965,1.2505525,0.39103982,-0.36698854,2.1955786,-0.085530624,-0.6637886,-1.2261659,0.106880896,-0.9011063,-0.13591337,0.59249496,-0.38880464,0.11619078,0.2158658,1.7711039,0.94231915,1.196111,-1.0295845,0.7820471,-0.10247836,1.738233,0.9720144,-0.11791227,0.70353794,0.007991745,0.06697551,0.7893529,0.45771834,-0.57727075,0.8663043,-0.43419364,0.60641915,-1.147302,-0.94830245,-0.15319158,0.12066882,0.01965256,-1.1104704,0.48117393,0.27885342,-0.44938415,0.5458965,-1.116363,-0.28330588,0.6110475,0.7575847,0.88499755,1.1295648,-1.2236971,-0.5446134,-0.27452227,0.8181932,0.890203,-0.03595077,1.2638795,0.5202036,-0.8419741,-0.5900666,0.17129047,0.5402738,1.1309979,-0.55689734,-0.6104904,-0.2565,-0.19965035,-0.9775894,-0.85141164,-0.3791228,1.0514588,-0.2781198,-0.23597954,-0.39320856],"36":[-0.6580204,1.0134847,0.88945323,-1.7815531,1.2197233,-0.105731525,1.063884,-0.07628011,-1.762891,-0.9108691,0.43802047,-1.0859506,-0.9326348,0.15821493,2.2783284,1.4427221,-0.09496311,0.28712344,-1.0440586,-0.047858503,0.9161605,0.17476164,-0.975392,-0.38640603,-0.32463437,-0.15965046,1.3003572,0.18860869,1.621951,0.40523487,0.5367455,0.24844712,0.9698848,0.7127738,0.044794794,-1.0983263,0.9931806,-0.04422086,-0.8952862,0.5554334,1.2757351,0.43295574,0.20384397,-0.21973357,0.6564949,-0.2040919,0.696142,-0.13438237,0.5800944,1.1494445,-0.9642951,-0.35354534,0.3474389,0.38250512,0.49373588,-0.14425685,0.30107853,-0.080086164,-0.05133917,-0.25256047,0.299886,-0.4552918,1.2763115,0.13973284,-1.1140908,-0.62752724,0.24244729,1.4987229,-0.8103846,-0.34765142,-0.5551904,0.69494903,-1.719676,-0.19727452,-0.418923,-3.2108698,-0.48013464,-1.4074296,-0.31776506,-0.6117064,1.1861086,0.27557263,-0.06590687,0.19710624,0.4744801,1.1760956,-1.1031408,0.47502756,1.0360742,0.5833415,0.6687168,0.7193166,-0.059134252,-1.0905024,1.6043596,1.8401926,-0.30818462,-0.32594922,-0.77136517,-0.47242665],"37":[-0.56608784,0.8968593,0.75710565,1.3259803,-0.50699854,0.45984808,-0.22703364,-0.07511413,-1.8967819,0.9477846,2.344612,-0.86946917,0.088291846,0.30907732,-0.75306237,-0.016693145,0.9002978,0.88535476,-1.1275201,-1.2039435,-1.6228197,0.8288309,0.6229567,-0.26410294,-0.1251214,-1.209289,0.07424879,-0.7363758,-0.6414949,-0.93730634,1.2146684,0.41944805,0.6190156,0.987871,0.3770628,0.82427174,0.514892,1.0915728,0.3335997,-0.596036,0.13027123,-0.4776507,0.11970318,-0.42380795,-0.81359243,0.28412002,-0.03197707,-0.9159072,-0.06856864,0.54961896,-0.5644595,1.2947776,-1.6319668,-0.49727765,-0.06582262,0.21420215,1.616396,0.27498612,1.9022292,-1.1527404,1.295155,0.5764005,-1.5779155,-0.29960096,-1.0181079,-0.55347824,0.37254173,-0.4731684,0.7316,0.021631164,1.1564499,-0.091692016,0.03627014,-0.54796666,1.6299798,0.6381082,-0.7019957,0.8507027,1.0508771,0.46253827,0.49663052,0.549526,0.17705847,0.3575381,0.10857834,0.99441373,-1.3714614,0.3102524,0.42909116,-1.2406726,-0.25516474,0.538583,-0.4044342,-0.36660737,-0.66184986,-0.98359615,0.7739064,-2.20977,-1.031162,0.33921134],"38":[0.12915842,0.2851014,-1.6652387,-0.57338226,2.0081255,1.7238039,-0.93615055,1.8431987,1.2856368,1.6148515,1.6167659,-1.6206723,2.0128548,0.3306737,-0.48313355,0.62037027,1.7759547,1.3495165,0.8983914,0.70368445,-1.0546925,-1.0278312,1.2556723,1.4792686,-0.59833044,-0.34580603,-0.9183184,-1.1537569,-1.1776692,0.5357347,1.3732853,-1.0515143,-0.5347189,-0.78240734,1.3456919,0.30575463,-0.51955044,0.696811,0.45418665,1.1623104,-0.87611544,0.45316008,-0.8600056,-0.5125955,-0.6643349,-0.21227038,-0.5937235,-0.8039303,-0.115018696,1.8069583,-0.44751072,-0.46307927,-0.10582558,-1.2686522,-1.4048009,-0.496378,0.08851788,-0.4779725,1.4692525,0.13341564,0.15656394,-0.8924874,0.3199591,0.77412254,0.9739561,0.59071887,0.48860964,-1.8844658,-1.292635,-1.025113,1.1403277,-1.4270242,0.72973615,-1.851457,-0.003891524,1.4378881,0.62988627,-0.8257308,-1.3810067,-0.009873462,-0.25700754,-0.6110462,1.2071303,0.8843129,-0.58707166,-0.51863223,0.5301822,1.4520339,-0.94994295,-0.6022394,-0.90082794,0.053443134,-0.34347126,-0.04185242,-0.16495419,1.368924,-0.5353683,-0.4039286,-0.7595498,-1.2555032],"39":[-1.1049222,-0.96368444,-0.19222754,0.013343493,-1.2125634,0.115394875,0.37991688,-0.15296793,1.0178366,-0.7439411,0.28704527,1.2931095,0.008419946,-0.39688778,-1.5677683,-1.6803439,0.35420656,-0.7578272,-0.77725774,0.18265976,-0.11759194,-0.41397503,0.12988988,0.24168889,0.63715255,0.9244431,1.4350613,1.4830885,1.6879753,0.32593644,-0.398609,-1.117968,1.0399524,0.9445162,0.42743582,-1.6021763,0.024634352,-0.22167332,1.9560608,0.14041594,-0.017172337,-0.1968514,-0.6267241,1.7564288,1.1905556,1.4495823,0.23460582,-1.2379825,1.7091297,0.13142705,-0.52857816,-0.53275406,1.3791912,-0.3454,-1.1642462,0.8288563,0.3967842,0.8407824,-0.095557034,0.71570516,0.8225192,-0.51159525,1.2034277,1.1749369,1.1030602,0.07451577,1.5498786,-0.11578499,1.3333422,-0.10632425,-0.55249506,-1.0839484,-0.07990319,0.42702663,1.0777286,0.33562276,1.7186077,-0.7808652,-1.0508481,-0.28486612,0.13962169,-0.12697867,-0.94085485,-1.8034062,-0.03529025,0.28707254,0.93537414,-0.14436533,0.9093093,-1.1601479,0.45981437,-0.44339094,-0.8633464,-0.47191378,-1.3903837,-0.44459322,0.15150017,-0.21021557,0.5680733,0.2224266],"40":[-0.7007933,-0.91140574,1.6175464,-0.07758694,-1.1496549,-0.049874987,-0.96637386,0.8495898,-1.7815926,-0.86789757,1.2309896,0.95608675,-0.46916303,-0.3901829,0.535172,0.5746981,0.8590878,-0.7087746,0.45275578,0.65052325,-0.054125376,2.1791155,0.17398869,1.2408847,0.49084905,1.3795837,-0.35074306,-1.1810149,-0.4628797,-2.3712869,1.2611724,0.50272757,-0.13070081,-0.16605483,0.7445374,1.684976,-0.24555214,-0.5617611,1.193925,-0.1709616,0.7464306,0.41193494,0.8311367,0.77928793,0.2064924,-0.33190155,-0.38302666,0.8314903,-0.44172043,1.412458,-0.079778105,1.0643514,1.2071004,-1.4729595,-1.2095886,-1.3122958,1.2873402,0.37478194,-0.18701439,-1.0569408,-0.26940086,0.8677706,-1.2860204,0.8845914,0.40783346,-0.043429557,-0.7217902,-0.35158917,2.262072,0.43772814,0.79066557,-0.29924306,0.5553671,-0.81652164,-0.6575375,-0.44104722,0.13030331,1.1003557,1.1979607,-0.47620404,-0.90989035,-1.4056952,-0.9521296,0.21151184,0.33306044,-0.8968463,0.087051146,-0.029919896,0.09496835,-1.1153305,-0.8098135,0.9506886,0.80752003,0.5452178,0.32045966,0.53619117,1.2698785,0.14694288,-0.14755715,1.2888635],"41":[1.0401047,-0.7860815,-0.88515055,0.85583925,-0.27345303,-1.2381545,-0.9887459,-0.24596967,-0.12694323,-0.6508494,1.1026222,0.6975502,1.6773527,1.4248992,0.860009,0.29905117,-0.24897754,-0.08173199,-1.1082959,-0.19516033,-0.28919002,-0.6849209,-0.24821964,2.3143644,0.70713276,-0.37100747,1.436503,-1.212079,0.55386144,-0.2476744,0.05845107,0.83554476,-0.5006931,1.045748,0.7862879,-0.192603,-0.41969725,0.16200355,0.8475505,-1.0235511,1.221623,-2.2273371,0.022509178,0.52519304,-1.0506841,0.19103679,0.93164945,1.0104173,0.16616581,0.25935364,-0.24232295,-0.33989638,0.08069621,-0.9338235,-0.3713073,0.40250003,0.18328974,0.23860137,0.7841923,0.046297003,0.9700832,0.3431071,-0.57976085,-0.8238979,0.83487976,0.35481486,-1.9636345,1.8955396,0.98578554,1.0497761,-0.044056706,0.7799473,0.9930378,-0.010721868,-0.39729503,1.0879729,0.078459,0.49918184,-0.65878093,0.6098867,-1.4263992,-0.21874696,-0.011489954,0.15090133,0.7645806,-0.8316808,0.88519096,0.45262703,-0.14901815,0.08911799,0.07172023,1.1965475,1.31251,-0.64142346,-0.9635076,-0.23233736,-0.16170001,0.8267295,-0.9185733,0.78239703],"42":[0.32161853,-0.39456534,0.033663787,1.109198,0.9479937,0.32521838,-0.4267917,-0.17465527,-1.7225679,-0.7128556,0.33999285,0.934577,-1.6657239,-0.37640947,1.1066277,0.383587,0.3916833,1.3604989,-0.6129619,0.72829086,1.0651195,0.12256254,-0.5638327,0.021944543,1.0694281,0.41155133,-0.57000184,0.33554578,-0.39918715,0.0769777,-0.13127038,-0.133684,-0.48122188,0.19422852,0.32480964,-0.8320811,-0.327064,0.55872345,0.33428794,0.19540328,-1.1545632,0.9658571,-0.82686675,-0.8272475,0.39423886,0.8068236,0.91150635,0.02298944,-0.5668781,0.90124935,1.034268,0.6234614,-0.4145197,-0.07861278,-0.24465685,-0.9477062,1.0461329,1.3706028,0.026477048,-0.5986171,0.35323295,0.13402656,-1.1450199,-0.42060465,1.7136045,-0.50607526,0.9237028,1.5475429,0.89432484,0.6455396,1.3477349,-0.07767418,-0.8404997,-1.1826607,0.08458059,-0.5356093,0.19181083,0.3471668,1.3415712,1.546221,-0.0094673615,1.1225473,0.20323601,0.71931314,0.49445915,2.4532778,-0.78717816,-0.0752765,1.131494,-0.80546105,-0.35266972,0.023594104,-1.7519327,-0.74739623,-0.69133765,-0.27153736,-0.19664502,1.1454464,-0.6807378,-0.7184508],"43":[-0.22309092,-0.5409323,-1.4033998,1.0592061,0.7911339,0.059729837,-0.41138542,-0.3362898,-0.81053525,0.2526668,0.15001015,-1.100668,1.8353217,0.90139383,0.23793112,0.37556508,1.035812,-0.41376603,-0.29180253,0.8740527,-1.6193397,-1.482088,-0.07169456,-0.072833985,0.6295993,1.4179294,0.48433435,1.6702836,-0.8391887,0.35728127,-1.2368957,-1.2929404,-0.38724452,0.9121172,-1.0774097,-0.10809972,-0.6547371,-0.5220094,-0.26333264,-1.261252,-1.2957494,1.4248389,0.40655932,0.7835504,-0.99170524,-1.2217497,0.43015996,1.2308908,-0.51791054,1.3722284,-2.234648,1.2529463,-1.2227489,-0.46311182,-0.41088933,-0.8655491,0.36868784,-0.45462227,1.1131521,1.8101839,-0.5326587,-0.46595502,-0.77180976,-1.4999655,1.1461735,-0.07672726,-0.13052036,-1.5534173,0.3156622,-0.4553377,-0.5817008,-0.618625,0.57102686,0.19221157,1.2720745,-0.15742154,-0.34343672,0.75997555,-0.6049346,0.4539893,-0.21701515,-0.4567632,-1.160002,-0.75137025,-0.77464586,1.2172782,-0.08092906,-0.87252957,-0.1611719,0.23501422,0.5319503,0.07873617,0.45668787,0.8891533,-0.2072768,-0.35965797,0.7922595,-0.3936305,-0.34018877,-0.17469478],"44":[1.3172711,0.70283425,0.39722067,0.9033254,0.03129357,0.5208294,0.23433724,-0.252479,0.7021351,-1.0917811,-0.039187104,-1.1686771,-1.0669531,0.4649154,0.4703444,-0.3043242,-0.53868073,-1.733777,0.50814724,0.7403776,-0.30956343,0.86979973,-0.47708607,0.34881136,-0.07244278,-0.43848246,1.3250542,0.9226607,1.2346108,0.47655028,1.679411,-1.828536,0.56708205,0.13056754,-0.3831408,0.01282676,0.8237602,0.59866107,-0.29868585,-0.48083326,-1.0627655,-0.35763538,0.8951295,-0.058553673,-1.3659097,0.58399296,1.105581,0.42246333,0.42946106,0.63423973,0.25413465,-0.42946362,0.031155687,1.2750957,-0.036707796,0.23970489,0.53640807,-1.9389083,-0.26522937,-0.16032563,-0.821839,-0.037855428,-0.781293,1.1009138,-0.0001538503,-0.22774445,-0.51864815,-0.67680883,0.32802758,0.061831024,0.37743214,-0.87456805,-0.7304584,0.39501798,-0.6759515,0.02998273,0.056919992,-0.34233335,1.090772,-0.26654312,-0.19907993,0.21841042,-1.8118991,-1.325668,-0.39282456,1.0166577,-0.8152822,-1.166079,0.8362181,0.24390136,-0.15332574,0.14213121,0.56505203,0.26555112,-0.6594138,-1.2585393,0.77294236,1.4163665,0.849898,1.6183778],"45":[-0.8642108,1.3907067,1.4912558,0.29337147,0.5938521,0.004296208,-0.79354614,-0.5591651,0.78986,-0.054358613,0.14188223,0.04010894,-1.2189877,-0.5062789,-0.66342455,0.6431986,2.031084,-0.42336494,-1.3966448,1.2092264,-0.13446578,-0.64927685,-1.8464152,0.39748612,-1.2535585,0.47806963,0.435459,0.063049264,0.8679468,-0.53441715,0.24642457,-0.033377234,0.2156482,1.6640956,-0.10958931,-0.28647023,-0.8229551,-0.67670023,1.3210177,1.5304993,0.13308688,-1.1516132,0.14002208,-1.5642693,0.8013394,-0.5477345,-1.1962612,-0.7409764,0.651654,-0.8323394,0.09944453,0.32763764,1.7989172,-1.7494007,-0.2670807,0.69763076,1.1226083,-0.38472533,-1.5767542,-0.31212136,1.6959001,0.096433334,-0.5299478,0.10086423,-0.558445,1.2566049,-0.37801182,1.4969463,0.4095193,0.29930955,-0.41000962,-0.7575326,-0.21761942,-0.6852361,-1.2714801,-0.7581022,-0.23174618,0.34205747,-1.1816684,-1.3630005,-0.28941566,-0.21587321,-0.24913214,-0.4599196,-0.19782858,0.24998702,-0.6419759,0.5414215,-0.06133648,0.12080152,0.17850022,1.4476534,0.10790725,-0.34666395,0.34966034,0.5315381,0.592263,-0.58234715,-0.27062905,0.906512],"46":[-0.144621,-2.1103067,0.38133812,0.16441649,0.7594488,0.71606696,-0.8824008,-1.2906716,-0.08308463,0.25996193,0.53194916,-0.48600128,0.9731372,1.6226548,0.9593271,0.91985273,-2.2818756,-0.6530345,0.35197932,0.29276112,-0.17572768,-1.3654337,-0.5802367,0.9614111,-0.8904959,1.1493803,-0.43786314,0.79187554,1.3921213,1.5127958,0.75938374,-0.53225106,-0.26463643,-1.1028028,0.43714243,-0.4909673,1.8071979,-1.7386063,0.4923133,0.98913497,0.16667585,-0.5344053,0.3780526,-1.4581323,1.1200625,-0.14287029,-0.9245558,-0.7626802,1.2067474,-0.9564291,-2.0910182,-0.7081724,-0.2616476,-1.4133725,1.6015766,-0.5463759,1.3356136,0.7629245,-0.74488837,0.95085883,0.44460043,0.06991165,-0.42006877,1.766561,-1.0174236,0.19336645,1.6304063,-0.08611626,0.74399984,0.7655266,0.34746075,-0.23364575,-0.32656044,-1.1875013,0.4720657,-0.07508695,0.84933645,0.10804569,0.33297732,0.76406276,-0.77031493,-0.82464176,0.33549538,-0.35787705,1.1125673,0.71413255,-0.30205634,-0.21628067,-1.8363189,-0.20110089,0.9749149,-0.24467379,1.2631174,1.4559151,-0.5307284,0.8272406,1.6676513,0.2523254,-1.1281352,-1.1247227],"47":[-0.049197532,1.6412199,1.6109588,-0.377774,0.45202744,0.053171635,-0.8983748,0.09370874,0.7395959,1.5804466,-0.519153,-1.1329436,0.56843364,0.44969538,-1.3377142,1.7308934,0.3625321,1.2876006,-1.0010009,-1.7651529,-0.6804053,0.15666428,-0.81106406,1.3393966,1.1547664,0.17727311,2.045126,-0.5666189,-0.87978655,-0.2871322,-0.5706773,-1.0136611,-0.09206319,0.44705385,0.71000576,1.1217425,0.6087331,-0.54938525,-0.666911,0.98059464,0.79001933,0.5408929,1.216556,-0.96606916,0.047520794,0.41913375,-0.2995312,-0.35515717,0.2282,0.6140973,0.204673,-0.7221566,-0.39516616,1.4936185,0.7110126,0.42368478,-1.8605895,-0.112972744,0.35049945,-0.7193895,-1.1333163,1.1544323,-0.7269307,0.44385684,0.031446334,-1.450894,-0.6355133,1.518207,0.6715841,0.95287824,1.0633734,-0.45812014,0.42818347,-0.20768125,1.2790651,0.34548843,0.1440562,0.29795703,0.13859011,-1.3471277,0.28909636,-0.87466097,-0.40954772,-1.6154001,-0.24667186,-0.24739537,-0.9893199,-0.42859662,1.8636432,-0.59822065,1.896194,0.2541414,-0.47408295,0.798563,-0.37000898,-0.5906806,0.6369331,-0.10507926,0.31258217,0.14452742],"48":[1.2362993,0.41283825,0.12063627,-1.114686,1.0571952,0.026249886,0.032817237,1.2802647,2.1027281,0.80972904,-0.19602147,-1.1622604,-0.7468486,0.7986537,-1.0472885,0.450199,-0.06723789,-0.5540614,-0.35099423,0.7970677,0.99925196,0.14513096,0.474708,1.1247947,1.7647204,-2.0685854,-0.27686346,1.1468165,0.51069784,1.2992935,-0.36524123,0.54225194,1.0235392,-0.45256606,0.8633895,0.42035806,0.3509326,0.2552508,1.445541,0.014446596,-1.3603561,-0.54158044,0.36450493,1.2554531,-0.05109838,0.5713203,0.028152183,0.4410292,-1.7348676,0.3016386,-0.71165746,0.22146058,0.103579134,-0.17322505,-1.6720196,-0.1714127,-0.2720063,0.69270325,1.0150585,0.6776696,-0.07310582,-0.62169987,-1.17531,-0.32560062,0.26803446,0.011022496,-0.13905673,-1.2180187,1.2406272,1.6494153,-1.8187815,0.7682566,0.43725556,0.6679819,-1.3494946,-0.4061106,-0.13814387,-0.37954414,1.0762051,0.5783376,-0.79085886,1.1908075,-0.27846488,-0.0067651765,1.122252,-0.73745793,-0.48061496,-1.0399514,-1.009075,-0.02677873,-0.16395558,-0.6979505,0.9863567,0.5842904,-0.1271069,0.89442295,-0.40577605,-0.49490547,-1.2150244,1.0091841],"49":[0.010184814,0.7031734,1.0680602,-0.61594945,-0.78783786,-0.6275768,0.30700204,1.3702215,0.409388,-0.24107422,0.8861119,0.0155187035,0.5442181,0.8554757,0.86853635,1.3737715,1.576341,0.9502825,0.047259063,0.3369811,0.10188546,-1.1200961,-1.6182808,-0.24406482,0.271309,-0.2061436,-1.4647348,-0.4675509,-0.06923117,-0.12272825,-1.2836828,0.003607513,-0.17659026,-0.04344406,-0.93117994,0.14834528,-1.3551944,-0.97432196,-1.2228576,0.3339892,0.04038907,-1.1717608,-1.2253897,-0.40086746,0.012225418,1.1421821,-1.081733,-0.770079,-1.2342544,0.91952485,0.705322,0.2780991,0.558876,-0.63851583,-1.3801012,1.1028788,0.2960998,-0.8462413,-0.73738503,-1.242211,-0.087684296,-0.20970319,-1.0351484,0.21916287,-0.0038592168,0.20527449,0.81683284,-0.7276864,0.79664385,1.3945601,-0.15044129,0.9390264,0.29801396,0.27561238,-1.0846776,0.43484297,0.29180875,-0.08029346,-0.4987333,-0.75603664,-0.47277778,-0.24450687,0.8609702,-0.6346307,0.5511974,0.45792386,0.8923181,-0.76654285,1.1999781,-0.69323975,0.21121217,1.2341062,1.2150481,-0.15291959,0.09971,-0.7389378,-1.7645334,1.1570163,1.285541,1.1633846],"50":[0.60679966,0.21820833,-0.36892766,-0.6054114,-0.8683997,0.1429271,1.267541,0.5491274,0.39777303,0.8337492,-0.02157217,0.81172365,-0.15594083,0.42624113,-0.5493692,0.03316896,0.24934943,-0.010049398,-0.8633162,1.6559235,-0.07543838,-0.3157717,0.8204543,0.33712092,0.26180807,0.9713584,0.9401899,-0.7506424,-0.2530333,-0.9968591,0.93340933,-0.56748265,0.5584226,1.3698226,-0.13734983,-1.4845736,0.4157062,0.03824306,-0.61077756,0.16608876,-0.90793926,1.2889293,1.1964856,-0.5186442,0.35224885,1.0015256,0.7500092,-1.5174835,-0.0041074106,-0.81792754,0.35029164,0.29598305,0.2002241,0.4279229,-0.5167454,-0.36108106,-0.85369706,-0.36521742,0.082616195,0.043843746,-0.7837987,0.25939137,-0.07198958,0.42004648,0.01441972,0.30007234,-0.97234386,1.6303632,1.1941719,1.089774,-1.1970282,-0.53472346,0.71259844,-0.37711075,-0.9765071,-1.5946219,-0.36700815,-0.8646954,0.056330364,-0.20608136,0.44870117,-0.5980209,-0.5261812,0.46263015,-0.59104156,-0.2935696,0.082050964,-0.49434844,1.5287654,-0.31626037,-0.4471122,0.40713334,1.3049045,0.036191396,1.5316159,0.047631457,1.2268951,1.4707793,1.589476,-0.012661098],"51":[-0.8879892,0.5083839,-0.20548105,-0.05750313,0.62782717,0.19610566,-0.57383996,-0.064201735,0.6367919,-0.85074234,0.0273726,0.49295968,1.1979934,0.2932262,-0.6492602,0.3332333,0.07260778,1.0823046,-0.19776084,-0.3995152,-0.25474963,-0.20283034,-0.06508394,0.810883,-0.5620835,-1.7303666,-0.6006941,1.2215885,1.6071978,-0.73604685,-0.022143647,-0.5968481,0.5595792,0.055720456,-0.25590396,-0.14729248,1.1274242,-0.3278655,-0.2649031,1.4953735,0.044833235,1.4354113,-0.48086745,0.23908244,-0.38672906,0.5077741,-0.33957693,-1.0184709,-0.72425383,-0.8062813,0.112175025,0.2042156,-0.17454144,-0.11644531,0.022371827,0.59381944,-0.06351882,1.3409532,-0.47830436,1.2093714,-1.4911255,0.78998774,-0.10382025,1.1482921,-0.7451177,0.20373043,0.3117742,-0.3263241,0.3885303,0.5777376,1.089048,-0.58206195,0.3743379,-0.45983014,-0.36796668,0.2073403,-0.080187544,0.2524097,-0.6008857,-0.44717836,0.23516567,0.66032434,0.43369454,-1.1740681,0.5111321,-0.5523792,-0.82612,0.32917103,0.171973,0.87220734,0.4986277,-0.11394091,0.93376297,0.6653553,-0.23831084,-0.5921002,1.3669126,0.05944953,0.46224183,1.7837623],"52":[-0.2973748,1.4143602,-1.5328237,0.23421861,-0.45686057,1.6895723,0.21562445,1.3255527,-1.7475733,0.2629565,0.80845654,-1.5402774,-1.0926387,-1.3719593,-0.47647557,-1.0697619,-0.6818661,1.0744396,-1.7488252,0.37442315,0.56056565,-0.044601258,-0.13058805,0.059655875,0.29994813,2.0911863,-1.2134067,0.8363458,0.67333645,0.7724523,-0.014174878,-1.1145169,-1.5619893,1.5740486,-0.08702849,0.6511823,0.75787604,-0.03953367,1.1314071,1.8147581,0.3452513,0.48771027,0.6058683,1.2668166,-0.09518262,-0.65710294,-1.5568208,1.3803493,-0.7070273,0.4859462,0.30017656,1.247112,-0.6976464,0.7400934,0.5599441,1.4672807,0.6118914,0.648684,1.0096886,0.8543427,-0.804516,1.0334233,-0.596024,1.4402745,0.09264146,-0.67162246,1.015673,0.48992732,1.3483372,1.4887115,1.2322025,-0.1786994,0.6392634,-0.081710994,0.07254065,1.2977649,-0.47313824,-0.59451324,-0.16970825,0.57703376,-0.28993478,0.9316729,-0.41124204,0.5032854,0.5178034,1.8755519,0.6760576,-0.16637567,-0.6156929,-0.57985467,0.81232625,1.227815,0.11686156,0.2572002,0.32791764,0.16575475,-0.1451629,0.41691154,-0.19151522,-0.703773],"53":[0.9783796,-1.6144276,-0.25650313,-1.5005257,-0.49235737,-1.2949224,-0.47775015,1.2660977,0.6549013,-0.26238334,0.52758384,0.3493591,0.67593974,0.36354554,0.6091901,0.2603191,0.8131614,-0.25643027,-0.074341536,0.32555935,0.008776367,0.37783584,0.04853666,0.6451761,0.3612769,0.46849704,-0.11389066,-0.09595028,-0.19217682,-0.5077376,0.10330704,-0.5113426,-1.0582788,0.058162697,-1.0685748,-0.061602134,0.29767576,-0.31537768,-0.059290588,1.3502815,-0.8059462,1.3271204,-1.2145108,1.3672299,1.3546858,-1.3789275,-0.03979382,-1.3710016,-0.10493605,0.26319072,-0.05632832,0.48021334,-0.28255233,0.35032156,0.3735725,0.1903766,0.26606143,-0.43979222,-0.88993293,0.38629657,-0.21525325,0.5168672,1.1366124,1.2848837,1.0369656,0.28012046,0.6749098,-0.3858406,-1.008217,1.493811,0.5436266,-0.8116102,0.0025392254,-0.47452524,2.0197968,0.6615169,0.60424304,-0.28551057,-0.6080575,0.78660285,0.39840987,-0.04915202,0.32054073,-0.95122266,-0.6831173,0.60895884,-0.6461597,0.92221683,0.66759545,0.49346596,1.2851586,-1.7202685,-0.024183722,-0.15768293,-0.44084588,0.028257202,0.49071953,-0.6684114,-0.8401178,1.0848724],"54":[0.07979851,0.25465462,-1.509409,-0.11657562,-0.6114671,0.90223724,1.621383,-1.8936052,0.5550869,-0.013549036,1.622892,0.7927472,2.4459555,-0.1124892,-0.42192748,-1.4524373,-0.43422937,0.010243715,0.30432403,-0.37254047,0.16454616,-1.9917508,0.4619918,0.71156037,0.049480233,-0.20231716,0.28319374,-1.0032068,-1.3519378,0.32113007,1.3863122,0.6463936,0.475075,-0.121074855,-0.15108235,-0.15765782,0.3628353,0.18747357,-0.9517816,0.43979234,-0.4707257,-0.018219048,0.5642571,0.5665296,1.3798382,-0.86855626,-1.0335687,0.24465233,0.26470307,1.5351353,-0.03279741,-1.1239386,0.31019574,1.1075153,1.9529579,-0.10561984,1.0626417,-1.516905,-0.16189206,0.26698774,-0.3065039,-0.65375197,0.03846049,-0.46455997,-2.168545,1.4245248,1.2517055,-0.21337397,-2.0613506,0.81149894,-0.67186093,1.3385522,-0.74454325,-0.31625372,-0.53260064,1.1197339,-0.37782198,0.76697344,0.9792586,-0.18380299,0.067688026,0.49098694,-1.0126584,1.07824,-0.32877532,0.74762005,-1.694509,1.062805,-0.2077795,-0.117814906,-0.4278091,0.028005902,-0.29728985,0.94498944,0.30956587,-1.4025912,-1.4332278,0.68704325,-0.20584114,0.034962077],"55":[0.8478834,-0.34430775,0.5392917,-0.8477088,-0.6754579,-0.70072937,-0.396029,-0.46397078,0.05161187,-0.38336805,0.19997464,-0.5579588,1.1617424,-0.8835303,0.65620863,-0.6055603,0.69710064,-0.31340227,-0.4379092,-0.7579254,-0.7274378,0.28028664,-0.0036130226,-0.50270915,-0.94442266,-0.7718661,-0.3308381,0.11102649,1.287659,0.6309707,0.7136853,-0.74373055,0.037760857,0.25293377,0.5428564,-0.2293861,0.17380461,-0.33588758,0.04033998,0.9334939,-0.12126831,0.01504647,-0.58572686,-0.30887187,-0.100220464,0.6174068,-0.1330541,-0.64542884,-1.1870571,0.69609743,0.37333837,0.97085226,0.2472322,-0.2629176,1.2772737,-0.065967366,-0.015021337,1.2143402,0.23724827,-0.033217352,-0.20821697,-0.066763885,-0.18691161,-1.0994875,-0.23338787,-0.5481951,0.19688053,-0.027438587,-0.3406222,0.26374635,-0.7243464,0.15566607,1.6910756,0.9509803,0.67910534,0.28408113,-0.01948285,0.001335351,-0.5240684,-0.41837505,-0.81726134,-0.20012905,0.28710333,0.62925,0.2747837,-0.49071115,1.4297163,2.0324316,-0.3920248,-1.4417497,1.0754081,0.6591642,1.3378,-0.60024124,0.9336644,1.8190408,-1.35761,0.22486371,-0.050943438,0.58984965],"56":[1.490012,0.20147517,-0.9176605,-0.32234663,0.26328802,0.7266808,-0.098101206,-1.5261096,0.2075604,-1.5190797,0.8950063,0.38981494,0.36406097,2.1564572,1.6234732,-0.16564833,0.15464117,0.28453255,0.81917775,0.90737903,-0.8335771,0.5878741,-0.9101428,-0.370559,-0.27894202,0.7953931,0.8757113,-0.90413445,0.14325766,0.75608724,-0.000996479,-0.13147129,0.6928848,-1.3672796,-0.5134514,1.424224,-0.8785372,1.3373272,-0.47047737,-0.33291653,0.59875435,1.3595438,0.014644045,-0.55318123,0.36014366,-0.10289674,0.97625655,0.84425354,-0.6399321,-1.3962485,-0.66447556,0.49594358,-0.058000278,-0.6141598,-0.9871775,-0.33276114,0.6349511,0.60222393,-1.2742431,0.50656646,0.21898694,-0.81086683,-0.26335037,0.3451088,1.5603987,0.8334769,-0.4975899,-0.45530173,0.4270877,1.083182,0.26452065,0.6225581,0.7943294,-1.2735261,-1.0587051,-0.48384738,-0.9139749,0.39200497,0.57444865,0.41315177,0.10613665,0.98898125,-0.63042945,-1.197791,-1.6604415,0.7212242,0.16946653,1.0381972,-0.20482916,0.36543113,-0.30847934,0.30623528,-0.63057363,-1.137257,-1.5237236,-1.2189819,-0.34203556,-0.2384302,-1.156824,0.53068614],"57":[0.56460357,-0.9623636,0.060380436,0.76818204,0.6624906,0.13710456,-0.30985677,0.9428006,-0.004024095,0.33749637,-0.16297157,0.34113362,-0.14571674,0.32178393,-0.86655074,-1.7346492,0.06943851,0.51514775,-0.56089413,0.40846318,-0.80016816,-1.2988744,0.9758802,-1.1448615,0.0031379575,0.3488241,0.06839262,0.23271169,-0.7535176,0.6975545,-1.1747205,-0.60530376,-0.2873106,-0.3420347,0.35178348,-0.68035567,1.3248981,0.443169,0.15809785,-2.276784,-0.68357,-0.9465855,1.2529793,0.8887104,-0.30828437,-0.64966214,0.3437434,1.3858354,0.037718795,-1.8528074,-0.28678373,-1.0616767,-1.2924206,1.5663514,1.36313,-0.14729957,-0.51555306,-1.7104738,0.022656273,0.2039916,0.7484617,-0.62832785,-0.1327549,0.22730021,-1.5708504,0.13085838,-0.02239362,-0.88283914,-1.1904118,0.9085874,1.1543713,1.3554662,-0.9601137,-0.993297,-0.08466535,-0.38873467,-0.3657387,0.0828058,0.04988408,0.070463814,-0.33319834,0.5095994,-0.685074,-0.0782813,-1.4910039,-0.5086979,-0.2903563,-0.471871,-0.77781117,0.5439969,0.90286356,0.10004357,-1.9749218,0.4663393,0.8424889,-0.6140522,-0.33218464,0.88080335,-0.3624942,0.5085099],"58":[-0.7297259,0.9388005,-0.31625715,-0.40204656,-0.005147868,0.40918508,-0.5315419,0.8208329,1.3448657,1.0109744,-1.2313195,-0.0316533,-1.3872336,0.45974076,-0.6455555,-1.438272,0.67349464,-1.5608168,-0.8970805,0.65422606,-0.22899568,0.6297235,1.124788,-0.42729038,0.5213327,1.002363,0.01899733,-0.15896265,1.3486464,0.019124687,0.69949776,-0.10085614,-0.59977883,1.4211808,0.72887933,1.1667604,0.35260054,0.13255844,-1.1186837,0.82303554,0.2301596,1.268155,-0.50927365,0.9591617,0.47005108,-0.5375438,-0.22121371,0.5208261,-1.6101882,-0.74314874,-0.18714976,-0.0200011,0.31940636,0.2984891,-1.0267653,0.84535515,-0.22281449,0.48266143,-1.2963952,0.46484146,-0.12838992,-0.8461769,0.33081076,0.3784541,0.9214483,0.92039096,-0.10384438,0.046736818,0.24304503,-0.26562065,0.8992663,0.16176711,-0.22060929,0.44343162,-0.2549766,-0.7910982,-0.44841257,-1.4382389,-0.36889738,0.69225794,-0.97995716,0.35382316,-0.107414626,-0.26450756,-0.51323014,0.99359107,1.1126645,-0.17330962,-1.0942197,-0.38136867,1.7143004,-0.07507485,0.47787356,1.4024785,-1.0720396,-0.9873335,-1.4504695,-0.16335616,0.9677991,0.4004747],"59":[-0.24244656,-1.1701392,-0.23821583,1.7010999,-0.3892372,1.002124,1.3167615,-0.78233486,-0.016237179,-0.5134958,0.98521245,0.3376866,-0.64173305,-0.3933254,0.67975664,0.44164616,0.91821617,-0.3245272,0.7999191,-0.56158626,0.15413332,-1.0380523,-0.7913311,-0.17042328,0.49981043,0.21579927,1.3261272,0.2576738,0.09002232,0.5826765,0.89878887,0.050569758,-0.18753035,-0.58414274,0.81324434,0.9233971,0.053057037,1.1655647,-1.0311488,1.2788409,-0.23014846,-0.4227039,0.35117167,-0.1806375,-1.4079703,-0.10139583,-1.148042,-0.13594142,1.1832036,-2.1176596,-0.35481194,0.46086967,0.66224086,0.42122847,1.4139723,-1.9373496,-0.37189785,0.983502,-0.8549871,-0.22943144,0.8458248,0.076081276,-1.110214,0.38529214,-1.0529163,-0.106684394,0.9952929,-1.2896197,-0.9770487,1.4489694,0.20920575,0.24803784,-1.0609838,0.2844465,-0.26096305,0.6131091,-0.9140398,-2.150466,-0.19768535,1.4217094,0.13484891,-1.156259,0.8607489,-0.74790186,0.68028164,-0.88529474,-0.35069594,-0.70519656,0.20330538,-0.6564697,0.86575705,-0.05468105,1.0114323,-1.0839068,0.05713654,-0.90820086,1.1231046,0.54718125,0.024967197,-0.43125916],"60":[-1.0268041,0.17636266,-0.47708505,-0.49822062,-0.14460658,-0.28082365,1.6720939,0.005715074,-1.9854537,-0.33980036,0.5834736,0.23073427,-0.055576734,-0.6155771,0.9201349,0.6479865,0.5645888,0.010223627,-0.56651103,-0.3343991,-0.15387467,-0.30237442,-0.0043787314,0.2337799,1.415047,0.8112071,0.09218827,-0.7671483,0.92903674,-0.88567764,-0.059784915,-0.40333933,1.5254221,0.8231231,-0.4000642,-0.009370133,-2.0533235,-0.54538256,2.3471665,-1.2864648,0.31560725,0.13027681,-0.077107914,-0.6280381,0.8813798,1.0809163,0.18607254,-0.38375145,-0.99218965,-0.6908018,-0.97625494,-1.1698391,1.5319883,-0.38117498,-0.9353259,-0.54540443,-0.22260907,-1.7210712,0.6214131,-0.4505323,0.36717892,1.061354,-0.3108706,-0.43903485,-1.2298659,1.1832812,0.63495356,0.63554627,2.1718254,-0.023510048,1.1505893,1.4452641,1.7910066,-0.24833918,-0.9030848,-0.3742709,-0.78742456,1.1594179,-0.48713967,-1.2914929,-0.41415814,0.65676475,-0.06451695,1.4056681,1.1876129,-0.6982238,0.39179462,-0.061578732,0.49216092,0.55032593,0.2770118,-0.24221474,-0.86896616,1.3468884,1.4491127,0.53524613,-1.6020912,-0.16585746,-0.9507138,-0.41760376],"61":[0.6052666,1.56982,-0.7419652,2.4312177,-0.7842279,-0.6691257,-0.26649773,0.5613965,-0.4559817,0.52265126,0.48700944,0.7517828,1.5287675,-1.0308409,1.3929807,0.7445742,0.17424507,0.3909337,0.33214492,0.71937037,-0.2946602,-1.9182981,0.04216113,-0.22588167,0.8737274,-0.35375696,0.21269482,-2.0083907,1.9263219,-0.333287,0.10585831,0.44575822,-1.4491374,1.0195308,-0.07199798,-1.6013819,-1.081521,1.1436337,0.20864946,-0.64950114,-0.8266234,-0.4226264,-0.45764408,-0.58909553,-0.38898078,-0.43731022,0.9841042,0.94431293,0.2815735,0.6038038,-0.04846175,-0.8754235,2.1545315,1.8964318,0.3313996,0.7080489,-0.29027224,-0.61083525,0.4968597,-0.25416934,1.4180716,-0.5477332,1.1519566,0.8842721,-1.4958028,1.0532379,-1.2087328,0.19896603,-0.24213557,0.9288583,-0.26449537,-1.5491879,2.2223692,-0.7948925,0.10689303,0.10856757,-0.92395264,-1.3611087,0.9199773,-2.2286477,-0.26183504,1.4274857,0.16700386,0.06864275,0.29160717,0.36662233,-0.29368126,0.66719043,-0.13075894,0.5585707,-1.4538953,-0.11364671,1.6487811,0.5024845,0.7629896,0.14746402,-0.2361178,0.9597867,-0.68109757,0.95728976],"62":[-0.24987032,0.6329284,0.3175743,0.5550851,-0.8696496,-0.50626105,-0.76563865,-0.26316547,0.05046844,-1.4128466,-0.2694429,0.35876977,0.519029,-0.3033871,-0.41679958,2.0587637,-0.16907619,0.9194013,-0.27846792,1.8383057,-0.7359342,0.10900649,0.96504927,0.11120171,0.37695658,1.4458735,-0.32599476,0.3520109,-1.5045897,-0.08480078,0.410188,0.035496775,-0.26999298,-0.17916504,1.7495117,-0.59414583,0.4894803,-1.537363,1.2706833,-0.6959719,-0.28106165,-0.34657326,0.91764784,0.85863966,-0.5992814,-0.32693523,1.3526028,0.33616447,0.26622137,0.17538881,-0.58074045,-0.9735883,-0.27579865,0.853926,-0.60404825,0.003969362,-0.42200744,-0.05345383,0.07597195,0.03619021,1.4915086,-1.0976454,0.3542467,-1.2345346,0.46027994,-0.2694685,0.21765383,1.2071384,0.917708,-0.33250263,0.24509472,-0.71107507,-0.8666339,0.088053904,1.400838,0.6865063,-0.107119374,0.9694056,0.3970747,0.52552044,-0.87106,-0.85019064,1.9544132,1.1397134,0.20950747,0.6664646,0.7822474,-0.5691091,0.9017699,1.8973414,0.08653051,0.7643469,-0.24214447,-0.7917479,-0.2614616,-1.5535327,0.5281884,0.19293684,-0.2954324,-0.21722995],"63":[-0.23803695,0.97644234,0.19835061,0.46987662,0.99085593,0.589303,0.57212645,0.72959167,-1.0792643,-0.67193747,-0.83842385,-1.2115368,0.15678097,1.5369118,0.024662465,1.266868,-0.4013871,0.2662809,0.09987094,0.5511165,-0.6234435,1.2496984,0.2983299,-0.51442903,-0.70527935,0.9331123,1.919645,-0.5189713,-0.4193732,-1.0137501,1.9119232,-0.3601636,-0.7987321,-0.5659169,0.36784565,-0.76586455,1.0496172,-0.49773768,0.50060016,0.16942792,-0.23897597,-0.0251861,0.15188383,0.1599606,-0.55066556,-0.36378458,-0.19185734,0.47905067,-1.3127649,0.60147804,-0.910405,0.3132897,0.8559471,-0.41658074,-0.36941054,-1.9693729,1.5748737,0.9153159,0.032310147,0.40898442,-0.4025552,-0.26000452,1.5629689,-0.31040743,-0.007856619,0.7778407,-1.2039454,-0.071711905,0.21933603,-1.6025803,-0.7091861,1.0130167,-0.29601437,-0.3908397,-0.0696737,-0.1548779,-0.7823202,0.81207955,-0.6214604,-0.29742712,-0.015775913,1.3476311,0.31264907,0.6389416,-0.33362532,0.2094025,0.16973837,0.656821,-0.8845363,0.8197483,-1.2781367,1.2032776,-0.5737058,1.9407666,0.58009285,-0.065691516,1.5735755,-0.90201694,0.7622641,0.17207408],"64":[1.1408737,-0.41778857,-0.44245774,-1.1177197,0.8864095,-0.607578,-0.085420206,-1.4495918,-0.75001305,0.7933919,1.5760506,-0.7918644,0.1374489,-0.82725346,0.74102134,1.46181,-1.1333523,1.3837705,-0.73452103,-0.3529842,0.19164546,0.53537464,0.37702888,0.8739254,0.9810332,-0.2564202,-0.65993106,-0.19090526,-0.6430554,0.2987569,-0.89190483,-1.2238996,0.6593762,-0.75102776,-0.004960477,0.63294023,-0.51171416,-0.63040435,-1.6673396,-1.1451595,-0.13351783,-0.5203387,0.41820982,0.8744442,-1.107142,0.021115908,0.2801027,-0.7687126,-0.20152669,0.013916504,-0.14735155,1.8906834,1.3028936,0.026741825,0.58778536,0.17359672,-0.22832634,-0.84461635,1.3411885,-1.6191484,-0.11258156,-0.19037177,-0.38581854,-0.14392278,0.45644233,0.8534852,2.165328,0.31068388,-0.77299875,-0.77630717,-0.24882413,-0.31302541,-0.39248446,0.19374357,-0.65490294,-0.39069474,-0.38507205,-1.0887375,0.78214574,-1.0724852,-0.5487483,-0.39822015,-0.18248834,-0.1871319,-0.006451498,0.03787624,-0.39677414,-0.638936,-0.19149096,-1.1120641,-0.5340256,0.28233424,-0.050904434,-0.4624902,0.9211467,-0.4225544,-0.17919709,0.9180912,-0.74487287,-0.34765062],"65":[0.7988671,-0.31689453,0.74536234,-0.7467476,-0.55003333,0.5189935,-0.9585912,-0.13277319,1.4580929,-1.26644,0.78014624,0.25002706,-0.39381772,0.0853007,1.6181892,-0.7210158,-0.88409376,-1.4057878,1.8462857,-0.4379311,-0.22505422,0.8148563,-1.4080161,1.3752042,1.0765493,0.7802267,0.58407813,-0.3911343,-0.64936846,0.7120894,0.161831,-0.6997167,0.4458906,1.1001312,-0.95361084,-0.76504016,-0.4508545,-1.0396525,-1.02978,-1.5789666,-1.2729781,-1.2104772,0.18417087,-0.5316713,-0.944571,0.45416808,-1.052209,-0.6461594,-0.3006429,-0.5453515,-0.56276226,0.030673198,0.54492295,0.37301016,0.91657376,-1.4769337,-0.7180546,1.0820508,-0.7145329,1.3346984,-0.85169697,-1.5043635,0.020894468,-0.6375322,-0.43375313,0.34704208,-1.5252706,0.30708665,-0.6568526,-0.4119586,0.65807265,-0.57291603,-0.286512,-0.3742342,-1.9145817,0.35882,-2.21128,-0.5524439,-0.48526284,1.8098142,0.23402849,0.5989172,-0.39559782,-1.6515241,-0.544019,1.0006323,-0.9628064,-1.0339136,-1.5756167,0.676794,-0.4207001,0.14466159,1.0743167,-1.304794,1.594464,-0.3815082,0.20777495,0.22191985,1.5605886,0.772308],"66":[1.163072,-0.24090548,-0.9751661,-0.5542791,-0.76879996,-0.5291629,0.06579103,0.27842692,0.548171,0.6832395,-0.24625355,-1.0203067,1.7178761,-0.99211204,-0.11054001,0.03217999,1.8487056,-0.42452553,-0.108771145,-1.2433392,-1.41393,0.46507022,-0.1788363,0.72233236,-0.2505544,-0.15742365,-1.1269925,1.3804036,-0.1917421,-0.9901138,-0.27956197,-2.1392655,2.1564114,0.7648838,0.52593726,1.0610002,0.14567454,-0.34168565,0.5609995,0.37624145,0.35849345,0.20799682,0.27664813,-1.3364147,0.24444145,1.3894761,0.35150328,-0.33530065,-0.29555047,-1.1365917,0.54305875,-0.9454366,0.38292018,-1.7192088,-1.4860873,-0.494815,-0.7243044,-2.4412892,0.97300833,2.0122418,-0.5842783,1.0707535,-1.641544,0.32649213,0.69036025,-0.44977227,-0.3738527,0.32671306,1.348436,-0.2544753,-1.631103,-1.7351165,-1.3298582,-0.0699566,1.3633618,-0.79786676,0.16191463,-0.44233942,0.95509595,-1.8043629,0.32693967,-0.086166054,-0.1231587,1.2529881,1.1566199,0.476717,-0.64452213,-0.33136076,-0.3638117,-1.2739933,-1.1460212,1.4108373,-1.3177211,0.14308532,-0.40574294,-0.050008696,0.4381542,1.8746002,-0.09008621,0.38991478],"67":[0.6008492,1.1815399,-2.3471107,-0.9868581,-0.32502067,-0.93582726,-0.38771677,-0.4400912,0.8726133,-0.13073693,0.92026466,0.45510495,-1.370801,-1.3104182,-0.9477016,0.60303086,-1.4805813,-0.31109604,-0.19952047,-1.8798108,-0.61977506,-0.53211343,-1.1179572,-1.6258513,1.0945172,0.52536184,1.0076593,-0.2978504,0.8430537,1.9804184,0.5620449,0.5867563,-0.29878396,0.29664144,-0.794806,-0.81363887,-0.517973,-0.5828988,0.49199238,0.21644118,-0.2288654,-0.061231624,-0.32206157,0.2811834,-1.3647243,-0.9222106,-0.35325497,1.1961592,-1.0517395,0.12983435,0.51768404,-0.6678663,0.9343168,0.6084687,-1.6361247,-0.99103403,-0.4013035,0.4926828,0.07112718,-0.7677042,-0.3176414,-0.17430167,-0.50891215,0.00013565202,0.3138312,1.0622098,0.38795426,0.3394194,-0.47352916,-1.2542803,-0.35735905,1.2308258,0.36320242,0.13773194,0.47101554,-0.43710047,0.50049466,0.7149358,0.85270166,0.70401746,-0.9573522,0.74539065,0.67899746,-1.1424805,-1.9825989,0.981193,0.84640896,-1.0239271,0.43335885,0.83999586,-0.28739592,-0.63052344,-0.59592056,-1.0627321,-1.6891457,1.0320911,0.7438168,-0.95705986,-0.42595175,-1.006993],"68":[0.35280398,0.98805547,-0.8226237,-0.047677632,0.2842439,-1.1332767,-1.4545755,-0.12466995,0.10204453,-0.04997052,-0.39628,-0.09367816,0.39310178,-1.176263,0.30973092,-0.16798782,-1.4042888,1.209236,0.051598538,1.6335368,0.10216068,0.42335293,0.55679137,1.0604043,0.16013461,0.3259443,0.04525511,0.42344344,-0.5427076,0.8427849,-0.25194436,-1.4378037,-0.98860073,-0.44273603,1.3175272,0.096887134,-0.6203622,-0.4913511,1.0396397,-0.101417914,0.523051,0.0126029,-0.68189436,0.2960201,-0.38112846,-0.092115894,-0.42613167,1.5578353,0.737427,-1.9198054,0.6625015,-1.084228,-0.1935039,0.7211216,-0.058101214,-0.79286164,1.0292658,0.038658526,1.7003807,-1.125634,1.907314,1.5342417,0.013487963,0.07558257,-0.97109544,0.66778564,-0.7833945,-0.9345517,0.71049243,-2.6579897,0.19338483,-0.7663188,0.5315381,0.7402208,-0.21302573,0.25166315,-0.361228,-1.5192974,0.39877582,1.5651145,1.1783627,-0.6811234,-0.893317,0.27221036,-0.64811057,0.4763678,1.2279419,-1.1148219,1.2396493,-0.15886328,1.3524241,-0.26563877,-0.11321911,-0.30217946,0.99722844,0.2504918,1.4247022,-0.20767684,0.6130194,-1.2198311],"69":[-0.957977,0.6297457,-1.7682703,-0.21193777,0.20231442,0.689484,-1.17633,1.7853935,-0.7999749,-1.0345205,-1.616926,0.6463646,0.8588116,-1.8338833,-0.2033338,0.553618,-0.73392445,-1.1402547,0.9174101,1.8831552,-0.49658018,-0.14356065,-0.7123867,-0.5506784,-0.95383734,0.29070386,-0.06447617,0.855704,1.31399,0.3054107,-0.56307,-1.4549766,-0.098286845,1.3741423,-0.37589997,-0.23833059,0.8231976,-1.7620155,0.18906602,-0.10717111,0.7961645,-0.028402368,0.1694967,2.3725226,0.05495843,-0.90153766,1.3393708,1.305712,-0.49326882,-0.8398739,0.6913258,0.39515546,0.25945503,0.69048786,-0.71767557,0.1689052,-0.6963681,-0.7098499,0.054318007,-1.0246809,-0.8374561,-0.42030382,-1.3506136,1.1623234,-1.0660635,0.274873,-0.826763,1.0120271,-0.45341218,0.8243576,0.7318797,0.84320825,-0.20605366,0.53187793,0.2503154,0.772788,-0.19979955,-0.7027849,1.4802892,0.04620063,-0.16842039,0.3207741,1.7846621,-1.2277256,-0.835265,-0.5665669,0.53319967,1.5244133,-0.24250676,0.9008162,-0.026946502,-0.7463419,-0.10097399,-0.43628633,-0.23120303,-0.6640214,-1.607535,0.8183006,1.3083096,1.5111699],"70":[1.2103692,0.048509125,0.22221892,0.6489762,-1.205656,0.060932,-0.42010248,-0.28669018,0.001997806,0.7084986,0.46764693,0.5144666,-0.33421752,-0.6631271,1.5950482,-1.0894486,-0.29568398,-0.45175114,1.1358446,-0.8172427,2.4550774,0.12706766,-0.09560456,0.59956026,0.9246321,0.8514168,-0.10085775,1.4335104,1.4560915,-0.0960332,-0.66205084,-0.25837386,0.6149751,-0.079606436,-0.043416787,0.70669776,-1.4543891,-0.71349007,-0.4642374,0.38368106,-0.24533477,0.8843927,0.21381651,-0.86500955,0.081352755,1.0775075,-0.33481216,1.0752033,1.1594956,0.83453673,0.12180494,-1.2383094,1.1786859,-0.21734159,0.28036675,0.20258215,-0.26502833,0.90736276,0.19670658,-0.12866238,2.0369406,0.053056825,-1.0946925,-0.7415364,-0.3504228,-0.30981442,0.25398895,-0.118691936,0.28150594,-0.7644226,-0.13879757,-0.26570407,-0.62973464,-0.74723625,-0.82760197,-1.50428,-0.08439434,0.06366479,-0.2851112,-0.32941306,-0.1286055,-2.2618952,0.5369659,-1.2088921,-0.292053,0.5054866,1.603779,-1.3363305,-0.077546604,1.099802,-0.04377267,0.14050582,-0.82811445,-1.2486064,0.95107895,0.81020004,0.058205318,0.4104727,0.92018723,0.30773476],"71":[-0.7608612,-0.3105694,0.5447215,-0.14763121,-0.3445841,-0.2932036,-0.8665886,1.5227988,-0.47520003,-0.3814189,-1.0162144,0.41592923,0.25844193,0.4081216,1.3736644,1.6627611,-0.42665794,-0.7412796,-0.91478944,0.8729501,-0.18093432,-0.36367667,-0.5915239,0.3267072,0.2611542,-1.2958758,-1.0304363,-1.2482235,0.7793866,-0.31567627,1.2029554,-0.8827412,0.95512205,-0.0033148704,-0.5129333,1.4763857,1.4114014,1.0316449,-0.95985645,0.31845707,-0.72777253,0.39100853,1.1414119,0.9641034,-1.2333032,-0.15526341,-0.09607265,0.96775717,-0.5920569,0.8443763,0.9294769,-1.0357788,0.9609255,0.5450099,1.1293083,0.3332795,0.018059416,-0.89599204,0.57612824,0.8531182,1.1068871,-0.34951052,-1.4228005,-0.24687229,1.4597799,0.2266969,0.6254159,0.75421965,0.508988,1.200801,-0.58312994,-0.26624617,-0.6689883,-1.2180997,-0.9176319,0.7077188,0.030849302,-0.8227364,0.78915316,1.1101552,-1.6037985,0.71865344,1.117971,0.5682908,-0.24243878,0.53945065,0.25622568,0.8774825,0.9220108,1.4092326,-0.05597374,-1.808989,1.7676386,0.63596714,-0.46995085,0.70471823,1.2030877,0.69153714,-0.814159,1.1567483],"72":[0.19122602,-0.80275947,-2.297734,1.1851563,1.1800197,-1.1937604,0.8466114,0.10950669,0.06860126,0.32651606,0.89002275,1.4664453,1.1950992,-0.056349304,-0.18029986,-0.7514302,1.1564509,-0.6568658,0.1045167,-0.21751882,-0.2204058,-0.46715885,-1.4352692,-1.4011414,-0.80600363,-1.3168195,1.3278325,0.40443462,-0.82975507,-0.40038428,1.9286284,-0.41421986,0.31937113,1.0036862,-0.43012074,-0.17790179,0.009477376,0.30825928,-0.4150901,-0.49308202,1.3630041,-1.9953109,0.16604017,1.3236082,-0.71185213,-1.3605669,0.5353902,1.693454,0.05191701,-0.052968908,0.37586975,0.6728384,-1.434458,1.372285,-0.19557655,-1.4093266,0.8901531,-0.75094247,-0.6518022,2.1166089,-1.3015817,-0.37166652,0.72640884,-0.5532053,-0.16930762,0.8934013,-0.4451005,-0.2858963,1.0329888,-1.0146621,0.15190877,1.0743309,0.5795202,-0.3693137,0.0763294,-0.116225116,0.72176313,-0.45490274,0.6564116,-1.7116318,0.41880873,0.8364179,0.46195966,-0.3986396,-2.180303,-0.57150894,-0.019142587,0.66551507,1.4032314,0.9431639,0.01961424,1.6112872,-0.7257377,0.54604536,-0.24538092,-1.1469322,0.7624655,0.6681836,1.6073343,-0.35809186],"73":[0.27177188,0.09813447,1.5583482,0.2625076,-0.45364007,-0.47375485,-0.26928908,0.9418363,0.7344911,-0.8888744,0.49450544,1.3312807,-0.22916247,-0.9162475,-0.46164653,0.41182613,-0.25770843,1.5502173,0.38494754,-0.4718478,1.9243174,-0.6291309,-0.11527359,-0.36375487,-0.16646358,1.6630509,-0.7814375,-0.7001552,0.8840988,-0.41282198,-1.5840887,-1.0775164,-0.36818233,-0.9580924,0.066593066,-0.20369306,-0.3026833,0.39078814,0.21918787,-1.1439577,0.57032275,-0.3895617,-0.38014555,-0.8461326,0.1524758,0.6085826,0.5209558,0.55111814,-0.22749941,-0.009439122,0.7855567,-0.17652902,0.7175415,-1.0165493,0.82682914,0.29415503,-0.2117613,-0.8222174,2.2951326,-0.7144264,-0.87289804,0.05766941,0.29236263,1.1227505,-1.1831902,-0.47450012,-1.2650167,0.27215716,1.5622209,1.4941038,-0.77269787,-0.32271528,-0.1853405,0.9238159,0.5394272,-0.7735315,0.48474616,-0.093479276,0.07124438,-0.4534416,0.24640648,-1.0616165,0.5884602,1.425227,-0.46035194,0.3602575,1.486311,-1.3349386,0.97032803,0.92669547,0.051011253,-1.6510669,-0.33145654,-0.093003474,0.9684564,-0.26300985,-1.5013862,-1.2593571,-0.8353948,1.8458415],"74":[-0.08056107,-0.09991465,-0.24229866,-0.18340223,0.26408803,0.0049845306,0.2579274,-0.9068257,-0.2598382,0.034132786,-0.1264563,0.044748213,-1.6722696,-0.8906841,-1.1689637,-0.57439053,0.94319725,0.47356513,-0.1836041,-0.9479476,0.16116907,0.07063525,1.18527,-0.55461985,0.021267148,0.54091,-0.5862886,-0.1112536,1.3810009,-0.10887567,0.16794999,0.20857763,-0.21563044,1.216548,0.5084155,1.5913011,0.2216331,1.685707,0.5807569,1.1024858,-0.7565446,0.86819524,1.1382383,-0.3257427,-1.8894663,-1.0467969,0.04866331,0.7888542,1.8015097,-1.0845268,0.11164377,1.0088762,-0.77433896,-0.59187436,1.4176409,0.23749301,0.7045064,0.33582377,0.5146526,0.92570424,-1.0101633,0.35802898,-0.7203516,-0.4970379,0.12758642,2.477325,-0.764756,-1.6290604,-0.9074375,-1.0160019,-0.3670541,-0.06281839,1.1351931,-0.31029138,0.15719016,0.021834662,0.31464773,-0.61039954,-1.0180852,-0.9402256,-0.6479609,0.7644592,0.4708854,-0.4727432,0.07301591,0.47929582,-0.3185093,1.1184018,0.6491308,-0.8133419,-0.35364515,1.0251206,-0.92309254,-1.2815299,0.2019747,-1.9711589,1.1533313,-0.63430816,-0.3551307,1.4302336],"75":[0.05176901,1.5385104,0.55344915,0.12155724,0.13433841,0.2569973,-0.027673759,0.12581924,1.0453771,-1.1293418,-0.27574727,1.248362,-0.9297028,-0.316764,0.5655945,0.8453501,-0.11816286,-1.550384,1.039659,0.50789857,0.62166184,0.16120093,1.7169483,1.476512,0.2092694,1.014384,0.59168047,0.053323887,0.60524124,-0.2336735,0.51850235,-1.0226172,-0.13327534,0.10575903,-0.7322195,1.1166291,0.92304343,-0.6628559,-1.2287195,-0.3706063,-0.17605378,0.048466787,0.5548925,-0.7538504,0.31261218,-0.41978675,0.9641343,-0.040597048,1.0325915,0.74748796,1.4826427,-0.43526548,1.0570357,0.8222903,-1.0335456,-0.1406808,-0.096715115,-0.07328626,0.92111975,-0.8220905,0.29995933,-1.9241816,-0.38777906,-0.9446069,0.39116085,0.2841457,-1.4677225,0.0855919,-0.26125687,-0.6012274,1.6088135,0.09925284,-1.07964,1.6822866,-0.42254248,0.8032873,1.3199995,0.3829004,0.30721658,-1.163915,-0.3614717,0.13823192,-0.25676033,0.7762405,-1.763941,0.41392323,0.16931167,-0.39606863,0.35997254,0.10037235,-1.5520706,-1.4787986,-0.26177537,1.3108217,1.1582245,1.9239749,-0.20190795,-0.1572566,-0.23013623,-0.85892797],"76":[-0.7555192,-1.1066588,-0.6763982,-0.21190435,0.23683959,-0.0074046003,0.089768425,0.95601326,0.061634794,-0.9045981,0.6151755,0.2638491,-2.5178125,-0.34830257,-1.0985397,-0.9270213,-0.42603028,0.76461506,-2.4116237,0.010987489,0.53607357,-0.9948427,-0.77873194,0.39509872,-1.3069752,0.43430188,-1.416546,-0.45356408,0.12869152,-0.36356184,-0.39053085,0.1193641,0.20307212,0.3930735,-0.83400154,-0.009407885,-0.08532683,1.2088645,0.035390776,0.1906961,0.3686909,0.08726873,0.13731325,1.035795,0.6135793,0.2087373,1.3095095,-0.3131335,-0.41464475,0.87825394,-0.336401,0.060443167,-1.7191905,-0.44398326,0.5202631,-1.2171648,0.12388606,-0.8129148,-0.15692042,-0.62702245,-0.28846925,0.49406248,0.1507684,1.3190854,-1.0315114,1.1012515,-0.44661313,-0.23550236,0.22835487,0.019317433,-1.4418802,1.4263948,-0.22993961,0.2200474,-1.4713107,-0.84297657,-0.57956517,1.8084918,-0.92780906,-0.59153736,0.17845821,-1.5017873,-0.2039538,0.39220646,0.090754226,-1.1476036,-0.705039,-0.50937533,0.67928165,-0.75675994,-0.34264922,-0.6238405,2.151896,-0.25968352,0.9814481,1.82783,0.5900434,0.18410008,-1.1523054,-0.8731759],"77":[-0.68549514,0.7856267,1.6723728,-0.36025354,0.12015335,0.22138162,0.3578077,-0.50611645,0.18681855,-0.25532988,-0.4334178,1.1098477,-0.22860768,-0.5692573,1.2294672,0.24098001,1.1434644,0.08435238,0.28629145,-0.17666116,1.1046835,0.07526402,0.058349,1.5974067,0.712559,-0.6540275,0.2498739,-0.7343261,0.52040166,1.4133734,0.49204928,-0.7331281,0.7010926,0.19363903,-0.09198167,-0.64999795,-1.4188535,1.0730739,-1.1089954,0.60709345,0.03039492,0.42404014,1.4578338,-0.44782522,0.2718914,1.1417828,0.504204,1.4767718,0.9807422,-0.4252797,-0.14981951,-0.123402774,1.2824742,1.1015065,0.78926766,-0.048795756,0.4882409,0.3058158,1.6187005,-1.133742,-0.2309812,-0.78958696,-0.5650992,-1.2701932,0.8836631,-0.34017956,-0.47643518,-0.6071561,0.512914,-1.9846879,-0.0074180113,1.8412783,-1.0540701,1.5909716,-0.69308925,1.2366081,-0.7108481,0.79463345,-1.670933,-1.7823824,-0.52737796,-0.121232666,-1.6699494,-0.77254325,0.4134075,-1.7044072,-0.3237856,-0.32339373,-0.6666814,-0.9877788,0.9295901,0.07229666,0.52246183,0.39279413,-0.5551034,-0.6000461,-1.2250859,-0.40451074,0.95132524,0.08910733],"78":[0.055094905,-0.13254827,-0.18161872,0.052690387,-1.8568578,-1.2107959,-0.58962804,-1.656835,0.4516425,0.18116699,-0.05173253,-0.57933515,0.05199705,0.987813,-0.022077551,-1.5854416,-0.6361553,-0.7312783,0.683051,-0.07370064,0.41367868,1.7463683,1.1234925,-1.4696156,0.16925733,0.99394244,-0.07024313,-0.16151866,0.25555152,-0.31807363,0.12251288,0.90686256,-1.4671934,-0.92411643,-0.26468217,-0.63554996,-0.93411976,-1.296819,-0.37132442,1.509702,0.72829103,-0.9974747,0.23530836,0.26469776,-0.06476617,0.9307388,1.7398994,-0.9884722,0.7823824,-0.22881933,-1.2631483,-0.4880871,1.6152829,0.16941868,-1.1066045,0.1578844,0.9173827,0.78526807,0.061343525,-0.031566896,-0.8965402,0.23933168,0.52909744,1.6450886,0.67253923,1.287557,0.29276052,0.48264626,-1.5132715,0.66172755,-0.08297931,-0.77216405,0.024494484,0.66141593,0.6541835,0.97652537,0.6855504,-1.418689,-2.073486,-0.4637339,1.176308,0.62213445,1.5512211,-0.7765546,-0.493089,-0.25671586,1.0922778,-1.247399,0.49354047,-0.61729664,-1.0250677,1.6882323,0.47868964,-1.3814659,-0.6710908,-0.3561808,-0.21584795,-0.5800969,0.5778603,-0.39202207],"79":[-0.080457516,-0.3743996,-0.12542194,-1.4348644,0.75126374,-1.0824425,-0.84758514,1.6384926,-1.2172186,-0.9288163,-0.08764088,1.1282413,-0.05552508,0.30910027,0.87420464,-0.8759884,-0.515786,0.56335396,-0.8436409,-0.37208226,-0.18790896,-0.2143791,0.4514003,1.2303542,1.3188034,0.72611684,0.1418667,-0.65498716,0.08578377,-1.8786951,0.11554529,1.139166,-0.89002603,-0.33389467,-0.2408712,-0.06464498,-0.56300795,-0.17280287,-0.079911046,-0.5503337,0.2570454,0.7886805,-0.8283782,0.023701135,0.63613176,0.23689738,-0.2175454,1.5502443,-0.17438166,-1.6487073,-1.757599,1.5477003,1.0682214,-0.09487913,-1.0342348,-0.42867482,-1.1463628,-0.6678832,-0.5550688,-0.1674523,1.1710734,-1.4080874,0.06287825,-0.7506336,-0.024728902,-1.2159345,1.3765525,0.6412354,0.4196509,-0.68883306,-0.80452985,-0.029011002,0.4185425,0.06438306,-0.59670943,-0.21974394,-0.81263494,0.5116844,0.79199654,0.07082838,-1.1331823,0.3316152,0.5490804,-0.23614573,-0.9253289,0.039746545,1.8218163,-0.45664546,1.4858266,-1.0962038,-0.29320344,-0.61707914,-1.0357282,-0.80179167,-0.83852863,-1.2245541,1.6506107,-1.6629899,-0.5891141,-1.3810388],"80":[0.24595962,-1.205791,-1.3056492,0.65087396,-0.091821805,-0.41027784,-0.54247296,-0.680025,-0.49248034,1.2615736,0.017124092,0.6920506,-0.34255594,-0.740608,0.24884602,-0.16566437,0.021220561,-0.21130681,1.1325295,-0.26797485,0.37465176,0.2978891,-0.5524585,-1.2278901,0.85731566,0.14757943,0.95370525,-1.2404176,-0.026746117,0.5423844,-0.32415283,-0.72482115,-0.2824167,-0.9048115,0.26790664,1.888471,0.7927481,-1.1123636,-0.0073015676,1.022781,-0.12696058,1.0574267,0.5571514,0.18576817,0.2892789,0.7844798,0.11055889,-1.6575663,0.66326827,-0.25251523,0.5274004,-0.9080061,-1.3112333,-0.40327078,0.84152156,0.07176573,0.6848331,0.7521316,-0.9777936,1.2573036,-0.2848904,-0.46830288,0.62616944,1.3487853,0.5683177,-0.29694867,0.17059846,-1.3498003,0.16034837,0.47330648,-0.8295379,-1.2741427,-0.7792874,1.1800512,-0.9056891,-0.53480333,0.68521416,0.5240977,-0.4122678,0.46699283,-0.4177986,-0.23504436,-0.44847667,0.847462,-0.27626956,1.1481048,0.48076063,-0.5888323,-0.8411566,-1.3882713,-0.087326854,0.29605374,0.76671404,0.26455015,-1.286267,-0.6753828,1.604134,-0.15088236,-0.07580756,0.86630535],"81":[-1.9448988,0.49079776,-0.7903052,-0.07357822,0.9298263,-0.45391718,0.79617316,-0.3010892,-0.88792276,-0.97499573,0.42957285,-0.010991296,-0.92665225,0.15122399,0.16000204,0.060281876,-1.1856565,1.199975,-0.13146137,-0.33914018,-0.41494617,-1.408705,-0.2894499,-0.24382116,-0.06703948,0.099923484,-0.8274544,1.5778261,-0.5757439,0.61740273,-0.7974939,-0.60612917,-1.6954155,-0.4154117,2.2709749,-0.8483996,0.07112486,0.53764194,-0.4111187,-0.7572111,0.17570429,0.542945,-0.27324468,1.3733653,-1.465211,-0.49468726,-0.71375877,-0.8851898,-0.035189502,-0.46783012,-0.8350715,-0.6792926,-1.3574162,-0.1207961,0.0069905845,-2.2754102,-1.1641768,0.054078948,-0.745985,-1.5638348,0.54120666,0.8758293,1.3758739,0.7475265,1.1223367,-0.31990957,0.082357995,0.6521127,0.19679691,0.040000092,0.8838686,-1.3170819,0.3024407,-0.39784727,-1.2413323,0.161822,0.5621322,-1.3294178,-0.34303027,-0.09322164,-0.96053773,-1.0991911,1.326467,-0.16332267,-0.14488347,1.0097302,-0.3242386,-1.0380006,-0.3686469,-0.8894497,0.17038578,0.32410434,0.06382216,1.9375234,0.10608108,0.74192977,1.2475677,-0.2516272,-0.3180386,-1.2104176],"82":[-0.7198364,0.2067801,1.2599567,0.7692364,-0.5667224,-1.0463532,-0.5006287,-0.87437266,-0.18825987,-0.21767667,-0.5793875,0.027498372,-0.11584215,-0.58076143,0.84340066,-0.4291432,1.1676171,0.30779135,0.37375262,2.1545398,-0.30612606,-1.2518606,-0.92510843,1.4090112,-0.17048553,-0.35761127,-1.4182302,2.5667927,-1.8154544,-0.45275795,0.16104013,0.6270452,-0.8205827,0.020252714,-0.13644266,-0.21549086,0.4871326,-1.2521703,-1.4481151,-0.25081545,1.409193,0.49616846,1.2417966,1.0402318,-0.69511724,-0.21152277,-2.000051,0.19437174,0.8302564,0.6915689,0.2949561,-0.32272476,-0.6158162,-0.23019528,0.38272327,0.0018313484,0.07356392,0.31763214,0.61481434,-0.33787107,0.018880203,-0.49809694,0.25259295,-1.6422777,0.8804617,-0.71276087,-1.2985796,0.25332123,0.2951406,-0.69108325,0.6590151,0.73558354,-0.27770817,0.90683174,-0.039221883,0.18664767,-0.73057383,0.4444454,0.92954373,1.0140607,-0.05634678,-0.7449857,0.4584907,-0.025657823,0.8737951,-0.58246493,-0.2704029,-0.18281865,-0.74116814,0.44654927,0.49474847,-0.72448725,-0.25013152,-1.3187902,-0.43073636,0.085506774,0.05205495,-0.38755774,0.43377158,-0.29015195],"83":[0.7376541,-1.0638814,0.6376456,-0.93302095,0.11870753,0.18997142,-0.56928617,-0.66796184,0.030003596,-1.4143845,-0.11052594,-1.2907717,0.82699805,0.25042388,-0.03767214,0.32897907,-0.37474614,-0.24146426,1.188055,0.64214325,-0.080999024,1.0729685,-1.609546,0.16153036,0.077507004,0.123854056,-0.09398179,0.38747692,-0.8766811,-0.29469135,0.037839353,0.23762734,-0.16596562,1.238457,1.1455053,0.36289862,0.24374416,0.7470086,0.57119,0.49951154,-0.19634542,-0.9270689,-0.22497489,0.59554595,0.0841117,0.45577124,-0.15325364,-0.44753087,-1.1848931,-1.5130838,0.6787668,0.76871675,0.7372333,0.7375271,-0.7625697,1.8819047,0.7178341,0.31795824,0.045879897,0.23144884,-2.113195,-1.4515691,1.0339144,-0.29739463,0.41140664,-0.84324896,-1.2844117,-0.38831097,-0.6486133,-1.9111913,-0.56107676,1.55277,0.55949813,-0.5518218,-0.7008302,0.1479974,-0.77743703,-1.4027821,-0.024047201,-0.19701669,-1.5554255,0.36665344,-0.5422374,0.6501937,-1.7335043,-0.7404891,-1.7025957,1.6050022,-0.6263447,-0.18244095,-0.24153636,-0.64059937,2.0824916,0.29252493,-0.4690749,1.6432407,0.35739914,0.08226687,0.89638877,0.42194074]},"biases":[0.3419563,0.6905896,0.50038475,-0.980608,-0.814078,0.6214494,-0.0041359533,-0.2831713,0.43688202,0.3155458,1.2445523,-0.6240685,0.87965316,0.6680366,-0.3743414,-0.80869216,0.8683643,0.5991773,0.3732351,-0.3132263,-0.8949037,-0.27692643,-0.017807174,0.373004,0.025582131,0.42610407,0.05429086,0.06059918,-0.6344517,0.09884567,0.62139195,-1.0913335,0.5244363,0.061204217,0.57559615,-0.7834049,-0.54896533,-0.7553799,0.45674345,-1.0701689,0.052309744,-0.28656268,-0.19285059,-0.37098047,0.6718818,0.3917976,-0.67346954,0.54623795,-0.41208386,-0.4849459,0.8259504,0.9738437,0.52744114,-0.61939424,-0.055432916,0.07804856,0.25698113,-0.9314654,0.06428388,-0.65308833,0.39709753,0.6741065,1.1628637,0.91849655,0.36446747,-0.21045141,0.18863629,1.2833639,-0.5424967,0.375219,0.0075980695,0.6145549,0.3442766,-0.31564796,-0.7977236,0.08065243,0.8553218,0.8233954,0.802664,-0.5110894,-0.46964857,-1.0585529,0.7921941,-0.34565625,0.28758425,0.6824714,-0.18705706,-0.08924692,0.78164864,-0.95008147,-0.27764043,0.28880876,-0.30634806,0.17148265,0.1780007,0.22877441,0.64418375,-0.3931225,0.30589887,0.41918892]},{"in":100,"out":300,"weights":{"0":[-0.7016769,-0.60924286,0.99809825,0.23455662,0.72658217,1.3498307,-0.06933616,0.34513405,-1.9658817,0.5968389,0.053574014,-1.044955,0.21165426,0.8288109,-0.68743515,-0.85747695,-0.52276766,-0.37538302,-0.10840765,1.1430706,0.2854316,-0.34454522,0.6224016,-0.44143626,0.1555488,-0.677927,-1.418967,-0.058762237,0.9452469,-0.58529395,0.014952157,0.51617277,-0.19392063,-0.48433352,-0.00091852725,-1.4759119,-1.57967,-0.1525961,1.063484,0.34575713,0.71876764,-0.20244053,-1.0486308,0.17053975,0.80854195,-0.6037226,-0.4179247,-0.032200243,0.7042406,0.24972391,1.090759,0.083763,0.15618895,1.8590115,-0.1921534,0.77161753,0.16523944,-1.2697937,-1.3755354,-0.62030315,-0.8413163,1.0205735,-0.5670656,0.91190624,-0.28325814,0.56398165,1.4068174,0.5683921,1.6503841,0.13765782,-0.44223392,-0.505469,-0.31942576,-1.1511422,0.8505503,1.345759,1.146298,-0.13382223,1.1860728,0.99912876,-0.5085988,-0.5800165,1.2928282,1.2478641,-1.13237,-1.1973293,-1.6132445,2.1403255,1.0253248,0.7335731,-0.16460708,0.7691309,0.27428585,0.13146186,0.0020619873,0.026016714,-0.68763065,1.0323988,-1.4654493,0.44796374,-1.2665535,-0.27430466,-1.3531567,0.664536,0.6268841,0.7958362,0.5055064,1.1481253,-1.4573936,-0.066720895,1.262716,0.19031857,1.3574657,0.48860034,0.0560612,-0.5865416,-0.72973293,0.081583105,-0.75952363,-1.2081271,-1.2828575,-0.33898982,0.64451003,1.3895781,-0.726178,-0.98315203,0.733794,0.5865029,1.0112869,-1.4596272,0.14342834,-2.3013132,-0.5215173,0.6150924,-0.8216483,1.2049001,1.2523738,0.35612324,1.0324312,-0.9905245,0.17388049,-0.60941255,-0.0013536067,1.4745804,-1.1066799,-0.76300997,0.011010742,-0.94261265,-0.60030824,0.75194657,-1.7676126,-0.47651368,1.2300452,-1.0641321,-0.6251749,-0.99651897,-0.30023292,-0.929623,-0.065972835,-0.059573825,-0.47932288,-0.001364218,1.0465624,-1.6671455,-1.0602806,-2.0524168,0.2790184,0.62180096,0.40977263,-0.6912517,2.1597886,0.037717447,-0.5343474,0.34363854,0.6865746,1.3462175,-0.6213991,0.50081706,-0.76975745,-0.56529605,-0.39342782,0.81933236,-0.1666166,-0.031050412,0.08300747,-0.8037559,-0.4847526,0.5658847,1.1973959,-0.52639544,0.42647052,0.7875061,-0.29216477,-1.5425284,0.020604676,0.2561766,0.42551765,0.029880073,-0.33062991,-0.60787356,-0.52550775,0.5001576,1.5422572,-0.08219928,0.3534731,-2.0415254,-0.31487197,-0.29958475,-2.3929207,-0.067071915,1.8093581,0.8245376,-0.41071048,0.39254442,1.6177818,0.9156288,1.0056254,-0.6387667,-0.56542665,-0.07067871,-0.01978014,-0.23869255,-0.9409368,0.76193005,0.2644606,-0.23701416,-0.0074118907,0.6837097,-0.42925498,0.6789722,-0.76941717,-1.1225581,-0.021870097,-0.057453115,-1.5302792,0.2566602,2.1171033,-0.18789949,0.806466,-0.2091146,0.3162352,0.51776236,-0.080031775,-2.1758225,-1.0617229,0.9672326,1.4667932,-1.4036791,0.7674707,-1.0572667,0.93040496,-0.27524933,-0.102497764,-1.6615584,0.41764903,0.81487006,-0.47539783,0.57009965,-1.0750833,-0.17498106,0.5331104,-0.7859002,-0.49632987,-0.2219099,-0.27137244,1.0738891,1.8912171,0.24994443,-0.5855752,0.78085154,-0.6028561,-0.13631716,-0.58745754,-0.14682138,-0.7116711,0.62662107,-0.44633427,-0.8620961,-0.862386,0.8865253,-0.13086624,-0.31889042,-1.0584962,0.6425806,-0.40889955,1.8269124,0.64597976,0.8594473,0.36135453,0.3535818,-0.08575709,0.36474308,-0.52843714,0.7697739,-0.45701578,-0.6885049,-1.3752571,-0.9537066,1.208169,-0.26684856],"1":[0.7878827,1.0027262,-0.9017491,0.1892494,-0.32240888,-0.18802084,-0.29069516,-1.1671187,0.3706065,1.4332808,0.5093908,0.7532156,2.4411297,0.54171896,0.6523426,-0.6819809,0.99025077,0.094931886,0.5457987,-0.52876425,-0.38527146,0.40467852,0.25839564,-0.7065184,-0.65379864,-0.7477001,0.22309038,-0.64639574,0.43321133,1.8343523,1.836769,0.2958511,-2.1180542,-0.30787045,1.014786,0.3130135,0.07572079,0.41015482,-1.0047158,0.74813014,-0.43713593,-1.0405685,0.3768282,-0.392906,0.22048381,0.81164736,0.8508512,0.71528614,-0.9116639,-0.6679687,1.3036928,0.23477148,-1.0883591,-0.57006747,0.55248225,1.2828423,0.0068879733,1.3428527,0.4580497,0.46994776,-0.5385801,0.0077704135,-0.87132764,-0.5950142,-0.30950725,-0.95727986,0.76702994,0.09987979,0.2631598,0.8508482,-0.975145,-0.6132025,-0.39624348,-1.336474,1.521439,-0.7339386,1.0547127,0.32823524,-0.08445932,0.032389335,0.37749928,0.2128432,-0.53205806,0.36189964,1.2599777,0.9167041,0.6564781,-0.3067402,-1.9431182,0.4818325,0.20718694,0.3126327,-1.2479271,-0.8869248,0.9173382,1.0369345,-0.4607018,0.97898567,1.1616033,-0.5977966,-1.1565745,-0.74791014,0.6540265,0.24628755,0.80693054,-1.3578693,-0.067335114,-0.7944671,-0.5565503,-1.5940847,-0.7805418,-0.5643257,-0.80511624,0.23984583,-0.9815728,0.2225549,0.008054597,0.07192951,1.088935,-0.26709595,-0.19745637,0.37898603,-1.1670543,0.09964168,0.63376296,0.8909841,0.78522646,1.3475382,0.45069897,1.4093183,-0.4641254,0.9265049,1.2529383,1.2413702,-0.40098497,-0.82813126,0.41730142,-1.1706709,0.8519785,-0.4297377,0.09450045,0.63013804,-0.44574097,0.5419345,-0.33049816,2.008477,-1.4777195,0.54875064,0.35494813,-0.20184267,0.48903978,-0.92856956,-0.12604998,1.1865991,-0.03265391,0.53579354,-1.3757432,1.8627357,0.54997087,1.2955698,-1.1059915,-0.44266415,0.2437563,-1.0508533,-0.78374577,-0.20153911,-0.43734795,1.2142226,0.162952,1.0557213,0.32178333,-1.196876,0.9130611,0.6378907,0.051818717,0.6574324,1.637382,0.663514,-1.0471469,1.4502958,-0.22321926,-0.275928,-0.65963966,0.5104125,0.5614686,-0.7585513,0.30516028,-0.35803276,-0.36954618,-0.49703568,0.47210303,1.830092,0.85526,-1.0726352,-0.36224407,-1.7944006,1.5426438,0.04405254,0.67419106,-0.25533843,-0.04631078,0.46637204,-0.56516844,0.208897,0.9029772,0.52555656,0.45659792,0.918228,-0.44034985,-1.5605078,1.1223894,0.38849783,-0.021624368,0.56694007,-1.8756903,0.9957429,-0.16739446,-0.3499129,-1.2770187,-0.10147968,0.6180035,0.33817604,-0.21635583,0.38485858,0.20427658,-0.88997364,-0.27575722,-1.3602072,-0.6403988,-0.658722,-0.9082739,-0.42122307,-0.0072663757,0.17169468,0.57737184,1.3492919,1.4422512,-0.77626646,0.25781482,0.61421305,0.2855056,0.935905,0.96736294,0.40849826,0.8144679,-0.15167873,-0.4543221,-0.2656565,-1.0020988,-0.8325029,1.0589256,-0.78472245,-1.5732743,-1.1372857,-1.5962461,-0.13916653,0.6662431,0.21209699,-1.3000644,-1.4147525,-0.10992551,1.1965953,