{"network":{"layer_sizes":[84,200,300,100,81],"layer_count":4,"layers":[{"in":84,"out":200,"weights":{"0":[0.23997246,-0.49717164,-0.35318747,0.14438301,0.2441588,-0.6459871,0.5344722,-0.7386684,-0.3789174,0.8713715,0.6394009,0.33845386,0.17576498,0.93940824,0.09476597,-0.04582359,-0.33821592,0.3562025,-0.6576402,-0.19543841,0.8597282,0.3887382,0.77434945,0.67798436,-0.1561348,-0.38096243,0.68486726,-0.95258975,0.5280689,0.31075656,0.71053326,-0.37378365,0.19052902,-0.7444462,0.3043884,-0.10757636,0.12599912,0.39417803,0.7003766,0.06666898,-0.6651308,0.5829587,-0.1871062,-0.65364575,-0.295468,-0.30457807,0.2918889,0.44660172,-0.5634827,0.2956271,-0.6290491,-0.32409737,-0.9844469,0.72831225,0.23283818,0.25076482,0.8255089,-0.7172211,-0.40323216,-0.36042067,0.57747126,-0.7994092,-0.48180315,0.10381776,-0.17554392,-0.76919234,-0.79200584,-0.9287986,0.5843885,0.65326273,0.33664915,-0.52770334,-0.87018365,0.13306953,0.38197803,0.19935614,0.5322639,-0.93559545,0.3041664,0.81481194,0.52929133,0.8904432,0.4516884,-0.47980753,-0.6858188,-0.91800493,0.8993559,0.0019267917,-0.8876722,0.6642425,0.5964932,-0.38356856,-0.5375466,-0.7365032,0.4518259,0.83821964,-0.87380046,0.35548168,-0.36177188,-0.35269645,0.25420898,-0.38467297,0.8017551,-0.76705945,0.2988492,-0.5619767,0.38795617,0.84634197,0.28193593,0.3009495,-0.19584043,0.43074474,-0.80067825,0.7634715,0.10155367,0.08931889,0.8222382,0.6464174,-0.45913392,-0.7358589,0.23665522,-0.99687785,0.82825077,0.34523943,0.16399875,-0.8008278,-0.840329,0.060279004,0.40159246,0.24364644,-0.8131816,0.73832476,-0.73489225,0.24110776,0.81869495,-0.24747267,-0.16701557,-0.3723596,-0.9515408,0.2172254,0.018758053,0.7470447,0.88335806,0.037389472,-0.550854,0.0069779903,0.57946604,0.6951693,0.63578945,0.032923188,-0.15734783,-0.07786714,-0.35647434,0.83737427,0.113756455,-0.9775582,-0.4734996,-0.76307636,0.43936855,-0.42040765,-0.116040826,-0.3944725,0.09197089,-0.31121427,-0.60989624,0.24756242,-0.2419872,0.33394784,-0.08447941,-0.40151373,-0.10390709,-0.8771947,0.6321638,0.14692189,0.19807579,-0.7385648,0.65983814,-0.2946449,0.34125647,-0.7634528,-0.3085626,0.555559,-0.44966048,0.3653831,-0.79155445,0.32339588,0.71804553,-0.9618865,-0.41899705,-0.459849,-0.82463723,-0.15596648,0.81673974,0.48804727,0.05602481,-0.07826857,0.11062962,-0.86434925,0.64463127,-0.3339243],"1":[0.34844875,-0.47742176,-0.055424005,-0.56420445,0.6161126,-0.5316065,0.5672495,0.80445033,0.20767897,-0.055450022,-0.3464524,0.7027594,-0.176458,-0.38723093,-0.6321211,0.120903164,0.8358242,0.21852833,-0.19835974,0.72553545,0.5622582,-0.38638097,1.019694,0.2711501,-0.3585345,-0.31584245,0.36931843,-0.1052531,-0.23037754,-0.1302793,-0.7411955,-0.50972104,0.050734114,0.12371288,0.7685831,0.6511251,0.70650387,-0.10052242,0.9194047,-0.44966128,-0.9474216,0.56563747,-0.47574678,0.07441545,-0.041504826,-0.33716252,0.38935608,-0.5522053,-0.37029958,0.05394767,-0.9077231,0.92413574,0.54672337,1.0492791,-0.1359284,-0.7334398,-0.14638014,-0.079979725,-0.66002566,-0.56484973,-0.7874015,0.21916199,0.9500056,-0.17344706,-0.009534763,-0.71546364,0.22146825,-0.043984454,-0.41394627,0.5440043,-0.11164197,0.9306637,0.54559743,-0.5865861,-0.58782154,0.77243537,-0.23721,0.2961333,0.6344076,0.76863027,-0.1258756,0.9189048,0.16163822,0.010908483,-0.79629713,0.754098,-0.5827274,-0.98040766,0.27632773,-0.2494643,-0.6848733,0.8300746,-1.0793965,-0.53423905,0.028723212,0.6664198,-0.8699825,-0.6636824,0.12871414,0.8533212,0.18024577,-0.3904667,-0.4399349,-0.34605545,-0.5878106,-0.5647838,0.37063608,0.5814726,-0.3747422,0.07818708,-0.47434556,0.31823286,0.60330695,-0.9824041,0.061211884,-0.66747767,-0.73431736,0.9685497,-0.3189691,0.25330922,0.16506805,0.3402449,0.54358786,0.35714483,0.89689666,0.7556781,0.5159521,-0.744605,0.21123895,0.2906227,0.9139226,0.29399607,-0.4251764,0.1297071,-0.512346,-0.49384618,-0.045648582,0.14554414,-0.016785953,-0.016481213,0.5406909,0.6147966,0.5531156,0.3731819,-0.37187296,-0.43858927,0.4338836,0.017929383,0.020037187,0.0874713,-0.4893,-0.8589298,-0.881602,-0.93986535,-0.21871787,-0.916602,-0.9291712,0.31353444,-0.08854449,-0.3269175,-0.40553787,0.7542672,-0.045779303,-0.89309555,0.50009006,1.0475265,-0.00092806364,-0.59343207,-0.033043303,0.42961907,-0.31790572,-0.572911,0.20507309,-0.028754205,0.19188735,-0.042838514,0.6946274,-0.8001255,0.57137114,-0.71423846,0.21645044,-0.21220255,-0.7792632,0.3015082,-0.18458915,0.7911522,0.7772075,-0.13532236,-0.7457019,0.54631376,-0.24710456,-0.008061303,-0.044368245,0.3013561,0.14944747,0.5238157,0.16864404,-0.4854943,-0.53400195,-0.13005003],"2":[-0.3126683,0.3640241,-0.14018407,0.40002242,-0.70503825,-0.82134265,-0.30725676,-0.17862782,1.0471648,0.9261582,-0.040643513,-0.4349418,-0.31166363,0.86615306,0.11751451,-0.9571738,0.935527,-0.7499504,0.018210506,0.76227266,0.1875739,-0.880941,-0.8636622,-0.95047694,0.8243951,0.7124438,0.84841573,-0.48189712,-0.7585055,0.73194075,0.8750961,0.11383383,0.6074826,-0.20604634,-0.04587278,-0.06848678,-0.45177817,-0.11548663,0.07270391,-0.71392024,-0.095522314,-0.42517313,0.8013939,-0.0050429855,-0.87999654,0.06357581,-0.49573377,0.79230183,-0.32998115,0.5302971,0.4475119,-0.29947358,0.29055825,-0.91810375,-0.71299297,0.37067845,-0.9864078,-0.29586324,-0.70163405,0.072384655,0.42593336,0.28817624,-0.29091683,0.3541224,0.71282554,-0.56441945,-0.7371806,-0.42639986,-0.011694417,-0.13814993,-0.5574741,0.11438046,-0.96941996,0.05645937,0.33697852,-0.043178793,0.23110749,-0.9462007,0.5947168,-0.8723932,-0.9652709,0.039711215,0.57579815,-0.9310242,-0.6731684,0.09564252,0.5550596,-0.13318692,-0.71577346,-0.5579947,-0.11923158,-0.842751,-0.18206698,-0.014263939,-0.6512575,1.0116966,0.7746932,-0.4009472,-0.68619865,0.48407874,0.752208,0.058367737,0.8517798,-0.43900758,-0.9173403,-0.082134105,-0.698665,-0.8520465,0.7033811,0.731198,0.4822028,-0.7025147,-0.3122089,-0.72137094,0.21170285,0.48651934,0.747139,-0.22299518,-0.564826,-0.3478607,0.26229215,-0.6602962,0.545388,0.715738,0.9527838,0.6316433,-0.7991565,0.91196346,0.30194092,0.4255034,0.71633583,0.85167223,0.052792616,0.3472663,0.03693637,0.23906688,-0.49682182,-0.47226384,0.0981557,0.58857435,1.0398967,-0.5034659,-0.71607363,0.49949077,-0.7998753,-0.37420875,0.18650655,-0.099567324,0.47476158,0.3276863,-0.20968802,-0.78203887,-0.3784249,0.9767344,0.27854657,-0.4133193,-0.7027368,-0.75919557,0.6059307,-0.5471671,-0.5205325,-0.012647441,-0.830354,0.12906636,0.41795364,0.7062376,0.8855083,-0.95213187,0.29334927,-0.037177395,-0.14776745,0.8933249,-0.77917504,-0.9514516,0.061139822,-0.65153295,1.0067005,-1.0770348,-0.9043413,-0.30663428,-0.66570556,0.09602541,0.28971708,-0.45271254,-0.98522264,0.4446509,-0.8699999,0.3056735,0.40684277,-0.35617748,0.6861678,0.35255575,-0.8596256,-0.5533175,0.36612022,-0.5445738,0.90171343,0.5262315,-0.5038331,-0.5016909],"3":[0.81553835,0.95307106,-0.46133745,-0.91804075,0.45428184,-0.57788634,0.17858395,-0.10388245,0.6244094,0.25264215,0.04889377,-0.72119814,-0.9089514,0.86970186,-0.36076364,0.9949301,0.44072506,-0.2518176,0.8497855,0.81807667,-0.32849243,-0.54573166,-0.47363615,-0.839898,-0.25136238,-0.76360977,-0.7902151,-0.26470554,0.13155672,0.39138985,0.73418534,-0.8799944,0.61336744,-0.7301475,-0.45166042,-0.6282285,-0.37144387,-0.66206795,-0.24004653,0.87090683,0.3101082,0.85480714,0.38104764,0.7126201,-0.8938111,0.92976034,-0.054642726,0.54426783,0.20806074,0.67789394,0.34369266,0.6872468,-0.5425226,-0.38327506,-1.0002807,0.193827,0.08038601,-0.9455936,-0.5397279,0.5736307,0.32052585,-0.9527084,-0.47174948,0.54435796,-0.52133816,-0.015633639,-0.39826286,0.4924715,0.23240556,-0.88043576,0.31893203,-0.5102339,-0.51614505,0.88420004,0.45289376,-0.6905912,0.66391224,0.32175002,0.21821852,-0.67179805,-0.022900661,0.25373363,-0.55370384,0.50898784,-0.78071815,-0.7422968,0.4268911,-1.0194491,0.6049308,-0.39033583,0.91764313,0.8647883,0.12093541,-0.22028606,0.44092578,-0.79617053,-1.0187485,-0.4250357,-0.08837747,0.39904726,-0.22851543,0.4738933,-0.160553,0.7471253,-0.12701742,0.68518054,0.27052337,-0.5506367,0.13151361,0.9738815,-0.6113286,-0.5763096,-0.8977112,0.4395624,-0.06046026,-0.507503,0.75300723,0.76027393,-0.54186314,0.46684507,-0.6982504,-0.60166556,-0.94785833,-0.6241923,-0.40283364,0.7017012,0.46083435,-0.22717686,-0.47005525,-0.28779843,0.12062195,-0.023747126,-0.30483925,0.20146507,0.23893744,-0.7727628,0.6954191,0.055993874,-0.6299654,1.0131795,-0.3821808,-0.6666611,0.76000154,0.29430577,0.9083896,0.9934951,-0.9386333,0.059163652,-0.61108255,-0.24449949,0.6385336,0.060446676,0.45296893,0.78250766,0.56415635,0.27903986,-0.46076128,0.92574245,0.5265408,0.71120685,-0.79139304,0.18801996,-0.019834684,0.20570676,-0.3545446,0.2480807,0.97560066,-0.029795121,-0.76268625,0.8480866,0.7159134,0.89631826,-0.7069587,0.82870305,-0.03199927,0.64729834,-0.023594774,-0.64392066,-0.71920353,0.051716365,-0.5128233,0.90441495,-0.30120242,-0.21625781,0.43601272,-0.76059896,0.7734041,0.675583,-0.9184695,-0.01849328,0.7995159,-1.0119755,-0.52100164,0.19365153,-0.1768827,-0.8009882,0.52484244,-0.21234562,0.64541,-0.42640913],"4":[-0.5001864,0.01788055,0.89011806,-0.2827171,0.4087765,0.40617436,-0.4023541,-0.6518635,-0.90351576,0.29041642,0.0115505485,0.03458579,0.15986513,-0.7253572,-0.76063293,0.7156729,-0.94824165,0.08051024,0.22085775,-0.57947356,0.8507611,0.67141014,0.48112795,-1.0098301,-0.64769405,-0.35335693,0.88238347,0.69175965,0.8089099,1.0432642,-0.5769737,-0.6008652,-0.5890047,-0.040112525,-0.024279803,-0.018322702,-0.30558798,-0.4049403,0.84822136,0.59515166,0.49092677,0.13987213,-0.10687527,0.528092,-0.8110611,-0.2693945,0.7642109,0.89566696,-0.39640498,-0.08195191,0.7854256,0.9634343,-0.7633598,0.24834934,-1.0466772,-0.7398884,-0.266189,0.17333736,-0.9265193,0.4107647,-0.7471636,-0.4249342,0.09778199,0.9822133,-0.24096915,-0.22027738,-0.91783977,0.29247397,0.9456431,-0.46461824,-0.9239683,0.46127748,0.75327986,0.19682112,-0.6664355,0.50420105,-0.7997294,0.048449695,-0.5417848,-0.5195359,0.18348332,0.9008228,-0.840755,0.40343454,-0.28701368,-0.40850744,0.8292847,0.22742514,0.84546506,-0.18195677,-0.085026436,-0.511468,-0.76786613,-0.4345525,-0.29100305,0.16408958,-0.5753434,0.20644309,0.10261931,-0.12532139,0.73159873,-0.06234859,-0.056259368,-0.5760685,0.7985598,0.88162833,-0.425205,-0.8277906,-0.7486532,-0.7424388,0.8485728,0.0034789653,-0.46961173,0.82770544,-0.9361692,-0.08902975,0.12371479,-0.87651235,0.177984,0.34247762,0.29998916,-0.03645958,0.64545625,0.089795865,-1.0088483,0.56358445,0.20076409,0.85667974,0.7184164,0.61092275,-0.82287884,0.74654865,1.0120773,0.23671034,-0.6769515,-0.7231994,1.0000741,0.0013455129,-0.48692605,-0.5662208,0.017344866,-0.99180067,-0.54997194,0.18870595,0.4904588,-0.99874043,-0.36576062,0.413907,0.5379625,-0.4493076,-0.23118621,0.87774134,-0.64335406,0.706485,0.021493528,-0.95567656,0.11789121,0.890464,-0.12962687,0.102223605,-0.7906413,-0.3306017,0.19840948,-0.5051104,0.1466372,0.4993285,-0.72851664,-0.4764372,-0.27353892,-0.8676319,0.54690313,-0.3294716,0.046015754,-0.24566029,0.0065795863,-0.99400514,-0.20996448,0.538457,-0.8111545,0.1289687,-0.6935217,-0.7748665,-0.16900867,-0.76129246,-0.5330083,-0.11339646,0.84538406,-0.8133039,-0.5037473,-0.25177205,-0.19819038,-0.34982228,0.50077426,0.9888878,-0.27944446,-0.25753668,-0.04137648,-0.8406904,-0.3719846,0.36523566],"5":[0.66067225,0.5449125,0.5977314,-0.558419,-0.030098358,0.9465069,-0.7638016,0.9342114,0.23197235,-0.33786315,0.3192205,0.8996187,-0.18115745,-0.33264044,0.32044944,-0.07652897,-0.7472676,0.33946267,0.9879128,-0.1377944,-0.9737527,0.26730236,-0.99222505,0.6464175,-0.5027665,0.62467664,-0.019616611,0.13983905,0.7812422,-0.9411691,-0.5044578,-0.06409243,0.7387436,-0.89788115,0.30255395,0.5142625,-0.13905431,0.4043519,0.8168281,0.4345928,0.7656892,-0.870613,-0.56688297,-1.055657,0.87275857,-0.1138492,0.36245978,-0.3523539,0.20205548,-0.21784379,-0.15562099,-0.85206515,-0.60901785,0.26427054,-0.74244493,0.5787054,0.20499994,-0.23725626,-0.14717518,0.23415849,-0.20482807,-0.15837395,-0.6096362,-0.8516109,0.81537914,0.6272316,0.29898992,0.2521942,0.08601923,0.83529496,-0.5522435,0.6780348,-0.1346885,0.42159703,-0.56752837,-0.9149335,-0.74484116,0.6682916,-0.6150211,0.24777342,-0.71028364,-0.3097095,0.6650569,-0.7753365,-0.9098123,-0.6253157,0.7784914,-0.35095918,0.30140987,-0.79476786,0.6707286,-0.91839695,-0.70547944,-0.14061394,0.5043668,-0.8128251,-0.5053047,0.15436652,0.06070391,0.32330516,0.7148063,-0.56631464,-0.47903597,0.46856266,0.5005358,-0.101331964,-0.6406833,-0.9902368,0.6797823,-0.15342753,0.80069625,0.3843402,-0.32352984,0.5210266,0.19988744,0.8612196,0.95079577,0.2591961,0.06084539,-0.28225565,-0.13367487,0.76549196,-0.3972306,-0.47638908,-0.73573554,0.44940716,-0.8173949,-0.4414381,-0.54047096,1.0034935,-0.59352064,-0.7982368,-1.0078974,-0.46176118,-0.74272776,-0.4843714,0.4289103,-0.20865881,-0.4974678,-0.39327314,-0.37816313,0.03619473,0.39313215,0.41696927,0.070523664,-0.9442439,0.9485056,0.2162901,-0.7730754,-0.44178608,-0.2082296,0.6879949,1.0065724,0.80441207,-0.34704044,0.836504,-0.34835523,-0.71361023,-0.6647035,0.77881455,-0.11912787,-0.82108784,-0.078457296,0.084034406,0.8975622,-0.8862753,-0.76752514,-0.41539136,-0.88077885,0.1478625,0.19885272,-0.9347668,-0.6115268,1.0063683,-0.8841107,0.6540913,-0.39436144,0.4899513,-0.9396315,-0.65810156,0.22655796,-0.056448027,0.08807563,-0.94519895,-0.02277927,-0.47736302,0.9109875,-0.34071144,0.94190127,-0.8322246,-0.5226587,-0.954322,-0.91044086,-0.90965956,0.7031162,-0.4047907,0.4769246,-0.3385114,0.41920257,0.017151428],"6":[0.30432808,0.9544685,-0.807054,-0.87225646,0.2931329,0.48806354,-0.7362438,-0.81497246,-0.83389187,0.5194681,0.37354615,-0.57090336,0.035707533,-0.98396397,-0.6951036,0.53570294,-0.16326483,-0.6365641,0.9213439,0.9053425,-0.57864386,-0.5238401,-0.73789865,0.8275684,-0.45812792,0.07385829,-0.36359444,0.67496854,-0.8078591,-0.46845782,0.3546164,-0.8863759,0.49224958,0.5941959,-0.13461497,-0.6762493,-0.4144945,-0.33093384,0.69855976,0.2364049,0.7154294,0.17419088,-0.15167315,0.17616566,-0.38051662,-0.19316636,-0.82012427,-0.05985009,0.4451677,0.28317958,-0.46715483,-0.002163448,0.8741081,-0.8239501,0.28760198,-0.47077823,-0.88395274,0.8302269,0.9282124,0.891554,-0.08812659,0.42072496,-0.12030455,0.5920513,0.37283435,0.31875467,-0.5920948,-0.5205959,-0.25512826,-0.91002333,0.8140669,0.377786,-0.95206076,-0.651338,-0.30730116,-0.09445004,-0.32690048,0.03634373,-0.04726405,-0.16461219,0.22342226,-0.09154934,-0.3459023,-0.24072494,0.14352381,0.041323673,-0.16884659,-0.6212122,0.069865756,0.42476538,0.71943516,0.8389353,0.009544207,0.71198195,0.91948104,0.5961392,-0.07682581,-0.6463438,0.11682142,-0.57256055,-0.38410494,-0.12905897,-0.7191675,-0.52958137,0.41924104,0.54739875,-0.4184557,-0.8230008,0.33588213,0.7753368,-0.022044543,0.66115904,-0.47734314,-0.022825006,0.4052545,0.7962773,0.7401318,-0.77082115,0.10524532,-0.64855677,-0.13167968,-0.111963995,-0.31731465,0.8817113,-0.31607,0.03606879,0.8746381,0.47768167,0.38277027,0.53665924,-0.9594363,-0.17170314,0.29545924,-0.436477,0.71689105,0.005472884,0.4749496,0.478633,0.57665,0.470317,-0.689217,0.72430575,-0.54822075,0.10898015,0.38805175,-0.2536166,0.036873292,-0.39574522,0.20916969,0.41590458,0.80034816,-0.20000009,-0.4965005,0.03939788,0.28837374,0.19296053,0.12780681,0.3971556,0.93369955,0.09838798,0.8617226,-0.4243956,0.5927789,-0.48247153,-0.31062308,0.85604376,-0.32853225,0.0006157099,-0.7683073,0.40767586,-0.428705,0.80553406,0.21235071,-0.06329676,0.0021825288,0.17530277,0.010927981,-0.7478367,-0.84294534,0.55492634,0.32156116,0.9350895,0.6707481,-0.64816535,0.18882701,0.4691286,0.8015233,-0.6900786,0.88799703,-0.05415713,0.2505137,-0.80223113,-0.09072715,-0.32033518,-0.42682818,-0.28439686,0.14871438,0.78007174,0.8252068,-0.85233325],"7":[-0.95800406,0.057052303,0.4886712,-0.48525056,0.59316486,-0.25932726,-0.5343663,0.40749967,-0.65021753,-0.7886694,-0.25449106,0.39755866,-0.35691926,0.50518817,-0.728309,0.4761475,-0.21097279,-0.21176966,-0.86441314,0.6599953,-0.92576265,0.024985287,-0.2354654,0.86039174,0.87335783,-0.46271858,0.15725389,-0.53406775,0.32787013,0.686799,0.38972655,0.18966216,0.56247264,0.89987123,0.86888736,0.91572195,0.48604864,0.46006516,-0.49257708,-0.559158,-0.9758434,0.50767934,-0.17837699,-0.6604769,0.42455047,-0.17752846,0.15645757,0.85302323,0.5822977,-0.2654269,0.09635577,0.1985941,-0.8630242,0.5108338,0.5499013,-0.8227561,-0.2285367,-0.85078925,-0.7327206,0.61043394,0.7091831,-0.10765505,0.8042696,0.6283904,0.71926314,0.1977425,0.18578568,0.7540149,-0.28184593,0.42386964,0.19206357,-0.23650225,-0.18391833,-0.5985758,-0.93243706,-0.9604242,-0.54522383,-0.29515976,0.9067374,0.65703875,-0.5223292,0.930553,0.27100688,0.12960453,-0.9207791,-0.6951177,0.9546399,-0.83068126,-0.6515296,0.26611817,0.35659844,0.67652106,-0.7494515,0.29074863,0.26117358,-0.7366721,0.39982063,-0.7033129,-0.16116431,-0.97321403,0.48751625,-0.41496825,0.5239967,-0.07976342,-0.3944124,-0.107141264,0.6159096,-0.9734577,-0.972051,-0.8327276,-0.66380346,-0.06064943,-0.3183109,-0.7899621,-0.83805555,-0.1398812,-0.044077255,-0.01903637,-0.97008055,-0.8042759,0.8230248,-0.33196136,0.7013071,-0.7336118,0.2914371,0.9856254,0.31891724,0.78962463,-0.3701552,0.0940283,-0.19573338,0.022965126,0.26882365,-0.24775405,0.9098991,0.120774716,-0.09668617,0.72857267,-0.55383384,0.80074793,0.47067657,-0.41555953,0.7244636,-0.31768614,0.08086467,0.3189273,-0.35318482,-0.4505875,-0.95545584,0.12725852,-0.46932083,-0.010785451,-1.0010267,-0.13348328,-0.47354347,0.15454294,-0.29243588,0.33563334,-0.697922,0.18604617,-0.1903444,-0.45067504,-0.54480267,0.7760299,-0.9200781,-0.05134153,0.6979672,-0.55478203,-0.8434307,0.19254075,-0.6116778,-0.95443934,-0.01960114,-0.4626832,-0.14519615,-0.42394087,-0.40884492,-0.45265165,0.38406798,-0.4778113,0.86772066,0.0953299,-0.6071495,-0.34145647,-0.07110082,-0.28350246,0.60438097,0.9821229,-0.5705142,0.90202385,0.868443,-0.83967394,0.15661931,-0.54364,0.85920775,-0.40698472,0.73608696,-0.90395457,-0.11590892,0.74113023],"8":[-0.3391504,0.52744246,0.6007629,0.0036457395,-0.774683,0.6352889,0.056432277,-0.46532294,-0.8409204,-0.014368239,0.9021715,-0.43553886,0.1603213,0.26810429,0.5001033,-0.39079666,1.0131009,-0.09531564,-0.6090268,0.88853,-0.37769556,-0.7897537,0.6911346,0.81426376,-0.08879841,-0.6089505,-0.8897796,0.44516274,-0.32027206,-1.0730078,0.91931397,0.1778163,0.10272912,-0.892139,0.33022168,-0.694546,-0.10288376,-0.51470834,-0.42491883,-0.23829715,-0.710826,0.8864729,-0.15241764,-0.30910993,-1.052199,-0.60403913,-0.6153664,0.50752115,-0.8330983,-0.21599586,0.4196418,0.16788565,0.26839688,0.06534049,0.8243346,-0.5135401,0.4124305,-0.9494147,-0.74271154,-0.5540193,-0.26178822,0.7326006,-0.7127653,-0.5716273,-0.0394413,0.54137164,-0.3093114,-0.6158547,0.33140978,0.55385464,0.30638427,0.7377051,0.40729403,0.8198324,-0.44577786,0.40310353,0.3114558,0.33615646,0.3887886,0.9263464,-0.5207022,0.8100285,0.4942503,0.60434324,0.9280717,0.4928322,0.2720031,1.020794,0.54021436,-0.68517685,-0.6779395,0.029560441,-0.7062564,-0.3795747,-0.49789402,0.2355448,0.14414875,-0.39125064,0.8711778,-0.30800894,-0.9054349,-0.33301073,-0.093263425,0.253777,0.51070243,0.06285509,0.9446393,-0.18172567,0.70967156,0.6927922,-0.120703734,-0.12735033,-0.6551312,-0.654761,0.15800034,0.80840135,0.58521414,-0.68065643,0.8675306,-0.4741217,-0.29143384,0.87549925,0.90623236,-0.80032873,0.8016164,0.21187055,-0.15752639,-0.63263077,-0.014041888,-0.66475236,0.23680933,0.30058286,0.11862646,-0.55942583,-0.11478815,0.9688628,-0.14735675,-0.8575651,0.10733406,-0.59129035,0.7104168,0.6229089,0.7005015,-0.772164,0.15640022,-0.06298663,-0.24382168,-0.010610175,-0.853782,-0.7262999,-0.6753714,0.74315464,0.057864245,-0.54926234,0.74261785,0.4422829,0.44389707,-0.020066679,0.754015,-0.68602145,0.7382274,-0.1769661,0.72542936,0.40236282,-0.111667864,-0.879517,-0.27664408,0.8156608,0.7980573,0.784598,0.13512065,0.44125468,0.1952661,0.115242526,-0.379576,0.9563643,-0.56097865,0.10480229,0.31904444,0.8506496,0.74149764,-1.0108471,0.017126845,-0.15264478,0.5564024,-0.8209655,0.5668322,-0.10873945,0.90768206,-0.34059083,0.8266323,-0.8149739,0.40898034,0.64770037,-0.34707192,0.25788444,0.5515085,0.5190668,-0.89618653,-0.32442966],"9":[-0.27781045,-1.0148574,0.8035704,-0.91369337,-0.09689558,-0.59649783,0.63813967,0.20706148,-0.6718235,-0.3802976,-0.7206147,0.31326172,-0.71427774,-0.46755877,0.5028767,0.041765604,-0.19968647,1.0394739,0.08950774,0.6803726,-0.9822259,-0.04474424,0.7117026,0.48267657,0.4214112,0.13584132,0.7064033,0.77061695,0.40233824,0.8792492,-1.0284436,0.31605327,0.46436703,-0.20258562,0.410305,0.22979932,0.1427924,0.61476964,-0.15014808,0.13030599,-0.64495564,-0.44632787,-0.88237584,-0.67647934,-0.50932044,-0.25143352,-0.064108126,0.5280394,0.00071932306,0.7514984,-0.17269956,-0.5414502,-0.0169842,-0.6770909,-0.50273585,0.52755475,0.81152254,-0.599037,0.94236547,0.5784285,-0.86866516,0.4901017,0.49461478,0.49342614,0.05365079,0.82110345,0.8963734,0.20126073,-0.69096607,-0.32335937,-0.18239298,-0.22189653,0.29505137,0.11684751,0.45610604,-0.34793556,-0.11173038,0.68940055,0.8744599,0.6593314,-0.9284526,0.13961042,0.19670103,0.34394553,-0.9821622,-0.06522039,-0.49137762,0.035525125,-0.7350862,-0.4617659,0.17696777,0.31261003,-0.24734223,-0.23046911,-0.877326,-0.35831442,-0.55717844,-0.30821487,0.98016185,-0.22363603,0.76735985,0.42583695,-0.021964274,-0.21556136,0.42830396,-0.8756487,0.3298499,-0.17258589,0.61002105,0.5097598,0.4659415,0.6212885,-0.7692169,0.8836125,0.58148646,0.78075427,0.07388691,0.3619822,-0.6161278,0.40843692,-0.68037564,0.9059608,0.48069,0.74173665,1.0379215,-0.0565764,-0.21951573,0.8005617,-0.48520255,0.045301594,-0.12295421,0.9584265,-0.28036666,-0.07916438,-0.3998244,-0.21887323,-0.38289252,-0.30994457,0.31402025,0.9254764,0.22283079,0.19760734,-0.97919834,-0.70357525,-0.49117014,-0.4023873,0.59992397,-0.27485907,0.43512613,0.4231507,-0.528877,0.4226806,-0.0059194528,0.12334644,-0.43348676,-0.7920372,-0.6842643,-0.7768468,-0.15921435,0.92507297,0.11697768,0.14117855,0.4322676,0.5910699,-0.6134789,-0.37218294,0.95952916,-0.27976552,-0.78344464,0.62933713,0.86469823,0.68471324,-0.72150034,0.728408,-0.26803976,0.06932425,-0.5502739,-0.31501427,-0.62397975,-0.76337975,-0.26717573,0.49827665,0.21062288,-0.43817756,0.1359997,0.94690645,-0.9167992,-0.864269,-0.4350294,0.4990366,-0.9244621,-0.08580976,-0.43947428,-0.5016774,0.73995644,0.78051656,-0.31812316,0.34956548,-0.040901378,-0.24102105],"10":[-0.5943576,-0.9831439,-1.01656,0.045207933,-1.0458697,0.19210605,0.6814109,-0.36857766,0.82822144,0.10222982,0.47221285,-0.3044603,0.7792421,0.14846629,-0.75295436,0.474721,0.65261173,-0.6983052,-0.114244394,0.8654674,0.14287457,0.62685287,-0.32137975,0.2652263,0.801907,0.013780673,-0.24565208,-0.8153552,-0.6239668,0.24343158,-0.70495,-0.024061166,0.8981446,-0.90945315,-0.1064708,0.1390222,0.29755157,-0.40177295,-0.64063,0.92052406,-0.11887387,-0.52822703,0.060752273,0.0013560499,-0.9747293,0.39815897,0.102431774,0.9861795,0.4464846,0.9242119,0.8155781,-0.60957205,0.4290525,0.8726059,-0.3106425,-1.0519183,-0.65649015,0.25202686,-0.46174082,-0.6032678,0.59108245,-0.1456684,-0.19838804,-0.32544395,0.35023135,0.46356025,-0.120532535,-0.96585774,-0.033415638,0.7276511,-0.35592917,0.67080677,-0.15923326,0.57626975,0.34355953,0.77344143,0.8406778,-0.62121624,0.084047645,-0.32274425,-0.41113275,0.6266922,-0.36470354,-0.008396186,0.5019629,-0.7448818,0.06565198,-0.20649794,0.18270275,-0.40582243,0.58968306,-0.42884448,-0.8871207,-0.12621786,0.30854252,0.18067028,-0.84164584,-0.29947487,-1.0135932,0.28728777,-0.48584914,-0.8947878,0.29941523,0.55129015,-0.16496697,0.7373524,-0.47751677,0.9191451,0.038633298,-0.8120313,0.94629806,0.445418,0.13115065,0.120874204,0.09424385,0.37009108,-0.17804433,-0.31806332,0.23234881,0.13583104,0.6876349,0.9662642,0.50011575,-0.6643006,-0.34910986,-0.0770989,-0.4266882,0.943247,0.35651353,0.9949368,0.51642007,-0.35914642,0.942079,0.3700652,0.9040596,0.6038015,-0.76333255,-0.8348907,-0.37675208,-0.97513485,0.79743713,-0.2588867,1.0154798,-0.33029836,-0.6466315,0.7925547,-0.5006633,-0.94219816,0.16674769,0.47242948,-0.8143712,-0.5666822,-0.5399016,-0.1799636,0.32400015,0.33662662,-0.68741494,0.58101684,0.78466064,0.81181914,-0.055526383,-0.37640297,0.8050395,0.82213235,0.88758487,-0.020797959,0.11314006,0.869595,1.0098103,-0.7716029,0.4474914,0.31138128,0.073244035,0.36100414,0.7148442,-0.78904396,-0.5709326,0.5279923,0.737818,-0.9946793,-0.27456132,0.25564286,0.47062922,0.41699988,-0.86208534,0.62992793,0.039642245,0.893278,0.31817248,-0.87471503,-0.45866436,0.67761207,0.8398376,-0.31403232,-0.2387975,-0.43398035,-0.32417998,-0.5554662,0.966018,-0.4579431],"11":[0.6866756,-0.8590757,0.5716097,-0.85201097,0.1751746,0.8265951,0.08811967,0.59865075,-0.59224516,0.43582883,0.9509757,-0.14740345,0.83155614,0.398353,0.43976405,0.86908686,-0.6781648,0.7455286,-0.38182044,-0.93967575,-0.6364057,0.8366237,0.35386288,-1.0099374,0.7758234,-0.43974876,0.4972998,0.025234068,0.6790465,0.29499367,0.19015002,-0.69614154,0.35263193,-0.6795828,0.523018,-0.16122115,-0.5098492,0.001065599,-0.88419676,-0.85902405,-0.6721493,0.37928087,0.40718913,-0.6793507,-0.82392937,-0.020817138,0.10434633,-0.16636848,0.55912393,-0.70231265,-0.019216198,-0.703332,0.34214017,-0.06707244,0.8038629,0.3337255,-0.70316374,-0.29391742,-0.37432614,0.49463016,-0.9438741,-0.35230628,0.7895196,-0.31156802,-0.8032964,-0.56029004,-0.6093786,-0.15987091,-0.75262094,0.00072090095,0.72127336,-0.9356268,-0.7557459,-0.029110625,-0.09063835,0.62045264,0.9165123,-0.7853959,-0.045941003,-0.28459996,0.4610559,-0.87296736,-0.24352805,-0.024561042,-0.26245162,0.7089267,-0.5233523,-0.03700857,-0.15536873,0.43490237,0.25916666,0.4937421,-0.014489875,-0.7636166,-0.31765494,0.88000137,0.19969924,0.47648355,-0.85789776,0.13853161,-0.27573144,0.68251085,-0.016458508,-0.23265868,-0.37810263,0.79260576,0.090960056,-0.41934186,0.12064781,0.8197516,-0.13301569,-0.7982751,-0.18926466,0.8711857,0.6999162,-0.89155453,0.52942675,0.9043424,-0.17802954,-0.9159144,-0.5248588,-0.32510847,0.40263468,-0.105219506,-0.41470563,-0.71907014,0.41791964,-0.50570136,0.39876026,0.6990835,0.10889632,0.14084241,-0.64408755,-0.27668154,0.5131488,0.400044,-0.4221666,-0.5465832,0.4667051,-0.43828037,0.33214802,-0.6652652,-0.58514845,-0.31119365,0.34488243,-0.16119795,-0.30553067,0.8996226,-0.67210776,0.58796823,0.721292,-0.90995044,0.21831149,0.9423987,0.9408991,0.52740216,-0.9000756,0.58000666,0.36934963,0.08459641,0.6573536,-0.6643673,0.20036931,-0.08406315,0.09939647,-0.09118498,0.49629864,-0.1887171,0.66822815,-0.5436397,-0.7366037,0.7920409,0.12460842,-0.13055171,0.844824,0.19092023,-0.17203575,-0.4985256,0.7136321,-0.2038593,0.5408718,-0.15437195,0.1435678,-0.3873453,-0.24440148,-0.66375375,-0.028812766,-0.18507262,-0.5006721,0.042047925,0.69934905,-0.35757968,0.8821335,-0.84410983,-0.65096325,-0.91789377,-0.60702354,-0.11804304,0.97746676,0.010074505],"12":[0.69179696,-0.120029286,0.5842812,0.7976912,0.91380125,-0.9945691,0.7579372,0.53036404,0.27558666,-0.33519658,-0.26674604,0.9249318,-0.42624122,0.14155176,0.7914314,-0.06815672,0.22220522,-0.5918121,0.34514377,-0.82847154,0.9713619,-0.060387973,0.24936874,-0.625701,0.1213998,-0.03760677,0.40531325,0.84873056,-0.8913727,-0.44545013,0.21847637,-0.97908235,0.9335161,0.8559534,-0.4689481,-0.67052025,-0.9870501,-0.48936814,-0.6953699,-0.40443942,-0.023607172,0.5772203,-0.7954122,-0.81052864,-0.59259784,-0.76541275,0.7999018,-0.21642329,-0.7832603,0.4537294,-0.19081558,0.5176078,0.3331475,0.6368304,-0.52659464,-0.61586344,-0.1869935,0.30147654,-0.95232594,0.14080593,0.54455996,0.38366225,-0.8415955,-0.72240674,-0.87523854,-0.08376025,-0.4697462,0.012367696,0.63053256,-0.73341256,0.15687802,0.37057453,-0.97595876,0.775361,-0.21101888,-0.85034955,0.412073,-0.12958246,0.5137175,-1.0101943,0.8459218,-0.6156268,-0.6031115,0.20750785,0.2989718,-0.49097306,0.89215934,0.57660234,0.33418486,-0.26599935,-1.0232984,-0.25217235,0.89600235,-0.2755007,-0.48873127,0.6222489,0.5642506,0.63813716,0.103524484,0.57629484,-0.38085324,0.36939985,-0.06362277,-0.85491914,-0.015401056,0.96258664,-0.7100238,0.8483234,-0.02039456,-0.96306825,0.80053633,0.83001566,-0.95852965,-0.94159627,0.78267753,0.076419294,0.36797932,0.46273395,-0.3346583,0.18700248,0.64810616,-0.8877686,-0.32283473,0.46740252,-0.04310025,0.5084607,0.45777315,-0.62535083,0.7937012,-0.8671886,0.9097983,0.83965105,-0.07608321,0.46992576,-0.66434973,-0.6197857,-0.30695492,0.6238976,0.4454928,0.9009638,0.34803513,-0.1645549,-0.66364807,0.07984995,1.0068244,-0.73038393,0.67882794,0.33569044,-0.005361504,0.49662155,-0.06570385,0.24263054,-0.9386535,-0.8354271,0.1510898,-0.060299948,0.46730605,0.15089627,0.88426167,0.77652985,0.1455935,-0.6532501,0.9385049,-0.7773402,0.35531425,0.35762674,0.6602866,-0.40085903,-0.6805719,-0.8301257,-0.824055,-0.5553207,0.15196097,0.48753682,0.103073716,0.2850616,-0.80947155,0.7084094,0.48384994,0.41032353,-0.029861718,0.6054541,-0.4267917,0.002596514,-0.77439106,0.33568662,0.23722084,-0.94412684,-0.5337615,0.059076063,-0.60567504,0.5449659,0.091637306,0.71190953,-1.035632,0.9926739,0.973338,0.63227624,0.33456284,-0.674935],"13":[-0.64746505,-0.8930926,0.21143746,0.4793815,0.43795985,-0.8207179,0.42154056,-0.2745037,0.2547977,-0.9083433,-0.66754395,-0.21773028,-0.3687922,-0.67323166,0.9851504,-0.73186576,0.74066573,0.88860273,-0.5025095,-0.6998583,0.16781598,0.3879047,0.84186286,-0.4310442,-0.4039639,-0.7129742,0.29924312,0.9731928,-0.041419726,-0.6818831,-0.53987414,-0.18509698,0.06528851,0.40133104,0.97567964,0.92603296,0.32235444,-0.8349342,0.01976189,0.8401501,0.800874,-0.117431864,-0.13448642,0.675794,-0.7696723,0.75803435,0.48943153,0.5037344,-0.9460308,-0.95252556,0.6345408,-0.28261524,-0.69485015,-0.48288408,0.86767495,0.35317346,-0.9028339,-0.3335794,0.42218438,-0.10643678,0.8349666,-0.2427285,-0.9832194,-0.5387481,0.35872906,-0.6643171,0.5246559,0.34258187,-0.0031299307,0.25825962,-0.06922216,0.75688857,0.45809066,-0.5678332,0.20277339,-0.20862545,0.70525396,0.99473053,0.05597089,1.0046387,0.9269367,-0.19155703,0.24441794,0.3080016,0.37522292,-0.8454373,-0.5884266,-0.93112594,0.5902804,0.021216322,-0.6155786,-0.3273966,-0.7657256,-0.7391814,-0.8285698,0.02501043,-0.40354955,0.45863122,0.40553188,1.0650461,0.054479867,-0.6889768,-0.13985436,-0.24258217,0.39799768,0.7582301,-0.74235314,-0.016857523,-0.4062213,-0.9765012,-0.437814,-0.12019707,0.57191354,0.27423602,-0.54644126,0.39363873,-0.061120514,-0.901229,-0.64646804,-0.043503515,0.24041928,0.99020875,0.7706943,-0.58736694,0.4912861,0.89560264,0.83213365,0.8252248,-0.4879262,-0.30707577,0.6006825,-0.15730338,0.042377565,0.92741734,0.17202975,0.3325064,0.26882038,0.89019895,-0.8232872,-0.03715862,-0.47702983,0.1464662,-0.97728336,-0.10779813,0.82431746,0.22899932,-0.5820364,-0.6579748,0.6271319,0.82171816,0.22816525,0.733131,0.59427047,0.88418776,0.33119792,-0.7186175,0.36573365,-0.5701812,0.12344782,0.14160447,-0.97985905,-0.19890025,-0.38995606,0.14886533,-0.36888453,-0.1921703,-0.15475225,-0.3742127,-0.4688067,-0.9057465,-0.759521,-0.13453518,0.33326453,-0.6360799,0.66834515,0.55697066,-0.4113719,-0.86931187,-0.04585554,-0.75310016,0.036147434,0.22135265,-0.83998144,0.23372221,0.59879774,0.8856296,-0.2605355,0.8389707,0.9006389,-0.3677537,-0.93897927,-0.12916714,-0.2706865,1.0089188,0.05799577,0.5755105,-1.0149729,-0.6307415,-0.27750596,-0.07220742],"14":[-0.34784967,-0.54682857,0.68251383,0.35453275,-0.6088787,0.2991439,-0.67064196,0.08112254,-0.15543306,0.7485536,-0.52490264,-0.26374653,-0.11716376,-0.2177118,0.4440177,-0.51385546,0.5371234,-0.53123313,1.0324429,-0.9934038,-0.11325792,-0.0471795,0.2823347,-0.42864454,-0.39794174,-0.26560536,-0.22901246,0.8686381,0.3659181,-0.91351336,0.3024812,-0.92366934,-0.4286494,0.28157458,0.54519343,-0.41054136,-0.6331025,-0.8131415,0.9208835,0.61096203,-0.6706315,0.8037579,-0.33542603,-0.835057,-0.582119,-0.1384739,0.17776285,0.5367304,0.0043684104,-0.86266476,-0.37155223,-0.24457528,0.7272069,0.65319026,-0.66545933,-0.2999469,-0.46684638,-0.32882097,-0.6661379,-0.66514766,-0.929206,0.11520961,0.98584557,0.20743741,0.10549493,0.62958556,-0.83432055,0.6816583,0.6906043,-0.78177613,0.65463215,-0.51767063,-0.14840749,0.58594376,0.08640068,0.47351125,-0.7347349,-0.15946254,-0.5730894,-0.83743405,-0.75958025,0.36020473,-0.22311525,-0.38462397,0.39967632,-0.7502493,0.9023271,-0.5475712,-1.0320191,0.6001117,0.76628834,0.69782007,0.36794472,-0.98764503,-0.36189625,0.6633024,-1.0356162,0.34336022,-0.71739626,-0.15748367,-0.6384592,0.8812642,0.040315844,0.20993067,-0.56061566,0.7483686,0.78379035,-0.8557761,0.14316328,-0.7234554,0.23674107,-0.5487319,0.58982456,0.84727633,-0.054627635,-0.94301254,-0.7179971,-1.0285527,0.6781152,-0.25961554,0.46657795,0.60734683,0.11256531,-0.8330737,-0.5516119,0.6219706,0.9390705,-0.14059912,1.0149096,0.32512572,-0.9057069,0.50410455,-0.060936116,-0.14285962,-0.69615114,0.039384946,-0.5696257,0.6798088,0.97379065,0.2359912,0.8248317,-0.037687816,0.124071375,-0.076931044,0.40637738,-0.25732797,-0.95770174,-0.59065723,-0.16335873,-0.4381024,0.48881292,0.4661931,-0.8124639,0.029803853,-0.73186785,0.9521179,0.9561185,-0.31025252,-0.0075402823,-0.020797778,-0.62944776,-0.8105451,0.8713628,-0.90611696,-0.23955432,0.31064174,0.8044808,-0.39528492,0.086395055,0.66856843,-0.17355768,0.5045198,-0.6435517,0.8848911,-0.11884718,0.74712807,-0.0530013,-1.0577551,0.94429946,-0.60818154,0.69145644,0.46250972,0.55653864,-0.8482079,-0.16663593,0.2334034,1.0611975,-0.8240963,-0.86337674,-0.5560595,-0.34115663,0.5872321,-0.121875465,0.55928093,0.00090622716,0.33393627,0.66720396,-0.35637113,-0.7779108,0.35626012],"15":[-0.4368865,0.07020257,0.19489305,-0.58348536,-0.20938115,-0.8082219,-0.9442591,0.5988931,0.7033832,-0.7192485,0.7355492,-1.011868,0.57655615,-0.49766725,-0.38600743,0.76507634,0.47128093,-0.33758694,-0.108765006,0.3064084,-0.76506907,-0.8500404,-0.23419847,0.40938634,0.43154097,-0.9503756,0.33866966,0.18243755,0.3709435,-0.10536727,-0.61912614,-0.3710808,0.18939786,0.712646,-0.7476191,0.38507062,-0.7263164,1.0311228,-0.64439166,-0.6520113,-0.80488354,-0.34861827,0.6185685,-0.21628387,0.4654647,-0.6543662,-0.19213617,-0.3448354,0.7117301,0.066331916,0.6732139,-0.6611158,0.9110508,0.6211328,-0.98530906,-0.5510746,0.95858014,0.369679,-1.0054505,0.85723394,0.5473379,-0.8731365,0.66548467,-0.19765463,-0.5027405,0.84696335,0.32636788,-0.6875689,-0.9219218,-0.13803765,-0.48895726,0.5983797,-0.57319325,-0.46171123,0.5681736,0.75993973,-0.062324118,-0.5182496,-0.9941289,-0.030975219,0.5151375,-0.9453723,-0.5928639,0.22908686,0.24124633,-0.026653439,1.0316466,-0.7028828,-0.18697248,-0.9320249,0.7498905,0.7084872,0.95060205,0.091283865,0.35781544,0.53124326,0.18700932,0.140985,0.0706643,0.30387712,0.40987572,-1.0064245,0.023958525,-0.11463709,0.8161057,0.6349235,-0.18691856,0.53873885,-0.9866797,-0.98679733,-0.17879248,0.46545807,0.5048653,0.001074783,-0.6228929,-0.0067976285,-0.74973315,-0.48990598,-0.8074149,-0.8743206,-0.72307277,0.9447256,-0.54969335,0.18641433,0.8446161,-0.51135904,-0.8226086,-0.87074137,-0.9116506,0.016880643,-0.2748666,0.80213237,-0.06800367,1.0172675,0.69325167,0.87215763,-0.22072326,-0.4050209,1.029753,-0.7969299,-0.50427395,-0.27369744,0.8678475,-0.8855587,-0.6252132,0.7207347,0.06584389,-0.8107275,0.20039359,0.03239514,0.27451736,0.8692975,0.17788404,-0.8336724,0.43958375,-0.95463574,0.3426736,0.64703155,-0.45525467,0.3229769,0.21686286,0.66739404,0.0552771,0.19342446,0.87850404,0.579324,-0.025516007,0.47375968,0.055048883,0.67817616,-0.03260586,0.33345905,-0.59141445,-0.78498715,0.5090852,-0.36041608,0.37835425,-0.1384812,-0.49267074,0.8657882,-0.8926286,0.4500653,-0.25946048,-0.5060205,-0.73885316,-0.7174697,0.8781307,0.13217911,-0.67203295,0.22396855,0.43452498,0.118981,0.022071881,0.48686546,-0.6208875,0.5253338,0.9247992,0.93065083,-0.37679157,-0.7331545],"16":[0.11625594,0.8497926,-0.20434879,0.17506547,0.9687266,0.02748479,0.77804005,0.567452,0.527595,-0.20872977,-0.03532943,-0.9927572,0.7346021,-0.9692981,0.03706013,-1.0163093,-0.6352874,0.31562138,-0.96693707,0.1679785,-0.6713823,-0.23318592,0.2625362,-0.91852605,-0.32850567,-0.85968035,-0.4062264,-0.9349095,0.4722682,0.3834913,-0.3196234,-0.88714755,0.61101997,-0.49024138,0.4815962,0.48853245,0.19890139,-0.841201,0.25335577,-0.045956805,0.05749006,-0.5451504,-0.7489523,-0.16695921,0.5601657,0.3016498,-0.39873454,0.6270821,0.16900261,0.37607163,-0.97048616,-0.0739051,0.6769231,-0.31317765,-0.030416822,0.4314706,-0.60440445,-0.55802757,-0.80209976,0.85178816,-0.5419792,0.87364227,-0.6050676,0.9613433,0.15547799,-0.4900283,-0.1834044,0.11184048,-0.113561094,0.48380327,0.60578114,0.32073924,-0.7400312,-0.73415285,1.0574968,-0.16552332,-0.5918449,-0.57610327,-0.32295737,0.973246,-0.270614,-0.040208526,-0.69122994,-0.24607773,-0.026484631,0.47894245,0.80200034,-0.74030894,0.6032918,0.851951,-0.55222595,0.7245736,-0.29868418,0.9276488,0.9887783,-0.26004088,0.6780295,0.029828347,-0.1602323,-0.15307027,0.045653526,-0.660914,0.24975328,-0.477793,-0.69285053,-0.39470932,0.5848209,-0.6333883,0.57899696,-0.98141414,-0.9862826,0.6453838,0.48666403,-0.28425807,0.8197914,-0.85111797,0.59507185,0.3356797,0.38330948,-0.19325842,-0.43673998,0.7733838,-0.022157056,0.8776403,-0.60412693,0.9950935,0.46852806,-0.1617978,-0.576443,-0.18892416,-0.7487683,0.9527757,0.48616397,0.19021852,0.8935755,0.7154797,-0.30888066,0.49809122,0.77006906,-0.40859434,-0.15386233,0.21661654,0.54457504,0.6261751,0.25166404,-0.9059603,-0.7638059,0.60210663,-0.79057056,-0.89982224,0.5328285,0.31792784,-0.869986,0.7890131,0.6134893,0.055905208,0.5019388,0.2747236,-0.90775996,0.79661995,-0.4491672,-0.3039297,-0.6639319,0.8362764,-0.9934856,-0.9119009,0.18645333,0.20938598,-0.68315446,0.51097333,1.0380985,0.28107578,0.66176814,-0.26351988,0.50404817,0.86014986,-0.57031244,0.36475584,0.46905056,0.585371,-0.100350626,0.79964703,0.17040741,0.7815749,-0.20264214,-0.38607556,-0.43567228,0.039870914,-0.24033728,0.21071513,-0.741985,-0.9691334,0.38534424,0.076863065,-0.68006855,-0.1553457,0.70480204,0.21631564,0.21919297,0.9566345],"17":[-0.13592368,-0.7353844,0.09865574,0.5926706,-0.1342833,0.2589163,0.97301495,-0.0087530855,-0.7883037,0.10011203,-0.022649731,0.79512525,0.65448105,-0.016191792,0.33973062,-0.28005463,-0.8470828,0.10940546,-0.08421886,-0.25731286,-0.6806977,0.7015721,-0.1125931,-0.6175896,0.5175174,-0.98348075,0.06633097,-0.6604443,0.43525052,0.40055546,-0.39113778,-0.19358654,-0.09368816,-0.5493047,-0.16250563,0.35057682,0.8401129,-0.08435046,-0.28482336,-0.153716,0.80877477,0.773689,-1.0011483,1.0174572,-0.54021716,0.74169457,-0.30677077,0.35249487,0.90539145,0.71864533,-0.019237565,-0.34856427,-0.013015273,0.9334464,0.42196044,0.17849109,-0.3252253,-0.50932145,0.24837705,-0.89784926,0.16624738,-0.38857856,-0.1350275,0.10903066,-0.5546426,0.16008787,-0.3509718,0.7271628,-0.89560187,0.7313435,-0.20563668,0.9057876,-0.16093954,-0.3973166,-0.014094517,-0.97915345,-0.7310273,0.3611465,0.79526246,-0.5314982,0.30036247,-0.19775319,0.35287857,0.4552322,0.5414902,0.3957304,-0.3284602,-0.23478225,1.0621675,-0.9731845,0.90755206,0.45043945,0.034631442,0.20974673,0.8480343,0.8885185,-0.78288686,0.13954817,0.6554588,-0.15975294,0.3873827,0.6485256,0.33146036,-0.2430504,-0.7705752,0.0026108634,0.5476262,-0.95420694,-0.14789431,-0.9094463,0.6461455,0.6728099,-0.2422224,-0.048982643,-0.6288845,0.9846916,0.7148543,-0.8492488,0.50403386,-0.35778627,-0.77568424,-0.22988287,0.7499972,0.45721486,-0.14848283,0.9005673,0.40742764,0.8030878,-0.3363472,0.7268832,0.80634344,-0.9058116,-0.08940061,0.28358367,-0.36797854,0.35022452,-0.29617408,-0.44021416,-0.89213055,0.5267362,-0.36869967,0.12605053,0.9144472,-0.2519907,-0.42316413,0.55582106,-0.6346927,0.5762898,-0.5840908,0.44975764,0.37376663,0.20279695,0.43981293,-0.81025386,0.5191951,-0.0637585,-0.67133963,0.7614899,-0.4504305,0.2328076,0.72104216,0.90657985,0.769946,0.9529741,0.4051243,-0.3695161,0.6359519,-0.20636207,-0.40650633,-0.21098413,-0.61311847,0.17770022,-0.17502245,-0.24189688,-0.9444587,-0.32850057,0.09420195,-0.81818354,0.39805776,0.28398713,0.27720478,0.37406304,-0.77360344,-0.31673983,0.19976506,-0.54370606,0.19091848,-0.83455384,0.9457572,0.2739071,0.9005119,0.49809352,0.07286097,0.9259168,0.48604575,0.69189376,0.72096205,-0.80641943,-0.19546422,-0.02106151],"18":[-0.19378698,0.40291023,-0.3410323,-0.47931296,0.8390503,0.74395543,-0.49402907,0.5582032,-0.34413373,-0.39041638,0.25769135,0.81283504,0.06841692,0.04571323,0.96314734,0.049274318,0.8166193,0.18336467,-0.669218,0.69194794,-0.9406999,0.47885892,0.9256708,-0.12807846,-0.28927386,-0.4767686,0.9656343,-0.40313518,-0.86894745,0.7614442,0.013118483,0.7198401,-0.8826566,0.5685115,0.7894702,0.23505366,0.13906768,-0.06667127,0.36810085,0.69684875,-0.27893755,0.8362541,0.102567434,-0.49061725,0.56782734,-0.20327038,0.19674681,-0.11831497,1.0149488,0.2225299,0.4449324,-0.02134634,0.3440315,-0.022907495,0.099273026,-0.41806328,-0.6309217,-0.04247324,0.56805867,0.35203335,0.6521222,-0.96106815,0.93407065,0.121199,0.13261881,0.89138365,0.014651202,0.07915304,-0.60293645,-0.5970467,0.39311114,-0.27034628,0.09184191,-0.444686,0.43491396,0.0034527984,-0.42622665,0.46973518,0.81410366,0.3082064,0.3435839,-0.90051013,-0.8512646,-0.57835865,0.29669946,-0.267181,-0.40407023,0.036915515,0.15518618,-0.043976367,-0.12961274,-0.9242917,0.5288541,0.28578073,0.8629573,0.40066215,0.06402314,-0.19655725,-0.38674974,-0.40183136,0.3359797,-0.8612864,-0.052925132,0.58397514,0.8159935,-0.14825802,0.7064586,-0.6334275,-0.66830087,0.6267354,0.6496609,-0.469861,-0.9564674,0.9059963,-0.32647842,-0.45824987,-0.071412176,0.959891,0.18978602,0.95158786,0.7800902,0.14035976,-0.10006239,0.61678636,-0.7262325,-0.33345702,0.33979905,-0.24936311,0.97394514,0.13503794,0.3355587,0.19634008,0.103419594,0.113527045,0.665877,0.8396507,0.4548453,0.9778996,-0.29679242,-1.02454,-0.4755622,0.37199363,0.4188386,-0.5274722,-0.6487897,0.8525162,-0.9385568,-0.17224258,1.0083011,-0.45281282,-0.9450659,-0.94332635,-0.7972704,0.9041999,0.49284127,-0.60863155,0.01574783,0.60941285,-0.23230633,-0.19426455,0.8083194,0.6172548,0.25446782,0.03726271,0.2661542,0.6405754,0.31810656,0.6628017,-0.20210014,-0.9870459,-0.5516031,0.22523578,-0.9395275,0.21155556,0.74893516,0.853234,0.3070007,0.6076554,0.21169074,0.019861443,-0.42774934,0.115655564,-0.14543776,0.86545897,-0.54814935,0.64102453,0.6290387,0.54135054,0.51340324,-0.114877835,0.29859096,0.9568666,-0.46386784,-0.019401915,-0.71261203,-0.92881495,-0.32095158,-0.48556408,-0.21899043,-0.24279545],"19":[-0.2740478,0.33739173,-0.86013675,0.2127672,-0.3579961,0.280672,0.13591537,0.33027244,-0.30255735,0.30627507,0.4082534,0.32629248,0.3288195,0.25713906,-0.8345271,-0.54713875,-0.5291397,-0.031683534,0.6786774,0.48464593,0.428927,0.97403497,-0.20730913,-0.8136212,-0.39896816,0.41782907,-0.72219443,0.93623376,-0.9984868,0.24427377,-0.3822621,-0.02660148,-0.043577112,0.4938701,0.21801655,-0.34673753,0.4195128,0.6280045,-0.5746997,0.73138314,0.2913533,-0.87512016,-0.5693065,-0.16741651,0.43140447,-0.7785478,-0.3442125,-0.7002258,0.89041984,-0.054694917,-0.5332803,-0.22706194,-0.88410175,0.19086738,0.33067864,0.60060614,-0.1484207,-0.44320178,-0.85340595,-0.9100564,0.24551067,0.25198704,-0.12760614,-0.05487777,-0.94348407,-0.019093089,0.16741039,-0.49832445,0.20391306,-0.51369035,0.45243636,-0.6233566,-0.78494215,0.3209761,-0.71950513,0.24827531,0.11662069,0.23352785,0.40419096,-0.14224611,-0.8160449,-0.8709103,-0.5438024,-0.72930485,0.59851503,0.3356232,0.5946799,0.7850428,0.8010253,-0.5664676,-0.38092434,-0.26744974,-0.023795899,-0.9942642,0.026924495,-0.051980637,0.93513876,0.6164864,-0.1245587,0.5156554,-0.35742345,0.15574302,0.04563151,0.26211604,-0.30103755,0.91021395,1.0314085,0.306377,0.99520504,0.85785043,0.9257108,0.8318853,-0.0039210604,-0.84993577,0.40122584,0.92589456,0.9186822,0.17458783,0.5599469,0.21824542,-0.86806524,0.7103299,-0.4905589,-0.5025425,-0.7759509,0.25501636,-0.15467615,0.55091685,0.06696999,-0.38022292,0.6839782,0.5758791,-0.9567594,-0.32086203,-0.28877866,0.097743034,0.57378316,-0.16493782,0.45257062,0.8935815,-0.3451078,-0.6267392,-0.13745023,0.48185948,-0.5263776,0.8187628,0.807377,-0.2872948,0.2367008,0.40769216,0.60399514,-0.9328554,-0.6665853,0.61050695,-0.76308507,-0.8102574,1.0016241,0.6415003,-0.8475017,0.8530395,-0.8235876,0.8973423,0.008823301,-0.4821842,-0.25368908,0.33396396,0.8885657,-0.8675557,0.28118798,-0.6011808,-0.018534448,0.73208505,-0.7752041,-0.2644409,-0.7087936,-0.19257808,-0.5250901,-0.7825769,0.50600725,-0.8292069,-0.9454184,-0.77830046,-0.030359976,-0.5664783,0.4303721,0.3862328,0.0498981,0.04931656,-0.51976925,-0.06190004,-0.0790071,1.0322645,-0.90811676,-0.70279396,0.602911,-0.9969249,-0.39654368,0.84463733,-0.18219838,0.34477103],"20":[0.75631523,-0.66586655,0.943697,-0.34544778,0.42611587,0.80942196,-0.65596426,0.55065924,0.5395595,-0.3590374,-0.8849366,-0.39569762,-0.85005534,-0.566273,-0.8250146,0.5013316,0.2079143,-0.3409956,-0.7289578,-0.6640015,-0.7470436,-0.30756217,0.80044484,-0.71247345,0.70808744,-0.27385,0.97346026,0.5308711,-0.93216294,-0.7239756,-0.9790205,-0.22142966,-0.3571783,-0.4640945,0.65058535,0.18837872,-0.6834301,-0.06994914,0.10313933,-0.9479407,-0.18854041,0.26156327,-0.6374653,0.8522875,0.26445785,0.41911703,0.27933604,-0.94724447,-0.23245181,0.3115895,-0.44492024,0.53787106,-0.4621715,0.60085034,-0.22419211,-0.27097267,-0.59610415,-0.68166244,-0.18313336,-0.39343524,-0.15879346,-0.5754685,-0.9782031,-0.13529724,-0.81737113,-0.69153595,-0.49259812,-0.30487618,-0.8672413,-0.094486326,-0.5943048,-0.73095334,0.56308544,-1.0138477,0.27748194,0.72553164,-0.6817851,-0.18078393,0.8914159,-0.47506383,0.6093308,0.14391363,-0.24355207,-0.6515378,0.8169337,0.060888942,0.0178193,0.23710668,-0.2669307,0.78547275,0.105131075,-0.4537497,0.50624585,-0.6220829,-0.87439644,0.26274565,0.37022924,-0.9372534,-0.6196436,-0.8619356,-0.6403216,-0.37835422,-0.89144355,0.44117302,-0.037225254,0.24368049,0.6713049,-0.026871694,0.17039496,0.11639828,-0.64898676,-0.19467549,-0.32827884,-0.5640225,-0.92548776,-0.3222924,-0.5457322,0.73975253,-0.31989247,-0.49359685,-0.08298208,-0.13972943,-0.90393955,0.94296324,0.6056472,-0.9192768,0.096199356,0.8288972,0.15587711,0.47788623,-0.61953515,0.49246845,0.69894314,0.27648255,0.7661022,0.23618542,-0.13223326,-0.18084028,0.14524192,-0.6767565,0.010719568,0.86521804,-0.8721391,-0.95278066,-0.5014403,-0.21211432,-0.018724829,0.481455,0.47875986,0.69765407,-0.90346485,-0.029054778,0.18389113,-0.41839567,-0.6737438,-0.32487744,0.022973385,-0.9766498,0.35744864,-0.9234762,-0.17648298,0.49045113,-0.34348306,0.19475842,0.37066996,-0.63869214,0.29927608,0.8279648,0.10002883,-0.15820882,-0.06272244,-0.9966241,-0.73152846,-0.44061327,-0.7313013,-0.19425257,-0.83221155,-0.87254685,-0.7007842,0.65931773,-0.9474025,0.06497221,0.60789454,-1.0630816,0.8488716,-0.30076754,0.7297739,-0.8366946,-0.4843955,-0.54666084,0.23681559,-0.85362566,0.4305825,0.16660583,0.4719386,-0.0714943,0.3628565,0.5524151,0.22401471,-0.6080734],"21":[-0.8529433,0.41058502,-0.50254625,-0.7450722,-0.48548546,0.97340393,0.12885813,-0.97416115,-0.7582563,0.02367021,-0.71157086,-0.2592282,-0.68388957,-0.66349316,-0.21935971,0.1622967,-0.29259,0.76334584,0.12784478,0.21958882,-0.9617698,0.4093529,-0.5041914,-0.20747067,0.7828938,-1.0473394,-0.93219435,-0.2350827,-0.08354981,-0.6706219,0.91339666,0.10836483,-0.010119561,-0.4691382,-0.5827978,0.33378533,0.87802684,-0.9721476,-0.6943986,0.10188813,-0.57878923,-0.5794739,0.039624006,-0.31652352,-0.9687519,0.82914704,-0.79210454,0.45856103,0.22663715,0.82946527,-0.9966485,0.38189986,-0.25342447,0.18959306,0.8171496,-0.8728763,-0.0479068,-0.5911669,-0.8356979,-0.8092901,0.3354866,-0.8617736,-0.76370674,0.17451382,-0.7942177,0.065557,-0.84573567,0.49476928,-0.37026063,-0.90208274,-0.9274189,-0.78482425,0.104082264,-0.96445435,-0.06938151,0.62181747,-0.40045688,0.21839651,-0.62338626,0.7360708,0.74189216,0.566629,-0.85366696,0.09920903,-1.0129575,0.49147585,0.9948594,0.8430465,0.8881633,0.8023271,-0.5147455,-0.24213581,0.04704581,-0.4786632,0.73798716,-0.8028008,0.105471194,0.55097175,-0.8101369,-1.0452484,-0.16738218,-0.20898914,-0.015790978,0.16010466,0.85805213,-0.57779187,-0.7667682,0.55459756,-0.6808954,-0.20722736,-0.46280757,-1.0629224,0.07652878,-0.62610024,-0.6422757,-0.30934972,-0.9306869,-0.04906406,-0.97881365,0.3214299,0.07029167,-0.011837602,0.74671054,0.19716194,-0.715307,0.10250245,-0.2661387,-0.086373284,0.07920566,-0.7353295,0.28783366,-0.52735466,-0.8498441,0.83796906,0.012174391,0.50037324,0.48632815,-0.6910042,0.90746856,0.06348851,-0.102508776,0.06291797,0.4288353,-0.25257856,-0.51122814,-0.7701422,-0.916313,0.3729262,-0.64964557,0.25675622,0.87543464,-0.14498796,0.6160803,-0.16617604,0.6839706,-0.6756671,0.44084245,0.41361398,-0.4558253,0.5838735,-0.6664239,0.18416072,0.45115915,0.051015295,-0.29207304,0.45763794,0.8632097,0.3335816,-0.66091245,-0.43618488,-0.4101275,0.36220232,-0.5165601,0.1385026,-0.7275572,0.82154876,0.08934985,-0.28214294,0.18485181,-0.43570608,0.048956275,0.84735864,-0.57926404,-0.1657445,-0.61785614,-0.10032034,-0.060920715,-0.5890199,0.15883338,0.03733042,0.10419876,-0.70488775,-0.7140744,-0.07349405,-0.76061106,0.2054757,0.07403437,-0.60177404,0.07527812,0.39410585],"22":[-0.2696895,0.5594653,-0.34247443,0.49475592,0.37266928,-0.33768263,0.37893426,1.0158435,-0.29386973,-0.01431656,0.49983212,-0.85573584,0.15060718,-0.21210521,-0.73933136,0.4869926,-0.1724731,0.48215523,-0.2332492,0.08601448,0.22544667,0.73683125,0.08086419,0.8683093,0.16972867,-0.5392349,0.36969423,-0.35794327,-0.24734703,-0.5920065,-0.0724866,-0.4430612,-0.29724547,0.77341145,0.30226,0.23191585,-0.3455364,0.2929187,-0.9623938,0.21820068,0.51113474,0.23316571,-0.54074365,0.3290747,-0.03486648,0.5278692,0.77372795,0.68859404,-1.0164503,0.60209304,-0.95808834,0.3518713,-0.77519673,0.19793944,0.026100356,-0.22065696,-0.32727134,0.17301165,-0.6799723,0.72060454,-0.18807721,-0.20204802,-0.5855594,0.8305178,0.6825911,0.91915464,0.20886588,-0.87331617,0.95550346,0.050328873,-0.6284219,-0.21688075,-0.6200428,0.089864284,0.0474652,-0.2558982,0.32528585,-0.6023458,0.14064594,0.10175854,-0.70406413,0.3136612,-0.55466855,-0.45507422,-0.7788894,0.24598026,0.79820615,0.53195834,0.06235871,-0.5103889,-0.6899233,-0.2658652,0.80300426,-0.020389754,0.9200349,0.9271082,-0.75521374,-0.22245923,-0.12367965,0.8038915,0.42337975,-0.9094231,-0.1421739,0.42221576,-0.75590307,-0.9935803,0.34577525,0.9265286,0.8128274,-0.33427325,0.6067647,0.90416133,-0.7614837,0.535283,-0.09297673,0.3160155,0.083362065,-0.8113848,-0.21371594,-0.028809382,-0.7015159,-0.14362966,0.079840004,0.06805387,-0.6194874,-0.09579846,0.35776857,-0.32007086,0.618542,-0.73101693,-0.014023249,-0.74712706,-0.4250718,0.75752664,-0.0013097627,-0.9389327,0.77281857,-0.10032399,-0.8934519,0.26247436,-0.91374314,-0.36498928,0.70680726,0.9863166,-0.7839105,0.469525,0.3311314,0.32528418,0.08362524,-0.5396323,0.11851075,-0.7068737,0.4282116,0.71866244,0.097736694,0.5764676,0.83299655,0.97867787,-0.5791323,-0.13914552,0.3218492,-0.60149425,0.90105,-0.7092297,0.873356,-0.69725615,-0.7601237,-0.22289415,-0.6768081,-0.54274285,-0.90854657,1.009151,0.8150374,-0.45539638,-0.08674049,-0.63942415,0.8503572,0.88464266,-0.85975856,-0.37374556,-0.78671557,-0.0046733385,0.541733,0.9537281,0.21687357,0.6077392,0.61470455,-0.7023394,-0.013680467,0.73179334,-0.100528196,0.77391523,0.73441845,0.1136337,-0.9445701,0.19258578,-0.9570298,-0.38639876,0.114499636,-0.15827285],"23":[-0.7708959,0.84872556,-0.84340644,-0.8224521,0.76850265,0.7532028,-0.58613014,-0.9664543,-0.16659059,-0.052478097,-0.47969055,0.15057036,0.16079254,-0.4622253,0.21959528,0.82804406,0.17171237,-0.50280356,-0.78603536,-0.3137052,-0.41593403,-0.9834636,0.9791544,-0.38063642,-0.89363277,0.6144243,0.30998957,-0.7889183,0.8303664,-0.41557446,0.25628394,0.5510118,0.25874734,-0.8167229,-0.9227943,0.2490105,-0.13998654,0.04224703,-0.4208405,0.13697498,0.757413,-0.43682966,0.50724214,-0.85820544,0.23639967,-0.58954066,-0.09623112,-0.048572604,0.2561783,0.935826,0.29304686,-0.19485368,0.022992177,0.12984677,-0.70849866,0.12933703,0.47429773,-0.812487,0.9216289,-0.7357182,-0.50981206,0.7236063,-0.5713275,0.83773726,-0.086972296,0.09855169,0.9297998,-0.37269664,-0.13854231,1.0252815,0.7349585,-0.39990178,1.0162789,0.7897817,-0.8998395,-0.5889348,-0.47249287,-0.35491857,0.20745647,1.0162891,-0.609518,0.64099735,0.23110208,-0.7004768,-0.5875474,-0.7646373,0.5033263,0.08965005,0.35904294,0.36851406,-0.45182216,-0.16469866,-0.93330175,0.20624872,-0.26498547,0.7222561,0.95355946,-0.23933673,-0.8092076,0.69001323,0.4918887,0.88248086,0.5476708,0.55551195,0.25779387,0.2458895,0.06137468,-0.72946674,0.48197395,0.48219642,-0.03192341,-0.48392478,0.63958365,-0.39777908,-0.6607423,-0.531023,0.59987307,-0.13042565,-0.5559759,-0.14968744,0.56508434,-0.8201583,-0.84082526,-0.8128051,0.89636755,-0.92274314,0.8793717,0.12290352,-0.93062675,-0.66304123,-1.0147816,-0.2965977,-0.20622672,-0.84525824,0.80163527,-0.5655042,0.8033672,-0.057674352,-0.8072533,-1.0015752,0.5091864,0.94324034,-0.04086337,-0.35549137,-0.5138443,-0.37850845,-0.13047989,-0.530468,-0.91453767,-0.57090247,0.64725393,-0.8898584,0.6624762,-0.29364792,0.47597504,0.6730351,0.5606339,-0.9753211,0.018270345,0.849158,0.043879874,-0.709206,0.0780167,-0.4858858,0.53926283,-0.94239455,0.2205468,-0.24096614,-0.33969262,-0.2572873,-0.7333819,0.20299704,-0.18238284,0.5147172,0.80807793,-0.51560384,-0.10232354,-0.8303569,0.04424199,0.32219675,0.81446356,0.26946816,-0.6100681,0.09557722,0.12633836,0.18389432,0.8398228,0.032929547,-0.70369136,-0.01752598,-0.6251553,-0.050298866,-0.79179907,0.3218249,-0.96774715,0.13989204,1.0150328,-0.79551834,0.48982614,0.13421504],"24":[-0.22302267,-0.64426553,-0.26353937,0.3526285,0.052271895,0.93650806,0.3042181,0.8570152,0.23791084,-0.19641279,-0.8213194,-0.24690083,0.0403814,-0.31976947,0.31548372,-0.6701369,0.36784986,-0.049107935,-0.057753965,-0.05810627,-0.11171235,0.9282792,-0.11529604,0.669993,-0.21334243,-0.57451653,-0.94603634,-0.82456094,-0.07643026,0.7050732,-0.9935526,-0.7650637,0.035211567,0.5437424,-0.42303306,0.74321955,-0.21235235,-0.8333335,-0.78859925,0.6817612,-0.33092386,-0.24240854,-0.31334892,0.27488127,-0.21129411,0.15682192,0.542186,-0.75460404,-0.33998215,-0.673369,-0.76553196,0.74220645,-0.14273539,0.31874007,0.06764231,0.10379956,0.90427136,0.21863069,0.52519304,0.5983979,0.8871997,-0.6714447,0.729215,0.8980301,0.11642103,-0.70148677,-0.7508205,0.016170144,0.90131074,0.18499091,0.84646726,0.95980465,0.72658277,0.65769464,0.45853636,-0.13912264,0.69969445,-0.14717366,0.81377655,0.9008551,-0.5389191,0.91458493,-0.18400854,0.20177075,-0.2529236,-0.3792899,0.35482168,-0.8776165,0.82598156,0.12257522,0.85800594,-0.8715301,-0.680571,0.59934217,0.15416344,-0.873252,0.54629624,-0.7809924,0.66093487,0.13383633,-0.42068005,-0.2091751,-0.5993739,0.44631612,0.87316585,0.88847595,-0.446701,-0.41606236,0.44534835,-0.93662167,-0.94565874,0.12536037,-0.34641284,0.36712706,0.4571177,-0.28661916,-0.72947955,-0.5650625,-0.9144497,-0.5327113,-0.21701904,0.3183733,0.40895113,0.5107503,-0.7068839,-0.044896904,0.46465787,-0.6620305,0.60188234,-0.3179758,0.4712089,0.6881179,-0.64161545,0.8859956,0.9176325,0.3950148,-0.39916006,-0.40626395,0.65681744,0.69833505,-0.5438364,0.19462001,-0.58262056,1.0472158,0.9785048,0.9327294,-0.9079867,-0.033800058,-0.10019166,0.26495484,-0.25408953,0.05602153,0.59427994,-0.40118122,-0.41914684,-0.88580966,0.02700832,-0.039713647,0.11665539,-0.057279486,0.4733817,-0.07354598,-0.8607377,-0.36921936,-0.94189674,0.7262113,-0.47450674,0.4617317,0.76380634,0.1639786,-0.40287527,-0.30601305,0.15127623,0.34641212,0.34429932,-0.69685346,-0.43259332,0.9287225,0.62704027,-0.11581195,-0.25982252,-0.800411,0.43111634,-0.674525,-0.9856822,-0.78991896,0.18586099,-0.8252801,0.23190391,0.721955,0.89772123,0.19165023,-0.7733043,-0.9736323,0.043478165,-1.0281116,-0.5982357,-0.34637338,0.911125,-0.32087767],"25":[0.88798624,0.8428645,0.40787375,0.3216357,0.09255708,-0.74771667,-1.0713787,0.8398955,0.21522789,-0.65150017,0.8331044,-0.4347395,0.8769803,0.11687504,-0.29557517,0.83013713,0.44917515,0.58155787,-1.0548586,0.43668088,-0.66648954,0.22379309,-0.5973019,0.6012028,0.4441112,0.36976856,0.4302574,0.52138716,0.20026141,0.38724798,-0.7608958,-0.15297028,0.20797148,0.58024645,0.66260123,-0.8702899,0.19103326,-0.35600385,-0.29554963,-0.6288719,-0.09936819,0.86261827,-0.5099237,0.8197516,-0.70125663,0.106503375,0.27009758,0.40102404,0.90637076,-0.40642118,0.75618225,0.007559173,-0.7570522,0.684852,-0.4275274,0.39517188,0.9452129,0.570744,0.6050211,0.77927685,0.47062063,0.8555439,0.7160223,0.33561617,-0.30107704,0.96009195,0.72618896,0.7862194,-0.2575224,-0.07191276,-0.83469415,0.23040229,0.846902,0.93094784,0.8469787,-0.44793808,0.078581154,-0.09762416,0.6545816,-0.75740474,0.9185113,0.018692775,-0.2813189,0.20866859,0.5515515,-0.31753948,-0.9160315,0.7203797,-0.90324676,0.21026775,0.73862773,0.34738854,0.4211906,0.2398473,-0.7415826,0.7777191,0.4959146,-0.20854071,-0.42254165,0.5261419,0.9080587,0.6947547,-0.2750908,-0.9425504,-0.12184783,0.6111289,0.98037916,-0.41225123,-0.30773234,-0.48739576,0.3832546,-0.5880841,0.9040728,0.54000837,0.6779021,-0.07349227,-0.8100467,-0.8967052,0.54162323,0.87042993,0.77844924,0.80884504,0.4171635,-0.35299474,0.9146887,-0.5417682,-0.7576535,0.7055754,0.46858385,-0.061045043,0.14542782,-0.5848815,0.42401206,0.35341004,-0.7990546,-0.0024888043,0.91018224,0.28868073,-0.80938566,0.38549045,0.45063567,-0.68474144,0.054948304,-0.01755856,0.93582207,0.19523093,0.40183103,0.5423389,0.08858609,-0.7007124,0.46207154,0.85692906,-0.24166545,-0.49542487,-0.54177684,-0.7930426,-0.046959255,0.071605176,0.94592625,0.7249779,0.86561036,-0.18914734,0.24961151,-0.85474676,-0.2037109,-0.5413868,-1.0617855,-0.7426696,0.65015197,0.9169536,-0.2507723,-0.90727097,-0.72441447,0.9053923,-0.8556237,0.9302783,0.94309324,0.38775125,-0.72001994,-0.2780908,0.65017426,0.29210746,0.15095955,0.09261106,-0.57238847,0.22186923,0.16772208,-0.6019995,0.11878575,-0.98191565,0.092505425,-0.71810937,-0.682778,-0.07337714,0.22916834,-0.7905352,0.57180816,-0.28901893,-0.2502251,-0.63655585],"26":[-0.869011,-0.765824,0.630191,0.4886997,-0.36444607,-0.7440598,0.19251989,-0.5641445,-0.053169765,0.9142485,0.16230695,0.15596567,0.36868447,0.644873,-0.3389599,-0.460894,0.034729496,-0.6676464,-0.60248893,-0.7319587,-0.32025927,0.65994173,0.06916545,0.92037773,-0.8972362,-0.710512,0.23855942,0.59585893,-0.5434872,0.9791873,0.07261325,-0.14484118,-0.6161238,-0.11350537,-0.06058197,-0.09978746,-0.80344695,0.05104336,-0.45396185,0.23463267,0.5854443,-0.2793924,-0.55225515,-0.56649494,0.9337338,0.27564928,-0.9859282,0.47611016,-0.77158093,0.38442826,0.5019994,0.91809386,-0.95635587,0.841005,-1.0203882,0.8973546,0.07107638,-0.83590555,-0.86573577,0.73462623,0.74466217,-0.7017425,-0.8953825,-0.6949508,0.15293401,0.026215488,0.7728833,0.8055272,0.10757912,-0.8117536,-0.68998754,0.75464165,-0.7784793,-0.5409537,-1.0559723,0.6197113,0.18163465,0.30947617,0.07214965,0.013952626,-0.8075771,-0.28121668,-0.6989918,-0.5065878,-0.53172976,-0.8296359,-0.5986293,-0.06386441,-0.87736666,0.43202445,-0.9879225,-0.49068865,-0.11306953,-0.43027335,0.94913155,-0.11231224,0.41724956,-0.33233404,0.3813936,-1.0425587,-0.1556101,-1.0175757,-0.08410883,0.246157,0.18045378,0.76480997,0.17932492,-0.07907345,-0.16074692,0.9154076,-0.09848087,-0.7596362,0.690358,-0.8765671,0.046709836,-0.5745905,0.6039945,-0.5141806,-0.767373,0.09141019,0.6132662,-0.19879952,-0.8897113,0.7533467,-0.6129882,-0.24881072,-0.12693557,-0.2967121,0.2635885,-0.32007554,0.44401592,0.5054026,-0.8927406,0.45655644,0.55865973,-0.65603167,-0.0600357,1.0358375,-0.32098463,0.28067422,0.2675177,0.8963644,0.6257958,0.6135451,-0.86217,-1.0079546,-0.4787914,-0.3880662,0.23700584,-0.32744303,-0.22409685,0.53391176,-0.36784795,0.905486,-0.45596617,0.6090333,-0.50012535,-0.41297504,-0.79724574,0.62284034,0.29341248,-0.80880517,-0.3271666,0.2861408,0.14977068,0.10681262,0.55622214,-0.69013387,0.728154,-0.63930947,0.6135881,-0.39480484,0.23526773,-0.16130227,-0.3920781,-0.32370028,0.2825651,-0.27944922,-0.16396444,0.4729389,-0.016574144,-0.35512003,0.5187951,-1.0354395,0.4805861,0.16118142,-0.7603782,-0.6061623,0.7457913,0.1595522,0.7543024,0.9710465,0.32101965,0.03359647,0.93866366,0.97501165,-1.0051042,0.75040615,-0.030469405,-0.3197687],"27":[-0.9062055,-0.61922634,-0.3776714,0.43045288,-0.15772758,0.0043780725,0.7818858,0.12893169,-0.2877623,0.87741023,0.19412223,0.6520965,0.35682532,-0.7098054,-0.5293723,-0.08439392,-0.17876162,0.69842774,-0.45944032,0.39280295,-0.12278201,0.2572549,0.7918017,0.6701618,-0.7479679,0.73184794,0.85222566,0.5494724,-0.083118334,-0.18902706,-0.49665582,0.26592207,-0.5131045,0.74668086,-0.032787144,-0.18322667,-0.30739397,-0.23892058,0.772305,0.28612414,-0.14654398,0.294319,-0.092990756,0.6808379,0.6319897,0.40709078,0.8678081,-0.41741452,0.38938862,-0.91139984,0.7267114,0.3632355,-0.04718717,0.4626038,-0.30368295,0.49485895,0.7927572,-0.60723543,0.9072125,0.116409436,-0.8839249,0.037941467,0.2656356,-0.058258094,-0.59379405,-0.49010175,-0.9185727,-0.1286822,-0.8659331,0.4275907,-0.8096365,-0.7467089,0.2574743,0.63955957,0.15367302,-0.11715523,0.9129685,-0.77356154,0.70667464,-0.9423981,0.23345956,-0.47215617,0.27377236,-0.017599314,-0.3145674,0.7970652,0.07095705,0.76793176,0.31555003,0.9054367,0.3012695,0.46665618,0.1598191,-0.9680367,-0.3192758,-0.041374005,-0.8589794,-0.0793181,-0.6025981,-0.1757417,-0.39353958,0.23998985,0.4000438,0.69201446,-0.19829729,-0.7021529,0.74799645,0.4752067,0.8991798,-0.39147666,-0.029045131,0.24957472,-0.8697867,-0.095418036,-0.20293571,-0.08307552,0.023192992,0.38368696,-0.6386261,-0.8636285,0.37675336,-0.26822627,-0.7300788,-0.043092456,-0.5795446,0.13496602,-0.09828979,0.85193825,-0.4258971,0.07318264,0.52993655,-0.21347395,0.5485486,0.51728797,-0.12003844,-0.029410843,0.5838134,-0.39621353,-0.36057103,-0.5011231,-0.16032065,0.74666023,-0.4241455,-0.55856454,0.54039824,0.5397561,0.5150743,0.47677723,0.16514374,-0.3715837,-0.6534144,-0.16129038,0.3146546,-0.22145693,0.55754876,-0.3012857,0.264377,0.49434638,0.0031746468,0.9544091,-0.22926623,-0.24146168,-0.8247133,-0.075375445,-0.4290492,0.72116065,0.6763905,0.26954666,0.10051688,-0.112571426,-0.08141697,0.32165644,-0.6897748,0.45311907,-0.15005755,-0.4983462,0.09919819,0.18698347,0.09254716,-0.073125504,-0.5790234,0.2221125,0.33454862,0.60453075,-0.08282141,0.5087634,-0.9414872,-0.12882882,0.7732032,0.7856902,0.2774209,0.063982666,0.6807392,-0.56485397,0.06559569,-0.8202073,-0.261091,-0.7933621,-0.13705358,-0.08061127],"28":[0.33068419,-0.8988382,-1.0046313,0.42750496,-0.2070315,0.9262508,0.6178523,-0.04281814,-0.8040552,0.17009233,0.54457825,0.32943088,0.51376885,0.06286012,0.37478566,-0.55301404,0.8473709,-0.09703995,-0.07052914,0.71703327,-0.85257506,-0.8182786,0.8206611,-0.16284999,0.9015204,0.40895128,0.6702724,-0.7417096,-0.60532075,0.14791094,-0.7691883,-0.5830661,0.013018818,-0.46982473,0.15353304,-0.4491032,0.63563836,0.3114532,0.9552991,0.068470635,0.111772366,0.2519261,-0.108046725,0.81056356,0.6479391,-0.09697028,-0.27030268,0.5815513,-0.10966466,-0.01136656,0.79970765,-0.10456153,0.20114177,-0.28861645,0.8930923,0.6990038,-0.7707565,-0.85897815,0.94764316,-0.8829221,-1.0331821,0.09673679,0.58526677,0.90958494,0.41001958,-0.09862333,-0.67749995,-0.9332169,0.9416197,1.035801,0.09360508,0.7259143,-0.108996525,-0.57781136,0.2176202,0.9861484,-1.0026832,0.31274813,0.9066037,-0.8429544,0.46756598,0.2607288,-0.31843847,-0.6360087,-0.4766319,0.050556228,0.46835297,-0.9199063,-0.46961746,0.1657092,0.8990072,-0.7834532,-0.729017,-0.18766159,0.5668359,-0.3002614,0.50057584,0.64104664,0.16394703,-0.31748733,0.92804307,0.6750097,-1.0199115,0.8973666,0.51014805,-0.16483587,-0.8425511,-0.43743488,0.8778948,-0.17053697,-0.6328866,0.9617947,0.90446514,-0.22471663,-0.82423073,0.88107044,0.38189986,-0.12489268,-0.1653392,0.50777435,-0.6588823,0.9258585,-0.46361637,-0.3261789,-0.38071325,-0.5175523,-0.33688682,-0.44542673,-0.14937055,0.17643139,-0.79929036,-0.7906008,0.95577973,0.0548784,0.39649802,0.20411016,-0.16499676,-0.8376251,-0.61550635,-0.68531144,0.79634726,0.9671702,0.8067859,0.62318134,-0.5189993,-0.6214399,-0.042893663,-0.60614055,-0.46393457,0.477451,-0.3997371,0.83161265,0.47873685,0.76751405,0.9967314,0.5735152,-0.18824969,0.18458837,0.84354126,0.13752607,0.2885729,-0.8291425,0.076858945,0.9668438,0.65081036,0.59687793,0.5841193,0.07297928,-0.41586465,0.12054384,1.0119637,-0.77332616,-0.41537678,0.63538814,-0.668591,0.4836049,0.25135896,0.30822966,0.5773205,0.38341415,0.5709542,0.7043219,0.97506285,-0.0071421964,0.34464413,-0.25091723,-0.94872826,-0.15695633,0.6819377,-0.056828797,0.71691257,-0.2413257,-0.3394282,-0.28678757,0.6367034,0.020177126,-0.61870074,-0.20249006,-0.17959435,0.44737345],"29":[-0.57153136,-0.58596396,-0.05874123,0.20592573,-0.3222509,0.09464352,0.35191306,-0.65050745,0.93372256,0.3837961,-0.8033747,-0.58651096,0.9627613,0.6602344,-0.8967935,0.77487504,-0.98683304,0.1270952,-0.110057004,0.5554141,-0.074671164,-0.34289387,0.18874112,0.6991742,-0.3605586,0.8523252,-0.4449172,0.35335222,-0.90055907,-0.15569137,0.50232375,-0.6175624,-0.16453023,-0.7866256,-0.7125734,-0.56020325,-0.58880556,-0.7181835,-0.24960043,-0.39630455,-0.9213654,-0.5025803,0.8880229,0.9043041,-0.13250026,0.8634402,-0.92792386,-1.0305654,0.54091203,-0.8328777,-0.9721391,-0.81760937,-0.5373692,0.25476834,-0.12936395,-0.4550992,-0.6973834,0.20373683,0.4342861,-0.1537825,0.8361784,-0.44989416,0.86855125,0.32126528,0.3521438,-0.41297477,0.43695194,0.8332137,-0.9550298,-0.7421949,0.23826484,0.20514078,-0.4681307,-0.5820245,-0.5058679,0.17339656,0.27106145,0.032673463,0.9193391,-0.88462937,0.9419195,-0.31737784,-0.8135444,-0.34460893,-0.8917525,-0.23873521,-0.8537675,0.31997576,-0.34344432,-0.38925216,0.64046276,0.85231775,0.15474394,0.8178228,0.011807393,-0.14172599,-0.6352235,0.9173947,-0.34315073,-0.952278,-0.11267523,-0.67203593,0.38603914,-0.72302365,-0.71035016,0.34170756,0.1410433,-0.49772808,0.32539606,-0.6201759,-0.4051771,0.39999378,0.52613413,-0.44316468,-0.89741975,0.6975104,0.15095937,-0.5425833,0.14029525,-0.7632009,0.9525734,1.0079491,-0.36826533,-0.12354514,-0.8790036,-0.20972508,-0.6997118,0.9204196,-0.34745008,-0.44541913,-0.92795885,0.15115076,-0.059480548,-0.5038528,1.030773,-0.5231509,-0.3347567,-0.19636193,0.64037526,-0.7849031,0.7954367,0.025150232,-0.58029556,0.68441045,-0.90930235,0.7683017,0.6607861,0.9644826,-0.30648828,-0.68513095,-0.67699265,-0.5538843,0.2874845,-0.94127846,0.51378447,-0.28277987,-0.9233059,0.973822,-0.90404004,0.52912587,0.86716104,-0.5662313,0.36323443,-0.44670993,0.061982043,0.07839839,-1.0240167,-0.87473917,-0.32527372,0.867116,-0.68108857,0.19915952,-0.42198586,0.9236016,0.13316578,-0.29787967,-0.58967054,0.85864836,-0.74460584,0.93888634,-0.9935637,0.8821246,0.07192731,0.3137305,-0.15409894,0.56183016,0.027662579,-0.9136087,0.92967093,0.3316118,-0.36621866,-0.5942272,0.28190517,-1.0293541,-0.5740828,0.85383713,-0.7451472,-0.96395004,-0.12494905,0.8192026],"30":[0.7644865,0.89021987,0.69083333,0.44659725,0.4019304,0.09512275,-0.9872161,-0.053046327,-0.0660616,0.5812751,-0.45085287,-0.2934108,0.563501,-0.40361348,-0.5744271,0.37945503,0.2520164,-0.5787249,-0.43476343,-0.6460927,0.19205149,0.99837595,-0.62108195,-0.89010626,-0.45220238,0.47955024,0.7874819,1.0170903,0.55087745,-0.13835797,-0.2747755,-0.9638772,-0.587828,0.79233515,0.5503444,-0.8126858,0.6197558,0.8347351,-0.37317678,0.47173473,-0.11359656,0.8490205,-0.2072737,-0.7101382,0.19389953,0.5381438,-0.008399431,0.24350329,0.47912142,0.86283004,0.24716574,0.3223901,-0.39780477,-0.45526,0.20901598,-0.74233973,-0.65469503,-0.39124033,-0.8667543,-0.057051126,-0.34022528,-0.024721127,0.8228418,0.78757393,0.69510055,0.22802936,-0.4087542,-0.9183109,0.13223395,-0.8702468,-0.16023505,-0.50531244,-0.68800044,0.8697295,0.20315006,-0.8977094,0.6524271,-0.0101349875,0.233287,-0.6519376,-0.16866297,0.8006762,0.025399208,-0.45450395,0.8599607,0.7579371,0.23263659,0.7810015,-0.42568624,-0.34200957,0.57117915,-0.87574357,0.92263633,-0.7454058,0.36417443,-0.11553623,-0.42382708,0.10304201,-0.92447734,-0.77863115,-0.44132707,-0.7338909,-0.12008807,-0.62111676,-1.0638055,0.60664785,-0.1330239,-0.79531765,0.10468192,-1.009124,0.09383153,-0.001375403,-0.54739994,0.23267098,0.86095476,-1.0277543,-0.33092952,-0.3817798,0.011226204,0.21515761,0.16023579,-0.22382438,0.45410126,0.20520201,0.6935245,0.020014785,0.6451954,-0.38102734,-0.24160892,-0.17198214,-0.8847621,0.09414142,0.6428134,0.54397476,-0.77656347,-0.43080664,0.7960569,-0.6073773,-0.24116479,-0.8028228,0.4175386,0.9736289,0.99114305,0.5120039,0.6304473,0.84639025,-0.31001216,0.47364095,-0.52704024,-0.78072107,-0.16734299,0.383621,0.6876774,0.7549432,-0.2834245,0.19959065,0.0016591871,-0.81651753,-0.23430933,-0.8959992,-0.6010753,-0.19965668,-0.78896254,-0.3682895,0.92855895,0.51894796,-0.72143376,0.5061198,-0.699071,-0.8889175,-0.79552346,-0.7607671,-0.46928734,-0.4406098,-0.65860534,-0.21910073,-0.073369585,-0.082106814,-1.0103551,0.5273007,-0.0004948294,0.36903933,-0.48216268,0.81921804,-0.60610193,0.0096018305,-0.25775918,-0.65981215,0.1785103,-0.34382594,-0.3033241,-0.28999937,-0.7066016,0.19475743,-0.86522526,0.4052491,-0.36823946,0.09776453,0.07245433,-0.22466005],"31":[-0.170939,0.35690874,0.34933922,-0.45257294,-0.95076394,0.24203938,-0.6507818,0.2423178,-0.2122265,0.36798584,0.30043232,-0.22228196,0.9655203,-0.82750887,-0.48108965,0.07021623,-0.9083217,0.06553712,-0.18795004,-0.30489728,0.8434776,0.46259543,-0.39520952,-0.10875103,0.112789616,0.36382315,0.5615605,0.9556981,0.03659822,-0.17953674,-0.7204797,-0.9570596,-0.81200564,0.441458,-0.16641875,0.8972064,-0.25191575,-0.24343272,-0.40651506,0.4538249,0.24860549,-0.13606472,-0.008140287,0.39931822,0.14856999,0.28286937,-0.4905123,-0.3645546,-0.044743244,0.2694921,0.038387313,-0.36367664,-0.84126425,0.4510846,-0.94382924,0.8964211,0.3661859,-0.038970564,-0.44313422,0.5106743,0.6902919,-0.66588986,-0.12183243,-0.6768049,-0.5390075,0.44738212,-0.63624555,-0.36718717,-0.97905797,0.80616146,0.33655348,-0.11611793,0.24035873,0.5745111,0.3474083,0.97064316,0.74896216,0.99405605,-0.18642634,-0.8860258,0.32632327,0.3646163,0.7537801,-0.14445923,-0.40392616,-0.6893218,0.46105757,-0.6468301,-0.53199583,0.6404777,0.51339585,0.286609,0.009761031,0.7420396,0.3416927,0.85158056,0.724366,0.17115547,0.4305921,-0.7408961,0.37358403,-0.8663294,0.40119508,0.500547,-0.802731,-0.57729816,0.27381876,-0.26758724,0.568291,0.808143,0.09992302,-0.84451026,-0.57896346,-0.5187531,-0.19749008,0.51181215,0.1919328,-0.506033,0.44619232,0.07449948,0.46608672,-0.2927853,-0.032880254,-0.11080631,-0.6238558,0.5249387,0.38677675,0.23349781,-0.18063258,0.28685,-0.09936302,-0.44036418,-0.5680124,-0.7198081,-0.31360608,0.0738928,0.008594577,0.6962039,0.21476282,0.09778109,-0.44603378,-0.41575918,0.80300415,0.47171867,0.35394642,-0.2560867,-0.5592868,-0.28257957,0.73985183,-0.93927187,0.12048634,-0.44129035,-0.16016836,-0.88481647,0.22746332,-0.7843074,0.6289249,-0.55562335,-0.77579874,-0.32921675,0.0615122,-0.51687616,0.34001,-0.8652308,0.8040099,-0.28787193,-0.19373189,-0.44417652,0.61998886,0.48055497,0.88482827,0.89266443,-0.14934288,0.08291734,0.88091195,-0.42748973,-0.1893577,-1.0016514,-0.44117177,0.81794214,0.708575,0.4420737,-0.82417905,-0.70496964,-0.28501943,-0.926997,-0.7375841,0.025908384,0.29061383,0.9011674,-0.6671017,0.0725629,-0.49319816,0.9560082,0.64247584,-0.05364709,-0.94252837,-0.86608595,0.7945433,-0.53486764],"32":[0.58617073,0.5815496,-0.3926193,0.5052384,-0.90786976,-0.4323944,-0.4083512,0.85150415,0.8388404,-0.1377787,-0.48083326,-0.8106889,-0.7298139,0.43837988,-0.7460626,-0.34958917,-0.8364698,0.6516636,-0.40641275,0.7150322,0.3308429,0.15694754,0.21025744,0.17622125,0.7115618,0.53156316,0.35334623,0.52269953,0.81976676,0.19322924,-0.08922741,-0.76688254,0.5080519,0.14525849,-0.0719343,-0.91650534,0.72119874,-0.5144074,0.8411243,0.5153325,0.32871023,1.0432525,-0.10685803,0.05738467,0.20406953,0.85964996,-0.7830298,0.5728522,-0.20669214,-0.52853775,0.3450487,0.007861476,0.04602809,-0.5194841,-0.1399302,-0.5386396,-0.33458915,-0.1743215,-0.3588096,-0.036007598,-0.9604054,0.7022516,0.45223334,0.8956654,-0.675811,-0.76492435,-0.19316895,0.04838918,-0.6068754,-0.6398358,-0.43432924,0.4246887,-0.36096337,0.33476374,-0.76246953,0.37078875,-0.6210374,-0.7994005,-0.68049353,0.7120511,0.95986307,-0.957938,0.22326003,-0.9336958,-0.21764538,-0.79321706,-0.14533125,0.49966413,-0.18059711,-0.8268511,-0.5472719,-0.21862625,-0.3632871,-0.51824975,0.7700978,-0.51668507,0.37368834,-0.26039907,0.29802597,0.13045189,0.81263226,-0.16041812,-1.0173486,0.5096891,-0.4134966,-0.3333744,-0.17772733,0.17081203,-0.8386201,0.7529375,0.5965273,0.2688684,-0.25691387,0.19892637,-0.97361654,-0.4965281,-0.8048351,0.5255688,0.33507589,0.58541983,-0.52464306,0.26038814,-0.5930982,-0.92796016,-0.5893891,-0.38363466,-0.41891924,0.5284745,0.9868338,-0.54599166,0.48537475,0.9900749,0.14143936,-0.82790726,-0.544456,-0.500959,0.11249355,-0.8759102,-0.20188028,0.546883,0.49977615,-0.9069714,0.72353256,0.2277706,0.1413625,-0.711217,0.2189777,0.78120196,0.7192904,-0.10419022,-0.9365906,-0.69540054,-0.18266535,-0.7958759,-0.66635585,0.25841576,-0.9240869,0.22844914,0.18702815,-0.43224463,0.3981358,0.33345607,0.12068149,0.40791875,-0.34541136,-0.3887584,0.75120515,-0.006901451,-0.7537953,0.6222204,-0.8814735,-0.24836753,-0.29033914,0.61491066,-0.15351129,-0.9734298,0.7591192,-0.60223955,0.3450652,-0.53494847,-0.5011546,-0.3723217,-0.031397946,0.9644933,0.10120004,-0.76739115,0.55455005,0.11659573,0.91233546,0.8252592,0.8040567,-0.6958172,0.087103724,-0.35785782,0.0173887,-0.87635297,-0.13110505,-0.0684032,-0.023973756,0.8454439],"33":[-0.13625807,0.047229335,0.64757836,0.8521704,0.57749003,-0.17505336,0.08295669,0.30009428,-0.6205903,-0.20769876,-0.9157302,0.6376635,-0.44096965,-0.83239913,-0.151113,-0.5615212,-0.041628934,-0.9014233,0.769385,0.6199807,0.8700447,-0.20993747,-0.48437035,-0.5197901,0.6023863,-0.9878225,0.11567667,-0.094762385,0.07004848,-0.9699805,0.5724796,0.5798312,-0.36917487,-0.54442525,-0.093109034,0.64589,0.59453356,-0.3716032,-0.34998122,-0.6921176,-0.022112293,-0.6485681,0.9066325,-0.15677246,0.1931237,0.3767763,0.5944991,-0.23198383,0.6121719,-0.61471355,0.533888,0.74264413,-0.2947073,0.4341241,-0.53240603,-0.5961881,-0.82689345,0.32944697,0.09266866,-0.258321,-0.14342561,-0.73071766,-0.25738388,0.9285942,-0.66877145,0.5828189,-0.22148967,0.8915321,0.60840905,-0.0065120943,0.4052239,0.59236115,0.18399757,0.90667415,-0.17306429,0.8620525,-0.014136026,-0.9201845,-0.3452802,0.24406414,0.63100845,0.9578906,0.23579906,-0.4125956,-0.8906281,0.46708393,0.38290977,0.36337334,0.5970005,-0.20585924,-0.34655562,-0.25554824,-0.8177507,0.40075237,0.584411,0.6663585,-0.07931654,0.48622325,-0.020307148,0.47096613,-0.83941555,0.7978659,0.36477762,0.057474162,-0.57078856,-0.98034894,0.62270665,-0.028752023,-0.16200748,-0.85999924,-0.886308,0.61191994,-0.87351966,0.28305086,0.30127296,0.764043,0.2851474,-0.502524,0.5069373,-0.44510028,-0.5137982,-0.8785312,-0.39199919,0.002103448,0.4737081,-0.19724071,0.5271005,0.67889607,0.6245115,-0.2870324,0.42985126,-0.7581369,0.12542659,0.8814417,-0.79037946,-0.12789787,0.5846035,-0.6213838,-0.103130855,0.12519905,-0.031879824,-0.48595133,0.9660449,0.9811968,-0.23319492,-0.24033682,0.6185932,0.0046222107,-0.54684466,0.48799938,-0.12229924,0.5594838,0.029146861,-0.74341506,0.23642907,0.54426444,0.15345782,-0.11109861,0.66579074,0.55883545,-0.4311053,-0.4418418,-0.29380426,-0.8855164,0.2811437,0.7970206,0.7275873,0.463704,-0.54723835,0.92073476,-0.1340271,0.13180204,0.6567135,-0.4940721,-0.6007328,-0.65595233,0.54482824,0.6811347,0.99223673,-0.9868395,-0.34012017,-0.5275096,-0.11591871,-0.1543592,0.55322653,0.5091928,-0.49298328,0.97396946,-0.22687608,-0.7899993,0.33879575,-0.57484293,-0.55929565,0.63094676,0.028698023,0.7076161,-0.123484306,-0.7055348,0.6276421,0.3078378],"34":[-0.740963,0.102853775,0.03633859,0.4870984,0.70714825,-0.099206015,-0.5314136,-0.06666595,-0.8231166,-0.24739249,0.5132009,-0.24529853,0.721842,-0.8584223,-0.6750309,0.7877566,0.5936175,0.70264006,-0.53761655,-0.9093478,0.122398645,-0.93306947,0.82818013,-0.144678,0.727285,-0.35695115,-0.26064074,0.27121544,0.78430235,0.43576282,0.6190312,0.14462012,-0.07980706,-0.7881091,0.67247695,-0.6458872,-0.43872064,0.9409428,-0.79935366,0.91185236,-0.61059475,-0.43808937,0.5140593,-0.7561689,-0.52161413,-0.6138268,0.87676096,-0.22633654,0.14151415,0.6334776,-0.7558916,-0.1234568,0.7640559,0.530968,-0.5543546,0.16560812,-1.0311235,-0.95092386,-0.65309936,0.43071103,-0.815125,-0.51816994,0.22666405,-1.0120229,-0.47275513,0.9252547,0.4493634,0.78426003,0.9116186,0.70684946,0.62632513,0.6159866,-0.38606966,0.30617058,0.5440189,0.22147866,-0.46429923,-0.07882266,0.00742371,-0.09341234,-0.29009816,0.086387,0.25667465,0.25848463,-0.07243684,-0.7417479,-0.31245297,-0.82744986,0.88220483,-0.15617527,-0.7456446,-0.68165845,0.68925613,-0.030080838,-0.9601857,0.9734979,0.7481861,0.61637735,-0.80224013,0.37700555,0.95506644,0.7481083,0.608961,-0.49451748,-0.61996454,0.052617162,0.6026916,0.16232826,0.5479691,-0.3513258,0.08132194,0.45263,-0.039146937,0.75754344,-0.37538296,0.56157404,-0.35017422,0.89276505,0.4333288,-0.9395658,-0.9048621,-0.29235837,-0.08850848,0.63355935,-0.59295464,0.8885781,-0.89933753,-0.7201891,0.89594734,0.047728904,0.4797842,-0.1335908,-0.46340537,0.78119254,-0.54669213,-0.79705215,0.32810676,-0.23773658,-0.15923096,-0.5616147,-0.7734082,0.81671953,0.79188937,-0.9057829,-0.5011678,0.20877954,0.004110521,-0.72551185,0.54553854,0.3865015,-0.1705629,-0.76901525,0.7465149,-0.4800101,-0.695765,0.23803425,-0.4629362,-0.6298042,-0.049192384,-0.49586707,-0.7074036,-0.8282021,-0.0396928,-0.66068137,-0.6081479,-0.5530468,0.967046,-0.8896492,-0.1446827,-0.022428768,0.8834973,-0.18330212,-0.8075573,0.9127899,-0.5817464,0.3554834,0.11339578,0.15070122,-0.10858387,0.207095,-0.83999425,0.013372465,0.118077874,-0.43430248,0.2294704,0.516292,0.93227684,0.50200075,0.57206947,0.92092836,-0.12625588,-0.15705624,0.9871152,0.4647945,-0.2604612,-0.30386066,-0.4163777,-0.23552161,0.788495,-0.8774869],"35":[0.22534958,0.74923927,0.12072723,-0.41070312,0.6996937,-0.99975026,0.47069016,-0.20970526,0.23645881,1.0137787,0.1712795,-0.40375888,-0.113813244,0.9164563,-0.083135135,0.51640916,0.6840955,-0.38755068,-0.3356707,0.28806,0.7611543,-0.011901443,-0.80226314,0.40801182,0.60437703,0.43817,-0.80616254,-0.39224696,-0.91988444,0.069108546,1.02482,-0.18031672,0.1628495,0.3694123,0.5561373,0.12806395,0.00447202,0.2179405,0.46685526,0.8317366,0.19485553,0.42867926,-0.25576758,0.63813066,0.74323934,-0.8463205,0.88007665,-0.32071322,0.36078596,-0.89488894,0.990719,0.5670223,-0.48405483,0.7591913,-0.72383726,0.34486723,1.0631971,-0.86058074,0.37414792,0.20985168,-0.0036133528,0.08729423,0.67973375,-0.88930565,0.6237008,0.27389872,0.22792903,0.10525005,-1.0783168,-0.19498794,0.72471106,0.058339603,0.52343726,0.046100896,-0.6696453,-0.88478357,0.9465341,-0.06723523,-0.50121486,-0.9647754,0.018621141,0.16732219,-0.025212187,-0.028519053,0.66656727,-0.9072947,-0.7116403,0.8768057,-0.8306625,0.9595717,-0.52757436,-0.2407821,0.85582787,0.74966806,0.91473234,0.85947365,-0.08554314,-0.13535604,-0.07725257,0.28207016,-0.7896399,0.5785864,-0.05936467,0.47932896,0.6191056,-0.41868344,0.18263283,-0.5614007,0.012318641,-0.81874824,0.16113837,0.4142088,-0.24718298,-0.18635216,0.58631873,0.8339606,-0.112591095,1.0242455,0.97441465,0.7997458,-0.66291606,1.0151193,-0.47479385,-0.5851368,0.33577523,-0.8084103,0.31195056,0.5682657,0.38748392,0.70029867,0.11464207,0.31096447,0.47355363,0.30711073,-0.36665243,0.45630762,0.4039574,0.9665024,0.2608863,-0.11822666,-0.46332562,0.51254827,-0.52427953,-0.30747285,0.1404495,-0.6410177,-0.005370247,-0.9144249,0.40042803,0.27199626,0.65526515,0.4891923,-0.6775977,-0.38798967,0.12575321,0.8605371,0.3430279,0.44861776,-0.5673942,0.618543,0.076519184,0.6186411,0.6656037,-0.099403374,-0.2919577,0.72145414,0.4044364,-0.15498924,0.4637926,-0.049604427,-0.8976674,-0.25009695,0.30201516,-0.36726406,0.013904991,-0.46531075,-0.51068336,-0.5309701,-0.6806875,-0.6315579,0.55333257,-0.7421357,0.7863518,-0.6664533,-0.7888586,0.027065173,0.60020727,0.6131515,0.049178183,-0.098526254,0.8706902,-0.28413638,0.73400694,0.835606,0.76556313,0.077992946,0.20572495,-0.37062067,0.057262633,-0.13940065],"36":[0.46254647,0.97299147,-0.1852403,-0.9847768,-0.61549354,-0.32002026,-0.29181844,0.40460223,-0.07036257,-0.36315277,-0.068952,0.36449537,-0.82745004,-0.4986421,-0.68451685,0.69152075,-0.62912613,0.39565885,0.6573859,0.9625922,0.24379607,0.6150751,0.54059976,-0.70132816,0.17471795,-0.8783359,-0.37858346,-0.12109912,-0.372919,-0.2947056,-0.02536929,0.4501927,-0.052816924,0.2375116,-0.67708737,0.3382492,0.27653685,0.6039107,0.97394407,-0.12981805,-0.5561275,0.5158898,0.223367,-0.7861143,-0.59154403,0.83567214,0.0728551,0.9057402,0.7625495,-0.71682054,-0.8286388,-0.37845427,-0.49878404,-0.03345386,0.9148531,-0.38886553,0.037304394,-0.64951926,0.571443,-0.39074445,-0.34817263,0.65477324,0.5133679,-0.2680262,-0.72102684,0.3723046,-0.27482444,0.49455398,-0.16617163,-0.66641307,0.25692666,0.91948843,-0.06558203,-0.39338735,0.41735473,0.7764321,0.23570578,-0.7721592,0.49124748,-0.92289364,-0.5593927,0.53906703,-0.55096114,0.31133,0.26181862,-0.035515886,-0.25376213,-0.59431726,-0.93126714,0.4401769,0.90484816,0.92408085,-0.19545396,-0.37872452,-0.3853524,-0.6977484,-0.5313918,-1.0203404,-0.09509866,0.25623682,0.53294605,0.15154503,0.14547083,-0.34058854,-0.47412005,-0.45879567,0.8869139,0.6988768,-0.24472369,-0.55686665,0.7117906,-0.9755241,-0.8953656,-0.043714397,-0.099719375,-0.17368494,-0.9733178,0.65796536,-0.85884947,-0.59074056,-0.24716231,-0.9293011,0.8513979,-0.8258354,-0.91519445,0.8109128,-0.8784632,0.7005148,-0.815774,-0.8734937,-0.4767513,-0.3590122,-0.31673273,0.2125014,0.88548815,0.8911167,-0.79633564,0.5342574,-0.85333633,-0.50463283,-0.9199442,0.13120705,-0.5372948,0.7015479,-0.12199667,-0.84224635,-0.06482756,-0.87879825,0.06204525,-0.2411127,0.66439396,0.9718868,0.18217082,-0.6781073,0.06966134,-0.67235667,-0.3992697,0.6368315,-0.76204884,0.120254286,0.55984634,-0.64593786,-0.89119136,-0.9393925,0.07570203,0.13300025,0.35371432,0.5801123,-0.6111743,-0.4556411,0.8592621,-0.15358546,0.8049126,-0.7795483,-0.6165397,-0.81485796,0.6229239,0.78972083,0.3624119,-0.20478892,0.12382137,-0.8448083,-0.3053465,0.4864449,-0.80993354,0.060814656,0.8630904,0.671748,-0.6758637,0.4380526,0.279587,0.04242296,0.45223898,-0.26880395,0.9838759,0.8807075,0.91256565,0.53526604,-0.65630406,0.48118764],"37":[-0.3759824,0.4272786,0.055876832,0.8513853,0.520891,-0.14809489,-0.41700646,-0.91838413,-0.7751831,-0.5636384,-0.80541414,0.55466825,-0.08794848,0.5008923,-0.9270667,-0.4526075,0.08177512,0.65055436,-0.906585,0.5769268,0.08137142,0.2596677,-0.2752107,-0.57956845,-0.7880492,-0.53238165,-0.094522774,-0.48008403,-0.2642838,0.7779467,0.70352757,-0.17750722,0.105778135,0.836617,0.10102639,0.3403092,0.99463075,-0.704616,-0.18336909,0.2659547,0.82627475,-0.095874965,-0.22201675,0.49937707,0.059368793,0.92779326,0.15549424,0.024243625,0.12125185,-0.6638376,0.7287255,-0.41079795,0.9809877,-0.58712673,0.08841133,0.264353,0.4835871,0.6416964,-0.71681404,-0.59041065,0.61996996,-0.30962,-0.763502,-0.78990155,-0.5963257,-0.45907307,-0.9599608,0.66846,0.12278425,0.47888148,-0.32069823,0.7413308,0.64794,-0.41443342,0.018158518,-0.101314165,-0.9551085,-1.0067737,-0.6323238,0.12492669,0.31773755,-0.78101045,0.46347547,0.61748916,0.63835835,-0.027804071,-0.44671318,-0.15931472,0.73139024,-0.5527112,0.82292414,0.40526515,0.27016354,-0.33036447,0.8359827,0.5640081,-0.3124291,0.2022675,-0.27560425,0.0777985,0.8237558,0.028928872,0.8277233,0.60019183,0.3488077,0.49267527,0.7860647,-0.85051405,0.34812087,-0.21301158,-0.4786931,0.42151362,-0.35023454,0.679865,0.5779184,0.6522797,-0.30528796,0.62713534,0.32337928,-0.12530199,-0.021101993,-0.30028915,-0.60218734,-0.33832693,0.71169454,0.38225034,0.10106151,0.9466448,0.03783988,0.9595863,0.7770792,0.23662288,-0.14298916,0.6989339,0.88468695,0.5285339,0.29762885,-0.5786846,0.98614174,0.37589443,-0.91975194,0.58277524,0.61488295,0.8063173,0.17653859,0.18012738,-0.86031365,0.7723205,0.9034139,-0.19998237,-0.8524089,0.18990625,-0.42807722,-0.7552168,-0.29480097,-0.33491656,0.2217232,0.7482951,0.0335439,-0.6141121,-0.6546024,-0.5057111,-0.38856187,0.106971584,-0.33628058,-0.8823247,0.14427768,-0.035936933,-0.56960714,-0.96877867,-0.42179078,-0.8536646,-0.35688215,0.9164795,0.5194093,0.5667645,0.090821445,-0.35095584,-0.98259765,0.2388274,-0.9458976,0.4674546,-0.1325834,0.021348367,-0.89515287,-0.5162496,-0.07052674,-0.81867534,0.6113268,-0.487018,-0.6269162,-0.77371037,-0.3699412,-0.5251736,-0.6285743,-0.87900597,0.2602067,0.21634802,0.058201008,0.42935464],"38":[0.3697749,-0.7830234,-0.061083604,-0.5715146,-0.39478165,-0.60166657,0.8922398,0.8911288,0.7636574,0.6384624,0.6347301,0.7150139,0.5166033,-1.0341136,-0.019255606,-0.7610728,-0.046131946,0.86867374,-0.7968865,-0.4095291,-0.010484742,0.96278226,-0.09658703,0.372321,-0.85525805,-0.8001653,0.72843844,-0.4547415,-0.98066294,-0.20117985,0.40085086,-0.6938015,-0.32836282,0.9250573,-0.7369946,0.46584594,0.07510602,0.06602517,0.23429254,-0.30223072,0.06571156,0.38133642,0.90741116,0.1159613,-0.8864478,0.7232562,0.22712775,-0.610802,0.3425836,-0.45766902,0.37706158,0.75035626,0.211483,-0.87156135,-0.38210958,0.30331036,0.01733208,-0.41702133,0.35987902,-0.7467948,0.016724495,-0.664464,-0.41067487,0.17396745,-0.26018777,0.11328772,0.25326085,-0.72606987,-0.45090544,0.14450864,0.56140924,-0.5175499,0.2471923,0.4576155,-0.31681988,0.11063055,0.7615221,-0.19718693,0.775426,-0.88081205,0.9772033,0.75517774,-0.9520863,-0.29362705,0.9920712,0.17820635,-0.6617852,-0.80738354,0.73503876,-0.650894,-0.92859447,0.75559694,-0.13887206,-0.35410136,0.92153186,0.43971545,0.87739515,-0.32975107,-0.8349186,0.07680008,-0.9426388,0.18305676,-0.34843758,-0.8507763,0.2466486,-0.25217903,0.48916292,0.22768065,0.06899921,-0.72918296,-0.5044109,-0.98661953,0.1256031,-0.12501994,0.33933318,1.0309308,-0.7131269,-0.9357673,0.37373635,0.84293115,0.745579,-0.0063790437,-0.78715295,0.1473519,0.0033133957,0.7045775,0.5196439,0.22130927,-0.0006483776,-0.3522956,0.3829545,1.0437135,-0.6657574,0.40448502,-0.90578526,-0.16471423,-0.028153086,0.3463171,0.52975774,-0.04563751,-0.10404363,0.0037669353,0.6726057,-0.7833142,-0.54902905,-0.7651961,-0.65078247,0.1879017,-0.48153836,0.21665254,0.3712231,0.5413869,0.09601403,0.92977613,-0.7665112,0.061045114,-0.5016263,-0.41012713,0.9842294,-0.16694538,-0.8465602,0.02946601,-0.16576515,0.99329114,-0.3100155,-0.3478921,0.09342676,0.69004565,0.15940513,-0.7983545,-0.886136,0.6156418,0.9323634,-0.31763583,0.10176454,-0.7935768,0.14124294,0.6391301,0.24502678,-0.21722262,-0.70115477,-0.5970841,-0.8856032,0.7924584,-0.5293152,1.0125897,-0.110983886,0.42306784,0.9408983,0.8983459,0.4489872,-0.8052069,0.49938563,0.37544286,0.9763472,0.5398717,0.03750249,0.20977327,-0.54111546,0.94149005],"39":[-0.43833697,-0.9366189,0.7392994,0.07400461,0.44574657,0.61034995,-0.18874465,-0.005852991,-0.013377727,-0.22310269,-0.8903038,-0.89846665,-0.22598383,0.39751878,0.5585257,-0.7145157,0.63207316,0.8869957,-0.739231,-0.3193035,-0.75460273,0.71930516,-0.671946,-0.48765406,-0.017269727,-0.95737714,-0.47615346,0.5504362,-0.6233672,-0.22830114,0.332992,0.8221868,0.3563311,0.031152403,-0.5020335,0.09862268,0.741661,0.052544054,-0.1242761,-0.39482588,0.04362914,-0.7332181,0.1767345,-0.18500848,1.0555595,-0.5987284,-0.8386401,0.7139578,-0.7164103,-0.37034893,0.47652256,0.22140267,0.10442158,-0.36842194,0.032085888,0.058937952,0.40437883,-0.58347154,0.08240264,-0.35323262,0.71108377,-0.5172207,0.60975736,0.12897792,-0.5292391,0.0079403445,-0.8764675,-0.045820247,-0.6153721,-0.45764697,-0.29559234,1.0479293,-0.32718572,-0.43762136,-0.1286115,0.5903301,0.12221417,-0.9247071,0.363647,0.44906762,0.46461955,-0.30992797,0.24501336,0.092855856,-0.4658733,0.24311975,0.93668497,-0.19245943,-0.46066636,0.18340588,-0.12943102,0.016709918,-0.2630072,-0.72327864,-0.40192887,0.73626137,-0.96477044,-0.15084554,0.41269845,-0.35348785,0.5555443,-0.45819715,0.1624776,-0.9830446,-0.8082883,-0.34258962,0.7748446,0.7618564,-0.92158824,-1.0794111,0.0771349,0.052821636,-0.85981464,0.011798124,0.050654057,-0.13665172,0.46884564,0.77249193,-0.5263512,-0.20543164,-0.08484106,-0.10002709,0.6113562,-0.07093177,0.51177824,-0.24293666,0.06484128,0.8211563,0.036653295,-0.8310928,0.009991707,0.5413054,0.20181687,-0.36867136,-0.67151946,-0.3821553,0.90067625,0.62797296,0.10838529,0.33091265,0.594419,0.39015567,-0.065361336,-0.6899595,-1.0391036,-0.7126222,0.7617344,-0.23660368,0.76858747,-0.597036,0.18980832,-0.21622425,0.046964426,0.8962741,-0.5732415,0.27226785,0.8806988,-0.9301226,-0.882471,-0.7925792,0.2475385,-0.24040318,0.21653165,0.48722547,0.3964336,0.79615176,0.6446109,0.6675008,-0.2138918,0.118518166,-0.95655787,-0.93504775,-0.07884776,0.20044063,0.2767096,-0.89050853,0.030085063,-0.21876334,-0.92306453,-1.0147159,-0.5089235,0.053699672,-0.20577808,0.9225632,0.05647153,-0.30041748,0.027101597,-0.9495115,0.20345953,-0.4919728,0.3594544,0.99329334,-0.23368323,0.1292083,-0.5869685,0.37992722,0.3549169,-0.110465914,0.55855286,0.9897499],"40":[0.3166979,0.44474044,-0.036092576,0.9459699,0.27128685,0.6260724,-0.043049734,0.2910908,-0.8245372,-0.7353479,0.23805508,0.16930093,0.810105,0.7970573,0.65083605,-0.3193819,0.9353004,-0.7700572,0.55822796,0.4987356,0.41671285,0.48619637,0.9465196,-0.92307585,0.1804022,-0.52746475,0.0010313082,0.22054388,0.708503,-0.9205399,0.9858486,-0.15757029,-0.539505,0.17821747,0.0046257945,0.9212385,-0.895156,0.67822605,-0.5014661,0.44451877,0.3498085,-0.91773164,0.22360134,0.45667672,0.14850183,-0.42320704,-0.5839958,-0.85317034,0.81997573,-0.071468934,-0.70433706,-0.5102373,0.7395263,0.00054410985,0.037694827,-0.54863983,-0.22121896,-0.2089407,-0.27086475,0.22763176,-0.24032643,-0.60438883,0.22794253,1.0163394,0.7111323,0.16377342,0.4159301,0.7086878,-0.25622094,-0.6674845,-0.41656637,-0.11464578,0.20062172,-0.2728234,-0.563115,-0.8630258,-0.14032687,-0.5443132,0.6762252,-0.869822,-0.29321325,0.02096563,0.9643918,-0.8299998,-0.04019353,0.8587824,0.12029239,-0.8127273,0.79731756,0.34675005,0.7985416,0.47224006,-0.21160817,-0.5485893,-0.654798,-0.1258604,-0.39503533,0.16388214,-0.3643366,0.20902626,0.17538503,0.657938,-0.8130168,-0.7583777,0.9301314,-0.72065103,0.8236481,0.49390632,-0.97743493,-0.07775142,-0.74020135,0.8362984,0.18112239,-0.3286599,-0.5311374,0.6027292,-0.55786115,0.062348735,-0.47733766,0.8073513,0.7089549,0.46001312,-0.22198837,1.0396138,0.24810898,0.2644032,0.34695208,1.0392292,-0.25325942,-0.25878885,-0.4009052,-0.57581836,0.08438586,-0.18431163,0.44263804,0.4744181,0.48352528,0.9229212,-0.5291115,-0.80168086,0.5319075,0.82487243,-0.48631802,0.85333645,0.6432822,0.94710624,0.9886685,-0.8286224,-0.555799,0.2957956,0.81772906,-0.57904553,-0.56774175,-0.50484115,0.7452832,-0.26821035,0.95348424,-0.55501455,-0.626583,0.5726499,0.52390295,-0.7706614,0.17842744,0.37140003,-0.1562743,0.95789653,0.2824475,0.5397732,-0.8401877,-0.91069967,0.43967763,0.13109387,0.2653861,0.107010506,0.8566728,0.93437284,-0.76011705,-0.20000546,0.30993232,-0.33418533,-0.0042301947,-0.31466162,-0.07528397,-0.041697286,-0.6136549,0.47035107,0.5783685,0.18980494,-0.12008187,0.8468801,-0.4690179,0.09845716,-0.44441557,-0.6329753,0.91737473,-0.55270225,0.8860588,0.8474757,0.76023424,-0.7058894],"41":[-0.6665089,-0.2074779,0.28321165,0.6379901,-0.9784342,-0.88840175,0.64342993,0.40722704,0.34206918,-0.636101,0.20405899,1.0080557,0.7702115,0.29608607,0.67076606,0.94830364,-0.6970136,-0.8619805,-0.80005664,0.5304928,-0.102147795,-0.8005223,-0.37443173,-0.457837,-0.8465867,0.5220863,0.19076888,-0.94442576,-0.41643637,0.56527823,-0.6085047,0.29311496,-0.28681326,-0.2218568,-0.11845764,-0.3778541,0.53029865,-0.40584514,0.3410552,-0.09427078,0.4616458,0.76063126,-0.8444854,-0.95891356,-0.16580644,0.052960683,-0.62415165,0.32306343,-0.7769727,0.7097571,-0.027665026,-0.73844737,0.038760085,-0.5858216,0.08286847,0.6030533,0.55498123,0.46336663,0.29039833,-0.5827816,0.3411634,-0.75821555,-0.2352737,0.7862151,0.5658463,0.34623435,0.42998436,0.33170155,0.5787995,0.41349748,0.6762789,0.33771417,0.09616985,-0.7979129,0.55617505,0.7449053,0.879017,-0.007028828,0.019595988,-0.71784866,0.21025689,0.060335383,-0.41775432,0.36518058,0.1928993,0.54122806,0.26697636,-0.7253489,-0.4420785,1.0044752,0.49959067,0.8790018,0.4080883,-0.9181475,0.109407626,0.9244115,0.69010276,0.75816834,-0.9542802,-0.8890638,0.72076446,-0.43686303,0.44433552,-0.53716993,-0.034541626,-0.7778311,0.2860605,0.71886307,-0.21207461,-0.27120662,-0.15755443,0.6085152,0.46402562,-0.32573822,-0.5845184,0.7676976,-0.7617868,1.003788,-0.30610713,0.63465935,-0.8106135,-0.4658919,-0.1087724,-0.41459873,-0.3055538,0.041119695,0.06359156,1.0335224,0.086287916,-0.8555137,0.7031102,-0.42504954,-0.20409293,-0.6003467,0.9355572,-0.3371788,-0.57786494,-0.7897585,0.19244456,0.7909591,-0.6210431,0.16052991,-0.3845078,-0.24703442,0.5680456,-0.027104074,0.28033745,0.36291945,-0.45154533,-0.19540584,-0.8064142,-0.4990336,0.91612047,-0.9490769,0.05066087,0.5607815,-0.93636805,0.105698615,0.594651,-0.50296193,0.88935804,0.9163453,-0.6923535,-0.63383293,-0.18125269,0.26972112,0.1640389,-0.78913254,0.2967339,0.6459989,-0.6475711,-0.8119033,-0.6857935,-0.85190904,-0.8418901,-0.44170055,0.036636904,-0.33868954,0.09767738,-0.31641403,-0.25261554,-0.0334931,0.86927676,-0.8410769,-0.050819065,-0.85848653,0.009398501,-0.71666855,-0.057274014,-0.1416691,-0.81116915,0.10601589,0.86746454,0.46316555,0.400485,0.76055187,0.47855642,-0.31796375,-0.99214286,1.0109619],"42":[0.6942384,-0.65099186,-0.072882086,0.95111847,0.9790832,-0.58063966,0.23471178,0.28402904,0.56169546,-0.96464735,-0.9684594,-0.2935531,0.44026098,-0.83934325,-0.35021374,0.19380702,-0.48935154,-0.6079827,-0.9182556,-0.7662687,0.50148934,-0.41063896,-0.8060593,0.6126807,0.9599214,0.83866143,-0.17974965,0.8583706,-0.43274277,-0.046190314,-0.16621664,0.87791914,-0.26463893,0.061066594,0.92684066,-0.8495074,0.20906104,-0.040445108,0.76971,-0.46686876,0.5318706,0.084150985,-0.044876747,-0.3410511,0.77226484,0.23868185,-0.45499182,-0.057648435,-0.8611471,0.89761937,0.75754255,0.27929306,0.9731512,0.38391742,0.6615621,0.54567426,-0.15773255,0.8186869,-0.074416265,-0.3162724,-0.6993709,-0.79822016,-0.4815894,0.32479462,-0.9834464,-0.46141964,0.8893458,0.7275425,-0.77678204,-0.93568325,-0.6737259,0.06489491,0.60405487,0.8025236,-0.63037467,-0.22839302,-0.7145914,0.70174927,0.7364511,1.0024406,0.033073843,0.7839824,-0.1623774,0.42546833,0.63245815,0.038288713,0.50541437,-0.6395263,-0.33112323,-0.7966348,0.42595032,0.766313,-0.43058985,0.9381608,0.63607186,-0.68506515,-0.81870633,0.22863206,-0.06373832,0.73207754,-0.88838917,0.86197007,0.77008146,-0.56746334,-0.48835856,0.92064434,-0.41874066,-0.9467588,-0.1440761,0.70723236,-0.28435865,-0.9655944,-0.90361327,0.15358026,-0.18052338,-0.50076014,-0.4939588,-0.041256554,-0.30274782,-0.87032646,-0.6272884,-0.7972446,0.26348203,-0.48353204,0.886164,-0.1921725,-0.2586721,-0.7129816,-0.6389995,0.10515113,-0.22840585,-0.61494505,-0.2283042,-0.8725621,-0.19242267,0.23508514,0.9546022,0.049724266,-0.7037175,0.31334063,0.9385758,0.8508658,-0.8160918,-0.3401907,0.9003474,-0.58168966,-0.3110159,-0.40174133,-0.29206392,-0.58723485,-0.03452629,0.6614106,-0.23564905,-0.39963305,0.50204813,0.90558857,0.47481412,-0.5543906,0.8896702,-0.96424514,0.42965776,0.37121513,-0.39882976,-0.032271616,0.5355435,0.16818833,0.3690825,0.30613416,-0.7305592,-0.86500055,-0.14721644,0.50703573,0.5421544,0.35867602,0.19571103,0.9429707,0.66599417,0.073644325,-0.41180494,-0.07188282,-0.49986076,-0.7825852,0.70101625,-0.108938724,-0.08750419,0.8820572,-0.5399096,0.47153682,0.1559559,-0.5286478,0.2565817,-0.14249548,-0.95450187,-0.509011,0.55229986,0.30428836,-0.0044519342,-0.5836693,0.6377651,-0.71696794],"43":[0.18968809,-0.47598568,-0.43788862,-0.060526185,-0.47113854,0.6372487,-0.6652899,-0.23045516,-0.8926603,-0.87981015,-0.68316394,-0.27982074,-0.23859718,0.013796161,-0.1721856,-0.7496377,0.09284385,0.25452697,0.034369312,0.45853296,0.62832576,-0.7466754,-0.7693467,-0.63752145,0.48195827,-0.62590647,-0.71722436,-0.26672253,-0.75865,0.15355738,0.7176798,-0.17717741,-0.776687,-0.3366428,-0.4465644,0.44257012,-0.5789434,-0.86126995,-0.4612613,-0.43441585,0.74820864,0.94580996,-0.56973404,0.7572164,-0.4285815,-0.43971968,0.7136627,-0.6703295,-0.08637563,-0.838928,0.5878573,-0.5465724,-0.23919137,-0.34629127,-0.1590427,0.16676669,0.4924485,0.413172,-0.014093242,0.3929985,-0.7375814,0.8066937,-0.44864893,0.551098,-0.62655354,0.5618159,-0.92509216,-0.054306302,0.773876,0.059938837,-0.61306226,-0.075122416,-0.67539686,-0.6844828,0.9771206,-0.7068308,0.15526336,0.072424285,0.95306313,0.42525724,0.4534952,0.60593045,-0.76225203,0.1147138,0.25243488,-0.32292518,-0.9098382,-0.7276639,0.08632006,-0.43342456,0.35748562,-0.5997555,0.09153757,-0.6170352,-0.03602641,0.35290274,-0.12166365,-0.7283971,0.57467747,0.34434295,-0.28370652,-0.6472451,0.29818752,0.13478649,-0.39193016,0.9649344,1.0001023,0.76403517,-0.35341835,-0.81437814,0.54872864,0.19259669,-0.49692032,0.107695214,0.56037515,0.25791505,0.9248896,0.55363154,0.26110902,0.0798528,0.5120946,-0.11505117,-0.3910291,-0.44080147,-0.9639121,-0.004538206,-0.9235388,-0.39751047,0.4624777,0.7839228,0.747294,-0.45117465,-0.9451982,-0.85135424,0.4381841,0.32382697,0.7934694,0.89337254,-0.45384043,0.14429331,0.4093544,0.96811944,-0.17491321,-0.685137,-0.9835815,-0.6319586,0.16691439,0.6811479,0.4792261,0.9796912,-0.5686652,0.87878096,0.8045319,0.6926882,0.7060275,-0.8260339,-0.8953191,-0.0060071107,-0.5399192,-0.93959814,0.51805574,-0.8115386,0.41699424,-0.55688757,-0.8410666,1.1185937,-0.8583028,-0.7316947,0.5140533,-0.5971464,0.4076708,0.9535359,0.89726627,0.34976232,0.16639768,-0.49196818,0.8982413,-0.17449594,-0.9441508,0.80235267,0.15343258,0.104833014,-0.022359187,-0.95767325,-0.68931,-0.543546,-0.8417642,1.0295426,0.5814552,0.47271398,0.6917503,0.4378895,0.9685301,0.549282,0.9342156,-0.6075619,0.8093877,0.90298885,-0.78649694,-0.6851158],"44":[-0.13983354,-0.27611765,0.6825257,-0.99667364,-0.6782816,0.07038211,-0.19399211,-0.56599736,0.56654054,0.7656971,0.32806566,-0.04204759,-0.7626891,0.71335906,-0.46117488,0.25923285,0.15429127,0.098172635,0.24916847,0.6284312,0.5568192,-0.5370376,0.018377814,0.70817727,0.09496096,0.13827068,0.10976522,0.15091075,-0.35338357,0.6658285,-0.46449664,-0.90773004,0.2634054,0.7024279,0.17857279,-0.33094394,-0.8723898,-0.33457357,0.18057798,-0.5198818,-0.8510989,-0.35595933,0.67536795,-0.74582356,0.64185023,-0.933718,-0.5185331,-0.828462,-0.07560243,-0.057319842,0.72119737,-0.64539623,-0.25067493,0.48050335,-0.57340646,0.14740728,0.57270455,0.37647805,-0.4249786,0.74603206,-0.42939737,0.0661488,0.54861295,0.94151276,0.0075557847,-0.29212928,-0.5221092,0.6517524,-0.46052954,-0.7342372,0.024560044,0.6477617,0.73800695,-0.021877322,-0.38376063,-0.32959244,0.46981785,-0.9992505,-0.6715864,-0.46890724,0.7483922,-0.65700364,-0.6272724,-0.708851,-0.06570671,0.4405969,0.6956957,-0.6075927,-0.90091723,0.09814769,-0.20707133,0.25811177,-0.671071,-0.9077142,-0.33787256,0.69012654,-0.9216955,-0.05409551,-0.55327076,0.20614511,0.091350354,-0.69567406,-0.14645769,0.7207919,0.9849231,0.14081973,-0.29462367,-0.5520427,0.24499463,-0.30452967,0.60008496,-0.80962765,-0.0027696881,-0.73629,-0.6226516,-0.5850113,0.45071697,-0.960674,0.63157815,-0.080718204,-0.2522656,0.9393194,-0.9103696,-0.3419466,0.21880613,0.40711987,0.085153334,-0.62022734,0.03643642,0.59025365,0.92107725,-0.77314484,-0.15055193,-0.3206995,-0.6579799,-0.9987672,-0.45241353,-0.8651534,0.5559474,0.9128952,-0.8596193,-0.31100234,0.54700273,0.338516,-0.6394535,0.32244176,0.61691016,